<?xml version="1.0"?>
<opencv_storage>
<cascade>
  <stageType>BOOST</stageType>
  <featureType>LBP</featureType>
  <height>20</height>
  <width>20</width>
  <stageParams>
    <boostType>GAB</boostType>
    <minHitRate>9.9900001287460327e-01</minHitRate>
    <maxFalseAlarm>5.0000000000000000e-01</maxFalseAlarm>
    <weightTrimRate>9.4999999999999996e-01</weightTrimRate>
    <maxDepth>1</maxDepth>
    <maxWeakCount>100</maxWeakCount></stageParams>
  <featureParams>
    <maxCatCount>256</maxCatCount>
    <featSize>1</featSize></featureParams>
  <stageNum>15</stageNum>
  <stages>
    <!-- stage 0 -->
    <_>
      <maxWeakCount>3</maxWeakCount>
      <stageThreshold>-1.0795987844467163e+00</stageThreshold>
      <weakClassifiers>
        <_>
          <internalNodes>
            0 -1 3 -6291457 -8388609 -239340038 -798233 -274989313
            -67372847 -22029313 -4357</internalNodes>
          <leafValues>
            -9.6276181936264038e-01 9.1340208053588867e-01</leafValues></_>
        <_>
          <internalNodes>
            0 -1 13 -1477455889 -538657 -713590273 -264237 -320222209
            -41313 -88346689 -65</internalNodes>
          <leafValues>
            -9.5948928594589233e-01 8.4075886011123657e-01</leafValues></_>
        <_>
          <internalNodes>
            0 -1 30 -1 -737 -1115824177 -533093 -1079338113 -4609
            -20579484 -786505</internalNodes>
          <leafValues>
            -9.5523220300674438e-01 8.4265232086181641e-01</leafValues></_></weakClassifiers></_>
    <!-- stage 1 -->
    <_>
      <maxWeakCount>3</maxWeakCount>
      <stageThreshold>-1.1887451410293579e+00</stageThreshold>
      <weakClassifiers>
        <_>
          <internalNodes>
            0 -1 2 -671614977 -543723681 -265230 -79691813 -1181818881
            -639132193 -262145 -17</internalNodes>
          <leafValues>
            -9.5734596252441406e-01 8.1496065855026245e-01</leafValues></_>
        <_>
          <internalNodes>
            0 -1 14 -1 -892436498 -249825829 -352332049 -1048657
            -890260295 -2364993 -1049601</internalNodes>
          <leafValues>
            -9.5457708835601807e-01 6.7575258016586304e-01</leafValues></_>
        <_>
          <internalNodes>
            0 -1 4 -311623681 -8016577 -142608385 -787569 167755231
            -306452227 1610609599 -4456513</internalNodes>
          <leafValues>
            -9.0715175867080688e-01 7.4524974822998047e-01</leafValues></_></weakClassifiers></_>
    <!-- stage 2 -->
    <_>
      <maxWeakCount>3</maxWeakCount>
      <stageThreshold>-1.2017563581466675e+00</stageThreshold>
      <weakClassifiers>
        <_>
          <internalNodes>
            0 -1 9 -775954945 -46589645 1406652910 -648028193 -339215617
            -1079033703 -87041025 -72623121</internalNodes>
          <leafValues>
            -9.4850498437881470e-01 6.0350877046585083e-01</leafValues></_>
        <_>
          <internalNodes>
            0 -1 27 -8390689 -78144809 -569289505 -72492321 -107222017
            -660723477 -71707681 -655609</internalNodes>
          <leafValues>
            -9.0427255630493164e-01 6.7663198709487915e-01</leafValues></_>
        <_>
          <internalNodes>
            0 -1 25 -207 -43786473 -624043553 -76179089 -1433863425
            -5601053 -930367249 -6304113</internalNodes>
          <leafValues>
            -8.9416360855102539e-01 6.5102124214172363e-01</leafValues></_></weakClassifiers></_>
    <!-- stage 3 -->
    <_>
      <maxWeakCount>3</maxWeakCount>
      <stageThreshold>-1.2266682386398315e+00</stageThreshold>
      <weakClassifiers>
        <_>
          <internalNodes>
            0 -1 37 -33 -647241553 -584714345 -610413617 -83895713
            -1079250689 -6291597 -12</internalNodes>
          <leafValues>
            -9.3575656414031982e-01 5.2284264564514160e-01</leafValues></_>
        <_>
          <internalNodes>
            0 -1 26 -135135241 -102239410 -337258017 -908990651
            -341055041 -271064609 -342942721 -524545</internalNodes>
          <leafValues>
            -8.5924297571182251e-01 6.9591230154037476e-01</leafValues></_>
        <_>
          <internalNodes>
            0 -1 7 -2097410 -136712042 -1541538347 -545521765
            -1062613553 -81018673 -930877201 -335545857</internalNodes>
          <leafValues>
            -9.9614775180816650e-01 5.6833124160766602e-01</leafValues></_></weakClassifiers></_>
    <!-- stage 4 -->
    <_>
      <maxWeakCount>3</maxWeakCount>
      <stageThreshold>-1.3711212873458862e+00</stageThreshold>
      <weakClassifiers>
        <_>
          <internalNodes>
            0 -1 28 -203460097 -77631041 -1122774705 -542765 -1718636097
            -205831749 -72353457 -672937</internalNodes>
          <leafValues>
            -9.3975901603698730e-01 4.8039215803146362e-01</leafValues></_>
        <_>
          <internalNodes>
            0 -1 21 -1119674385 -208449251 1578352640 -16935937
            -1868516709 -1171578664 -22956555 -17921</internalNodes>
          <leafValues>
            -9.3738430738449097e-01 4.9691304564476013e-01</leafValues></_>
        <_>
          <internalNodes>
            0 -1 0 -283902061 -15076011 -11421927 -9988351 801374105
            -285142246 386398121 2133062411</internalNodes>
          <leafValues>
            -9.2827534675598145e-01 5.4071760177612305e-01</leafValues></_></weakClassifiers></_>
    <!-- stage 5 -->
    <_>
      <maxWeakCount>3</maxWeakCount>
      <stageThreshold>-1.1610424518585205e+00</stageThreshold>
      <weakClassifiers>
        <_>
          <internalNodes>
            0 -1 26 -134875173 -818409 -738912097 -8930985 -360727873
            1211873967 -72641825 -1592457</internalNodes>
          <leafValues>
            -9.0131580829620361e-01 5.3405016660690308e-01</leafValues></_>
        <_>
          <internalNodes>
            0 -1 41 -744524801 -644087654 -535174976 -775245376
            -1313892305 -1427988401 -1077244997 -1122839</internalNodes>
          <leafValues>
            -7.7498120069503784e-01 7.1875661611557007e-01</leafValues></_>
        <_>
          <internalNodes>
            0 -1 43 -75502593 -519339493 8459011 -498079293 -93708465
            -1607761790 -74811545 -67175584</internalNodes>
          <leafValues>
            -9.2011141777038574e-01 5.6008303165435791e-01</leafValues></_></weakClassifiers></_>
    <!-- stage 6 -->
    <_>
      <maxWeakCount>3</maxWeakCount>
      <stageThreshold>-1.2219934463500977e+00</stageThreshold>
      <weakClassifiers>
        <_>
          <internalNodes>
            0 -1 24 -181980161 -2129427681 -74245121 -548897 -1346405393
            -1606743825 -279729 -1721353</internalNodes>
          <leafValues>
            -8.9704638719558716e-01 4.4991511106491089e-01</leafValues></_>
        <_>
          <internalNodes>
            0 -1 45 -67110025 1968691287 -725162505 -462960385
            -976778513 -477265204 -52434177 -214776993</internalNodes>
          <leafValues>
            -8.1916093826293945e-01 5.4516083002090454e-01</leafValues></_>
        <_>
          <internalNodes>
            0 -1 34 -202119169 -40775613 -989785057 -70301329 -494271921
            -133242742 -628553113 -404769693</internalNodes>
          <leafValues>
            -8.5274755954742432e-01 5.2635449171066284e-01</leafValues></_></weakClassifiers></_>
    <!-- stage 7 -->
    <_>
      <maxWeakCount>4</maxWeakCount>
      <stageThreshold>-2.0269811153411865e+00</stageThreshold>
      <weakClassifiers>
        <_>
          <internalNodes>
            0 -1 12 -406323369 -143003213 -45010635 -49219621 -912199309
            -171966414 -913001495 -6295352</internalNodes>
          <leafValues>
            -9.1311609745025635e-01 5.1126515865325928e-01</leafValues></_>
        <_>
          <internalNodes>
            0 -1 33 319263231 -1019526085 1192203263 1072927375
            -1467235332 -1148544337 -1346651139 -1769611</internalNodes>
          <leafValues>
            -9.3257629871368408e-01 5.0535190105438232e-01</leafValues></_>
        <_>
          <internalNodes>
            0 -1 8 -1454648361 -14708357 -150865987 -543729325
            -1880427585 -276118853 -984234539 -810826251</internalNodes>
          <leafValues>
            -7.6410150527954102e-01 7.0784002542495728e-01</leafValues></_>
        <_>
          <internalNodes>
            0 -1 36 -111412741 -1144272485 1897779599 -25903 -1282679073
            -74743301 -607560769 -9147849</internalNodes>
          <leafValues>
            -9.2006212472915649e-01 5.8281278610229492e-01</leafValues></_></weakClassifiers></_>
    <!-- stage 8 -->
    <_>
      <maxWeakCount>3</maxWeakCount>
      <stageThreshold>-1.2574932575225830e+00</stageThreshold>
      <weakClassifiers>
        <_>
          <internalNodes>
            0 -1 11 897146365 2105104535 -712957953 -140701351
            1923775743 2059110651 990317032 -294662</internalNodes>
          <leafValues>
            -8.0689656734466553e-01 5.4370999336242676e-01</leafValues></_>
        <_>
          <internalNodes>
            0 -1 18 -15470081 -355057341 320442611 -287381397
            -1291677293 -1743126398 -610223985 -27905</internalNodes>
          <leafValues>
            -8.5665512084960938e-01 5.3851628303527832e-01</leafValues></_>
        <_>
          <internalNodes>
            0 -1 20 -570557121 -1625432675 -705572361 -680147559
            -924524801 -2068135751 -842880773 1044355211</internalNodes>
          <leafValues>
            -9.4454818964004517e-01 4.5731282234191895e-01</leafValues></_></weakClassifiers></_>
    <!-- stage 9 -->
    <_>
      <maxWeakCount>3</maxWeakCount>
      <stageThreshold>-1.2269097566604614e+00</stageThreshold>
      <weakClassifiers>
        <_>
          <internalNodes>
            0 -1 15 -169904769 -2475777 1392582015 -138790438 -619744385
            -95592402 -1656513569 -6308881</internalNodes>
          <leafValues>
            -7.9588729143142700e-01 5.3579175472259521e-01</leafValues></_>
        <_>
          <internalNodes>
            0 -1 40 -3677313 -1769942817 1331149311 -203451811
            -1885374081 -358633334 -1073774732 -2604</internalNodes>
          <leafValues>
            -9.2372888326644897e-01 4.2324855923652649e-01</leafValues></_>
        <_>
          <internalNodes>
            0 -1 47 -545783821 -337439813 1369305883 -319295021
            -108813095 -661880149 1904998943 218103791</internalNodes>
          <leafValues>
            -8.3897256851196289e-01 5.3931170701980591e-01</leafValues></_></weakClassifiers></_>
    <!-- stage 10 -->
    <_>
      <maxWeakCount>3</maxWeakCount>
      <stageThreshold>-1.2112627029418945e+00</stageThreshold>
      <weakClassifiers>
        <_>
          <internalNodes>
            0 -1 22 634918399 226046229 -1781409313 -543222371
            -1411896642 1054515386 -1725153539 -1065541</internalNodes>
          <leafValues>
            -8.1934452056884766e-01 4.3403440713882446e-01</leafValues></_>
        <_>
          <internalNodes>
            0 -1 35 -604414499 -1278471745 28547837 -543215393
            -342103305 -1947471733 -1146569804 -68449382</internalNodes>
          <leafValues>
            -8.6036568880081177e-01 4.7075733542442322e-01</leafValues></_>
        <_>
          <internalNodes>
            0 -1 6 -479864835 -237874827 -235286057 -210503311
            -878182429 -914341799 -907822149 -671097541</internalNodes>
          <leafValues>
            -7.8493136167526245e-01 5.3084647655487061e-01</leafValues></_></weakClassifiers></_>
    <!-- stage 11 -->
    <_>
      <maxWeakCount>5</maxWeakCount>
      <stageThreshold>-1.5296046733856201e+00</stageThreshold>
      <weakClassifiers>
        <_>
          <internalNodes>
            0 -1 41 -1193599233 -212680434 1360136402 -36024144
            -343170529 -1182226383 -777389317 -20483</internalNodes>
          <leafValues>
            -8.3609271049499512e-01 3.7455829977989197e-01</leafValues></_>
        <_>
          <internalNodes>
            0 -1 32 -639639761 1568261213 -1324034817 438836245
            -670508289 -1176993606 -1735882245 -1094039350</internalNodes>
          <leafValues>
            -8.4273123741149902e-01 4.6210944652557373e-01</leafValues></_>
        <_>
          <internalNodes>
            0 -1 44 266860543 -1884403763 -2104159297 -706954669
            228589053 251657135 -640811091 669514735</internalNodes>
          <leafValues>
            -8.1609988212585449e-01 4.9494114518165588e-01</leafValues></_>
        <_>
          <internalNodes>
            0 -1 10 -582285449 2144492509 987321341 -1145558657
            -91131276 2078082627 -620314650 -68814217</internalNodes>
          <leafValues>
            -6.9742387533187866e-01 6.1895686388015747e-01</leafValues></_>
        <_>
          <internalNodes>
            0 -1 39 282876057 -506738481 1351205069 -920681853
            -276064295 -2113765349 -1014912353 -307312629</internalNodes>
          <leafValues>
            -8.5894894599914551e-01 5.0714373588562012e-01</leafValues></_></weakClassifiers></_>
    <!-- stage 12 -->
    <_>
      <maxWeakCount>4</maxWeakCount>
      <stageThreshold>-7.6037883758544922e-01</stageThreshold>
      <weakClassifiers>
        <_>
          <internalNodes>
            0 -1 23 421493503 85657899 454163343 -68076553 -1089593669
            -1838636893 -1964004389 -272635721</internalNodes>
          <leafValues>
            -8.1511253118515015e-01 4.0754717588424683e-01</leafValues></_>
        <_>
          <internalNodes>
            0 -1 1 324393471 -102952551 457301503 -577138209 1803573563
            -22277970 193074163 -216657180</internalNodes>
          <leafValues>
            -7.6407378911972046e-01 5.3838962316513062e-01</leafValues></_>
        <_>
          <internalNodes>
            0 -1 17 -403187745 -1495672967 -150922871 -287211183
            1761796763 1103152257 -611719029 -5530465</internalNodes>
          <leafValues>
            -8.4631371498107910e-01 4.7312429547309875e-01</leafValues></_>
        <_>
          <internalNodes>
            0 -1 5 -778702501 -551850627 -1783561382 -34202029 932712319
            2068929351 -358016433 1795630007</internalNodes>
          <leafValues>
            -8.6000192165374756e-01 4.5712977647781372e-01</leafValues></_></weakClassifiers></_>
    <!-- stage 13 -->
    <_>
      <maxWeakCount>4</maxWeakCount>
      <stageThreshold>-1.7968859672546387e+00</stageThreshold>
      <weakClassifiers>
        <_>
          <internalNodes>
            0 -1 29 16851935 -2146435069 16875899 -2147376855
            -1150831618 -1707540421 -1140872353 -68174601</internalNodes>
          <leafValues>
            -7.8412699699401855e-01 3.6964979767799377e-01</leafValues></_>
        <_>
          <internalNodes>
            0 -1 19 295031758 -136113720 344021218 -228616739
            -2147445510 -6143781 -2086028872 -4200229</internalNodes>
          <leafValues>
            -8.4903687238693237e-01 4.1189894080162048e-01</leafValues></_>
        <_>
          <internalNodes>
            0 -1 42 -486321665 -648482666 92341663 -639659832
            -1198875845 -1286438773 -827600258 -72183104</internalNodes>
          <leafValues>
            -7.4261033535003662e-01 5.2118527889251709e-01</leafValues></_>
        <_>
          <internalNodes>
            0 -1 48 -161753973 1413689703 -788377070 1959184410
            -699925762 -897351535 -489751858 -487653382</internalNodes>
          <leafValues>
            -6.8490743637084961e-01 5.9922504425048828e-01</leafValues></_></weakClassifiers></_>
    <!-- stage 14 -->
    <_>
      <maxWeakCount>4</maxWeakCount>
      <stageThreshold>-1.1292223930358887e+00</stageThreshold>
      <weakClassifiers>
        <_>
          <internalNodes>
            0 -1 31 -1043737361 -1847688775 1230098685 -37814115
            -1451509233 -1150779345 -123801669 -13117389</internalNodes>
          <leafValues>
            -8.7969923019409180e-01 1.9436620175838470e-01</leafValues></_>
        <_>
          <internalNodes>
            0 -1 16 -424686737 -779021787 -754339791 -175046251
            -299633787 -284098543 -357070805 -873989737</internalNodes>
          <leafValues>
            -8.0421036481857300e-01 4.0819549560546875e-01</leafValues></_>
        <_>
          <internalNodes>
            0 -1 38 489405949 -1450202691 -1291679605 -1550850801
            -1441011139 -2004309375 -1429493063 649198127</internalNodes>
          <leafValues>
            -8.8726627826690674e-01 4.0210765600204468e-01</leafValues></_>
        <_>
          <internalNodes>
            0 -1 46 55829343 970666325 -784277485 -1853029999 1057307035
            -1907414635 -2142775097 74828187</internalNodes>
          <leafValues>
            -8.4451776742935181e-01 4.6111255884170532e-01</leafValues></_></weakClassifiers></_></stages>
  <features>
    <_>
      <rect>
        0 1 4 3</rect></_>
    <_>
      <rect>
        0 1 5 1</rect></_>
    <_>
      <rect>
        0 6 6 4</rect></_>
    <_>
      <rect>
        0 8 6 2</rect></_>
    <_>
      <rect>
        1 2 4 3</rect></_>
    <_>
      <rect>
        1 14 4 2</rect></_>
    <_>
      <rect>
        2 0 4 4</rect></_>
    <_>
      <rect>
        2 1 6 6</rect></_>
    <_>
      <rect>
        2 2 2 2</rect></_>
    <_>
      <rect>
        2 7 6 2</rect></_>
    <_>
      <rect>
        2 14 2 2</rect></_>
    <_>
      <rect>
        2 17 5 1</rect></_>
    <_>
      <rect>
        3 2 3 3</rect></_>
    <_>
      <rect>
        3 3 4 2</rect></_>
    <_>
      <rect>
        3 7 2 2</rect></_>
    <_>
      <rect>
        3 13 2 2</rect></_>
    <_>
      <rect>
        4 0 2 5</rect></_>
    <_>
      <rect>
        4 7 1 1</rect></_>
    <_>
      <rect>
        4 9 1 1</rect></_>
    <_>
      <rect>
        4 11 2 1</rect></_>
    <_>
      <rect>
        5 0 5 3</rect></_>
    <_>
      <rect>
        5 10 2 1</rect></_>
    <_>
      <rect>
        5 17 4 1</rect></_>
    <_>
      <rect>
        6 6 3 3</rect></_>
    <_>
      <rect>
        6 8 3 2</rect></_>
    <_>
      <rect>
        7 2 4 3</rect></_>
    <_>
      <rect>
        7 5 2 3</rect></_>
    <_>
      <rect>
        7 6 2 3</rect></_>
    <_>
      <rect>
        7 7 2 2</rect></_>
    <_>
      <rect>
        7 8 3 3</rect></_>
    <_>
      <rect>
        7 9 3 1</rect></_>
    <_>
      <rect>
        7 10 2 1</rect></_>
    <_>
      <rect>
        8 3 3 1</rect></_>
    <_>
      <rect>
        8 6 2 4</rect></_>
    <_>
      <rect>
        8 9 1 1</rect></_>
    <_>
      <rect>
        9 5 2 2</rect></_>
    <_>
      <rect>
        9 7 1 2</rect></_>
    <_>
      <rect>
        9 9 2 2</rect></_>
    <_>
      <rect>
        10 3 3 4</rect></_>
    <_>
      <rect>
        10 4 1 2</rect></_>
    <_>
      <rect>
        10 9 2 2</rect></_>
    <_>
      <rect>
        10 10 1 1</rect></_>
    <_>
      <rect>
        10 11 1 1</rect></_>
    <_>
      <rect>
        11 7 1 3</rect></_>
    <_>
      <rect>
        11 11 3 3</rect></_>
    <_>
      <rect>
        12 1 2 3</rect></_>
    <_>
      <rect>
        13 9 2 3</rect></_>
    <_>
      <rect>
        14 2 2 5</rect></_>
    <_>
      <rect>
        16 2 1 3</rect></_></features></cascade>
</opencv_storage>
