<?xml version="1.0"?>
<opencv_storage>
<cascade>
  <stageType>BOOST</stageType>
  <featureType>LBP</featureType>
  <height>20</height>
  <width>20</width>
  <stageParams>
    <boostType>GAB</boostType>
    <minHitRate>9.9900001287460327e-01</minHitRate>
    <maxFalseAlarm>5.0000000000000000e-01</maxFalseAlarm>
    <weightTrimRate>9.4999999999999996e-01</weightTrimRate>
    <maxDepth>1</maxDepth>
    <maxWeakCount>100</maxWeakCount></stageParams>
  <featureParams>
    <maxCatCount>256</maxCatCount>
    <featSize>1</featSize></featureParams>
  <stageNum>15</stageNum>
  <stages>
    <!-- stage 0 -->
    <_>
      <maxWeakCount>2</maxWeakCount>
      <stageThreshold>-7.6144717633724213e-02</stageThreshold>
      <weakClassifiers>
        <_>
          <internalNodes>
            0 -1 7 -671096833 -78311009 -577676306 -136980837 -125707265
            -3167861 -1144063505 -5</internalNodes>
          <leafValues>
            -9.7326850891113281e-01 9.3794751167297363e-01</leafValues></_>
        <_>
          <internalNodes>
            0 -1 35 -10496001 -67108865 -665729 -4204591 -356525229
            -146113 -492060873 -262145</internalNodes>
          <leafValues>
            -9.9055302143096924e-01 8.9712381362915039e-01</leafValues></_></weakClassifiers></_>
    <!-- stage 1 -->
    <_>
      <maxWeakCount>2</maxWeakCount>
      <stageThreshold>-1.4924964308738708e-01</stageThreshold>
      <weakClassifiers>
        <_>
          <internalNodes>
            0 -1 21 -302123171 -682633889 -1835493379 -346440529
            -220336129 -153499155 -218104833 -4881</internalNodes>
          <leafValues>
            -9.6314495801925659e-01 8.7850469350814819e-01</leafValues></_>
        <_>
          <internalNodes>
            0 -1 13 -150512129 -1618946577 -53280769 -286343170
            -1131175937 -101477443 -18247745 -17056769</internalNodes>
          <leafValues>
            -9.6934723854064941e-01 8.1389534473419189e-01</leafValues></_></weakClassifiers></_>
    <!-- stage 2 -->
    <_>
      <maxWeakCount>3</maxWeakCount>
      <stageThreshold>-1.1099891662597656e+00</stageThreshold>
      <weakClassifiers>
        <_>
          <internalNodes>
            0 -1 18 -149028873 -42003617 -440053265 -3163153 -169090081
            -19551615 -1713784580 -54674485</internalNodes>
          <leafValues>
            -9.5226132869720459e-01 7.8475338220596313e-01</leafValues></_>
        <_>
          <internalNodes>
            0 -1 22 -326241281 -6308649 -173598381 -170945757 -244334401
            -120601565 -443576113 -5169</internalNodes>
          <leafValues>
            -9.1249531507492065e-01 8.0902582406997681e-01</leafValues></_>
        <_>
          <internalNodes>
            0 -1 2 -539756078 -107878629 -741059630 -2128513 -976892677
            -103736245 -673717829 -1829</internalNodes>
          <leafValues>
            -9.6215146780014038e-01 7.5476747751235962e-01</leafValues></_></weakClassifiers></_>
    <!-- stage 3 -->
    <_>
      <maxWeakCount>3</maxWeakCount>
      <stageThreshold>-1.1883426904678345e+00</stageThreshold>
      <weakClassifiers>
        <_>
          <internalNodes>
            0 -1 5 -447221761 -83641921 -82715209 -82316325 77392895
            -52646421 1205992335 -269605</internalNodes>
          <leafValues>
            -9.3992489576339722e-01 7.7426636219024658e-01</leafValues></_>
        <_>
          <internalNodes>
            0 -1 20 -182847489 -370568754 -654192259 -589703009
            -1727477605 -337936157 -611714055 -51598164</internalNodes>
          <leafValues>
            -9.3009507656097412e-01 7.3468399047851563e-01</leafValues></_>
        <_>
          <internalNodes>
            0 -1 25 -69208065 -275201 -745931335 -276244995 -538979873
            -609513725 -338969601 -319948099</internalNodes>
          <leafValues>
            -9.7851246595382690e-01 6.8167722225189209e-01</leafValues></_></weakClassifiers></_>
    <!-- stage 4 -->
    <_>
      <maxWeakCount>2</maxWeakCount>
      <stageThreshold>-2.0558331906795502e-01</stageThreshold>
      <weakClassifiers>
        <_>
          <internalNodes>
            0 -1 8 -287838473 -140813423 -583820913 -138322287
            -323228417 -282661589 -923076657 -797781</internalNodes>
          <leafValues>
            -9.4838708639144897e-01 7.0021414756774902e-01</leafValues></_>
        <_>
          <internalNodes>
            0 -1 9 -270532609 -11673703 -586294881 -3416225 -67640321
            -279264766 -1253585787 -844247607</internalNodes>
          <leafValues>
            -9.0579748153686523e-01 7.5678509473800659e-01</leafValues></_></weakClassifiers></_>
    <!-- stage 5 -->
    <_>
      <maxWeakCount>2</maxWeakCount>
      <stageThreshold>-2.2940164804458618e-01</stageThreshold>
      <weakClassifiers>
        <_>
          <internalNodes>
            0 -1 23 -203437185 2122172991 -1714173697 -648156677
            -54790405 -555773445 -923887105 -1058597</internalNodes>
          <leafValues>
            -8.9486551284790039e-01 7.6415091753005981e-01</leafValues></_>
        <_>
          <internalNodes>
            0 -1 24 -37366785 -36351681 -2063511689 -1347595329
            -176439325 -862014568 -321914049 -51392321</internalNodes>
          <leafValues>
            -9.2045104503631592e-01 6.6546386480331421e-01</leafValues></_></weakClassifiers></_>
    <!-- stage 6 -->
    <_>
      <maxWeakCount>2</maxWeakCount>
      <stageThreshold>-2.7707338333129883e-01</stageThreshold>
      <weakClassifiers>
        <_>
          <internalNodes>
            0 -1 16 -1010311777 -806397251 50807131 -805881862
            -1002204673 -72439109 432806399 -17105954</internalNodes>
          <leafValues>
            -9.2418301105499268e-01 6.2683439254760742e-01</leafValues></_>
        <_>
          <internalNodes>
            0 -1 33 -547882497 -1520476177 -1608430193 -406474283
            -1300131843 -1987202405 -1544819472 -806355971</internalNodes>
          <leafValues>
            -9.0390777587890625e-01 6.9991838932037354e-01</leafValues></_></weakClassifiers></_>
    <!-- stage 7 -->
    <_>
      <maxWeakCount>3</maxWeakCount>
      <stageThreshold>-1.2647300958633423e+00</stageThreshold>
      <weakClassifiers>
        <_>
          <internalNodes>
            0 -1 6 -169880065 -16591297 -799215557 -4003886 -1056779297
            -615210021 -120107041 2134998015</internalNodes>
          <leafValues>
            -9.5732575654983521e-01 4.9165120720863342e-01</leafValues></_>
        <_>
          <internalNodes>
            0 -1 1 -1491998881 -14592743 -1626271481 -143324374
            1674099679 -4155352 1468933099 -7361781</internalNodes>
          <leafValues>
            -8.8686609268188477e-01 6.2741559743881226e-01</leafValues></_>
        <_>
          <internalNodes>
            0 -1 37 -1319153417 -779419519 -1056935683 -1651436373
            -641496477 -91750336 -1450198349 -70260550</internalNodes>
          <leafValues>
            -8.6951512098312378e-01 6.5565222501754761e-01</leafValues></_></weakClassifiers></_>
    <!-- stage 8 -->
    <_>
      <maxWeakCount>3</maxWeakCount>
      <stageThreshold>-1.0786840915679932e+00</stageThreshold>
      <weakClassifiers>
        <_>
          <internalNodes>
            0 -1 15 -619220545 -49096194 22139031 -10721 -1056860069
            -470482045 -374218733 -16778405</internalNodes>
          <leafValues>
            -7.9606026411056519e-01 7.3614776134490967e-01</leafValues></_>
        <_>
          <internalNodes>
            0 -1 27 -70527557 -239952822 -1851178541 -144276918
            -1307926357 -911572856 -215846152 -6034688</internalNodes>
          <leafValues>
            -8.5556370019912720e-01 6.8878829479217529e-01</leafValues></_>
        <_>
          <internalNodes>
            0 -1 31 1003830035 -83636083 -1065201321 -3286841
            -1681246245 -696213120 -79086949 -67140885</internalNodes>
          <leafValues>
            -9.8076868057250977e-01 5.7293993234634399e-01</leafValues></_></weakClassifiers></_>
    <!-- stage 9 -->
    <_>
      <maxWeakCount>3</maxWeakCount>
      <stageThreshold>-1.1610299348831177e+00</stageThreshold>
      <weakClassifiers>
        <_>
          <internalNodes>
            0 -1 17 322769373 1399272902 -1324281505 -3149321 656667519
            -77479701 432769691 -294061059</internalNodes>
          <leafValues>
            -8.9232838153839111e-01 5.1102203130722046e-01</leafValues></_>
        <_>
          <internalNodes>
            0 -1 0 -536870913 -867447 285723422 -710155055 -664354609
            -1424971095 -926447153 2138537823</internalNodes>
          <leafValues>
            -8.8079601526260376e-01 5.6642663478851318e-01</leafValues></_>
        <_>
          <internalNodes>
            0 -1 19 -173017153 -1489649513 -386838527 -1365261461
            -1315723865 -939423487 -1325226833 -74786</internalNodes>
          <leafValues>
            -7.9125595092773438e-01 6.4237040281295776e-01</leafValues></_></weakClassifiers></_>
    <!-- stage 10 -->
    <_>
      <maxWeakCount>3</maxWeakCount>
      <stageThreshold>-1.2004193067550659e+00</stageThreshold>
      <weakClassifiers>
        <_>
          <internalNodes>
            0 -1 12 -812391465 -315551555 -586556451 -15679396 -83231749
            -5586814 -259484777 -541345333</internalNodes>
          <leafValues>
            -8.6233764886856079e-01 5.4237288236618042e-01</leafValues></_>
        <_>
          <internalNodes>
            0 -1 11 -721037953 -1459027681 -213387010 -249586339
            -2054881011 -2113929086 -777526537 -7370557</internalNodes>
          <leafValues>
            -8.9790034294128418e-01 5.7082945108413696e-01</leafValues></_>
        <_>
          <internalNodes>
            0 -1 29 -933234209 -76905133 268567607 -639913633 -204500823
            -739532093 -1450983037 -1397099555</internalNodes>
          <leafValues>
            -9.0891104936599731e-01 5.6623935699462891e-01</leafValues></_></weakClassifiers></_>
    <!-- stage 11 -->
    <_>
      <maxWeakCount>2</maxWeakCount>
      <stageThreshold>-3.6280015110969543e-01</stageThreshold>
      <weakClassifiers>
        <_>
          <internalNodes>
            0 -1 10 -149195779 -850308067 -721415713 -36204459
            -362235217 -1450671920 -954469453 -72373605</internalNodes>
          <leafValues>
            -8.0869567394256592e-01 5.5606406927108765e-01</leafValues></_>
        <_>
          <internalNodes>
            0 -1 32 1359196367 -787412968 286282126 -18988846
            -1776113537 -1179909999 -1282678281 -69547841</internalNodes>
          <leafValues>
            -9.1886419057846069e-01 5.1153856515884399e-01</leafValues></_></weakClassifiers></_>
    <!-- stage 12 -->
    <_>
      <maxWeakCount>3</maxWeakCount>
      <stageThreshold>-1.2718590497970581e+00</stageThreshold>
      <weakClassifiers>
        <_>
          <internalNodes>
            0 -1 28 -1290152965 -1416130127 -779513513 -140688869
            -1593068232 -2013161327 -347886440 -167785478</internalNodes>
          <leafValues>
            -8.4554976224899292e-01 4.9790793657302856e-01</leafValues></_>
        <_>
          <internalNodes>
            0 -1 4 -142961573 -704446463 1606778901 -14613759 -250064693
            -41091068 -247754515 2008015235</internalNodes>
          <leafValues>
            -9.3510186672210693e-01 4.7276961803436279e-01</leafValues></_>
        <_>
          <internalNodes>
            0 -1 27 -610534921 -238907351 1159435359 -145832206
            -684604929 -208551768 -1212419845 -1709484</internalNodes>
          <leafValues>
            -8.3466517925262451e-01 5.5790024995803833e-01</leafValues></_></weakClassifiers></_>
    <!-- stage 13 -->
    <_>
      <maxWeakCount>3</maxWeakCount>
      <stageThreshold>-1.1304467916488647e+00</stageThreshold>
      <weakClassifiers>
        <_>
          <internalNodes>
            0 -1 3 -539792001 -37404201 268998905 -36784106 -51687555
            -96269818 -824731169 -69866893</internalNodes>
          <leafValues>
            -8.1910830736160278e-01 5.1422321796417236e-01</leafValues></_>
        <_>
          <internalNodes>
            0 -1 14 -1113870401 -15099133 353216971 -1080561022
            -1340352053 -1170100094 -1214649459 -1679959907</internalNodes>
          <leafValues>
            -8.0414533615112305e-01 5.6921356916427612e-01</leafValues></_>
        <_>
          <internalNodes>
            0 -1 26 -605558369 -786238580 1090736419 -1580209932
            -2146989397 -1073577966 -1405681521 -603986260</internalNodes>
          <leafValues>
            -8.4052473306655884e-01 5.9957444667816162e-01</leafValues></_></weakClassifiers></_>
    <!-- stage 14 -->
    <_>
      <maxWeakCount>4</maxWeakCount>
      <stageThreshold>-8.6924517154693604e-01</stageThreshold>
      <weakClassifiers>
        <_>
          <internalNodes>
            0 -1 36 -2015436865 -1949236672 -1189756769 1549615403
            -794586376 -1456357318 -1425843523 -536889455</internalNodes>
          <leafValues>
            -8.3705651760101318e-01 4.7609147429466248e-01</leafValues></_>
        <_>
          <internalNodes>
            0 -1 34 -223609001 -802553849 1073905819 147085379 168461038
            -2002616152 -2138568562 -389504853</internalNodes>
          <leafValues>
            -9.0221142768859863e-01 4.7574633359909058e-01</leafValues></_>
        <_>
          <internalNodes>
            0 -1 20 1495355901 -955775168 85576595 -568917549
            -1610567285 -1541664618 -535748165 -21726824</internalNodes>
          <leafValues>
            -8.8978523015975952e-01 5.0163012742996216e-01</leafValues></_>
        <_>
          <internalNodes>
            0 -1 30 -787410542 -2068627431 285278480 -334233555
            -1048065912 -343342975 -1147019126 -245268311</internalNodes>
          <leafValues>
            -8.9810198545455933e-01 4.4666004180908203e-01</leafValues></_></weakClassifiers></_></stages>
  <features>
    <_>
      <rect>
        0 1 2 6</rect></_>
    <_>
      <rect>
        0 2 4 2</rect></_>
    <_>
      <rect>
        0 4 6 5</rect></_>
    <_>
      <rect>
        0 9 2 3</rect></_>
    <_>
      <rect>
        1 1 3 5</rect></_>
    <_>
      <rect>
        1 2 4 2</rect></_>
    <_>
      <rect>
        1 3 2 5</rect></_>
    <_>
      <rect>
        1 7 6 2</rect></_>
    <_>
      <rect>
        2 0 4 4</rect></_>
    <_>
      <rect>
        2 1 2 3</rect></_>
    <_>
      <rect>
        2 4 2 1</rect></_>
    <_>
      <rect>
        2 5 6 5</rect></_>
    <_>
      <rect>
        3 3 2 1</rect></_>
    <_>
      <rect>
        3 8 4 2</rect></_>
    <_>
      <rect>
        4 2 1 2</rect></_>
    <_>
      <rect>
        4 9 3 3</rect></_>
    <_>
      <rect>
        5 9 2 2</rect></_>
    <_>
      <rect>
        5 9 3 2</rect></_>
    <_>
      <rect>
        6 7 3 2</rect></_>
    <_>
      <rect>
        6 8 1 2</rect></_>
    <_>
      <rect>
        6 11 2 1</rect></_>
    <_>
      <rect>
        7 2 4 3</rect></_>
    <_>
      <rect>
        7 3 2 4</rect></_>
    <_>
      <rect>
        7 3 4 2</rect></_>
    <_>
      <rect>
        7 5 2 3</rect></_>
    <_>
      <rect>
        7 6 2 3</rect></_>
    <_>
      <rect>
        7 7 1 2</rect></_>
    <_>
      <rect>
        7 8 1 1</rect></_>
    <_>
      <rect>
        8 10 1 1</rect></_>
    <_>
      <rect>
        9 6 1 3</rect></_>
    <_>
      <rect>
        9 10 1 1</rect></_>
    <_>
      <rect>
        10 4 1 1</rect></_>
    <_>
      <rect>
        10 11 2 1</rect></_>
    <_>
      <rect>
        10 13 3 2</rect></_>
    <_>
      <rect>
        11 2 2 4</rect></_>
    <_>
      <rect>
        11 7 2 1</rect></_>
    <_>
      <rect>
        11 14 2 2</rect></_>
    <_>
      <rect>
        13 8 1 1</rect></_></features></cascade>
</opencv_storage>
