<?xml version="1.0"?>
<opencv_storage>
<cascade>
  <stageType>BOOST</stageType>
  <featureType>LBP</featureType>
  <height>20</height>
  <width>20</width>
  <stageParams>
    <boostType>GAB</boostType>
    <minHitRate>9.9900001287460327e-01</minHitRate>
    <maxFalseAlarm>5.0000000000000000e-01</maxFalseAlarm>
    <weightTrimRate>9.4999999999999996e-01</weightTrimRate>
    <maxDepth>1</maxDepth>
    <maxWeakCount>100</maxWeakCount></stageParams>
  <featureParams>
    <maxCatCount>256</maxCatCount>
    <featSize>1</featSize></featureParams>
  <stageNum>19</stageNum>
  <stages>
    <!-- stage 0 -->
    <_>
      <maxWeakCount>2</maxWeakCount>
      <stageThreshold>-7.0396207273006439e-02</stageThreshold>
      <weakClassifiers>
        <_>
          <internalNodes>
            0 -1 16 -250225190 1360068736 3 1560477717 -1845329749
            -1199570816 134256779 -569642813</internalNodes>
          <leafValues>
            -9.9546486139297485e-01 9.3721973896026611e-01</leafValues></_>
        <_>
          <internalNodes>
            0 -1 20 -46083842 -720306173 16401 2030108801 -2147450726
            -1300234110 8424075 -276574069</internalNodes>
          <leafValues>
            -9.6952021121978760e-01 9.2506861686706543e-01</leafValues></_></weakClassifiers></_>
    <!-- stage 1 -->
    <_>
      <maxWeakCount>1</maxWeakCount>
      <stageThreshold>7.2908365726470947e-01</stageThreshold>
      <weakClassifiers>
        <_>
          <internalNodes>
            0 -1 10 -175516690 -184217590 -1877983017 -216973311
            -1064762950 -1976991614 -2013222658 -74725685</internalNodes>
          <leafValues>
            -1. 7.2908365726470947e-01</leafValues></_></weakClassifiers></_>
    <!-- stage 2 -->
    <_>
      <maxWeakCount>2</maxWeakCount>
      <stageThreshold>-3.0548927187919617e-01</stageThreshold>
      <weakClassifiers>
        <_>
          <internalNodes>
            0 -1 25 -782511817 -682536687 1090519261 -648689591
            -640554549 -250969776 -508035697 -1188062965</internalNodes>
          <leafValues>
            -9.4774347543716431e-01 6.9547325372695923e-01</leafValues></_>
        <_>
          <internalNodes>
            0 -1 33 -112625157 -718257701 -1979645023 -677560209
            -393502709 -2129100790 -1163739529 -67121477</internalNodes>
          <leafValues>
            -9.8549532890319824e-01 6.4225417375564575e-01</leafValues></_></weakClassifiers></_>
    <!-- stage 3 -->
    <_>
      <maxWeakCount>2</maxWeakCount>
      <stageThreshold>-1.8370601534843445e-01</stageThreshold>
      <weakClassifiers>
        <_>
          <internalNodes>
            0 -1 11 -2888801 -728711037 1073873024 -803831488 -221844849
            -536313856 -1597291670 -1429493249</internalNodes>
          <leafValues>
            -9.2111366987228394e-01 7.1673822402954102e-01</leafValues></_>
        <_>
          <internalNodes>
            0 -1 39 -657145089 -684715895 -2143272950 -188170111
            -931100162 -1601929197 -1064580678 -928866098</internalNodes>
          <leafValues>
            -9.0044420957565308e-01 7.5568741559982300e-01</leafValues></_></weakClassifiers></_>
    <!-- stage 4 -->
    <_>
      <maxWeakCount>2</maxWeakCount>
      <stageThreshold>-1.8963879346847534e-01</stageThreshold>
      <weakClassifiers>
        <_>
          <internalNodes>
            0 -1 23 -1856651061 -377421567 83890449 -259981039
            -1878982520 -1862238080 -1602117246 -120880989</internalNodes>
          <leafValues>
            -8.7082403898239136e-01 7.4883723258972168e-01</leafValues></_>
        <_>
          <internalNodes>
            0 -1 38 17891475 541687936 -1321037733 -372686848
            -1320681233 8912896 -1333686021 -336887326</internalNodes>
          <leafValues>
            -9.3847602605819702e-01 7.2364479303359985e-01</leafValues></_></weakClassifiers></_>
    <!-- stage 5 -->
    <_>
      <maxWeakCount>2</maxWeakCount>
      <stageThreshold>-2.1649068593978882e-01</stageThreshold>
      <weakClassifiers>
        <_>
          <internalNodes>
            0 -1 13 -707798017 -882404113 1543835791 -358655441
            -57241427 -166198775 -1306066929 -68177253</internalNodes>
          <leafValues>
            -9.6172249317169189e-01 6.9918698072433472e-01</leafValues></_>
        <_>
          <internalNodes>
            0 -1 0 -153099797 -196902781 147456 -737968125 -391413757
            -2147483606 35226287 -36966075</internalNodes>
          <leafValues>
            -9.1567766666412354e-01 7.4790120124816895e-01</leafValues></_></weakClassifiers></_>
    <!-- stage 6 -->
    <_>
      <maxWeakCount>2</maxWeakCount>
      <stageThreshold>-3.5650926828384399e-01</stageThreshold>
      <weakClassifiers>
        <_>
          <internalNodes>
            0 -1 35 -249563681 -245952105 -1522442017 -5275555
            -1190027198 -1727491920 -266609721 -3150971</internalNodes>
          <leafValues>
            -9.5121949911117554e-01 6.2992125749588013e-01</leafValues></_>
        <_>
          <internalNodes>
            0 -1 19 -778857505 1427443739 272750747 1463223635
            -796351509 -92077952 -1610499937 143558299</internalNodes>
          <leafValues>
            -9.4562345743179321e-01 5.9471023082733154e-01</leafValues></_></weakClassifiers></_>
    <!-- stage 7 -->
    <_>
      <maxWeakCount>2</maxWeakCount>
      <stageThreshold>-2.3954162001609802e-01</stageThreshold>
      <weakClassifiers>
        <_>
          <internalNodes>
            0 -1 4 16777553 1024524291 285 -49070061 -1476386765
            -1282834432 -931088225 -72644598</internalNodes>
          <leafValues>
            -9.1366904973983765e-01 6.1133605241775513e-01</leafValues></_>
        <_>
          <internalNodes>
            0 -1 9 1426067931 -1785720816 -1795091045 -1223339759
            268470713 -577765248 134219940 -1198518240</internalNodes>
          <leafValues>
            -8.5087764263153076e-01 7.4673777818679810e-01</leafValues></_></weakClassifiers></_>
    <!-- stage 8 -->
    <_>
      <maxWeakCount>2</maxWeakCount>
      <stageThreshold>-2.8434598445892334e-01</stageThreshold>
      <weakClassifiers>
        <_>
          <internalNodes>
            0 -1 18 -453512233 -29646199 -1056947965 -746110719
            -2029919237 -97515488 197168042 -340792389</internalNodes>
          <leafValues>
            -8.6757993698120117e-01 6.6371679306030273e-01</leafValues></_>
        <_>
          <internalNodes>
            0 -1 7 1095858687 -788442087 1968247709 1560875473
            1082685659 681902240 1217931455 2063745025</internalNodes>
          <leafValues>
            -9.2701452970504761e-01 5.8323389291763306e-01</leafValues></_></weakClassifiers></_>
    <!-- stage 9 -->
    <_>
      <maxWeakCount>2</maxWeakCount>
      <stageThreshold>-4.2981258034706116e-01</stageThreshold>
      <weakClassifiers>
        <_>
          <internalNodes>
            0 -1 5 1499979262 424219021 -577691702 -35681963 -2146853473
            1115685897 -1625705249 -23621</internalNodes>
          <leafValues>
            -9.8408490419387817e-01 4.9128919839859009e-01</leafValues></_>
        <_>
          <internalNodes>
            0 -1 1 2130826687 -149565040 -1728048233 -1120561151 235931
            -1979711472 1333991835 1402708891</internalNodes>
          <leafValues>
            -9.2110180854797363e-01 5.6908661127090454e-01</leafValues></_></weakClassifiers></_>
    <!-- stage 10 -->
    <_>
      <maxWeakCount>2</maxWeakCount>
      <stageThreshold>-3.8104251027107239e-01</stageThreshold>
      <weakClassifiers>
        <_>
          <internalNodes>
            0 -1 21 -1078724849 -1546682209 37044625 -960560693
            -1018526309 -92169838 -301751935 -34618697</internalNodes>
          <leafValues>
            -9.1787439584732056e-01 6.0000002384185791e-01</leafValues></_>
        <_>
          <internalNodes>
            0 -1 31 1910242807 -636713755 -359659511 -678819605
            -275795009 1480736939 -1408294265 967516323</internalNodes>
          <leafValues>
            -9.4795227050781250e-01 5.3683191537857056e-01</leafValues></_></weakClassifiers></_>
    <!-- stage 11 -->
    <_>
      <maxWeakCount>3</maxWeakCount>
      <stageThreshold>-1.2430969476699829e+00</stageThreshold>
      <weakClassifiers>
        <_>
          <internalNodes>
            0 -1 28 -187831521 -673901995 -1337456045 -775142261
            -406359923 -1736408064 -318644085 -1344298677</internalNodes>
          <leafValues>
            -9.0839695930480957e-01 4.6863469481468201e-01</leafValues></_>
        <_>
          <internalNodes>
            0 -1 24 -1861512225 -419065815 -1321201648 -766492559
            -1728020341 -1342045952 -486284917 -87295573</internalNodes>
          <leafValues>
            -8.3792167901992798e-01 6.4057415723800659e-01</leafValues></_>
        <_>
          <internalNodes>
            0 -1 27 -757597566 -1052835076 -774303648 -975321677
            -1600613461 -1064042479 -1277453669 -72383769</internalNodes>
          <leafValues>
            -9.5276719331741333e-01 5.0322163105010986e-01</leafValues></_></weakClassifiers></_>
    <!-- stage 12 -->
    <_>
      <maxWeakCount>2</maxWeakCount>
      <stageThreshold>-3.1551358103752136e-01</stageThreshold>
      <weakClassifiers>
        <_>
          <internalNodes>
            0 -1 30 -1782582473 -151142213 -1342140260 -1874804656
            -155133233 -258637814 -1513842534 -85350270</internalNodes>
          <leafValues>
            -8.4112149477005005e-01 5.5084747076034546e-01</leafValues></_>
        <_>
          <internalNodes>
            0 -1 36 -174337025 -684382761 2097190159 -669319137
            -150822181 -1979580412 -610759474 -1305809957</internalNodes>
          <leafValues>
            -8.6636102199554443e-01 5.8287781476974487e-01</leafValues></_></weakClassifiers></_>
    <!-- stage 13 -->
    <_>
      <maxWeakCount>2</maxWeakCount>
      <stageThreshold>-3.3511513471603394e-01</stageThreshold>
      <weakClassifiers>
        <_>
          <internalNodes>
            0 -1 15 -933900353 -250052460 -1014969979 -182414079
            -359734885 2130708544 -888801533 -807162585</internalNodes>
          <leafValues>
            -8.7050360441207886e-01 5.3846156597137451e-01</leafValues></_>
        <_>
          <internalNodes>
            0 -1 12 -965815321 1733627597 810685833 17941579 -1060650325
            -344751968 -1566897655 -100678781</internalNodes>
          <leafValues>
            -8.7357670068740845e-01 5.6467741727828979e-01</leafValues></_></weakClassifiers></_>
    <!-- stage 14 -->
    <_>
      <maxWeakCount>2</maxWeakCount>
      <stageThreshold>-5.3407424688339233e-01</stageThreshold>
      <weakClassifiers>
        <_>
          <internalNodes>
            0 -1 2 -773858337 -991968985 -1517976319 -548042745
            -238714451 -528465917 -469793399 582975682</internalNodes>
          <leafValues>
            -9.2000001668930054e-01 3.9792388677597046e-01</leafValues></_>
        <_>
          <internalNodes>
            0 -1 6 310444807 -1311764463 51401119 -50003511 1074268273
            -2085975925 -394061073 -68511585</internalNodes>
          <leafValues>
            -9.3199807405471802e-01 4.4923430681228638e-01</leafValues></_></weakClassifiers></_>
    <!-- stage 15 -->
    <_>
      <maxWeakCount>3</maxWeakCount>
      <stageThreshold>-1.2229646444320679e+00</stageThreshold>
      <weakClassifiers>
        <_>
          <internalNodes>
            0 -1 8 -115355173 -44461928 -2147366499 -538230632
            -1341595473 -2013230942 -1064299996 -3798892</internalNodes>
          <leafValues>
            -8.6407768726348877e-01 5.0000000000000000e-01</leafValues></_>
        <_>
          <internalNodes>
            0 -1 32 604979149 259 204178101 -536116726 -394024369
            -2104720477 -120937437 -20190293</internalNodes>
          <leafValues>
            -8.5722625255584717e-01 5.6102877855300903e-01</leafValues></_>
        <_>
          <internalNodes>
            0 -1 22 -654182913 528684437 -670981985 814940442
            -1466846307 999325721 352423132 417974523</internalNodes>
          <leafValues>
            -9.1991573572158813e-01 5.0536584854125977e-01</leafValues></_></weakClassifiers></_>
    <!-- stage 16 -->
    <_>
      <maxWeakCount>3</maxWeakCount>
      <stageThreshold>-1.1729705333709717e+00</stageThreshold>
      <weakClassifiers>
        <_>
          <internalNodes>
            0 -1 34 -243141125 -216530857 1895895452 -1656171632
            1342310649 -1987969023 -1364190248 -476073301</internalNodes>
          <leafValues>
            -8.3568072319030762e-01 5.2941179275512695e-01</leafValues></_>
        <_>
          <internalNodes>
            0 -1 29 1109130403 -867859421 -2145856305 -1052131194
            -636159809 -364867543 1099481294 -904290175</internalNodes>
          <leafValues>
            -9.2026799917221069e-01 5.4309439659118652e-01</leafValues></_>
        <_>
          <internalNodes>
            0 -1 14 -780020259 -777780144 -939458278 -173309534
            -1878433624 -133922678 1116375180 -552304511</internalNodes>
          <leafValues>
            -7.9955625534057617e-01 5.8297818899154663e-01</leafValues></_></weakClassifiers></_>
    <!-- stage 17 -->
    <_>
      <maxWeakCount>3</maxWeakCount>
      <stageThreshold>-1.1126013994216919e+00</stageThreshold>
      <weakClassifiers>
        <_>
          <internalNodes>
            0 -1 34 -658402607 1108443648 50446596 -1660891128 3146459
            -262995963 -1592776536 -3147125</internalNodes>
          <leafValues>
            -8.2750582695007324e-01 5.3191488981246948e-01</leafValues></_>
        <_>
          <internalNodes>
            0 -1 26 -997471783 -1018691581 268538889 -645890047
            805603610 -1056955904 -884431941 -1181769557</internalNodes>
          <leafValues>
            -8.1842619180679321e-01 5.9539312124252319e-01</leafValues></_>
        <_>
          <internalNodes>
            0 -1 37 -1050868457 -523927037 526347 -1333032925 -201239901
            -1173307384 -2008874837 -686350325</internalNodes>
          <leafValues>
            -8.2609009742736816e-01 5.8416211605072021e-01</leafValues></_></weakClassifiers></_>
    <!-- stage 18 -->
    <_>
      <maxWeakCount>3</maxWeakCount>
      <stageThreshold>-9.1911983489990234e-01</stageThreshold>
      <weakClassifiers>
        <_>
          <internalNodes>
            0 -1 17 1094795493 -774844336 -1878978151 -780140524
            428386442 -167540335 -1610041201 -92274656</internalNodes>
          <leafValues>
            -8.2488477230072021e-01 5.5652171373367310e-01</leafValues></_>
        <_>
          <internalNodes>
            0 -1 3 557970687 461750336 536985859 -721321782 60000379
            268519936 571212673 -207623934</internalNodes>
          <leafValues>
            -7.8007954359054565e-01 6.3941323757171631e-01</leafValues></_>
        <_>
          <internalNodes>
            0 -1 40 -213593089 291364881 -2147475421 -1673510903 790657
            335577154 -1475821174 -1232092390</internalNodes>
          <leafValues>
            -6.9556200504302979e-01 8.0994874238967896e-01</leafValues></_></weakClassifiers></_></stages>
  <features>
    <_>
      <rect>
        0 0 1 4</rect></_>
    <_>
      <rect>
        0 0 4 3</rect></_>
    <_>
      <rect>
        0 0 4 6</rect></_>
    <_>
      <rect>
        0 6 2 4</rect></_>
    <_>
      <rect>
        0 17 3 1</rect></_>
    <_>
      <rect>
        1 4 5 5</rect></_>
    <_>
      <rect>
        1 17 2 1</rect></_>
    <_>
      <rect>
        1 17 5 1</rect></_>
    <_>
      <rect>
        2 0 2 1</rect></_>
    <_>
      <rect>
        2 0 3 1</rect></_>
    <_>
      <rect>
        2 0 6 5</rect></_>
    <_>
      <rect>
        3 0 2 6</rect></_>
    <_>
      <rect>
        3 5 2 4</rect></_>
    <_>
      <rect>
        3 6 3 3</rect></_>
    <_>
      <rect>
        4 0 1 1</rect></_>
    <_>
      <rect>
        4 0 2 3</rect></_>
    <_>
      <rect>
        4 1 4 6</rect></_>
    <_>
      <rect>
        4 2 3 1</rect></_>
    <_>
      <rect>
        4 3 2 2</rect></_>
    <_>
      <rect>
        5 0 5 2</rect></_>
    <_>
      <rect>
        5 2 3 6</rect></_>
    <_>
      <rect>
        5 5 2 3</rect></_>
    <_>
      <rect>
        5 14 5 2</rect></_>
    <_>
      <rect>
        6 8 1 1</rect></_>
    <_>
      <rect>
        6 9 1 1</rect></_>
    <_>
      <rect>
        7 0 3 3</rect></_>
    <_>
      <rect>
        7 3 1 2</rect></_>
    <_>
      <rect>
        7 7 2 2</rect></_>
    <_>
      <rect>
        8 0 2 3</rect></_>
    <_>
      <rect>
        8 0 3 4</rect></_>
    <_>
      <rect>
        8 1 2 3</rect></_>
    <_>
      <rect>
        8 2 4 6</rect></_>
    <_>
      <rect>
        8 5 3 4</rect></_>
    <_>
      <rect>
        8 7 3 2</rect></_>
    <_>
      <rect>
        8 14 2 2</rect></_>
    <_>
      <rect>
        9 8 2 2</rect></_>
    <_>
      <rect>
        11 0 3 2</rect></_>
    <_>
      <rect>
        11 1 2 3</rect></_>
    <_>
      <rect>
        13 17 2 1</rect></_>
    <_>
      <rect>
        14 0 2 2</rect></_>
    <_>
      <rect>
        14 8 2 4</rect></_></features></cascade>
</opencv_storage>
