<?xml version="1.0"?>
<opencv_storage>
<cascade>
  <stageType>BOOST</stageType>
  <featureType>LBP</featureType>
  <height>20</height>
  <width>20</width>
  <stageParams>
    <boostType>GAB</boostType>
    <minHitRate>9.9900001287460327e-01</minHitRate>
    <maxFalseAlarm>5.0000000000000000e-01</maxFalseAlarm>
    <weightTrimRate>9.4999999999999996e-01</weightTrimRate>
    <maxDepth>1</maxDepth>
    <maxWeakCount>100</maxWeakCount></stageParams>
  <featureParams>
    <maxCatCount>256</maxCatCount>
    <featSize>1</featSize></featureParams>
  <stageNum>17</stageNum>
  <stages>
    <!-- stage 0 -->
    <_>
      <maxWeakCount>2</maxWeakCount>
      <stageThreshold>-1.2950958311557770e-01</stageThreshold>
      <weakClassifiers>
        <_>
          <internalNodes>
            0 -1 16 -1 -527393 -103818770 -8522763 -61865985 -20316721
            -101711874 -69</internalNodes>
          <leafValues>
            -9.8879104852676392e-01 8.8167941570281982e-01</leafValues></_>
        <_>
          <internalNodes>
            0 -1 46 536813375 -35684385 -35913777 -16777225 -287313953
            -39848737 -35660809 -1</internalNodes>
          <leafValues>
            -9.5645427703857422e-01 8.5928142070770264e-01</leafValues></_></weakClassifiers></_>
    <!-- stage 1 -->
    <_>
      <maxWeakCount>3</maxWeakCount>
      <stageThreshold>-1.0842380523681641e+00</stageThreshold>
      <weakClassifiers>
        <_>
          <internalNodes>
            0 -1 12 -647496193 -38320649 -135005954 -4220161 -653328385
            -1621102643 -117711873 -17</internalNodes>
          <leafValues>
            -9.5374798774719238e-01 8.1502890586853027e-01</leafValues></_>
        <_>
          <internalNodes>
            0 -1 32 -161 -10487985 -570441985 -46408257 -68420609
            -17045249 -69550145 -2113</internalNodes>
          <leafValues>
            -9.0845614671707153e-01 8.3849781751632690e-01</leafValues></_>
        <_>
          <internalNodes>
            0 -1 20 -201852929 -269528577 -1605761 -1363148802
            -536872961 -67118369 -6558721 -16844353</internalNodes>
          <leafValues>
            -9.6343988180160522e-01 7.7796608209609985e-01</leafValues></_></weakClassifiers></_>
    <!-- stage 2 -->
    <_>
      <maxWeakCount>3</maxWeakCount>
      <stageThreshold>-1.2188054323196411e+00</stageThreshold>
      <weakClassifiers>
        <_>
          <internalNodes>
            0 -1 35 -34734081 -46401735 -922631883 -307424937 -860357637
            -103050869 -391402497 -318776485</internalNodes>
          <leafValues>
            -9.5182722806930542e-01 6.5553605556488037e-01</leafValues></_>
        <_>
          <internalNodes>
            0 -1 18 -2098178 -618974582 -800989841 -149825199 -359932513
            -724937661 -913051137 -204735561</internalNodes>
          <leafValues>
            -9.7135859727859497e-01 6.2865090370178223e-01</leafValues></_>
        <_>
          <internalNodes>
            0 -1 6 -34082833 -45756141 -41575589 -7080941 -492778259
            -203226983 -775906817 -4500549</internalNodes>
          <leafValues>
            -8.8599264621734619e-01 7.0438045263290405e-01</leafValues></_></weakClassifiers></_>
    <!-- stage 3 -->
    <_>
      <maxWeakCount>3</maxWeakCount>
      <stageThreshold>-1.2055821418762207e+00</stageThreshold>
      <weakClassifiers>
        <_>
          <internalNodes>
            0 -1 33 -319948833 -604261493 -1555066657 -33606897
            -167773637 -1701895669 -70779333 -2115649</internalNodes>
          <leafValues>
            -9.3172353506088257e-01 6.0489511489868164e-01</leafValues></_>
        <_>
          <internalNodes>
            0 -1 38 -204212737 -204865032 -250941274 -9508762
            -1318341650 -242697855 -72635464 -1976304</internalNodes>
          <leafValues>
            -8.9456933736801147e-01 6.4404618740081787e-01</leafValues></_>
        <_>
          <internalNodes>
            0 -1 50 -18351105 -749729321 1604555771 -5254545 -89412781
            -1163223032 -303375625 -1332565</internalNodes>
          <leafValues>
            -9.1590785980224609e-01 6.5309649705886841e-01</leafValues></_></weakClassifiers></_>
    <!-- stage 4 -->
    <_>
      <maxWeakCount>3</maxWeakCount>
      <stageThreshold>-1.2205259799957275e+00</stageThreshold>
      <weakClassifiers>
        <_>
          <internalNodes>
            0 -1 30 -707266177 -48499401 -2134523393 -142614177
            -1059269377 -209682190 -522923777 -17838082</internalNodes>
          <leafValues>
            -8.7349879741668701e-01 6.0687023401260376e-01</leafValues></_>
        <_>
          <internalNodes>
            0 -1 41 -214445225 -2677999 -1148751442 -1078993409
            -205409282 -82106081 -387319058 -319947793</internalNodes>
          <leafValues>
            -9.1301685571670532e-01 5.7149505615234375e-01</leafValues></_>
        <_>
          <internalNodes>
            0 -1 1 -139461633 -11497065 -352239585 -877649 1838136043
            -78542109 2050632587 2071444335</internalNodes>
          <leafValues>
            -9.1437935829162598e-01 5.9488070011138916e-01</leafValues></_></weakClassifiers></_>
    <!-- stage 5 -->
    <_>
      <maxWeakCount>4</maxWeakCount>
      <stageThreshold>-1.9667897224426270e+00</stageThreshold>
      <weakClassifiers>
        <_>
          <internalNodes>
            0 -1 22 1506932735 -139251279 -145894433 -1215681
            -2128932921 -144484959 -545794593 -50332705</internalNodes>
          <leafValues>
            -8.2952815294265747e-01 6.9063180685043335e-01</leafValues></_>
        <_>
          <internalNodes>
            0 -1 2 -283643905 -13502987 -821952641 -14558419 1740349371
            -106827352 395016191 -7287</internalNodes>
          <leafValues>
            -8.6299329996109009e-01 6.7974334955215454e-01</leafValues></_>
        <_>
          <internalNodes>
            0 -1 29 -103547909 -269911870 -712901155 -19047969
            -652105045 -272071638 -1156514835 -17516360</internalNodes>
          <leafValues>
            -8.7017154693603516e-01 6.8638736009597778e-01</leafValues></_>
        <_>
          <internalNodes>
            0 -1 47 -1177554449 -241466692 -796731070 -52690690
            -1179919793 -90472275 -1146438665 -17409</internalNodes>
          <leafValues>
            -9.2246419191360474e-01 5.9590327739715576e-01</leafValues></_></weakClassifiers></_>
    <!-- stage 6 -->
    <_>
      <maxWeakCount>3</maxWeakCount>
      <stageThreshold>-1.2258026599884033e+00</stageThreshold>
      <weakClassifiers>
        <_>
          <internalNodes>
            0 -1 8 -811597857 -136344641 -75246897 -34868961 -879756353
            -1349520737 -506986569 -838886915</internalNodes>
          <leafValues>
            -8.8177341222763062e-01 5.4234236478805542e-01</leafValues></_>
        <_>
          <internalNodes>
            0 -1 28 -641476609 -270036545 1394939869 -270552609
            -803628801 -541121106 -6034437 -318768132</internalNodes>
          <leafValues>
            -8.8170492649078369e-01 5.8236032724380493e-01</leafValues></_>
        <_>
          <internalNodes>
            0 -1 49 -1257 -173040809 -1968455169 -4236461 -1397777685
            -1330872049 -376134945 -34610653</internalNodes>
          <leafValues>
            -8.8644015789031982e-01 5.6651723384857178e-01</leafValues></_></weakClassifiers></_>
    <!-- stage 7 -->
    <_>
      <maxWeakCount>3</maxWeakCount>
      <stageThreshold>-1.2744128704071045e+00</stageThreshold>
      <weakClassifiers>
        <_>
          <internalNodes>
            0 -1 25 961804279 -68708914 1907823095 -546876457 -385344879
            -315153829 -28194913 -17252418</internalNodes>
          <leafValues>
            -8.9087808132171631e-01 4.5333334803581238e-01</leafValues></_>
        <_>
          <internalNodes>
            0 -1 11 -174721537 965728267 1364064510 -715686569
            -1191069953 1415708737 -205001989 -67120225</internalNodes>
          <leafValues>
            -9.1208678483963013e-01 4.8949417471885681e-01</leafValues></_>
        <_>
          <internalNodes>
            0 -1 7 -958496769 -2813865 1997118231 -15531191 -1886676033
            -174482670 398457643 -169869909</internalNodes>
          <leafValues>
            -8.1565946340560913e-01 6.3719457387924194e-01</leafValues></_></weakClassifiers></_>
    <!-- stage 8 -->
    <_>
      <maxWeakCount>3</maxWeakCount>
      <stageThreshold>-1.1583515405654907e+00</stageThreshold>
      <weakClassifiers>
        <_>
          <internalNodes>
            0 -1 15 -284053537 -82715369 -83624687 -15256643 -2094928493
            -97467311 50393023 -7611462</internalNodes>
          <leafValues>
            -9.1898733377456665e-01 5.3741496801376343e-01</leafValues></_>
        <_>
          <internalNodes>
            0 -1 17 -1612728321 -142108485 -2095599213 -6308517
            -70280197 -67424086 -85222977 -1644177987</internalNodes>
          <leafValues>
            -8.5641354322433472e-01 5.8207792043685913e-01</leafValues></_>
        <_>
          <internalNodes>
            0 -1 37 -205260291 -206965904 -788323885 -1346386212
            -1291597613 -637304829 -545029157 -14088</internalNodes>
          <leafValues>
            -8.2144212722778320e-01 6.4075726270675659e-01</leafValues></_></weakClassifiers></_>
    <!-- stage 9 -->
    <_>
      <maxWeakCount>3</maxWeakCount>
      <stageThreshold>-1.1435027122497559e+00</stageThreshold>
      <weakClassifiers>
        <_>
          <internalNodes>
            0 -1 52 -1826638881 -1042575013 16889341 -35666785
            -1290685955 -2135260758 -1180194307 -4210437</internalNodes>
          <leafValues>
            -7.9213064908981323e-01 6.9014084339141846e-01</leafValues></_>
        <_>
          <internalNodes>
            0 -1 34 -36046977 2038418525 -2114595361 1565380863
            -122510593 2075979995 -359619361 -35749701</internalNodes>
          <leafValues>
            -8.7417721748352051e-01 5.3917920589447021e-01</leafValues></_>
        <_>
          <internalNodes>
            0 -1 0 -570689537 -70483713 -721229825 -2049 -399128065
            -344941841 -1684804491 2136440695</internalNodes>
          <leafValues>
            -8.9055132865905762e-01 5.6454950571060181e-01</leafValues></_></weakClassifiers></_>
    <!-- stage 10 -->
    <_>
      <maxWeakCount>3</maxWeakCount>
      <stageThreshold>-1.0837961435317993e+00</stageThreshold>
      <weakClassifiers>
        <_>
          <internalNodes>
            0 -1 10 -78261249 -308768687 -587164225 -16154337
            -1413432645 -1097094913 -947194953 -7608129</internalNodes>
          <leafValues>
            -8.1690138578414917e-01 5.4747474193572998e-01</leafValues></_>
        <_>
          <internalNodes>
            0 -1 36 1432352255 -9239205 -645805327 -5647431 -1823498185
            2007699483 -402674801 -319946759</internalNodes>
          <leafValues>
            -9.1971975564956665e-01 4.9123018980026245e-01</leafValues></_>
        <_>
          <internalNodes>
            0 -1 14 831590911 529993971 286900223 -1625489378 815996987
            2038989258 -880107521 -67393125</internalNodes>
          <leafValues>
            -7.1155118942260742e-01 6.8617177009582520e-01</leafValues></_></weakClassifiers></_>
    <!-- stage 11 -->
    <_>
      <maxWeakCount>3</maxWeakCount>
      <stageThreshold>-1.1714051961898804e+00</stageThreshold>
      <weakClassifiers>
        <_>
          <internalNodes>
            0 -1 21 -749866529 -539306502 -1861509345 -35329 360890587
            -882931559 -119439207 -83886229</internalNodes>
          <leafValues>
            -8.1803923845291138e-01 5.4216867685317993e-01</leafValues></_>
        <_>
          <internalNodes>
            0 -1 27 -204999681 -1075457549 -939437755 -1342190593
            -771382789 -637419509 -125492533 -66562</internalNodes>
          <leafValues>
            -7.8954672813415527e-01 5.9204435348510742e-01</leafValues></_>
        <_>
          <internalNodes>
            0 -1 43 -501483621 -1363426060 1368511762 -334071726
            -1970560327 -382107263 -351032680 -197551427</internalNodes>
          <leafValues>
            -9.2402720451354980e-01 4.7227063775062561e-01</leafValues></_></weakClassifiers></_>
    <!-- stage 12 -->
    <_>
      <maxWeakCount>3</maxWeakCount>
      <stageThreshold>-1.1597137451171875e+00</stageThreshold>
      <weakClassifiers>
        <_>
          <internalNodes>
            0 -1 53 -1239417857 -478695145 51099029 -202161953
            -1409549315 267385325 -1342474243 -263233</internalNodes>
          <leafValues>
            -8.0802518129348755e-01 5.0597608089447021e-01</leafValues></_>
        <_>
          <internalNodes>
            0 -1 23 -694684705 -1275072289 1167278091 -1709522273
            -924600925 -1199341274 -1954295121 -2164001</internalNodes>
          <leafValues>
            -7.7475798130035400e-01 5.7528913021087646e-01</leafValues></_>
        <_>
          <internalNodes>
            0 -1 51 -35671570 1363738845 -1019118866 -710999912
            -1693844918 -389446991 -1282693385 -263957</internalNodes>
          <leafValues>
            -8.9093190431594849e-01 4.9413508176803589e-01</leafValues></_></weakClassifiers></_>
    <!-- stage 13 -->
    <_>
      <maxWeakCount>4</maxWeakCount>
      <stageThreshold>-1.9929966926574707e+00</stageThreshold>
      <weakClassifiers>
        <_>
          <internalNodes>
            0 -1 33 -467017729 -1286397837 -4245741 -1143740237
            -1187805793 -1091428185 -1282195100 -67376733</internalNodes>
          <leafValues>
            -9.2183029651641846e-01 2.6795580983161926e-01</leafValues></_>
        <_>
          <internalNodes>
            0 -1 42 -1684833285 -1393577193 -1325297569 -35671823
            -610159684 -1059223307 -72692884 -168054082</internalNodes>
          <leafValues>
            -7.7701407670974731e-01 5.3001320362091064e-01</leafValues></_>
        <_>
          <internalNodes>
            0 -1 13 -14822401 -6992485 1909316342 870303967 274774703
            -1650966518 -139474689 2147468874</internalNodes>
          <leafValues>
            -9.0810447931289673e-01 4.9035552144050598e-01</leafValues></_>
        <_>
          <internalNodes>
            0 -1 38 -239624257 1607653517 -1063150817 -8482722
            -895369013 -1090354716 -1690065921 -67782572</internalNodes>
          <leafValues>
            -7.8450787067413330e-01 5.3749763965606689e-01</leafValues></_></weakClassifiers></_>
    <!-- stage 14 -->
    <_>
      <maxWeakCount>4</maxWeakCount>
      <stageThreshold>-8.4399068355560303e-01</stageThreshold>
      <weakClassifiers>
        <_>
          <internalNodes>
            0 -1 48 -184421377 -302968449 -77770273 -11468459
            -1297024263 -1946647624 -1752527883 -39085062</internalNodes>
          <leafValues>
            -8.3447098731994629e-01 3.4109815955162048e-01</leafValues></_>
        <_>
          <internalNodes>
            0 -1 26 454816695 286515219 1835431407 -135589041 928189726
            -1861122559 -33997396 -51511322</internalNodes>
          <leafValues>
            -9.2532849311828613e-01 3.8252738118171692e-01</leafValues></_>
        <_>
          <internalNodes>
            0 -1 31 -235144353 -146802097 433299963 -2122604491
            -1600081733 -1432078669 -492793601 803936447</internalNodes>
          <leafValues>
            -8.3236294984817505e-01 4.7998175024986267e-01</leafValues></_>
        <_>
          <internalNodes>
            0 -1 3 -578420897 -560529407 2036440315 -40007399 1908937659
            1910211218 -1551513610 -134239749</internalNodes>
          <leafValues>
            -7.3525333404541016e-01 5.8837103843688965e-01</leafValues></_></weakClassifiers></_>
    <!-- stage 15 -->
    <_>
      <maxWeakCount>4</maxWeakCount>
      <stageThreshold>-9.8671102523803711e-01</stageThreshold>
      <weakClassifiers>
        <_>
          <internalNodes>
            0 -1 24 1394316767 -207282929 -1781006977 -269788713
            -770602824 -575077110 -1152140933 -50513957</internalNodes>
          <leafValues>
            -8.9132505655288696e-01 2.2375690937042236e-01</leafValues></_>
        <_>
          <internalNodes>
            0 -1 19 -270612993 -150521069 -1274292215 -135321469
            -522459989 -380751863 -291787010 -856819315</internalNodes>
          <leafValues>
            -8.3291107416152954e-01 4.4363775849342346e-01</leafValues></_>
        <_>
          <internalNodes>
            0 -1 5 -787381249 -571221533 -182341121 -6975107 -124426753
            -19995991 1503734767 2099576837</internalNodes>
          <leafValues>
            -8.5831743478775024e-01 4.4178956747055054e-01</leafValues></_>
        <_>
          <internalNodes>
            0 -1 44 -1849457681 -653061921 -1319857694 -75706025
            -2105363969 -1431657832 -1145310217 -55785025</internalNodes>
          <leafValues>
            -7.9578828811645508e-01 5.0749742984771729e-01</leafValues></_></weakClassifiers></_>
    <!-- stage 16 -->
    <_>
      <maxWeakCount>5</maxWeakCount>
      <stageThreshold>-1.5498939752578735e+00</stageThreshold>
      <weakClassifiers>
        <_>
          <internalNodes>
            0 -1 9 -539331689 -1803091963 -1673330671 1595867137
            -215547761 -179371967 -940586305 1006567519</internalNodes>
          <leafValues>
            -8.9151871204376221e-01 1.7259551584720612e-01</leafValues></_>
        <_>
          <internalNodes>
            0 -1 39 -1856400969 -484343551 1359151248 -270564845
            -526278248 -518512576 -1207260488 -406919171</internalNodes>
          <leafValues>
            -7.7755296230316162e-01 4.0447854995727539e-01</leafValues></_>
        <_>
          <internalNodes>
            0 -1 4 -246977537 -544389809 92700695 -217807930 -375752641
            -662504893 -326145013 2134997623</internalNodes>
          <leafValues>
            -8.4433591365814209e-01 4.3034249544143677e-01</leafValues></_>
        <_>
          <internalNodes>
            0 -1 45 -249844905 338346775 1075428015 -526720894
            -2111771905 672374952 -1435989333 -1028750613</internalNodes>
          <leafValues>
            -7.3280978202819824e-01 5.5893212556838989e-01</leafValues></_>
        <_>
          <internalNodes>
            0 -1 40 -51121697 -1873726719 -134217541 -1693450150
            -1304282462 -1322254301 -1207657746 -320679262</internalNodes>
          <leafValues>
            -6.4246916770935059e-01 6.6501015424728394e-01</leafValues></_></weakClassifiers></_></stages>
  <features>
    <_>
      <rect>
        0 2 2 5</rect></_>
    <_>
      <rect>
        0 2 3 6</rect></_>
    <_>
      <rect>
        0 2 4 2</rect></_>
    <_>
      <rect>
        0 6 2 1</rect></_>
    <_>
      <rect>
        0 7 2 4</rect></_>
    <_>
      <rect>
        1 0 5 2</rect></_>
    <_>
      <rect>
        1 1 5 3</rect></_>
    <_>
      <rect>
        1 4 3 2</rect></_>
    <_>
      <rect>
        2 1 2 3</rect></_>
    <_>
      <rect>
        2 1 3 6</rect></_>
    <_>
      <rect>
        2 4 2 1</rect></_>
    <_>
      <rect>
        2 5 6 5</rect></_>
    <_>
      <rect>
        2 6 6 4</rect></_>
    <_>
      <rect>
        2 11 6 3</rect></_>
    <_>
      <rect>
        2 17 5 1</rect></_>
    <_>
      <rect>
        3 2 3 2</rect></_>
    <_>
      <rect>
        3 7 5 2</rect></_>
    <_>
      <rect>
        4 0 1 3</rect></_>
    <_>
      <rect>
        4 2 5 6</rect></_>
    <_>
      <rect>
        4 3 1 3</rect></_>
    <_>
      <rect>
        4 8 3 2</rect></_>
    <_>
      <rect>
        4 9 3 3</rect></_>
    <_>
      <rect>
        5 6 3 3</rect></_>
    <_>
      <rect>
        5 7 1 3</rect></_>
    <_>
      <rect>
        5 8 3 2</rect></_>
    <_>
      <rect>
        5 9 3 2</rect></_>
    <_>
      <rect>
        6 7 3 2</rect></_>
    <_>
      <rect>
        6 8 1 2</rect></_>
    <_>
      <rect>
        6 9 2 2</rect></_>
    <_>
      <rect>
        6 11 2 1</rect></_>
    <_>
      <rect>
        7 1 4 3</rect></_>
    <_>
      <rect>
        7 1 4 4</rect></_>
    <_>
      <rect>
        7 2 4 3</rect></_>
    <_>
      <rect>
        7 3 2 4</rect></_>
    <_>
      <rect>
        7 3 4 2</rect></_>
    <_>
      <rect>
        7 5 2 3</rect></_>
    <_>
      <rect>
        7 6 2 3</rect></_>
    <_>
      <rect>
        7 7 1 2</rect></_>
    <_>
      <rect>
        7 8 1 1</rect></_>
    <_>
      <rect>
        7 10 1 1</rect></_>
    <_>
      <rect>
        8 6 2 2</rect></_>
    <_>
      <rect>
        8 7 2 2</rect></_>
    <_>
      <rect>
        8 10 1 1</rect></_>
    <_>
      <rect>
        9 10 1 1</rect></_>
    <_>
      <rect>
        9 12 2 1</rect></_>
    <_>
      <rect>
        10 1 3 5</rect></_>
    <_>
      <rect>
        10 3 1 2</rect></_>
    <_>
      <rect>
        10 10 2 1</rect></_>
    <_>
      <rect>
        10 15 3 1</rect></_>
    <_>
      <rect>
        11 0 2 5</rect></_>
    <_>
      <rect>
        11 7 2 1</rect></_>
    <_>
      <rect>
        11 10 2 1</rect></_>
    <_>
      <rect>
        11 15 2 1</rect></_>
    <_>
      <rect>
        12 11 2 3</rect></_></features></cascade>
</opencv_storage>
