<?xml version="1.0"?>
<opencv_storage>
<cascade>
  <stageType>BOOST</stageType>
  <featureType>LBP</featureType>
  <height>20</height>
  <width>20</width>
  <stageParams>
    <boostType>GAB</boostType>
    <minHitRate>9.9900001287460327e-01</minHitRate>
    <maxFalseAlarm>5.0000000000000000e-01</maxFalseAlarm>
    <weightTrimRate>9.4999999999999996e-01</weightTrimRate>
    <maxDepth>1</maxDepth>
    <maxWeakCount>100</maxWeakCount></stageParams>
  <featureParams>
    <maxCatCount>256</maxCatCount>
    <featSize>1</featSize></featureParams>
  <stageNum>19</stageNum>
  <stages>
    <!-- stage 0 -->
    <_>
      <maxWeakCount>2</maxWeakCount>
      <stageThreshold>-1.4443904161453247e-01</stageThreshold>
      <weakClassifiers>
        <_>
          <internalNodes>
            0 -1 16 -644220434 -615706175 -2095869809 -652666621
            -2003138113 -645201781 -1333018369 -4457537</internalNodes>
          <leafValues>
            -9.9590164422988892e-01 9.2640000581741333e-01</leafValues></_>
        <_>
          <internalNodes>
            0 -1 15 -678431762 -113176367 -250508899 -6868201 -810820097
            -1718812145 -760353793 -4463717</internalNodes>
          <leafValues>
            -9.8618590831756592e-01 8.5146260261535645e-01</leafValues></_></weakClassifiers></_>
    <!-- stage 1 -->
    <_>
      <maxWeakCount>3</maxWeakCount>
      <stageThreshold>-1.0457254648208618e+00</stageThreshold>
      <weakClassifiers>
        <_>
          <internalNodes>
            0 -1 51 -201589761 -2100497 -1152571951 -1801 -129
            -369248018 -610271369 -4097</internalNodes>
          <leafValues>
            -9.3793791532516479e-01 9.0365445613861084e-01</leafValues></_>
        <_>
          <internalNodes>
            0 -1 17 -672006145 -305139249 2088763103 -362815489
            -83122305 -806381137 -7606273 -1057</internalNodes>
          <leafValues>
            -8.9300823211669922e-01 8.3062803745269775e-01</leafValues></_>
        <_>
          <internalNodes>
            0 -1 27 -67633153 -278433298 -108531714 -285221121
            -155192417 -270564689 -1119237 -84214277</internalNodes>
          <leafValues>
            -8.7432599067687988e-01 7.8522074222564697e-01</leafValues></_></weakClassifiers></_>
    <!-- stage 2 -->
    <_>
      <maxWeakCount>2</maxWeakCount>
      <stageThreshold>-3.2824721932411194e-01</stageThreshold>
      <weakClassifiers>
        <_>
          <internalNodes>
            0 -1 43 -14680065 -1156478085 -207619081 -74457541 -262305
            -335811973 -37751439 -5505110</internalNodes>
          <leafValues>
            -9.4136810302734375e-01 6.9705879688262939e-01</leafValues></_>
        <_>
          <internalNodes>
            0 -1 42 -372260028 -2254753 -151201321 -33556273 -596971533
            -370437978 -104268865 -9729</internalNodes>
          <leafValues>
            -9.4079816341400146e-01 6.1312085390090942e-01</leafValues></_></weakClassifiers></_>
    <!-- stage 3 -->
    <_>
      <maxWeakCount>2</maxWeakCount>
      <stageThreshold>-3.4036630392074585e-01</stageThreshold>
      <weakClassifiers>
        <_>
          <internalNodes>
            0 -1 40 -9109508 -545788993 -720538545 -5246001 -338431253
            -645209516 -404387425 -1053765</internalNodes>
          <leafValues>
            -9.8079234361648560e-01 5.5208331346511841e-01</leafValues></_>
        <_>
          <internalNodes>
            0 -1 14 -84150561 -85986875 -718610981 -3018435 -1802503025
            -20872576 -1005717001 -992488965</internalNodes>
          <leafValues>
            -8.9244961738586426e-01 6.4856660366058350e-01</leafValues></_></weakClassifiers></_>
    <!-- stage 4 -->
    <_>
      <maxWeakCount>3</maxWeakCount>
      <stageThreshold>-1.0648554563522339e+00</stageThreshold>
      <weakClassifiers>
        <_>
          <internalNodes>
            0 -1 7 -607266337 -150744801 2065167098 -104466993
            -1740532481 1410913299 -12063749 -13898545</internalNodes>
          <leafValues>
            -8.7157893180847168e-01 6.6820275783538818e-01</leafValues></_>
        <_>
          <internalNodes>
            0 -1 20 -297533473 -11012743 -184487137 -46269061 -352063589
            -68124406 -917860961 -979385920</internalNodes>
          <leafValues>
            -8.0056416988372803e-01 7.1378272771835327e-01</leafValues></_>
        <_>
          <internalNodes>
            0 -1 47 -112214221 -78793401 -1046951169 -118847091
            -353703713 -1463250890 -836179714 -347612659</internalNodes>
          <leafValues>
            -8.5647982358932495e-01 6.0728764533996582e-01</leafValues></_></weakClassifiers></_>
    <!-- stage 5 -->
    <_>
      <maxWeakCount>3</maxWeakCount>
      <stageThreshold>-1.1460200548171997e+00</stageThreshold>
      <weakClassifiers>
        <_>
          <internalNodes>
            0 -1 44 -1722024961 520327371 -1790627361 1037943295
            2074294783 2077028514 -1073804868 -1075860488</internalNodes>
          <leafValues>
            -8.3455497026443481e-01 6.2538701295852661e-01</leafValues></_>
        <_>
          <internalNodes>
            0 -1 26 -745418533 -269151951 1913755931 -25832685
            -1324306181 -5033930 -1694291301 -70530407</internalNodes>
          <leafValues>
            -8.5836946964263916e-01 6.3370758295059204e-01</leafValues></_>
        <_>
          <internalNodes>
            0 -1 1 -17891334 -719617639 2140921693 -177635305
            -1484727558 -721115939 -409228801 -15738181</internalNodes>
          <leafValues>
            -8.9590680599212646e-01 5.4690444469451904e-01</leafValues></_></weakClassifiers></_>
    <!-- stage 6 -->
    <_>
      <maxWeakCount>3</maxWeakCount>
      <stageThreshold>-1.0808669328689575e+00</stageThreshold>
      <weakClassifiers>
        <_>
          <internalNodes>
            0 -1 36 -67404289 932563423 -176851457 -1153820134
            1772305151 2043814026 -86426646 -1073791058</internalNodes>
          <leafValues>
            -8.0972081422805786e-01 6.1514192819595337e-01</leafValues></_>
        <_>
          <internalNodes>
            0 -1 54 1990056959 1821511797 -2128489985 -385281889
            -125042866 -615538178 -1078005769 -68160331</internalNodes>
          <leafValues>
            -9.2246943712234497e-01 5.6671899557113647e-01</leafValues></_>
        <_>
          <internalNodes>
            0 -1 33 -1566924033 -456746918 1947276281 -606100685
            -1207196773 -1433823712 1595718299 -20281158</internalNodes>
          <leafValues>
            -7.6664304733276367e-01 6.5132331848144531e-01</leafValues></_></weakClassifiers></_>
    <!-- stage 7 -->
    <_>
      <maxWeakCount>3</maxWeakCount>
      <stageThreshold>-1.0086926221847534e+00</stageThreshold>
      <weakClassifiers>
        <_>
          <internalNodes>
            0 -1 56 -1118318081 595030486 -1186761729 -1690180817
            -1282035203 -1172730887 1005785853 -268472373</internalNodes>
          <leafValues>
            -7.6693224906921387e-01 6.3149076700210571e-01</leafValues></_>
        <_>
          <internalNodes>
            0 -1 18 398424535 -269518874 -1317808801 -220225729 37955673
            -954229665 -937424757 -21617</internalNodes>
          <leafValues>
            -8.6216443777084351e-01 5.9435206651687622e-01</leafValues></_>
        <_>
          <internalNodes>
            0 -1 66 -1076887563 -1467100869 269594883 -2030050921
            -1172576065 -930865145 -250365777 -1358960657</internalNodes>
          <leafValues>
            -7.7801889181137085e-01 6.6684848070144653e-01</leafValues></_></weakClassifiers></_>
    <!-- stage 8 -->
    <_>
      <maxWeakCount>3</maxWeakCount>
      <stageThreshold>-1.0553098917007446e+00</stageThreshold>
      <weakClassifiers>
        <_>
          <internalNodes>
            0 -1 0 2015876863 -538973505 -1995967273 -573058165
            -1742552833 -74992693 1360509941 -143297673</internalNodes>
          <leafValues>
            -8.1223630905151367e-01 5.7733535766601563e-01</leafValues></_>
        <_>
          <internalNodes>
            0 -1 48 -1344454859 -571182818 -1826556971 -15863527
            -242748421 -637484800 -793249331 -2676001</internalNodes>
          <leafValues>
            -8.3938056230545044e-01 5.9634864330291748e-01</leafValues></_>
        <_>
          <internalNodes>
            0 -1 28 -7373313 1061052287 -1324744865 1058671442
            1377581375 2146962053 -479240133 -1090819142</internalNodes>
          <leafValues>
            -7.9326474666595459e-01 6.3066071271896362e-01</leafValues></_></weakClassifiers></_>
    <!-- stage 9 -->
    <_>
      <maxWeakCount>4</maxWeakCount>
      <stageThreshold>-5.9088307619094849e-01</stageThreshold>
      <weakClassifiers>
        <_>
          <internalNodes>
            0 -1 38 -546287105 -640577341 -32375614 -593496611
            -1322665761 -1987379014 -67568905 -294401</internalNodes>
          <leafValues>
            -8.7985867261886597e-01 4.7074466943740845e-01</leafValues></_>
        <_>
          <internalNodes>
            0 -1 21 -554434593 -28214942 -1793983621 -83116798
            -101582953 -67038975 -615394937 -676857214</internalNodes>
          <leafValues>
            -7.7247619628906250e-01 6.2062305212020874e-01</leafValues></_>
        <_>
          <internalNodes>
            0 -1 9 -15476769 -250365507 965155002 965988571 1810037503
            2058470861 2060148735 1861875561</internalNodes>
          <leafValues>
            -8.5309779644012451e-01 5.3874719142913818e-01</leafValues></_>
        <_>
          <internalNodes>
            0 -1 59 -201925931 -1220308777 1174493195 -78442481 -7694508
            -1444773758 -70321193 -67126863</internalNodes>
          <leafValues>
            -7.9828417301177979e-01 5.6394624710083008e-01</leafValues></_></weakClassifiers></_>
    <!-- stage 10 -->
    <_>
      <maxWeakCount>4</maxWeakCount>
      <stageThreshold>-1.8571130037307739e+00</stageThreshold>
      <weakClassifiers>
        <_>
          <internalNodes>
            0 -1 53 -612174337 -140962607 -754393865 -104247076
            -1919174049 -389414775 -1148670985 -1080316982</internalNodes>
          <leafValues>
            -9.0967744588851929e-01 3.7772396206855774e-01</leafValues></_>
        <_>
          <internalNodes>
            0 -1 24 -52994753 -237167141 -254750209 -168311801
            -522145601 -125295943 -1702178369 1343154211</internalNodes>
          <leafValues>
            -8.2207536697387695e-01 5.2168667316436768e-01</leafValues></_>
        <_>
          <internalNodes>
            0 -1 62 -103842955 -74476529 -2121822065 -3874273 -376458643
            -1161289216 -829445921 -4010705</internalNodes>
          <leafValues>
            -7.3491072654724121e-01 5.8589667081832886e-01</leafValues></_>
        <_>
          <internalNodes>
            0 -1 13 -1881805825 -233704353 -1861044321 -40773801
            -433983777 -73559763 -291287497 -940391599</internalNodes>
          <leafValues>
            -7.1125692129135132e-01 6.6593825817108154e-01</leafValues></_></weakClassifiers></_>
    <!-- stage 11 -->
    <_>
      <maxWeakCount>4</maxWeakCount>
      <stageThreshold>-8.2463234663009644e-01</stageThreshold>
      <weakClassifiers>
        <_>
          <internalNodes>
            0 -1 35 -69740581 -972599141 -184479457 -703491873
            -243031381 -133586816 -767249477 -24974869</internalNodes>
          <leafValues>
            -8.0313199758529663e-01 4.5968881249427795e-01</leafValues></_>
        <_>
          <internalNodes>
            0 -1 23 1367672493 -111832932 1506858461 -6416999 687971243
            -7272045 -628577563 -2071688704</internalNodes>
          <leafValues>
            -8.1317776441574097e-01 4.9424085021018982e-01</leafValues></_>
        <_>
          <internalNodes>
            0 -1 57 -540060683 -791723942 1426293215 -707804675
            -1194114789 -930381684 -341054875 -3149727</internalNodes>
          <leafValues>
            -9.3804401159286499e-01 4.4570544362068176e-01</leafValues></_>
        <_>
          <internalNodes>
            0 -1 5 1847390207 -654291707 -1626302691 -83837424 555798187
            -1710618614 -341161027 1728790791</internalNodes>
          <leafValues>
            -8.5555493831634521e-01 4.6690055727958679e-01</leafValues></_></weakClassifiers></_>
    <!-- stage 12 -->
    <_>
      <maxWeakCount>5</maxWeakCount>
      <stageThreshold>-1.3322478532791138e+00</stageThreshold>
      <weakClassifiers>
        <_>
          <internalNodes>
            0 -1 63 -178257925 -63571033 -785944101 -1395663139
            -960113925 -56633133 -6293297 -1929382401</internalNodes>
          <leafValues>
            -7.3652696609497070e-01 5.7595992088317871e-01</leafValues></_>
        <_>
          <internalNodes>
            0 -1 12 1931334911 -721209917 810619494 -273476542
            -1154244705 -574024703 1058283443 -805591771</internalNodes>
          <leafValues>
            -8.2183355093002319e-01 4.9713975191116333e-01</leafValues></_>
        <_>
          <internalNodes>
            0 -1 46 -648561353 -960060131 -774864677 -2066377449
            -1047684385 -1060077502 -1026972977 -1120225221</internalNodes>
          <leafValues>
            -8.0857282876968384e-01 4.7863340377807617e-01</leafValues></_>
        <_>
          <internalNodes>
            0 -1 3 2024273143 -197637 1293006407 -67116435 1970533751
            -876443178 2035402567 -11049357</internalNodes>
          <leafValues>
            -7.5544983148574829e-01 5.3014892339706421e-01</leafValues></_>
        <_>
          <internalNodes>
            0 -1 37 -1156333229 -426049517 -1605353341 -287947888
            -1857978109 -241893376 -620068093 -159597909</internalNodes>
          <leafValues>
            -8.0955779552459717e-01 5.0513440370559692e-01</leafValues></_></weakClassifiers></_>
    <!-- stage 13 -->
    <_>
      <maxWeakCount>5</maxWeakCount>
      <stageThreshold>-1.4355916976928711e+00</stageThreshold>
      <weakClassifiers>
        <_>
          <internalNodes>
            0 -1 53 -654281217 -700088117 -1877192491 -1875115880
            -1182105569 -89521960 -292905225 -84229719</internalNodes>
          <leafValues>
            -9.0476191043853760e-01 3.1408774852752686e-01</leafValues></_>
        <_>
          <internalNodes>
            0 -1 29 564996511 221249689 420623839 -14872427 1887965913
            2075828640 998911162 -1145468453</internalNodes>
          <leafValues>
            -7.4240607023239136e-01 5.5977910757064819e-01</leafValues></_>
        <_>
          <internalNodes>
            0 -1 31 -19157761 -23341295 993067283 -48021317 -1185746745
            -641712000 -289939195 -1920675189</internalNodes>
          <leafValues>
            -6.6021662950515747e-01 6.1551368236541748e-01</leafValues></_>
        <_>
          <internalNodes>
            0 -1 32 -287050962 -128364219 1899426683 -16707247
            -1951802949 -1019162590 2021695555 -92155766</internalNodes>
          <leafValues>
            -8.5727691650390625e-01 4.2606487870216370e-01</leafValues></_>
        <_>
          <internalNodes>
            0 -1 6 305910207 1595225948 -1073422187 -141979509
            1880282303 -662503392 947989135 1952788053</internalNodes>
          <leafValues>
            -7.4213027954101563e-01 5.1022017002105713e-01</leafValues></_></weakClassifiers></_>
    <!-- stage 14 -->
    <_>
      <maxWeakCount>4</maxWeakCount>
      <stageThreshold>-7.9564875364303589e-01</stageThreshold>
      <weakClassifiers>
        <_>
          <internalNodes>
            0 -1 64 -2369793 1146336457 -687238785 -26745871 -305284402
            1411752615 -43255046 -922748193</internalNodes>
          <leafValues>
            -7.2012257575988770e-01 5.0160771608352661e-01</leafValues></_>
        <_>
          <internalNodes>
            0 -1 11 -1722287914 1561408021 357694847 -786999011
            -1841115137 1577615591 -914238977 -581837633</internalNodes>
          <leafValues>
            -8.9048612117767334e-01 4.2196825146675110e-01</leafValues></_>
        <_>
          <internalNodes>
            0 -1 4 880801191 -59798929 1221036671 -547890337 1549585087
            -1081490485 1533783973 1953808757</internalNodes>
          <leafValues>
            -8.8650524616241455e-01 3.7139469385147095e-01</leafValues></_>
        <_>
          <internalNodes>
            0 -1 61 -1679835599 -800096056 585271485 -1035337331
            -125130506 -2138469368 -2146727207 -821564886</internalNodes>
          <leafValues>
            -7.6474183797836304e-01 4.7973495721817017e-01</leafValues></_></weakClassifiers></_>
    <!-- stage 15 -->
    <_>
      <maxWeakCount>5</maxWeakCount>
      <stageThreshold>-1.5379332304000854e+00</stageThreshold>
      <weakClassifiers>
        <_>
          <internalNodes>
            0 -1 55 -1046112289 -805306368 -2067791745 -1736171367
            -1341945009 -1719623544 -611538697 -73564029</internalNodes>
          <leafValues>
            -8.9519649744033813e-01 2.4288840591907501e-01</leafValues></_>
        <_>
          <internalNodes>
            0 -1 45 -1257014573 1997623505 -1877896999 -1176564650
            1934756015 -783646120 -1189873442 -1079366996</internalNodes>
          <leafValues>
            -6.8526166677474976e-01 4.9868360161781311e-01</leafValues></_>
        <_>
          <internalNodes>
            0 -1 8 936844603 -5963290 -1740827817 -488683729 -2099085310
            229368009 1336085967 1409273995</internalNodes>
          <leafValues>
            -8.5730141401290894e-01 4.0887659788131714e-01</leafValues></_>
        <_>
          <internalNodes>
            0 -1 30 -711602113 -774615015 -662667047 -49446895
            -908567813 2111340624 -258997505 1135262724</internalNodes>
          <leafValues>
            -7.6219022274017334e-01 4.6838471293449402e-01</leafValues></_>
        <_>
          <internalNodes>
            0 -1 10 1359528575 -989173559 -2130585173 -16133847
            -536812353 -1174370047 858838711 244502772</internalNodes>
          <leafValues>
            -7.4224638938903809e-01 5.3395569324493408e-01</leafValues></_></weakClassifiers></_>
    <!-- stage 16 -->
    <_>
      <maxWeakCount>6</maxWeakCount>
      <stageThreshold>-1.0468512773513794e+00</stageThreshold>
      <weakClassifiers>
        <_>
          <internalNodes>
            0 -1 58 -792375041 -1597406951 1342214611 -131911539
            -1031014849 -2000650098 -120917385 -70276472</internalNodes>
          <leafValues>
            -7.9302048683166504e-01 3.4545454382896423e-01</leafValues></_>
        <_>
          <internalNodes>
            0 -1 60 -67391521 -108557378 1489536043 -1075630933
            -2105504896 -1300182397 -2145334645 398961295</internalNodes>
          <leafValues>
            -8.3479535579681396e-01 3.6645829677581787e-01</leafValues></_>
        <_>
          <internalNodes>
            0 -1 25 -295766561 -15236989 1358954577 1426133255
            -821916853 -83361790 1329974085 -894571068</internalNodes>
          <leafValues>
            -7.2898054122924805e-01 4.4037479162216187e-01</leafValues></_>
        <_>
          <internalNodes>
            0 -1 56 -1176552161 -2076081776 -2063511458 877416586
            -567547649 1491763270 734544120 2038156010</internalNodes>
          <leafValues>
            -7.4176216125488281e-01 4.7894895076751709e-01</leafValues></_>
        <_>
          <internalNodes>
            0 -1 39 -2138365551 -1714826855 16797983 -715795750
            -1432878877 -1564934135 -232725859 -1899226367</internalNodes>
          <leafValues>
            -6.9460558891296387e-01 4.7701498866081238e-01</leafValues></_>
        <_>
          <internalNodes>
            0 -1 2 1476615927 -803503815 1076236823 -1248353719
            1509972935 -1954365021 -394181919 -148544973</internalNodes>
          <leafValues>
            -7.3313808441162109e-01 4.7198858857154846e-01</leafValues></_></weakClassifiers></_>
    <!-- stage 17 -->
    <_>
      <maxWeakCount>4</maxWeakCount>
      <stageThreshold>-1.7842242717742920e+00</stageThreshold>
      <weakClassifiers>
        <_>
          <internalNodes>
            0 -1 49 -976495297 -652666865 781094351 -1274508280
            -2004317549 -1501001600 -1610049394 -1987147576</internalNodes>
          <leafValues>
            -6.8190854787826538e-01 4.9243697524070740e-01</leafValues></_>
        <_>
          <internalNodes>
            0 -1 65 898348031 767557559 -787331044 83218833 -529493809
            -1232567678 -1064318207 952889902</internalNodes>
          <leafValues>
            -8.0075168609619141e-01 3.9971381425857544e-01</leafValues></_>
        <_>
          <internalNodes>
            0 -1 34 -1057556706 -270593713 1086914561 -959209215 4399237
            -856621056 471465987 -33493109</internalNodes>
          <leafValues>
            -8.9074164628982544e-01 3.5266467928886414e-01</leafValues></_>
        <_>
          <internalNodes>
            0 -1 41 -1294789133 -183893311 1426084033 -787841024
            -1274533758 -801111936 -133168958 -557711318</internalNodes>
          <leafValues>
            -6.5422862768173218e-01 5.6922352313995361e-01</leafValues></_></weakClassifiers></_>
    <!-- stage 18 -->
    <_>
      <maxWeakCount>5</maxWeakCount>
      <stageThreshold>-1.3374770879745483e+00</stageThreshold>
      <weakClassifiers>
        <_>
          <internalNodes>
            0 -1 50 -786988129 565419 239265 -1593696122 1686217295
            134259209 -2138396121 -1563776326</internalNodes>
          <leafValues>
            -7.6717114448547363e-01 3.5849055647850037e-01</leafValues></_>
        <_>
          <internalNodes>
            0 -1 19 827329651 881957264 -1878849223 -1131085812
            587206688 2055274521 -2147450693 -1448540013</internalNodes>
          <leafValues>
            -7.6558011770248413e-01 4.1161394119262695e-01</leafValues></_>
        <_>
          <internalNodes>
            0 -1 22 -1811934937 436290563 -175015952 -1873477423
            1074008303 134227056 -1308581137 -796913484</internalNodes>
          <leafValues>
            -7.5198167562484741e-01 4.3569687008857727e-01</leafValues></_>
        <_>
          <internalNodes>
            0 -1 67 1099128906 1116999684 -1862254312 -1067441760
            -795803645 -1878982528 -1568632670 -1360087382</internalNodes>
          <leafValues>
            -7.5409144163131714e-01 4.8990061879158020e-01</leafValues></_>
        <_>
          <internalNodes>
            0 -1 52 -1741586057 -1986948973 -267874219 -1859055487
            1611139163 -2042593142 -386236137 -89415435</internalNodes>
          <leafValues>
            -6.6352534294128418e-01 5.1376634836196899e-01</leafValues></_></weakClassifiers></_></stages>
  <features>
    <_>
      <rect>
        0 0 2 5</rect></_>
    <_>
      <rect>
        0 0 5 6</rect></_>
    <_>
      <rect>
        0 1 2 5</rect></_>
    <_>
      <rect>
        0 2 2 4</rect></_>
    <_>
      <rect>
        1 0 2 4</rect></_>
    <_>
      <rect>
        1 0 4 3</rect></_>
    <_>
      <rect>
        1 4 2 5</rect></_>
    <_>
      <rect>
        1 5 6 5</rect></_>
    <_>
      <rect>
        1 6 4 3</rect></_>
    <_>
      <rect>
        1 14 6 2</rect></_>
    <_>
      <rect>
        2 0 3 2</rect></_>
    <_>
      <rect>
        2 2 6 6</rect></_>
    <_>
      <rect>
        2 5 4 3</rect></_>
    <_>
      <rect>
        3 0 3 2</rect></_>
    <_>
      <rect>
        3 2 2 3</rect></_>
    <_>
      <rect>
        3 2 4 4</rect></_>
    <_>
      <rect>
        3 2 5 5</rect></_>
    <_>
      <rect>
        3 7 3 2</rect></_>
    <_>
      <rect>
        3 8 3 2</rect></_>
    <_>
      <rect>
        3 17 4 1</rect></_>
    <_>
      <rect>
        4 0 2 3</rect></_>
    <_>
      <rect>
        4 2 2 3</rect></_>
    <_>
      <rect>
        4 7 5 2</rect></_>
    <_>
      <rect>
        5 0 3 1</rect></_>
    <_>
      <rect>
        5 0 4 2</rect></_>
    <_>
      <rect>
        5 1 1 3</rect></_>
    <_>
      <rect>
        5 8 2 1</rect></_>
    <_>
      <rect>
        5 8 2 2</rect></_>
    <_>
      <rect>
        5 14 2 2</rect></_>
    <_>
      <rect>
        5 17 4 1</rect></_>
    <_>
      <rect>
        6 1 4 2</rect></_>
    <_>
      <rect>
        6 3 1 2</rect></_>
    <_>
      <rect>
        6 3 2 2</rect></_>
    <_>
      <rect>
        6 4 1 1</rect></_>
    <_>
      <rect>
        6 7 1 3</rect></_>
    <_>
      <rect>
        6 10 1 1</rect></_>
    <_>
      <rect>
        6 14 2 2</rect></_>
    <_>
      <rect>
        7 7 1 2</rect></_>
    <_>
      <rect>
        7 10 2 1</rect></_>
    <_>
      <rect>
        8 0 1 1</rect></_>
    <_>
      <rect>
        8 2 1 6</rect></_>
    <_>
      <rect>
        8 3 1 1</rect></_>
    <_>
      <rect>
        8 3 2 2</rect></_>
    <_>
      <rect>
        8 6 3 3</rect></_>
    <_>
      <rect>
        8 14 2 2</rect></_>
    <_>
      <rect>
        8 16 1 1</rect></_>
    <_>
      <rect>
        9 0 2 3</rect></_>
    <_>
      <rect>
        9 1 2 3</rect></_>
    <_>
      <rect>
        9 2 1 2</rect></_>
    <_>
      <rect>
        9 3 3 2</rect></_>
    <_>
      <rect>
        9 4 2 4</rect></_>
    <_>
      <rect>
        9 6 2 2</rect></_>
    <_>
      <rect>
        9 7 1 1</rect></_>
    <_>
      <rect>
        9 8 2 1</rect></_>
    <_>
      <rect>
        9 8 2 2</rect></_>
    <_>
      <rect>
        9 9 2 1</rect></_>
    <_>
      <rect>
        9 14 2 2</rect></_>
    <_>
      <rect>
        10 6 1 2</rect></_>
    <_>
      <rect>
        10 7 1 2</rect></_>
    <_>
      <rect>
        10 9 1 2</rect></_>
    <_>
      <rect>
        11 0 3 6</rect></_>
    <_>
      <rect>
        11 3 1 2</rect></_>
    <_>
      <rect>
        12 3 1 2</rect></_>
    <_>
      <rect>
        14 0 2 6</rect></_>
    <_>
      <rect>
        14 4 2 3</rect></_>
    <_>
      <rect>
        14 8 2 4</rect></_>
    <_>
      <rect>
        16 1 1 6</rect></_>
    <_>
      <rect>
        17 5 1 2</rect></_></features></cascade>
</opencv_storage>
