<?xml version="1.0"?>
<opencv_storage>
<cascade>
  <stageType>BOOST</stageType>
  <featureType>LBP</featureType>
  <height>20</height>
  <width>20</width>
  <stageParams>
    <boostType>GAB</boostType>
    <minHitRate>9.9900001287460327e-01</minHitRate>
    <maxFalseAlarm>5.0000000000000000e-01</maxFalseAlarm>
    <weightTrimRate>9.4999999999999996e-01</weightTrimRate>
    <maxDepth>1</maxDepth>
    <maxWeakCount>100</maxWeakCount></stageParams>
  <featureParams>
    <maxCatCount>256</maxCatCount>
    <featSize>1</featSize></featureParams>
  <stageNum>20</stageNum>
  <stages>
    <!-- stage 0 -->
    <_>
      <maxWeakCount>2</maxWeakCount>
      <stageThreshold>-1.0483434051275253e-01</stageThreshold>
      <weakClassifiers>
        <_>
          <internalNodes>
            0 -1 21 -586950434 -780075008 16777237 1359544448
            -1073696597 -1199570806 -2113877797 -611594037</internalNodes>
          <leafValues>
            -9.7254002094268799e-01 9.0265488624572754e-01</leafValues></_>
        <_>
          <internalNodes>
            0 -1 10 -671035172 319897600 285278225 1497432065 32939
            -1736310656 8388779 -542386037</internalNodes>
          <leafValues>
            -9.8242110013961792e-01 8.6770570278167725e-01</leafValues></_></weakClassifiers></_>
    <!-- stage 1 -->
    <_>
      <maxWeakCount>2</maxWeakCount>
      <stageThreshold>-2.7156847715377808e-01</stageThreshold>
      <weakClassifiers>
        <_>
          <internalNodes>
            0 -1 17 -745351938 -150880239 -1828613099 -49606333
            -2080210706 -1559756221 -2121618705 -68429685</internalNodes>
          <leafValues>
            -9.9043059349060059e-01 7.8775513172149658e-01</leafValues></_>
        <_>
          <internalNodes>
            0 -1 36 -212217377 1493270785 -1878900263 1426132233
            -1316978437 -1071642494 -2105368149 859830619</internalNodes>
          <leafValues>
            -9.9069589376449585e-01 7.1886211633682251e-01</leafValues></_></weakClassifiers></_>
    <!-- stage 2 -->
    <_>
      <maxWeakCount>2</maxWeakCount>
      <stageThreshold>-2.3459912836551666e-01</stageThreshold>
      <weakClassifiers>
        <_>
          <internalNodes>
            0 -1 45 -652521451 -677183485 -2130706429 -385286015
            -897497080 -2147481600 -1064664950 -68427061</internalNodes>
          <leafValues>
            -9.3349170684814453e-01 7.1074378490447998e-01</leafValues></_>
        <_>
          <internalNodes>
            0 -1 0 -81789983 -208170744 1078013954 -749759854
            -1857970014 -2138472448 -2087604061 -745541376</internalNodes>
          <leafValues>
            -9.4534289836883545e-01 7.1945190429687500e-01</leafValues></_></weakClassifiers></_>
    <!-- stage 3 -->
    <_>
      <maxWeakCount>2</maxWeakCount>
      <stageThreshold>-1.4965060353279114e-01</stageThreshold>
      <weakClassifiers>
        <_>
          <internalNodes>
            0 -1 23 -1577058157 -1601404927 1077940292 -249888768
            -1895726929 -938336120 -1006521638 -340802934</internalNodes>
          <leafValues>
            -9.0719258785247803e-01 7.3275864124298096e-01</leafValues></_>
        <_>
          <internalNodes>
            0 -1 51 -1852988997 -1592156156 -956232549 -922025910
            -1593468229 25166475 1351213231 -3148609</internalNodes>
          <leafValues>
            -8.8240921497344971e-01 7.9689550399780273e-01</leafValues></_></weakClassifiers></_>
    <!-- stage 4 -->
    <_>
      <maxWeakCount>2</maxWeakCount>
      <stageThreshold>-2.4020318686962128e-01</stageThreshold>
      <weakClassifiers>
        <_>
          <internalNodes>
            0 -1 8 -728049153 -682245859 -738033389 -549119931
            -805140273 -1430058751 -504759413 -236983525</internalNodes>
          <leafValues>
            -9.0825688838958740e-01 7.7092510461807251e-01</leafValues></_>
        <_>
          <internalNodes>
            0 -1 41 -15994121 -99411695 -2013036479 1545293963
            -687085361 1778516225 -662060629 667939467</internalNodes>
          <leafValues>
            -9.5399934053421021e-01 6.6805368661880493e-01</leafValues></_></weakClassifiers></_>
    <!-- stage 5 -->
    <_>
      <maxWeakCount>3</maxWeakCount>
      <stageThreshold>-1.1732522249221802e+00</stageThreshold>
      <weakClassifiers>
        <_>
          <internalNodes>
            0 -1 7 -136972289 -242384891 -1073708849 -204242929
            -976060277 2014511235 -1743795781 930338991</internalNodes>
          <leafValues>
            -9.5555555820465088e-01 6.4341086149215698e-01</leafValues></_>
        <_>
          <internalNodes>
            0 -1 48 -788488145 -788529016 536936729 -1038516207
            -662043888 -939491312 -388265979 -83891317</internalNodes>
          <leafValues>
            -8.8055592775344849e-01 7.5448906421661377e-01</leafValues></_>
        <_>
          <internalNodes>
            0 -1 16 -793053742 -715400891 -2126282467 1406507011
            -752307969 -83668827 -402159461 -106222689</internalNodes>
          <leafValues>
            -9.7344791889190674e-01 6.6285926103591919e-01</leafValues></_></weakClassifiers></_>
    <!-- stage 6 -->
    <_>
      <maxWeakCount>3</maxWeakCount>
      <stageThreshold>-1.0032200813293457e+00</stageThreshold>
      <weakClassifiers>
        <_>
          <internalNodes>
            0 -1 2 -620299809 -786853673 -1342122989 -40665071
            -780039510 -125171572 671659751 -3194715</internalNodes>
          <leafValues>
            -8.4478938579559326e-01 7.5471699237823486e-01</leafValues></_>
        <_>
          <internalNodes>
            0 -1 11 -206462333 -612335357 21168640 -183435072 -997588960
            -805208064 -1592950270 -139755485</internalNodes>
          <leafValues>
            -8.6968433856964111e-01 7.1869456768035889e-01</leafValues></_>
        <_>
          <internalNodes>
            0 -1 20 -204740937 -1340432169 33656841 -972390002
            -1340047360 -2147319808 -543719157 -286594309</internalNodes>
          <leafValues>
            -8.7712532281875610e-01 7.6069247722625732e-01</leafValues></_></weakClassifiers></_>
    <!-- stage 7 -->
    <_>
      <maxWeakCount>2</maxWeakCount>
      <stageThreshold>-3.4157609939575195e-01</stageThreshold>
      <weakClassifiers>
        <_>
          <internalNodes>
            0 -1 35 -439164961 -596291452 487621853 819658763
            -1731624709 -897449854 -661999638 -1198880613</internalNodes>
          <leafValues>
            -9.3999999761581421e-01 5.8935362100601196e-01</leafValues></_>
        <_>
          <internalNodes>
            0 -1 14 -788408353 -784334591 -1727940454 -1089863727
            -2079067489 -1711276032 -1281307137 1938809227</internalNodes>
          <leafValues>
            -9.3092972040176392e-01 6.2718176841735840e-01</leafValues></_></weakClassifiers></_>
    <!-- stage 8 -->
    <_>
      <maxWeakCount>3</maxWeakCount>
      <stageThreshold>-1.0960807800292969e+00</stageThreshold>
      <weakClassifiers>
        <_>
          <internalNodes>
            0 -1 3 1360058869 -248197104 1090592287 -1727938219
            -528480070 -98434903 -1735858021 2138374290</internalNodes>
          <leafValues>
            -9.3154036998748779e-01 6.2992125749588013e-01</leafValues></_>
        <_>
          <internalNodes>
            0 -1 1 -179046497 -244936245 -1023342321 -2248553
            -1073643091 411613344 -259937585 -704683163</internalNodes>
          <leafValues>
            -8.6776936054229736e-01 7.3430323600769043e-01</leafValues></_>
        <_>
          <internalNodes>
            0 -1 18 -732140047 1503199425 -1526617847 1560346627
            -1056427649 1235750978 -2013212725 -65349</internalNodes>
          <leafValues>
            -8.5823267698287964e-01 7.1613067388534546e-01</leafValues></_></weakClassifiers></_>
    <!-- stage 9 -->
    <_>
      <maxWeakCount>3</maxWeakCount>
      <stageThreshold>-1.1417410373687744e+00</stageThreshold>
      <weakClassifiers>
        <_>
          <internalNodes>
            0 -1 34 -68684865 1364529431 419760271 -325515123
            -1467243806 -1182224382 -324416790 -387331845</internalNodes>
          <leafValues>
            -8.3928573131561279e-01 7.2093021869659424e-01</leafValues></_>
        <_>
          <internalNodes>
            0 -1 12 -681631465 1406366151 1350589726 -115930993
            1385964360 2023768194 -1198403957 -74487157</internalNodes>
          <leafValues>
            -9.1708785295486450e-01 6.0920488834381104e-01</leafValues></_>
        <_>
          <internalNodes>
            0 -1 4 -804201985 -248397615 155292037 -117130864 1611727807
            -253194056 1753528991 2064187890</internalNodes>
          <leafValues>
            -9.4558340311050415e-01 6.2578672170639038e-01</leafValues></_></weakClassifiers></_>
    <!-- stage 10 -->
    <_>
      <maxWeakCount>2</maxWeakCount>
      <stageThreshold>-3.8137039542198181e-01</stageThreshold>
      <weakClassifiers>
        <_>
          <internalNodes>
            0 -1 43 -754324649 -114195489 -1685841269 -978739181
            -660428474 807993395 -1433296210 -74736914</internalNodes>
          <leafValues>
            -9.2518705129623413e-01 5.7251906394958496e-01</leafValues></_>
        <_>
          <internalNodes>
            0 -1 26 -584484449 -139907620 -1811806769 -324066850
            1395018171 -1121410942 -1433277493 -319098226</internalNodes>
          <leafValues>
            -9.4223123788833618e-01 5.4381662607192993e-01</leafValues></_></weakClassifiers></_>
    <!-- stage 11 -->
    <_>
      <maxWeakCount>2</maxWeakCount>
      <stageThreshold>-3.7756156921386719e-01</stageThreshold>
      <weakClassifiers>
        <_>
          <internalNodes>
            0 -1 5 -539241473 -247365243 -1068232689 -913602289
            -255735141 -2000633783 -749220017 2002254627</internalNodes>
          <leafValues>
            -8.9393937587738037e-01 4.9812734127044678e-01</leafValues></_>
        <_>
          <internalNodes>
            0 -1 42 -11274757 -1284522545 -2080079616 -1319908989
            -337923909 435196043 1048789690 1606916239</internalNodes>
          <leafValues>
            -8.7568891048431396e-01 6.4159834384918213e-01</leafValues></_></weakClassifiers></_>
    <!-- stage 12 -->
    <_>
      <maxWeakCount>3</maxWeakCount>
      <stageThreshold>-1.0915518999099731e+00</stageThreshold>
      <weakClassifiers>
        <_>
          <internalNodes>
            0 -1 47 -1056741001 -1042874368 276922761 -787152805
            -492197565 -87522144 -1851070333 -7622517</internalNodes>
          <leafValues>
            -8.2766437530517578e-01 6.4864861965179443e-01</leafValues></_>
        <_>
          <internalNodes>
            0 -1 9 -956246529 -786874174 1501577627 -582647775
            1360036091 1753907208 814363043 -5734265</internalNodes>
          <leafValues>
            -8.5186588764190674e-01 7.1215480566024780e-01</leafValues></_>
        <_>
          <internalNodes>
            0 -1 38 -1058832188 -116391791 1631584460 -574156655
            -668949810 -1685913436 -2136749876 -520181605</internalNodes>
          <leafValues>
            -9.0441846847534180e-01 5.8797836303710938e-01</leafValues></_></weakClassifiers></_>
    <!-- stage 13 -->
    <_>
      <maxWeakCount>3</maxWeakCount>
      <stageThreshold>-1.0658448934555054e+00</stageThreshold>
      <weakClassifiers>
        <_>
          <internalNodes>
            0 -1 47 -251438761 -646769655 1879314573 -682417973
            -1877630093 -896794624 -1299982201 -1333089</internalNodes>
          <leafValues>
            -8.3833718299865723e-01 6.1739128828048706e-01</leafValues></_>
        <_>
          <internalNodes>
            0 -1 32 -799959649 292886325 318833437 429195613 -2112947974
            -2031383 -1721653046 -1204231525</internalNodes>
          <leafValues>
            -8.7526595592498779e-01 6.0955691337585449e-01</leafValues></_>
        <_>
          <internalNodes>
            0 -1 31 1402337247 -1153055481 285342104 969408580
            -922164021 -1651899903 943815131 -1162147414</internalNodes>
          <leafValues>
            -8.0797034502029419e-01 6.6260087490081787e-01</leafValues></_></weakClassifiers></_>
    <!-- stage 14 -->
    <_>
      <maxWeakCount>3</maxWeakCount>
      <stageThreshold>-1.1737396717071533e+00</stageThreshold>
      <weakClassifiers>
        <_>
          <internalNodes>
            0 -1 27 -1852591689 -1721953967 -1995860481 -1379067489
            1058875 -402579439 -1140163409 -320287749</internalNodes>
          <leafValues>
            -8.1986141204833984e-01 5.8260869979858398e-01</leafValues></_>
        <_>
          <internalNodes>
            0 -1 13 1494308819 -7069269 1157697887 -552394472 1277168062
            -1366744956 948063417 2065760650</internalNodes>
          <leafValues>
            -9.0814089775085449e-01 5.6573122739791870e-01</leafValues></_>
        <_>
          <internalNodes>
            0 -1 46 -1053830637 -2129014634 1078264521 -569868006
            -209139451 -2113353566 -1953856572 -516194172</internalNodes>
          <leafValues>
            -8.2390993833541870e-01 5.5426263809204102e-01</leafValues></_></weakClassifiers></_>
    <!-- stage 15 -->
    <_>
      <maxWeakCount>3</maxWeakCount>
      <stageThreshold>-1.1710232496261597e+00</stageThreshold>
      <weakClassifiers>
        <_>
          <internalNodes>
            0 -1 30 -1022897193 -914006946 89196955 -1343519653
            -787074641 -509408893 990466955 -321333062</internalNodes>
          <leafValues>
            -8.8265305757522583e-01 4.6125462651252747e-01</leafValues></_>
        <_>
          <internalNodes>
            0 -1 37 -452989601 -665741221 -794820373 -398343128
            -1879003909 -1060076831 1887453624 -487780275</internalNodes>
          <leafValues>
            -7.9523020982742310e-01 5.9619456529617310e-01</leafValues></_>
        <_>
          <internalNodes>
            0 -1 25 1346892247 -1073033005 1359020591 -836714342
            -1870614351 -1434255229 -2147188596 -2190718</internalNodes>
          <leafValues>
            -8.3704763650894165e-01 5.7431632280349731e-01</leafValues></_></weakClassifiers></_>
    <!-- stage 16 -->
    <_>
      <maxWeakCount>2</maxWeakCount>
      <stageThreshold>-4.0248364210128784e-01</stageThreshold>
      <weakClassifiers>
        <_>
          <internalNodes>
            0 -1 19 -311642185 -1291718460 -1568456445 -243173299
            -1039537785 -1476382656 -343872706 -907290238</internalNodes>
          <leafValues>
            -8.3941608667373657e-01 4.9206349253654480e-01</leafValues></_>
        <_>
          <internalNodes>
            0 -1 28 1002801533 929141191 1409628317 265659755
            -1596945985 -1467900416 -1180649333 1017585838</internalNodes>
          <leafValues>
            -8.9454710483551025e-01 5.0394558906555176e-01</leafValues></_></weakClassifiers></_>
    <!-- stage 17 -->
    <_>
      <maxWeakCount>4</maxWeakCount>
      <stageThreshold>-7.4100494384765625e-01</stageThreshold>
      <weakClassifiers>
        <_>
          <internalNodes>
            0 -1 44 -203461793 -204144574 -1040154495 -813497721
            -1606391805 -2101215222 -511464534 -67187989</internalNodes>
          <leafValues>
            -8.6363637447357178e-01 4.5318353176116943e-01</leafValues></_>
        <_>
          <internalNodes>
            0 -1 6 -603464321 -1026993505 353042941 -674655648
            -905785211 -2088631838 1104921559 -139540686</internalNodes>
          <leafValues>
            -8.4745001792907715e-01 4.9736854434013367e-01</leafValues></_>
        <_>
          <internalNodes>
            0 -1 49 -308281371 -1857384305 -2079817600 -710885367
            269414769 1210908938 -383545052 -208680799</internalNodes>
          <leafValues>
            -8.1894272565841675e-01 5.4225581884384155e-01</leafValues></_>
        <_>
          <internalNodes>
            0 -1 33 830675247 407998809 -804025859 -577711358 1375748334
            -1190084480 -930086773 -418854453</internalNodes>
          <leafValues>
            -8.7261426448822021e-01 5.3809672594070435e-01</leafValues></_></weakClassifiers></_>
    <!-- stage 18 -->
    <_>
      <maxWeakCount>4</maxWeakCount>
      <stageThreshold>-6.2749516963958740e-01</stageThreshold>
      <weakClassifiers>
        <_>
          <internalNodes>
            0 -1 34 -1208541185 -778501943 1361827759 -1789550086
            -802441747 -1998437982 -1989476181 -856835445</internalNodes>
          <leafValues>
            -7.8318583965301514e-01 6.3033175468444824e-01</leafValues></_>
        <_>
          <internalNodes>
            0 -1 15 -137080385 -1014988712 -1735122849 2145124364
            -2006449944 -92274688 -845139417 -8060784</internalNodes>
          <leafValues>
            -8.3993083238601685e-01 5.0209617614746094e-01</leafValues></_>
        <_>
          <internalNodes>
            0 -1 39 -787537493 1086357772 285285600 -930541406
            -2117172997 -1199505399 -322923533 -524445543</internalNodes>
          <leafValues>
            -9.1557604074478149e-01 4.7346538305282593e-01</leafValues></_>
        <_>
          <internalNodes>
            0 -1 50 -1049376833 -267320699 -2145352567 272695363
            -1048536692 2038465040 -763314513 -704590061</internalNodes>
          <leafValues>
            -7.9081916809082031e-01 5.6917053461074829e-01</leafValues></_></weakClassifiers></_>
    <!-- stage 19 -->
    <_>
      <maxWeakCount>4</maxWeakCount>
      <stageThreshold>-8.7136775255203247e-01</stageThreshold>
      <weakClassifiers>
        <_>
          <internalNodes>
            0 -1 24 1360458379 -1015471761 268697617 -360050061
            -1874124798 302055424 1075963906 -17915686</internalNodes>
          <leafValues>
            -8.7700533866882324e-01 3.7024220824241638e-01</leafValues></_>
        <_>
          <internalNodes>
            0 -1 40 -1895704681 -2063499043 -2013265515 -379320319
            -266030915 26380435 50895929 227324107</internalNodes>
          <leafValues>
            -9.5721989870071411e-01 3.6085531115531921e-01</leafValues></_>
        <_>
          <internalNodes>
            0 -1 22 -109855857 419473677 2098409 212574247 805340335
            -1484705662 -1853848951 926785550</internalNodes>
          <leafValues>
            -9.2650103569030762e-01 4.2845281958580017e-01</leafValues></_>
        <_>
          <internalNodes>
            0 -1 29 286266687 290471945 318771521 -788459520 537043672
            -1073684352 -536731345 -635866942</internalNodes>
          <leafValues>
            -7.8367054462432861e-01 5.8437246084213257e-01</leafValues></_></weakClassifiers></_></stages>
  <features>
    <_>
      <rect>
        0 0 2 3</rect></_>
    <_>
      <rect>
        0 0 2 4</rect></_>
    <_>
      <rect>
        0 0 4 2</rect></_>
    <_>
      <rect>
        0 0 5 2</rect></_>
    <_>
      <rect>
        0 0 5 3</rect></_>
    <_>
      <rect>
        0 1 2 5</rect></_>
    <_>
      <rect>
        0 2 2 2</rect></_>
    <_>
      <rect>
        0 2 3 6</rect></_>
    <_>
      <rect>
        0 2 4 4</rect></_>
    <_>
      <rect>
        0 3 3 1</rect></_>
    <_>
      <rect>
        0 4 5 3</rect></_>
    <_>
      <rect>
        0 6 1 1</rect></_>
    <_>
      <rect>
        0 11 2 3</rect></_>
    <_>
      <rect>
        0 14 5 2</rect></_>
    <_>
      <rect>
        1 7 6 4</rect></_>
    <_>
      <rect>
        2 0 3 1</rect></_>
    <_>
      <rect>
        2 1 4 6</rect></_>
    <_>
      <rect>
        2 2 5 5</rect></_>
    <_>
      <rect>
        2 14 2 2</rect></_>
    <_>
      <rect>
        3 1 2 3</rect></_>
    <_>
      <rect>
        4 7 1 2</rect></_>
    <_>
      <rect>
        5 1 4 6</rect></_>
    <_>
      <rect>
        5 1 5 4</rect></_>
    <_>
      <rect>
        5 5 1 1</rect></_>
    <_>
      <rect>
        5 6 1 3</rect></_>
    <_>
      <rect>
        5 8 1 1</rect></_>
    <_>
      <rect>
        5 8 2 2</rect></_>
    <_>
      <rect>
        5 8 3 2</rect></_>
    <_>
      <rect>
        5 14 5 2</rect></_>
    <_>
      <rect>
        6 3 2 1</rect></_>
    <_>
      <rect>
        6 9 2 2</rect></_>
    <_>
      <rect>
        6 13 3 2</rect></_>
    <_>
      <rect>
        7 0 4 2</rect></_>
    <_>
      <rect>
        7 4 2 1</rect></_>
    <_>
      <rect>
        7 7 2 2</rect></_>
    <_>
      <rect>
        8 0 4 2</rect></_>
    <_>
      <rect>
        8 0 4 4</rect></_>
    <_>
      <rect>
        8 1 3 4</rect></_>
    <_>
      <rect>
        8 8 2 1</rect></_>
    <_>
      <rect>
        8 10 2 1</rect></_>
    <_>
      <rect>
        10 13 3 2</rect></_>
    <_>
      <rect>
        11 0 3 6</rect></_>
    <_>
      <rect>
        11 5 3 5</rect></_>
    <_>
      <rect>
        11 6 2 2</rect></_>
    <_>
      <rect>
        12 4 1 2</rect></_>
    <_>
      <rect>
        12 5 1 2</rect></_>
    <_>
      <rect>
        12 11 1 1</rect></_>
    <_>
      <rect>
        13 8 1 1</rect></_>
    <_>
      <rect>
        13 9 1 1</rect></_>
    <_>
      <rect>
        13 9 1 2</rect></_>
    <_>
      <rect>
        14 3 1 1</rect></_>
    <_>
      <rect>
        14 11 2 3</rect></_></features></cascade>
</opencv_storage>
