<?xml version="1.0"?>
<opencv_storage>
<cascade>
  <stageType>BOOST</stageType>
  <featureType>LBP</featureType>
  <height>20</height>
  <width>20</width>
  <stageParams>
    <boostType>GAB</boostType>
    <minHitRate>9.9900001287460327e-01</minHitRate>
    <maxFalseAlarm>5.0000000000000000e-01</maxFalseAlarm>
    <weightTrimRate>9.4999999999999996e-01</weightTrimRate>
    <maxDepth>1</maxDepth>
    <maxWeakCount>100</maxWeakCount></stageParams>
  <featureParams>
    <maxCatCount>256</maxCatCount>
    <featSize>1</featSize></featureParams>
  <stageNum>19</stageNum>
  <stages>
    <!-- stage 0 -->
    <_>
      <maxWeakCount>2</maxWeakCount>
      <stageThreshold>-1.5658004581928253e-01</stageThreshold>
      <weakClassifiers>
        <_>
          <internalNodes>
            0 -1 24 -778315282 1435599169 -2130640645 1369118985
            -1719535361 -1962246005 -527705857 -13633</internalNodes>
          <leafValues>
            -9.9543899297714233e-01 9.2389005422592163e-01</leafValues></_>
        <_>
          <internalNodes>
            0 -1 9 -250490402 -780074552 1073873175 -15642359
            -1199537477 -645922805 -1467430673 -5257045</internalNodes>
          <leafValues>
            -9.7994488477706909e-01 8.3885896205902100e-01</leafValues></_></weakClassifiers></_>
    <!-- stage 1 -->
    <_>
      <maxWeakCount>3</maxWeakCount>
      <stageThreshold>-1.1637922525405884e+00</stageThreshold>
      <weakClassifiers>
        <_>
          <internalNodes>
            0 -1 46 -44564481 -538979329 -480264205 -3157505 -71565473
            -1347435397 -24384649 -280385</internalNodes>
          <leafValues>
            -9.6127563714981079e-01 8.6440676450729370e-01</leafValues></_>
        <_>
          <internalNodes>
            0 -1 31 -1081346081 -409995565 2114767707 -429985285
            -174865409 -271344961 -67392513 -1025</internalNodes>
          <leafValues>
            -9.2864525318145752e-01 8.6431056261062622e-01</leafValues></_>
        <_>
          <internalNodes>
            0 -1 53 -606341645 -170294811 -616178222 -2403891 -795092201
            -9731869 -629085577 -71333141</internalNodes>
          <leafValues>
            -9.9379104375839233e-01 7.2612857818603516e-01</leafValues></_></weakClassifiers></_>
    <!-- stage 2 -->
    <_>
      <maxWeakCount>3</maxWeakCount>
      <stageThreshold>-1.1320846080780029e+00</stageThreshold>
      <weakClassifiers>
        <_>
          <internalNodes>
            0 -1 19 -201361953 -808452625 -133004579 -352471043
            -1392919617 -40908849 -929316913 -1301</internalNodes>
          <leafValues>
            -9.5794391632080078e-01 7.7732795476913452e-01</leafValues></_>
        <_>
          <internalNodes>
            0 -1 55 2105539583 -7651041 -681740289 -72944961 -71304438
            -912268658 -2097161 -8011</internalNodes>
          <leafValues>
            -9.3875586986541748e-01 6.8966108560562134e-01</leafValues></_>
        <_>
          <internalNodes>
            0 -1 12 -263173 -40920065 2078200826 -609 -1104160257
            -1198942066 -607911937 -4369</internalNodes>
          <leafValues>
            -8.5118287801742554e-01 7.6461511850357056e-01</leafValues></_></weakClassifiers></_>
    <!-- stage 3 -->
    <_>
      <maxWeakCount>3</maxWeakCount>
      <stageThreshold>-1.1091942787170410e+00</stageThreshold>
      <weakClassifiers>
        <_>
          <internalNodes>
            0 -1 50 -136334029 -672163009 -1411850785 -143680833
            -119735361 -124812948 -337065217 -11146369</internalNodes>
          <leafValues>
            -9.3060719966888428e-01 5.8011049032211304e-01</leafValues></_>
        <_>
          <internalNodes>
            0 -1 32 -577644545 -342150207 -1672441633 -19172455
            -1289710341 -349124421 -1172653125 -69471857</internalNodes>
          <leafValues>
            -9.1086554527282715e-01 6.2958949804306030e-01</leafValues></_>
        <_>
          <internalNodes>
            0 -1 43 1073741823 1073741823 -1073746177 1073741823 -1
            1879048182 1073704124 -10</internalNodes>
          <leafValues>
            -7.7843922376632690e-01 8.1790626049041748e-01</leafValues></_></weakClassifiers></_>
    <!-- stage 4 -->
    <_>
      <maxWeakCount>3</maxWeakCount>
      <stageThreshold>-1.1475174427032471e+00</stageThreshold>
      <weakClassifiers>
        <_>
          <internalNodes>
            0 -1 45 -538968065 -7124165 -1679055873 -1616921861
            -12910753 -890250769 -71372427 -70516850</internalNodes>
          <leafValues>
            -9.4561189413070679e-01 6.0813307762145996e-01</leafValues></_>
        <_>
          <internalNodes>
            0 -1 21 -294682625 -75104809 -71438561 -40501345 -475864177
            -106723327 -1056191077 -842350199</internalNodes>
          <leafValues>
            -8.2851600646972656e-01 7.0450425148010254e-01</leafValues></_>
        <_>
          <internalNodes>
            0 -1 42 -748817409 -107659049 -1710780222 -18877985
            -1719469637 -97875792 -1962672141 -23363413</internalNodes>
          <leafValues>
            -9.1453599929809570e-01 6.2661039829254150e-01</leafValues></_></weakClassifiers></_>
    <!-- stage 5 -->
    <_>
      <maxWeakCount>3</maxWeakCount>
      <stageThreshold>-1.1475610733032227e+00</stageThreshold>
      <weakClassifiers>
        <_>
          <internalNodes>
            0 -1 23 -287842305 -71061095 1602483997 -8275199 -904533005
            -215526140 -812587525 -846344087</internalNodes>
          <leafValues>
            -8.5125857591629028e-01 6.4705884456634521e-01</leafValues></_>
        <_>
          <internalNodes>
            0 -1 15 -142090497 -1057209 2019383910 -850834138 -3714561
            -806936769 -625869413 -37766693</internalNodes>
          <leafValues>
            -8.8693737983703613e-01 5.5086416006088257e-01</leafValues></_>
        <_>
          <internalNodes>
            0 -1 44 -469782745 -3030451 -711732737 -3751847 -791091977
            -522430241 -1444885505 -68630017</internalNodes>
          <leafValues>
            -8.4716659784317017e-01 6.0102260112762451e-01</leafValues></_></weakClassifiers></_>
    <!-- stage 6 -->
    <_>
      <maxWeakCount>3</maxWeakCount>
      <stageThreshold>-1.2271695137023926e+00</stageThreshold>
      <weakClassifiers>
        <_>
          <internalNodes>
            0 -1 26 -555750657 -19426035 -720096325 -8808693 -937976893
            -47607662 -821176031 -574313597</internalNodes>
          <leafValues>
            -8.6810553073883057e-01 5.5813956260681152e-01</leafValues></_>
        <_>
          <internalNodes>
            0 -1 2 -544276998 -39608521 -551559171 -13695579 -349681413
            -81450803 -375422757 -75505249</internalNodes>
          <leafValues>
            -9.1079956293106079e-01 5.2828484773635864e-01</leafValues></_>
        <_>
          <internalNodes>
            0 -1 20 353752439 -274386873 -1660411941 -117636841
            -1744791143 -1413797749 -761160726 -4514885</internalNodes>
          <leafValues>
            -8.7450945377349854e-01 5.6381720304489136e-01</leafValues></_></weakClassifiers></_>
    <!-- stage 7 -->
    <_>
      <maxWeakCount>3</maxWeakCount>
      <stageThreshold>-1.1140290498733521e+00</stageThreshold>
      <weakClassifiers>
        <_>
          <internalNodes>
            0 -1 48 -1623870465 756138387 -1659791361 -1922355173
            -1885549827 951042242 260786616 -22036562</internalNodes>
          <leafValues>
            -8.3121389150619507e-01 5.8350515365600586e-01</leafValues></_>
        <_>
          <internalNodes>
            0 -1 25 -684728834 -11056053 -2096942657 -580567653
            -981074945 -1333984717 -1919823393 -1081884681</internalNodes>
          <leafValues>
            -9.0249019861221313e-01 5.3719210624694824e-01</leafValues></_>
        <_>
          <internalNodes>
            0 -1 14 -640057953 -2352769 -782674899 1058152866 412709757
            2146531419 -1169903754 -17113407</internalNodes>
          <leafValues>
            -7.9504400491714478e-01 6.5731048583984375e-01</leafValues></_></weakClassifiers></_>
    <!-- stage 8 -->
    <_>
      <maxWeakCount>3</maxWeakCount>
      <stageThreshold>-1.0474058389663696e+00</stageThreshold>
      <weakClassifiers>
        <_>
          <internalNodes>
            0 -1 17 -2125075969 -545810159 -147743275 -107359783
            -1604584801 -6887829 -408366093 -944979183</internalNodes>
          <leafValues>
            -8.1630307435989380e-01 5.7411271333694458e-01</leafValues></_>
        <_>
          <internalNodes>
            0 -1 27 -1680800197 332861905 -1325393411 533464206
            948503633 1049661483 -75437319 -3502939</internalNodes>
          <leafValues>
            -7.9864287376403809e-01 5.9360873699188232e-01</leafValues></_>
        <_>
          <internalNodes>
            0 -1 36 -247991809 -536669989 -787247081 -200191213
            -1576828760 -1176469375 -226057553 -163409249</internalNodes>
          <leafValues>
            -8.2287567853927612e-01 6.0992068052291870e-01</leafValues></_></weakClassifiers></_>
    <!-- stage 9 -->
    <_>
      <maxWeakCount>2</maxWeakCount>
      <stageThreshold>-4.0503549575805664e-01</stageThreshold>
      <weakClassifiers>
        <_>
          <internalNodes>
            0 -1 0 -26806537 -7270185 -1861762849 -39358017 -647502849
            -74872177 -898244617 -244879001</internalNodes>
          <leafValues>
            -8.2810688018798828e-01 5.6646215915679932e-01</leafValues></_>
        <_>
          <internalNodes>
            0 -1 54 -801017345 -783974255 -1992257129 -115535671
            -1280468649 -926248824 -108414473 -69500167</internalNodes>
          <leafValues>
            -9.7149765491485596e-01 4.6817874908447266e-01</leafValues></_></weakClassifiers></_>
    <!-- stage 10 -->
    <_>
      <maxWeakCount>3</maxWeakCount>
      <stageThreshold>-1.0163747072219849e+00</stageThreshold>
      <weakClassifiers>
        <_>
          <internalNodes>
            0 -1 66 -1310721029 -1360072533 -805125802 -1530474169
            -741869078 -1282539514 -149178229 -1074790769</internalNodes>
          <leafValues>
            -8.1545561552047729e-01 5.6107658147811890e-01</leafValues></_>
        <_>
          <internalNodes>
            0 -1 57 -1212170893 -206879925 -888931361 -624590098
            -91174179 -511606772 -1315313937 -7619921</internalNodes>
          <leafValues>
            -7.6421010494232178e-01 6.3552796840667725e-01</leafValues></_>
        <_>
          <internalNodes>
            0 -1 18 -1512106017 -268492833 -787278059 -332250817
            -1704513087 -1382349469 -338591333 -931954289</internalNodes>
          <leafValues>
            -8.1324118375778198e-01 5.8892977237701416e-01</leafValues></_></weakClassifiers></_>
    <!-- stage 11 -->
    <_>
      <maxWeakCount>5</maxWeakCount>
      <stageThreshold>-1.2248263359069824e+00</stageThreshold>
      <weakClassifiers>
        <_>
          <internalNodes>
            0 -1 8 -822108553 -13036795 -1617881327 -40259023 -690226049
            -595001343 -14771733 1605085443</internalNodes>
          <leafValues>
            -8.4223300218582153e-01 4.9049431085586548e-01</leafValues></_>
        <_>
          <internalNodes>
            0 -1 29 -426007565 -35814029 -74327275 -7294529 536947135
            -520047486 1393626043 -1628710106</internalNodes>
          <leafValues>
            -8.2840847969055176e-01 5.2530056238174438e-01</leafValues></_>
        <_>
          <internalNodes>
            0 -1 6 -1793852929 -1656155900 -1877345586 -609494994
            1277249759 -1173582903 -217214977 -2284403</internalNodes>
          <leafValues>
            -8.0744630098342896e-01 5.7419389486312866e-01</leafValues></_>
        <_>
          <internalNodes>
            0 -1 28 -1994358535 -1084387305 -654091305 -44445478
            -1877810445 -1442215280 -2129098249 -1461436271</internalNodes>
          <leafValues>
            -7.2328215837478638e-01 6.7281019687652588e-01</leafValues></_>
        <_>
          <internalNodes>
            0 -1 65 2013255635 751784122 830539072 407333267 -1979600256
            -2004121408 -113187712 -2000050261</internalNodes>
          <leafValues>
            -7.7325773239135742e-01 6.5164226293563843e-01</leafValues></_></weakClassifiers></_>
    <!-- stage 12 -->
    <_>
      <maxWeakCount>3</maxWeakCount>
      <stageThreshold>-1.0480552911758423e+00</stageThreshold>
      <weakClassifiers>
        <_>
          <internalNodes>
            0 -1 47 -1853753377 865850169 -1862151937 -1650310961
            2064333567 -118953048 -1435825732 -269506165</internalNodes>
          <leafValues>
            -7.8354001045227051e-01 5.5939525365829468e-01</leafValues></_>
        <_>
          <internalNodes>
            0 -1 39 -303956145 -50753323 -112600617 -193605499
            -235884289 -267333472 -121050661 -22808886</internalNodes>
          <leafValues>
            -8.2048517465591431e-01 5.7012283802032471e-01</leafValues></_>
        <_>
          <internalNodes>
            0 -1 61 -233917729 335495307 323059903 -1903578493
            -238108160 -1484733823 -67437581 -70259735</internalNodes>
          <leafValues>
            -7.8696537017822266e-01 5.7789635658264160e-01</leafValues></_></weakClassifiers></_>
    <!-- stage 13 -->
    <_>
      <maxWeakCount>5</maxWeakCount>
      <stageThreshold>-1.5943599939346313e+00</stageThreshold>
      <weakClassifiers>
        <_>
          <internalNodes>
            0 -1 16 -635445513 -15515897 957683485 -13511933 -1711015353
            -133293310 -737938881 -791946093</internalNodes>
          <leafValues>
            -8.3631712198257446e-01 3.8380283117294312e-01</leafValues></_>
        <_>
          <internalNodes>
            0 -1 40 -781058050 -1609347050 -109349922 -251424271
            -1056791681 201326595 -583367681 -1075876357</internalNodes>
          <leafValues>
            -8.9146405458450317e-01 4.3269968032836914e-01</leafValues></_>
        <_>
          <internalNodes>
            0 -1 38 -982170829 -1109818213 -1051487233 -36304387
            -120376838 -104085069 -209007874 2620722</internalNodes>
          <leafValues>
            -8.0071932077407837e-01 4.7038665413856506e-01</leafValues></_>
        <_>
          <internalNodes>
            0 -1 35 -1269704737 -1025961967 -1017818671 -555781926
            2046861983 -326040955 -104717617 -89524053</internalNodes>
          <leafValues>
            -7.7975386381149292e-01 5.2812266349792480e-01</leafValues></_>
        <_>
          <internalNodes>
            0 -1 62 -796177969 245903 557067 -770932350 -1734727025
            -1729462142 -1867777471 -892475391</internalNodes>
          <leafValues>
            -8.3038926124572754e-01 5.0944113731384277e-01</leafValues></_></weakClassifiers></_>
    <!-- stage 14 -->
    <_>
      <maxWeakCount>5</maxWeakCount>
      <stageThreshold>-1.1973927021026611e+00</stageThreshold>
      <weakClassifiers>
        <_>
          <internalNodes>
            0 -1 37 -707430433 865460667 -183151657 -1076226824
            1619809183 2023755791 -209093633 -21761</internalNodes>
          <leafValues>
            -7.5138735771179199e-01 5.3674834966659546e-01</leafValues></_>
        <_>
          <internalNodes>
            0 -1 5 -434896897 -1101987535 -1258250473 -16693757
            187337675 -234880768 -947336693 -3364344</internalNodes>
          <leafValues>
            -7.2344809770584106e-01 5.5846482515335083e-01</leafValues></_>
        <_>
          <internalNodes>
            0 -1 3 2032485595 -141564021 -2062039925 -137670581
            152157365 -320255294 -653980733 -177902985</internalNodes>
          <leafValues>
            -7.1643573045730591e-01 5.8840239048004150e-01</leafValues></_>
        <_>
          <internalNodes>
            0 -1 59 -757131779 -930148913 -2012511265 1347133877
            -2003883653 -1600485239 -106960877 -19160159</internalNodes>
          <leafValues>
            -8.2020133733749390e-01 5.3294658660888672e-01</leafValues></_>
        <_>
          <internalNodes>
            0 -1 67 -187049778 142968017 1076888712 -992278369
            -393934816 -1476343416 -1179214942 -292647525</internalNodes>
          <leafValues>
            -7.7871513366699219e-01 5.2594411373138428e-01</leafValues></_></weakClassifiers></_>
    <!-- stage 15 -->
    <_>
      <maxWeakCount>5</maxWeakCount>
      <stageThreshold>-1.4757112264633179e+00</stageThreshold>
      <weakClassifiers>
        <_>
          <internalNodes>
            0 -1 11 2046526431 -141502566 -1784868517 -254539305
            -1591525309 -1079275379 -1262288757 1740624783</internalNodes>
          <leafValues>
            -9.2307692766189575e-01 2.3428571224212646e-01</leafValues></_>
        <_>
          <internalNodes>
            0 -1 33 -360996105 -28916085 1392726321 -217755261
            -754916949 -100433919 -213720351 -1416643925</internalNodes>
          <leafValues>
            -7.7209305763244629e-01 4.5479014515876770e-01</leafValues></_>
        <_>
          <internalNodes>
            0 -1 49 -1008888521 -657076212 -990322481 -2000351075
            -2134402849 -933724024 -523451697 -1107061201</internalNodes>
          <leafValues>
            -8.3429950475692749e-01 4.5136603713035583e-01</leafValues></_>
        <_>
          <internalNodes>
            0 -1 56 -2129030721 542393476 1360026589 -753856493
            470974703 1325580416 -352290328 -1618018119</internalNodes>
          <leafValues>
            -6.3493371009826660e-01 6.4911484718322754e-01</leafValues></_>
        <_>
          <internalNodes>
            0 -1 60 -2012655377 -1878851132 294682815 -628809567
            -763243649 537970880 -777274445 -125056363</internalNodes>
          <leafValues>
            -7.5271928310394287e-01 5.4576736688613892e-01</leafValues></_></weakClassifiers></_>
    <!-- stage 16 -->
    <_>
      <maxWeakCount>5</maxWeakCount>
      <stageThreshold>-1.2249268293380737e+00</stageThreshold>
      <weakClassifiers>
        <_>
          <internalNodes>
            0 -1 22 290477023 -707935877 -1051602433 -36207497
            -2138351441 -1174536021 -1710714437 -157234048</internalNodes>
          <leafValues>
            -7.0721203088760376e-01 5.2494060993194580e-01</leafValues></_>
        <_>
          <internalNodes>
            0 -1 10 -622885893 -303346469 -904851183 -486731439
            -1687125107 -921760638 822119681 -536936225</internalNodes>
          <leafValues>
            -7.7684015035629272e-01 5.1643401384353638e-01</leafValues></_>
        <_>
          <internalNodes>
            0 -1 52 -1447340161 -141593725 -521182053 -827094848
            -359769473 -2054651262 -1847615423 -75652549</internalNodes>
          <leafValues>
            -7.5874483585357666e-01 5.0351452827453613e-01</leafValues></_>
        <_>
          <internalNodes>
            0 -1 7 303298295 -543219105 83896395 -573608849 -1341925477
            -3964286 1816600709 -194956895</internalNodes>
          <leafValues>
            -7.3995864391326904e-01 5.3258770704269409e-01</leafValues></_>
        <_>
          <internalNodes>
            0 -1 63 -103083715 2005499909 35293 1477608319 -1199537819
            -927956984 -108229942 -33390560</internalNodes>
          <leafValues>
            -7.9770469665527344e-01 5.2318876981735229e-01</leafValues></_></weakClassifiers></_>
    <!-- stage 17 -->
    <_>
      <maxWeakCount>5</maxWeakCount>
      <stageThreshold>-1.3834605216979980e+00</stageThreshold>
      <weakClassifiers>
        <_>
          <internalNodes>
            0 -1 51 -1647167873 -1323630583 -1753217811 -741177207
            -1012899599 -1065181030 -2136649521 -7396758</internalNodes>
          <leafValues>
            -8.1432360410690308e-01 2.9865771532058716e-01</leafValues></_>
        <_>
          <internalNodes>
            0 -1 64 -274212865 -539245437 -1878898294 496320517
            -1059473447 1648988330 -1437162545 903725739</internalNodes>
          <leafValues>
            -8.1454950571060181e-01 4.0773570537567139e-01</leafValues></_>
        <_>
          <internalNodes>
            0 -1 34 -1793592553 -409118376 -251576047 -293612604
            -2105442173 -515825504 -805238621 -359618133</internalNodes>
          <leafValues>
            -9.0240508317947388e-01 3.7171989679336548e-01</leafValues></_>
        <_>
          <internalNodes>
            0 -1 58 -1878681447 545427584 67666090 -1878912768
            -1937071362 -2004705144 -2012510159 -1465220950</internalNodes>
          <leafValues>
            -6.5889692306518555e-01 5.6426119804382324e-01</leafValues></_>
        <_>
          <internalNodes>
            0 -1 30 -352391171 -32801 -8421379 -1073758209 1534848893
            -268435457 -805306499 -268435457</internalNodes>
          <leafValues>
            -5.8039170503616333e-01 6.7356377840042114e-01</leafValues></_></weakClassifiers></_>
    <!-- stage 18 -->
    <_>
      <maxWeakCount>4</maxWeakCount>
      <stageThreshold>-1.7880946397781372e+00</stageThreshold>
      <weakClassifiers>
        <_>
          <internalNodes>
            0 -1 1 1091764191 -553582525 -2063497961 -645817973
            -536308817 -1207656448 -117324923 1271648484</internalNodes>
          <leafValues>
            -7.7723968029022217e-01 3.9312976598739624e-01</leafValues></_>
        <_>
          <internalNodes>
            0 -1 41 -1869392901 -1056927535 285282539 -922681191
            1640006287 -1324826591 -1819265015 -1142849368</internalNodes>
          <leafValues>
            -6.3928282260894775e-01 5.7456827163696289e-01</leafValues></_>
        <_>
          <internalNodes>
            0 -1 4 -552020550 1494223381 -116764400 428196096 -632453977
            -1207811790 1360632539 -550803435</internalNodes>
          <leafValues>
            -8.8704645633697510e-01 4.1827496886253357e-01</leafValues></_>
        <_>
          <internalNodes>
            0 -1 13 -786173669 -585952912 1611678747 1568768157
            1971324043 -209583760 1745160945 1411495941</internalNodes>
          <leafValues>
            -7.8984707593917847e-01 5.0168138742446899e-01</leafValues></_></weakClassifiers></_></stages>
  <features>
    <_>
      <rect>
        0 0 2 5</rect></_>
    <_>
      <rect>
        0 0 4 2</rect></_>
    <_>
      <rect>
        0 0 5 6</rect></_>
    <_>
      <rect>
        0 1 2 5</rect></_>
    <_>
      <rect>
        0 2 5 6</rect></_>
    <_>
      <rect>
        0 3 4 2</rect></_>
    <_>
      <rect>
        0 6 5 3</rect></_>
    <_>
      <rect>
        1 0 2 5</rect></_>
    <_>
      <rect>
        1 0 4 5</rect></_>
    <_>
      <rect>
        1 1 6 6</rect></_>
    <_>
      <rect>
        1 4 4 4</rect></_>
    <_>
      <rect>
        1 5 4 5</rect></_>
    <_>
      <rect>
        1 5 6 5</rect></_>
    <_>
      <rect>
        1 7 2 3</rect></_>
    <_>
      <rect>
        1 14 4 2</rect></_>
    <_>
      <rect>
        2 5 4 3</rect></_>
    <_>
      <rect>
        3 0 2 4</rect></_>
    <_>
      <rect>
        3 0 3 2</rect></_>
    <_>
      <rect>
        3 6 2 3</rect></_>
    <_>
      <rect>
        3 7 3 2</rect></_>
    <_>
      <rect>
        3 9 3 1</rect></_>
    <_>
      <rect>
        4 0 2 3</rect></_>
    <_>
      <rect>
        4 0 4 1</rect></_>
    <_>
      <rect>
        4 1 2 3</rect></_>
    <_>
      <rect>
        4 1 4 5</rect></_>
    <_>
      <rect>
        4 1 5 6</rect></_>
    <_>
      <rect>
        4 2 2 3</rect></_>
    <_>
      <rect>
        4 17 3 1</rect></_>
    <_>
      <rect>
        5 0 2 1</rect></_>
    <_>
      <rect>
        5 2 2 2</rect></_>
    <_>
      <rect>
        5 3 1 2</rect></_>
    <_>
      <rect>
        5 5 2 3</rect></_>
    <_>
      <rect>
        5 8 2 1</rect></_>
    <_>
      <rect>
        6 3 1 2</rect></_>
    <_>
      <rect>
        6 7 1 2</rect></_>
    <_>
      <rect>
        6 8 1 1</rect></_>
    <_>
      <rect>
        6 10 1 1</rect></_>
    <_>
      <rect>
        6 14 2 2</rect></_>
    <_>
      <rect>
        7 0 3 2</rect></_>
    <_>
      <rect>
        7 3 2 2</rect></_>
    <_>
      <rect>
        7 5 2 5</rect></_>
    <_>
      <rect>
        7 6 2 1</rect></_>
    <_>
      <rect>
        7 11 2 1</rect></_>
    <_>
      <rect>
        7 14 3 2</rect></_>
    <_>
      <rect>
        8 3 2 2</rect></_>
    <_>
      <rect>
        8 6 3 3</rect></_>
    <_>
      <rect>
        8 7 3 2</rect></_>
    <_>
      <rect>
        8 14 2 2</rect></_>
    <_>
      <rect>
        8 14 3 2</rect></_>
    <_>
      <rect>
        9 0 2 3</rect></_>
    <_>
      <rect>
        9 1 2 3</rect></_>
    <_>
      <rect>
        9 3 1 1</rect></_>
    <_>
      <rect>
        9 5 1 2</rect></_>
    <_>
      <rect>
        9 7 2 1</rect></_>
    <_>
      <rect>
        9 8 2 1</rect></_>
    <_>
      <rect>
        9 8 2 2</rect></_>
    <_>
      <rect>
        9 16 2 1</rect></_>
    <_>
      <rect>
        10 3 1 2</rect></_>
    <_>
      <rect>
        10 5 2 4</rect></_>
    <_>
      <rect>
        10 6 1 2</rect></_>
    <_>
      <rect>
        10 9 1 1</rect></_>
    <_>
      <rect>
        10 9 1 2</rect></_>
    <_>
      <rect>
        11 5 1 3</rect></_>
    <_>
      <rect>
        12 4 1 1</rect></_>
    <_>
      <rect>
        13 2 2 6</rect></_>
    <_>
      <rect>
        14 6 2 4</rect></_>
    <_>
      <rect>
        16 5 1 5</rect></_>
    <_>
      <rect>
        17 7 1 1</rect></_></features></cascade>
</opencv_storage>
