<?xml version="1.0"?>
<opencv_storage>
<cascade>
  <stageType>BOOST</stageType>
  <featureType>LBP</featureType>
  <height>20</height>
  <width>20</width>
  <stageParams>
    <boostType>GAB</boostType>
    <minHitRate>9.9900001287460327e-01</minHitRate>
    <maxFalseAlarm>5.0000000000000000e-01</maxFalseAlarm>
    <weightTrimRate>9.4999999999999996e-01</weightTrimRate>
    <maxDepth>1</maxDepth>
    <maxWeakCount>100</maxWeakCount></stageParams>
  <featureParams>
    <maxCatCount>256</maxCatCount>
    <featSize>1</featSize></featureParams>
  <stageNum>19</stageNum>
  <stages>
    <!-- stage 0 -->
    <_>
      <maxWeakCount>1</maxWeakCount>
      <stageThreshold>9.0594059228897095e-01</stageThreshold>
      <weakClassifiers>
        <_>
          <internalNodes>
            0 -1 9 -44834818 -209244144 -787951525 -15265739 -1065297233
            -2122186748 -2138007318 -73139702</internalNodes>
          <leafValues>
            -1. 9.0594059228897095e-01</leafValues></_></weakClassifiers></_>
    <!-- stage 1 -->
    <_>
      <maxWeakCount>3</maxWeakCount>
      <stageThreshold>-1.0772391557693481e+00</stageThreshold>
      <weakClassifiers>
        <_>
          <internalNodes>
            0 -1 11 -604537345 -6608417 -619716634 -8225 -1090276353
            -1431338341 -618136641 -136741</internalNodes>
          <leafValues>
            -9.2572212219238281e-01 8.1725889444351196e-01</leafValues></_>
        <_>
          <internalNodes>
            0 -1 6 -713041921 -678280875 -944536398 -2104462 -153881633
            -656703461 -75286545 -264225</internalNodes>
          <leafValues>
            -8.8325089216232300e-01 7.9831618070602417e-01</leafValues></_>
        <_>
          <internalNodes>
            0 -1 32 -24781 1060458803 -711069345 2136733791 -742878501
            -22697825 -655841057 -1074820673</internalNodes>
          <leafValues>
            -9.3583768606185913e-01 7.3173385858535767e-01</leafValues></_></weakClassifiers></_>
    <!-- stage 2 -->
    <_>
      <maxWeakCount>2</maxWeakCount>
      <stageThreshold>-2.1499355137348175e-01</stageThreshold>
      <weakClassifiers>
        <_>
          <internalNodes>
            0 -1 31 1994906549 -140512353 -1861549885 -2033214529
            -760507457 -473759713 -355751237 -286278673</internalNodes>
          <leafValues>
            -9.0646493434906006e-01 7.8172588348388672e-01</leafValues></_>
        <_>
          <internalNodes>
            0 -1 24 -1601989654 -745438885 2136064 -56789617 -1744796949
            -1734442854 -920605789 -4464469</internalNodes>
          <leafValues>
            -9.5666378736495972e-01 6.9147133827209473e-01</leafValues></_></weakClassifiers></_>
    <!-- stage 3 -->
    <_>
      <maxWeakCount>3</maxWeakCount>
      <stageThreshold>-1.0440661907196045e+00</stageThreshold>
      <weakClassifiers>
        <_>
          <internalNodes>
            0 -1 20 -2022857729 -178269725 288592727 -104349381
            -1567104265 -1081421663 -754742817 -1073759265</internalNodes>
          <leafValues>
            -9.2415732145309448e-01 7.5061124563217163e-01</leafValues></_>
        <_>
          <internalNodes>
            0 -1 57 -1556102425 -1603300671 163843 -1462793589
            1477157003 -1281130493 -91520869 -1090523409</internalNodes>
          <leafValues>
            -8.6742222309112549e-01 7.8786683082580566e-01</leafValues></_>
        <_>
          <internalNodes>
            0 -1 3 -182486697 -753950461 589841 -1853627629 1109745701
            -2008834045 21979141 -40105</internalNodes>
          <leafValues>
            -8.5803288221359253e-01 7.4751329421997070e-01</leafValues></_></weakClassifiers></_>
    <!-- stage 4 -->
    <_>
      <maxWeakCount>3</maxWeakCount>
      <stageThreshold>-1.1010155677795410e+00</stageThreshold>
      <weakClassifiers>
        <_>
          <internalNodes>
            0 -1 10 -423169025 -33390547 -652626665 -147093709
            1268382603 -1346662383 -544818753 -67402821</internalNodes>
          <leafValues>
            -8.8317108154296875e-01 7.0646768808364868e-01</leafValues></_>
        <_>
          <internalNodes>
            0 -1 55 -1520460033 670783771 -796696225 -1879239273
            -1282151429 -1345978229 -611062865 -1409293333</internalNodes>
          <leafValues>
            -8.8086742162704468e-01 7.5760960578918457e-01</leafValues></_>
        <_>
          <internalNodes>
            0 -1 7 -683969609 -646573217 -779546401 -1122480419
            1957718347 2050120063 -556143681 2145385423</internalNodes>
          <leafValues>
            -9.2661583423614502e-01 6.6322088241577148e-01</leafValues></_></weakClassifiers></_>
    <!-- stage 5 -->
    <_>
      <maxWeakCount>3</maxWeakCount>
      <stageThreshold>-1.1143139600753784e+00</stageThreshold>
      <weakClassifiers>
        <_>
          <internalNodes>
            0 -1 16 -361759761 -502855649 2030248273 -12210037
            1644929423 -888560890 -1076397157 -2097269</internalNodes>
          <leafValues>
            -8.9355742931365967e-01 7.0515972375869751e-01</leafValues></_>
        <_>
          <internalNodes>
            0 -1 29 -1994146321 -645188677 492411727 -58966 -878728945
            -1427406641 -1141915837 -1724813</internalNodes>
          <leafValues>
            -9.1223174333572388e-01 6.3267165422439575e-01</leafValues></_>
        <_>
          <internalNodes>
            0 -1 58 -1464105745 193757187 -2122309165 -1392541349
            -254819665 -1593647101 -376725329 -1048885</internalNodes>
          <leafValues>
            -8.5342818498611450e-01 7.1969574689865112e-01</leafValues></_></weakClassifiers></_>
    <!-- stage 6 -->
    <_>
      <maxWeakCount>3</maxWeakCount>
      <stageThreshold>-1.2421834468841553e+00</stageThreshold>
      <weakClassifiers>
        <_>
          <internalNodes>
            0 -1 14 -404228109 -212753997 1432032531 -648691583
            -1021108161 -605910861 -1031687429 -1879053317</internalNodes>
          <leafValues>
            -9.0588235855102539e-01 6.0090702772140503e-01</leafValues></_>
        <_>
          <internalNodes>
            0 -1 53 -543425025 827306519 -1878925311 205767491
            1094931873 293766785 -872171061 536869887</internalNodes>
          <leafValues>
            -8.9885687828063965e-01 5.8163630962371826e-01</leafValues></_>
        <_>
          <internalNodes>
            0 -1 37 731840747 306380944 -2055094247 -1114046461
            -1341926949 -394100672 -1738282821 -134225685</internalNodes>
          <leafValues>
            -9.1793739795684814e-01 5.9015882015228271e-01</leafValues></_></weakClassifiers></_>
    <!-- stage 7 -->
    <_>
      <maxWeakCount>3</maxWeakCount>
      <stageThreshold>-1.1652394533157349e+00</stageThreshold>
      <weakClassifiers>
        <_>
          <internalNodes>
            0 -1 28 -773863457 -2274851 -24007857 -547187833 -1291845633
            -109080395 -337642681 -656587</internalNodes>
          <leafValues>
            -9.3033379316329956e-01 6.7129629850387573e-01</leafValues></_>
        <_>
          <internalNodes>
            0 -1 17 -214206465 -286304497 -720255153 -220214879
            -79584937 -1283729125 -148382037 -134218769</internalNodes>
          <leafValues>
            -8.7049192190170288e-01 6.9189929962158203e-01</leafValues></_>
        <_>
          <internalNodes>
            0 -1 50 -168035467 2036312511 1376766463 -11281513
            -1445203099 -1259101018 -1414821648 -169362489</internalNodes>
          <leafValues>
            -9.2680490016937256e-01 6.5217721462249756e-01</leafValues></_></weakClassifiers></_>
    <!-- stage 8 -->
    <_>
      <maxWeakCount>3</maxWeakCount>
      <stageThreshold>-1.1050431728363037e+00</stageThreshold>
      <weakClassifiers>
        <_>
          <internalNodes>
            0 -1 44 -618659873 1563240779 1543585759 -538059141
            -1948516753 -355286813 -308579465 -264592</internalNodes>
          <leafValues>
            -8.9801698923110962e-01 6.8192774057388306e-01</leafValues></_>
        <_>
          <internalNodes>
            0 -1 0 -2099273 -786326717 1086824787 -167260469 -1044155647
            1367589000 -509924831 -2132639</internalNodes>
          <leafValues>
            -8.7215876579284668e-01 6.3704591989517212e-01</leafValues></_>
        <_>
          <internalNodes>
            0 -1 21 -2103297 2109455829 -2808068 2001971479 -1880924485
            -611563160 -627366752 -9491599</internalNodes>
          <leafValues>
            -8.4407210350036621e-01 7.3286664485931396e-01</leafValues></_></weakClassifiers></_>
    <!-- stage 9 -->
    <_>
      <maxWeakCount>3</maxWeakCount>
      <stageThreshold>-1.1847790479660034e+00</stageThreshold>
      <weakClassifiers>
        <_>
          <internalNodes>
            0 -1 18 -136456739 -11300463 -683601417 -38563691 -157179717
            -371711807 -325476097 210012812</internalNodes>
          <leafValues>
            -9.1616767644882202e-01 5.7615894079208374e-01</leafValues></_>
        <_>
          <internalNodes>
            0 -1 35 -652502017 -1013226477 1239793791 -1141929050
            -74243361 -343197301 -1729935361 -9980329</internalNodes>
          <leafValues>
            -8.5494053363800049e-01 6.5300172567367554e-01</leafValues></_>
        <_>
          <internalNodes>
            0 -1 48 -854065697 2102560629 1350881439 1490602195
            -549921025 2055901312 -594826245 1892209467</internalNodes>
          <leafValues>
            -9.0599751472473145e-01 6.3790369033813477e-01</leafValues></_></weakClassifiers></_>
    <!-- stage 10 -->
    <_>
      <maxWeakCount>3</maxWeakCount>
      <stageThreshold>-1.1314892768859863e+00</stageThreshold>
      <weakClassifiers>
        <_>
          <internalNodes>
            0 -1 22 297343583 -82771503 403806679 1066737050 -1340003837
            -276100480 -745870417 -1074814776</internalNodes>
          <leafValues>
            -8.2426780462265015e-01 5.9405940771102905e-01</leafValues></_>
        <_>
          <internalNodes>
            0 -1 1 -570565633 -7106021 -116000449 -4328441 2080547519
            -30752381 1308793835 2010141109</internalNodes>
          <leafValues>
            -8.8706099987030029e-01 5.7419848442077637e-01</leafValues></_>
        <_>
          <internalNodes>
            0 -1 47 -713297443 -125484847 -1055905832 -718331820
            -1191056696 -879710032 -362112848 -71370098</internalNodes>
          <leafValues>
            -8.3848774433135986e-01 6.2496787309646606e-01</leafValues></_></weakClassifiers></_>
    <!-- stage 11 -->
    <_>
      <maxWeakCount>2</maxWeakCount>
      <stageThreshold>-3.9644768834114075e-01</stageThreshold>
      <weakClassifiers>
        <_>
          <internalNodes>
            0 -1 39 -711860225 -619237071 -529295425 -842192277
            -1967399969 -1198749561 -4194700 -105186332</internalNodes>
          <leafValues>
            -9.1290825605392456e-01 4.9372383952140808e-01</leafValues></_>
        <_>
          <internalNodes>
            0 -1 19 -1362120705 -1110182543 -83763937 -184288640
            1816129983 -1120697984 -712246851 -1143083190</internalNodes>
          <leafValues>
            -8.8801854848861694e-01 5.1646053791046143e-01</leafValues></_></weakClassifiers></_>
    <!-- stage 12 -->
    <_>
      <maxWeakCount>5</maxWeakCount>
      <stageThreshold>-1.0895658731460571e+00</stageThreshold>
      <weakClassifiers>
        <_>
          <internalNodes>
            0 -1 2 -2097701 -772816633 1347256323 -775186021 -472051680
            -1559674872 -368607232 -3670523</internalNodes>
          <leafValues>
            -8.4767276048660278e-01 6.0679614543914795e-01</leafValues></_>
        <_>
          <internalNodes>
            0 -1 54 -71313473 -44435197 537497723 -1673845939 -775192323
            -657383402 -375150451 -50355397</internalNodes>
          <leafValues>
            -7.1997779607772827e-01 7.5511491298675537e-01</leafValues></_>
        <_>
          <internalNodes>
            0 -1 23 716163270 -1069174573 -1601040186 -829439293
            -1702747478 -905936892 -519834997 -3428165</internalNodes>
          <leafValues>
            -8.3769214153289795e-01 6.0611754655838013e-01</leafValues></_>
        <_>
          <internalNodes>
            0 -1 30 954141695 -705068719 -719737099 1026785369
            2038509599 -91750264 -1685251157 -1349834296</internalNodes>
          <leafValues>
            -7.4439465999603271e-01 7.2715675830841064e-01</leafValues></_>
        <_>
          <internalNodes>
            0 -1 46 344022232 -1290730981 -2147450791 -246087546
            -643923761 -2138434902 -1698409816 -54482402</internalNodes>
          <leafValues>
            -8.5518962144851685e-01 6.2517249584197998e-01</leafValues></_></weakClassifiers></_>
    <!-- stage 13 -->
    <_>
      <maxWeakCount>4</maxWeakCount>
      <stageThreshold>-7.0530778169631958e-01</stageThreshold>
      <weakClassifiers>
        <_>
          <internalNodes>
            0 -1 27 -1705509953 865114263 -2125463329 -258897289
            537008315 143360938 -71717921 -4722905</internalNodes>
          <leafValues>
            -7.9415857791900635e-01 5.4726368188858032e-01</leafValues></_>
        <_>
          <internalNodes>
            0 -1 5 -673218753 861881469 -1525563313 2132744611
            2106486123 1829701635 -1140324022 1970269119</internalNodes>
          <leafValues>
            -8.8936853408813477e-01 5.3962218761444092e-01</leafValues></_>
        <_>
          <internalNodes>
            0 -1 45 -645931713 1432214615 -1060774657 320857355
            -377365505 1645059229 -326333697 2041243789</internalNodes>
          <leafValues>
            -8.8188970088958740e-01 5.0614827871322632e-01</leafValues></_>
        <_>
          <internalNodes>
            0 -1 26 -39322944 -237563609 -1280245377 -203478957
            -1987053061 -1281646448 -259685701 -101199545</internalNodes>
          <leafValues>
            -8.9151811599731445e-01 5.1868671178817749e-01</leafValues></_></weakClassifiers></_>
    <!-- stage 14 -->
    <_>
      <maxWeakCount>4</maxWeakCount>
      <stageThreshold>-8.6268895864486694e-01</stageThreshold>
      <weakClassifiers>
        <_>
          <internalNodes>
            0 -1 33 -1007179017 -1040725865 -1681020161 -137895865
            -1031300417 -360509726 -105799425 -9052345</internalNodes>
          <leafValues>
            -8.5307347774505615e-01 4.8017621040344238e-01</leafValues></_>
        <_>
          <internalNodes>
            0 -1 42 536551163 765018503 -691694413 2043494637 -892674853
            -92225520 -78665061 -355742785</internalNodes>
          <leafValues>
            -8.3362376689910889e-01 4.8478594422340393e-01</leafValues></_>
        <_>
          <internalNodes>
            0 -1 25 -988974082 -954600549 -778376786 410958075
            -1978037251 -536264689 -343994712 -9258574</internalNodes>
          <leafValues>
            -9.1663360595703125e-01 4.4375875592231750e-01</leafValues></_>
        <_>
          <internalNodes>
            0 -1 51 -73401923 -779890245 -1599925885 -55602589
            -1177841239 -595021655 -353383987 1424847867</internalNodes>
          <leafValues>
            -9.3816024065017700e-01 4.2854622006416321e-01</leafValues></_></weakClassifiers></_>
    <!-- stage 15 -->
    <_>
      <maxWeakCount>4</maxWeakCount>
      <stageThreshold>-1.6914267539978027e+00</stageThreshold>
      <weakClassifiers>
        <_>
          <internalNodes>
            0 -1 4 -170131457 -213540709 -2137795769 -8140285 1661561655
            -226000504 -762592397 -137366588</internalNodes>
          <leafValues>
            -8.1305640935897827e-01 4.4071587920188904e-01</leafValues></_>
        <_>
          <internalNodes>
            0 -1 36 -1878674961 -754970477 84247255 -262074359
            -1434127801 -22806389 -1148011033 -8345161</internalNodes>
          <leafValues>
            -8.2499200105667114e-01 4.8475354909896851e-01</leafValues></_>
        <_>
          <internalNodes>
            0 -1 15 -16385 -1 -1 -1073741825 -4097 -8193 -805335041
            -1493988140</internalNodes>
          <leafValues>
            -6.3998079299926758e-01 7.1003186702728271e-01</leafValues></_>
        <_>
          <internalNodes>
            0 -1 13 353177983 -577666895 -787377709 -1646985191
            1375801875 2139226848 -1189463925 -1079274838</internalNodes>
          <leafValues>
            -7.2314316034317017e-01 5.9896498918533325e-01</leafValues></_></weakClassifiers></_>
    <!-- stage 16 -->
    <_>
      <maxWeakCount>4</maxWeakCount>
      <stageThreshold>-1.9286782741546631e+00</stageThreshold>
      <weakClassifiers>
        <_>
          <internalNodes>
            0 -1 34 -10243593 -647266213 220107231 -1986192825
            -1032863489 -1730165756 -1681424161 -1422414009</internalNodes>
          <leafValues>
            -8.0203783512115479e-01 4.6082949638366699e-01</leafValues></_>
        <_>
          <internalNodes>
            0 -1 4 -738197513 -685813411 -1786666539 -104365981
            1963679811 -1500936116 1924680565 -135269760</internalNodes>
          <leafValues>
            -7.8101664781570435e-01 5.4706549644470215e-01</leafValues></_>
        <_>
          <internalNodes>
            0 -1 41 412813101 366286277 -482770529 -574126628 -647957557
            -268300239 -1954088289 -53493043</internalNodes>
          <leafValues>
            -8.1986159086227417e-01 5.4442018270492554e-01</leafValues></_>
        <_>
          <internalNodes>
            0 -1 38 -1995326985 -525205137 -1876696473 1342810303
            606870447 -526188498 -1918362802 -277546474</internalNodes>
          <leafValues>
            -8.9004397392272949e-01 4.3497017025947571e-01</leafValues></_></weakClassifiers></_>
    <!-- stage 17 -->
    <_>
      <maxWeakCount>4</maxWeakCount>
      <stageThreshold>-7.8229951858520508e-01</stageThreshold>
      <weakClassifiers>
        <_>
          <internalNodes>
            0 -1 49 -1438385762 1098055823 197175 -1878158845
            -1044151569 -2002042337 -1823536965 -67177800</internalNodes>
          <leafValues>
            -8.0380672216415405e-01 4.5205479860305786e-01</leafValues></_>
        <_>
          <internalNodes>
            0 -1 43 -1580743169 -784105261 -1071341477 -758279217
            -1048559359 -2012765941 -794048221 -9114826</internalNodes>
          <leafValues>
            -8.9044409990310669e-01 4.2395806312561035e-01</leafValues></_>
        <_>
          <internalNodes>
            0 -1 8 -69731361 -213733497 -1043232251 -587087035
            1111703513 -1474197504 -46947881 59756845</internalNodes>
          <leafValues>
            -8.8483059406280518e-01 4.3173962831497192e-01</leafValues></_>
        <_>
          <internalNodes>
            0 -1 40 -1058999927 -1752563065 1098908814 1343827975
            -1442151878 -1702329821 -928540384 -207230315</internalNodes>
          <leafValues>
            -7.7564984560012817e-01 5.4765814542770386e-01</leafValues></_></weakClassifiers></_>
    <!-- stage 18 -->
    <_>
      <maxWeakCount>3</maxWeakCount>
      <stageThreshold>-1.0248593091964722e+00</stageThreshold>
      <weakClassifiers>
        <_>
          <internalNodes>
            0 -1 56 -767040033 1086939155 1350565889 -2134646253
            -769990625 -2129592320 -360457654 -289410101</internalNodes>
          <leafValues>
            -7.6326531171798706e-01 5.4404145479202271e-01</leafValues></_>
        <_>
          <internalNodes>
            0 -1 52 -607394945 1388725511 -989854701 818909407
            -1601204021 1296388 1804254155 2066402127</internalNodes>
          <leafValues>
            -7.9578894376754761e-01 5.2801144123077393e-01</leafValues></_>
        <_>
          <internalNodes>
            0 -1 12 -1339998093 1427669251 100774301 -1726689187
            1082917638 1493696512 -2088761157 -74786648</internalNodes>
          <leafValues>
            -7.3702216148376465e-01 5.3419494628906250e-01</leafValues></_></weakClassifiers></_></stages>
  <features>
    <_>
      <rect>
        0 0 1 6</rect></_>
    <_>
      <rect>
        0 0 5 2</rect></_>
    <_>
      <rect>
        0 2 1 3</rect></_>
    <_>
      <rect>
        0 2 1 6</rect></_>
    <_>
      <rect>
        0 3 2 2</rect></_>
    <_>
      <rect>
        0 8 2 4</rect></_>
    <_>
      <rect>
        0 10 6 3</rect></_>
    <_>
      <rect>
        0 14 3 2</rect></_>
    <_>
      <rect>
        1 0 2 4</rect></_>
    <_>
      <rect>
        1 0 6 6</rect></_>
    <_>
      <rect>
        1 4 4 2</rect></_>
    <_>
      <rect>
        1 8 6 2</rect></_>
    <_>
      <rect>
        1 16 2 1</rect></_>
    <_>
      <rect>
        1 17 3 1</rect></_>
    <_>
      <rect>
        2 0 4 4</rect></_>
    <_>
      <rect>
        3 0 4 2</rect></_>
    <_>
      <rect>
        3 4 2 3</rect></_>
    <_>
      <rect>
        3 8 2 2</rect></_>
    <_>
      <rect>
        4 0 5 2</rect></_>
    <_>
      <rect>
        4 3 2 2</rect></_>
    <_>
      <rect>
        4 3 3 2</rect></_>
    <_>
      <rect>
        4 13 3 2</rect></_>
    <_>
      <rect>
        4 17 2 1</rect></_>
    <_>
      <rect>
        5 8 1 1</rect></_>
    <_>
      <rect>
        5 11 2 1</rect></_>
    <_>
      <rect>
        5 12 2 2</rect></_>
    <_>
      <rect>
        6 5 2 3</rect></_>
    <_>
      <rect>
        6 7 3 3</rect></_>
    <_>
      <rect>
        6 8 3 2</rect></_>
    <_>
      <rect>
        6 9 3 2</rect></_>
    <_>
      <rect>
        6 17 2 1</rect></_>
    <_>
      <rect>
        7 1 3 6</rect></_>
    <_>
      <rect>
        7 3 4 2</rect></_>
    <_>
      <rect>
        7 6 2 3</rect></_>
    <_>
      <rect>
        7 7 2 2</rect></_>
    <_>
      <rect>
        7 8 2 2</rect></_>
    <_>
      <rect>
        7 12 2 1</rect></_>
    <_>
      <rect>
        8 4 1 1</rect></_>
    <_>
      <rect>
        8 7 2 3</rect></_>
    <_>
      <rect>
        8 9 3 2</rect></_>
    <_>
      <rect>
        8 11 1 1</rect></_>
    <_>
      <rect>
        9 4 2 1</rect></_>
    <_>
      <rect>
        9 5 1 1</rect></_>
    <_>
      <rect>
        9 10 1 2</rect></_>
    <_>
      <rect>
        9 10 2 2</rect></_>
    <_>
      <rect>
        10 2 3 2</rect></_>
    <_>
      <rect>
        10 8 1 1</rect></_>
    <_>
      <rect>
        10 9 2 1</rect></_>
    <_>
      <rect>
        11 0 3 2</rect></_>
    <_>
      <rect>
        11 8 1 2</rect></_>
    <_>
      <rect>
        12 6 2 2</rect></_>
    <_>
      <rect>
        13 4 2 4</rect></_>
    <_>
      <rect>
        14 1 2 3</rect></_>
    <_>
      <rect>
        14 2 2 6</rect></_>
    <_>
      <rect>
        14 6 2 3</rect></_>
    <_>
      <rect>
        14 14 2 2</rect></_>
    <_>
      <rect>
        17 7 1 3</rect></_>
    <_>
      <rect>
        17 8 1 4</rect></_>
    <_>
      <rect>
        17 14 1 2</rect></_></features></cascade>
</opencv_storage>
