<?xml version="1.0"?>
<opencv_storage>
<cascade>
  <stageType>BOOST</stageType>
  <featureType>LBP</featureType>
  <height>20</height>
  <width>20</width>
  <stageParams>
    <boostType>GAB</boostType>
    <minHitRate>9.9000000953674316e-01</minHitRate>
    <maxFalseAlarm>5.0000000000000000e-01</maxFalseAlarm>
    <weightTrimRate>9.4999999999999996e-01</weightTrimRate>
    <maxDepth>1</maxDepth>
    <maxWeakCount>100</maxWeakCount></stageParams>
  <featureParams>
    <maxCatCount>256</maxCatCount>
    <featSize>1</featSize></featureParams>
  <stageNum>20</stageNum>
  <stages>
    <!-- stage 0 -->
    <_>
      <maxWeakCount>3</maxWeakCount>
      <stageThreshold>-1.0834121704101563e+00</stageThreshold>
      <weakClassifiers>
        <_>
          <internalNodes>
            0 -1 21 -44969506 -783183599 1228969019 1532219649
            -1056775430 -1702494048 -402470657 -99360254</internalNodes>
          <leafValues>
            -8.1479507684707642e-01 6.3531666994094849e-01</leafValues></_>
        <_>
          <internalNodes>
            0 -1 36 -107361798 2098418048 16875730 -1087139544
            1342218463 176328834 1241565439 1394133513</internalNodes>
          <leafValues>
            -6.3224864006042480e-01 4.1244736313819885e-01</leafValues></_>
        <_>
          <internalNodes>
            0 -1 100 -303108978 1117569155 -1853177639 2086567946
            -1188249524 1872249090 -1685378864 -1934086048</internalNodes>
          <leafValues>
            -6.7253357172012329e-01 3.6363154649734497e-01</leafValues></_></weakClassifiers></_>
    <!-- stage 1 -->
    <_>
      <maxWeakCount>6</maxWeakCount>
      <stageThreshold>-1.2393927574157715e+00</stageThreshold>
      <weakClassifiers>
        <_>
          <internalNodes>
            0 -1 23 -136982018 -740863551 -778989409 -2365113 -265298193
            -1180597590 -664933137 -1025</internalNodes>
          <leafValues>
            -7.5526994466781616e-01 5.9120881557464600e-01</leafValues></_>
        <_>
          <internalNodes>
            0 -1 103 -803999664 -2138013696 -804126615 -1853616104
            -805195774 805310466 -1878949662 -258842422</internalNodes>
          <leafValues>
            -5.7201510667800903e-01 5.5713444948196411e-01</leafValues></_>
        <_>
          <internalNodes>
            0 -1 63 -890507094 -1480589182 -1073626804 -99823551
            -1568045021 -1039499262 -81564992 -151323920</internalNodes>
          <leafValues>
            -5.2620655298233032e-01 5.6773465871810913e-01</leafValues></_>
        <_>
          <internalNodes>
            0 -1 24 -745930384 -492863352 -2147331773 1036855455
            -1440677888 583073937 -1869993344 -699523008</internalNodes>
          <leafValues>
            -5.8119714260101318e-01 4.8019590973854065e-01</leafValues></_>
        <_>
          <internalNodes>
            0 -1 111 -1842333680 -1152471135 1878982566 -1044746272
            -1208503114 393707005 -437060170 -275603691</internalNodes>
          <leafValues>
            -4.5183619856834412e-01 6.0362029075622559e-01</leafValues></_>
        <_>
          <internalNodes>
            0 -1 9 -1745982158 -2106949647 2147416404 -310694165
            -981781164 1061633020 -1075534592 -1212797535</internalNodes>
          <leafValues>
            -4.3479984998703003e-01 5.8573919534683228e-01</leafValues></_></weakClassifiers></_>
    <!-- stage 2 -->
    <_>
      <maxWeakCount>5</maxWeakCount>
      <stageThreshold>-1.3834580183029175e+00</stageThreshold>
      <weakClassifiers>
        <_>
          <internalNodes>
            0 -1 52 -242090756 1910364635 279019727 -145897201
            -486340209 829521935 -345003281 -136344913</internalNodes>
          <leafValues>
            -7.8730159997940063e-01 5.6470590829849243e-01</leafValues></_>
        <_>
          <internalNodes>
            0 -1 35 -40242968 -681717419 -1996414050 -1336413725
            -1325301205 839614611 1268223983 -243334129</internalNodes>
          <leafValues>
            -5.9667056798934937e-01 4.6469151973724365e-01</leafValues></_>
        <_>
          <internalNodes>
            0 -1 84 -1170046866 51704492 -2012839092 1517061038
            -2130632692 822280227 714738636 569768302</internalNodes>
          <leafValues>
            -7.0047456026077271e-01 3.3453702926635742e-01</leafValues></_>
        <_>
          <internalNodes>
            0 -1 32 844167764 794156882 285540438 1147059411 -503051733
            1950552339 -347690900 1189413596</internalNodes>
          <leafValues>
            -7.7116107940673828e-01 2.6864010095596313e-01</leafValues></_>
        <_>
          <internalNodes>
            0 -1 105 -305803874 1616040654 -1878949874 -423460789
            -796719093 -1023377205 -128212258 545110746</internalNodes>
          <leafValues>
            -5.5938696861267090e-01 4.3713819980621338e-01</leafValues></_></weakClassifiers></_>
    <!-- stage 3 -->
    <_>
      <maxWeakCount>5</maxWeakCount>
      <stageThreshold>-1.2112612724304199e+00</stageThreshold>
      <weakClassifiers>
        <_>
          <internalNodes>
            0 -1 50 -1694696721 -365692993 444449431 -490761301
            -423631537 672117767 -228873373 -17</internalNodes>
          <leafValues>
            -7.7824270725250244e-01 5.9016394615173340e-01</leafValues></_>
        <_>
          <internalNodes>
            0 -1 33 -1957828802 -1529104897 -2111856274 1191139238
            -136970625 284414366 -9442705 2012714895</internalNodes>
          <leafValues>
            -6.7757105827331543e-01 4.1184249520301819e-01</leafValues></_>
        <_>
          <internalNodes>
            0 -1 62 737545799 -2132239873 469729418 -1916890209
            1405058367 501363295 -1342391428 1727717375</internalNodes>
          <leafValues>
            -6.5322011709213257e-01 4.1485199332237244e-01</leafValues></_>
        <_>
          <internalNodes>
            0 -1 92 -478185617 -347663665 -1443137698 -1896995849
            -1078232826 1358665279 -1415583853 -453133473</internalNodes>
          <leafValues>
            -5.6408905982971191e-01 5.0143104791641235e-01</leafValues></_>
        <_>
          <internalNodes>
            0 -1 38 -387044524 682284510 -702823638 1324266446
            -496078433 -729951765 -887175627 -530282516</internalNodes>
          <leafValues>
            -6.9307208061218262e-01 4.2364972829818726e-01</leafValues></_></weakClassifiers></_>
    <!-- stage 4 -->
    <_>
      <maxWeakCount>5</maxWeakCount>
      <stageThreshold>-1.0101648569107056e+00</stageThreshold>
      <weakClassifiers>
        <_>
          <internalNodes>
            0 -1 65 -2098177 -319858689 -2232321 -272629761 -129 -266309
            -52429979 -318981124</internalNodes>
          <leafValues>
            -7.7108430862426758e-01 3.6236932873725891e-01</leafValues></_>
        <_>
          <internalNodes>
            0 -1 55 -1108623409 184385406 -1611156510 -71368842
            -34635913 100233071 -1073762564 -134480001</internalNodes>
          <leafValues>
            -6.3582402467727661e-01 4.1557070612907410e-01</leafValues></_>
        <_>
          <internalNodes>
            0 -1 49 -830492705 -402792545 -279511621 -1403000338
            -149016595 2009066463 -1074022555 -941357196</internalNodes>
          <leafValues>
            -5.7262849807739258e-01 4.8766398429870605e-01</leafValues></_>
        <_>
          <internalNodes>
            0 -1 80 1323887631 1174174591 -1346977922 -2031452354
            -115345617 1744760639 -202411023 -435912875</internalNodes>
          <leafValues>
            -6.3409394025802612e-01 4.3514433503150940e-01</leafValues></_>
        <_>
          <internalNodes>
            0 -1 15 -337809545 1853275643 -17113486 -1343291936
            2112585559 1375723380 -1342179979 -12388491</internalNodes>
          <leafValues>
            -5.0822126865386963e-01 5.5582755804061890e-01</leafValues></_></weakClassifiers></_>
    <!-- stage 5 -->
    <_>
      <maxWeakCount>4</maxWeakCount>
      <stageThreshold>-1.5890603065490723e+00</stageThreshold>
      <weakClassifiers>
        <_>
          <internalNodes>
            0 -1 39 -77856769 -302000385 -69730322 -8439585 -281805825
            -550831237 -73400330 -67</internalNodes>
          <leafValues>
            -7.5402790307998657e-01 3.7918215990066528e-01</leafValues></_>
        <_>
          <internalNodes>
            0 -1 60 -807665793 -268969729 -1116345921 -1426677937
            -843917 866122103 -56362718 -994772099</internalNodes>
          <leafValues>
            -6.3801038265228271e-01 3.6277854442596436e-01</leafValues></_>
        <_>
          <internalNodes>
            0 -1 7 -839388817 780644303 -772811282 -809788454 2036793207
            -430900097 -145365131 -1504325804</internalNodes>
          <leafValues>
            -5.5095869302749634e-01 4.6730914711952209e-01</leafValues></_>
        <_>
          <internalNodes>
            0 -1 67 -402743681 -293620865 -291838225 -354615457
            -562053539 1891629564 -9816092 1691369268</internalNodes>
          <leafValues>
            -7.1326893568038940e-01 3.5393673181533813e-01</leafValues></_></weakClassifiers></_>
    <!-- stage 6 -->
    <_>
      <maxWeakCount>5</maxWeakCount>
      <stageThreshold>-1.2383700609207153e+00</stageThreshold>
      <weakClassifiers>
        <_>
          <internalNodes>
            0 -1 27 -37879809 -536909569 1463253870 -11537921
            -1145577473 -283459813 -6308929 -134221969</internalNodes>
          <leafValues>
            -7.5757575035095215e-01 3.6231884360313416e-01</leafValues></_>
        <_>
          <internalNodes>
            0 -1 91 -1746946177 -1479243782 -1622737546 -1491685666
            1520725109 -138687351 -1074713611 -1108000779</internalNodes>
          <leafValues>
            -6.2788856029510498e-01 3.3118557929992676e-01</leafValues></_>
        <_>
          <internalNodes>
            0 -1 30 -837966481 -269557793 -154803345 -879502337
            -372639781 1902111613 -13130892 -160428731</internalNodes>
          <leafValues>
            -5.5077660083770752e-01 4.3566778302192688e-01</leafValues></_>
        <_>
          <internalNodes>
            0 -1 68 -285291436 712836991 -1074018210 1341571950
            -135529114 1860057899 -141296716 1919278973</internalNodes>
          <leafValues>
            -7.3404765129089355e-01 3.0605271458625793e-01</leafValues></_>
        <_>
          <internalNodes>
            0 -1 22 -548745929 -287065617 1124977095 -1398808914
            -280921237 1094062475 -1350184102 -512363020</internalNodes>
          <leafValues>
            -5.1359999179840088e-01 4.6878209710121155e-01</leafValues></_></weakClassifiers></_>
    <!-- stage 7 -->
    <_>
      <maxWeakCount>6</maxWeakCount>
      <stageThreshold>-8.7512308359146118e-01</stageThreshold>
      <weakClassifiers>
        <_>
          <internalNodes>
            0 -1 31 -4353 -687615145 -1119881217 -38274081 -313530625
            -38036741 -283922433 -134230341</internalNodes>
          <leafValues>
            -7.0099997520446777e-01 5.0499999523162842e-01</leafValues></_>
        <_>
          <internalNodes>
            0 -1 2 -1417686058 597545337 1338999578 1675270126
            -149460241 1333785311 -351012498 -144218545</internalNodes>
          <leafValues>
            -6.4553302526473999e-01 3.0652028322219849e-01</leafValues></_>
        <_>
          <internalNodes>
            0 -1 102 1291331421 -494986289 -1047865137 -490196162
            -1147442890 1973391742 -72761513 -243342662</internalNodes>
          <leafValues>
            -5.7446491718292236e-01 3.6543062329292297e-01</leafValues></_>
        <_>
          <internalNodes>
            0 -1 113 -805310145 -1901528078 618892978 -1529960258
            -538494401 -2124635046 -221782154 -326059660</internalNodes>
          <leafValues>
            -4.9793878197669983e-01 4.2660966515541077e-01</leafValues></_>
        <_>
          <internalNodes>
            0 -1 98 -557285377 525777895 1073844686 -1437351858
            -1699647212 82561723 -1071926959 1157477351</internalNodes>
          <leafValues>
            -6.4612931013107300e-01 3.5943660140037537e-01</leafValues></_>
        <_>
          <internalNodes>
            0 -1 85 813249372 -324220434 402914253 -1327577926
            -356788404 1951115339 -525405598 -997523530</internalNodes>
          <leafValues>
            -6.2019085884094238e-01 3.2549893856048584e-01</leafValues></_></weakClassifiers></_>
    <!-- stage 8 -->
    <_>
      <maxWeakCount>5</maxWeakCount>
      <stageThreshold>-1.5340116024017334e+00</stageThreshold>
      <weakClassifiers>
        <_>
          <internalNodes>
            0 -1 71 -33751073 -1087385097 -679493249 -21237489
            -704928897 -750055293 -100665473 -4197377</internalNodes>
          <leafValues>
            -7.2935533523559570e-01 3.2313576340675354e-01</leafValues></_>
        <_>
          <internalNodes>
            0 -1 25 -142739457 -833899905 -1849956938 -289437794
            -273682157 808954411 -1583491310 -1806207119</internalNodes>
          <leafValues>
            -6.4507865905761719e-01 2.5852441787719727e-01</leafValues></_>
        <_>
          <internalNodes>
            0 -1 93 -294729660 625672015 -36855810 -1026630691 -10489985
            -949681253 -254831250 1651584876</internalNodes>
          <leafValues>
            -7.3868554830551147e-01 2.5271427631378174e-01</leafValues></_>
        <_>
          <internalNodes>
            0 -1 12 -1352663350 -2007871553 56952 -538919413 -1098187099
            -1774245017 1247890132 1681155940</internalNodes>
          <leafValues>
            -7.3485094308853149e-01 2.7775400876998901e-01</leafValues></_>
        <_>
          <internalNodes>
            0 -1 109 -381923473 659183050 -653816486 788297470 15096661
            1420439320 -1318348 889074686</internalNodes>
          <leafValues>
            -6.9004595279693604e-01 2.5334802269935608e-01</leafValues></_></weakClassifiers></_>
    <!-- stage 9 -->
    <_>
      <maxWeakCount>7</maxWeakCount>
      <stageThreshold>-1.3207517862319946e+00</stageThreshold>
      <weakClassifiers>
        <_>
          <internalNodes>
            0 -1 5 -1789263426 2136543281 84476311 488592271 -232744449
            -1948315491 1225305067 -80741717</internalNodes>
          <leafValues>
            -7.9199111461639404e-01 3.7209302186965942e-01</leafValues></_>
        <_>
          <internalNodes>
            0 -1 106 1054918134 824086951 420207770 903569315 1669841327
            1891830411 -765230301 595282111</internalNodes>
          <leafValues>
            -6.2140721082687378e-01 3.4644013643264771e-01</leafValues></_>
        <_>
          <internalNodes>
            0 -1 73 -195927348 -1956674221 1360072750 57968906
            -989427269 -912031189 -1433474635 -143251893</internalNodes>
          <leafValues>
            -5.2546298503875732e-01 3.4164994955062866e-01</leafValues></_>
        <_>
          <internalNodes>
            0 -1 28 945233831 688861363 -116969220 924660174 1078668793
            -279113165 562654181 1073641214</internalNodes>
          <leafValues>
            -4.6220061182975769e-01 3.9067071676254272e-01</leafValues></_>
        <_>
          <internalNodes>
            0 -1 14 -1520842512 -283967015 -842669924 -1429417649
            -485809305 655556648 -69902512 -528114843</internalNodes>
          <leafValues>
            -6.0708332061767578e-01 3.2310229539871216e-01</leafValues></_>
        <_>
          <internalNodes>
            0 -1 43 -67989371 1463652553 339023974 1029554594 1110643391
            -1702752085 -1040146223 -1207041271</internalNodes>
          <leafValues>
            -4.5163801312446594e-01 4.0954369306564331e-01</leafValues></_>
        <_>
          <internalNodes>
            0 -1 83 -1336838096 -309991158 824625720 -1998605421
            -100607413 958500867 -353984672 -714729965</internalNodes>
          <leafValues>
            -5.1113837957382202e-01 3.6750105023384094e-01</leafValues></_></weakClassifiers></_>
    <!-- stage 10 -->
    <_>
      <maxWeakCount>7</maxWeakCount>
      <stageThreshold>-1.2803161144256592e+00</stageThreshold>
      <weakClassifiers>
        <_>
          <internalNodes>
            0 -1 19 -31795475 -249587397 -1791557177 2130942339
            -133520241 -255651697 -1157391361 -67114005</internalNodes>
          <leafValues>
            -7.3694986104965210e-01 5.3811657428741455e-01</leafValues></_>
        <_>
          <internalNodes>
            0 -1 59 -636518210 1359446161 -935198577 -1785502947
            -779975747 974852595 1753713195 1930940335</internalNodes>
          <leafValues>
            -5.7545787096023560e-01 3.7729686498641968e-01</leafValues></_>
        <_>
          <internalNodes>
            0 -1 34 -127852163 897036673 -1626296844 1518764496
            269832937 -1282797392 2033258488 -252378347</internalNodes>
          <leafValues>
            -4.6563363075256348e-01 4.0648794174194336e-01</leafValues></_>
        <_>
          <internalNodes>
            0 -1 107 1687540178 -258699059 1074497870 -531172978
            -1333573105 -523820872 -1047545806 540635868</internalNodes>
          <leafValues>
            -6.7216491699218750e-01 2.6485517621040344e-01</leafValues></_>
        <_>
          <internalNodes>
            0 -1 78 2146826921 -1375977987 -536871043 -25182217
            -16812076 -1384120835 -1074334348 -1402286100</internalNodes>
          <leafValues>
            -4.0788292884826660e-01 4.5958232879638672e-01</leafValues></_>
        <_>
          <internalNodes>
            0 -1 112 1488489308 -641547773 -536770554 -252342135
            1100030223 -2012511231 1375969409 -1370513321</internalNodes>
          <leafValues>
            -4.6831187605857849e-01 3.8680207729339600e-01</leafValues></_>
        <_>
          <internalNodes>
            0 -1 18 -1208864188 398627231 34589314 1049805062 1795826216
            873636013 1201015724 1148429288</internalNodes>
          <leafValues>
            -6.1351430416107178e-01 3.2640346884727478e-01</leafValues></_></weakClassifiers></_>
    <!-- stage 11 -->
    <_>
      <maxWeakCount>6</maxWeakCount>
      <stageThreshold>-1.7105722427368164e+00</stageThreshold>
      <weakClassifiers>
        <_>
          <internalNodes>
            0 -1 74 -172771109 -145255949 -1657547777 -8700066
            -1436370434 -7622375 -102109441 -319951905</internalNodes>
          <leafValues>
            -7.2207927703857422e-01 4.4420132040977478e-01</leafValues></_>
        <_>
          <internalNodes>
            0 -1 81 389065308 526107459 697061999 792641846 -1669033365
            -73956841 187353390 306250327</internalNodes>
          <leafValues>
            -7.4581879377365112e-01 2.0528233051300049e-01</leafValues></_>
        <_>
          <internalNodes>
            0 -1 41 285836503 836817241 327227546 1035703219 1489177213
            -1961885077 -1901880353 984779519</internalNodes>
          <leafValues>
            -5.1813054084777832e-01 3.6665007472038269e-01</leafValues></_>
        <_>
          <internalNodes>
            0 -1 57 970531445 1981121489 -577125436 1749154045
            -218024200 -486299122 810285981 -1809837199</internalNodes>
          <leafValues>
            -4.9751800298690796e-01 3.3847776055335999e-01</leafValues></_>
        <_>
          <internalNodes>
            0 -1 44 795378662 1100140563 -2113263409 705855768
            2070894857 342302858 -1352831127 -1627667671</internalNodes>
          <leafValues>
            -5.2637845277786255e-01 3.3639985322952271e-01</leafValues></_>
        <_>
          <internalNodes>
            0 -1 90 267027118 41849178 -2071979282 411044946 -224779720
            -1094573397 -1000228535 -33162407</internalNodes>
          <leafValues>
            -4.8774403333663940e-01 3.4697180986404419e-01</leafValues></_></weakClassifiers></_>
    <!-- stage 12 -->
    <_>
      <maxWeakCount>7</maxWeakCount>
      <stageThreshold>-1.3344558477401733e+00</stageThreshold>
      <weakClassifiers>
        <_>
          <internalNodes>
            0 -1 75 -107744805 -37120553 1364800735 2143750473
            -2006206006 -5537121 -1434207490 -67388513</internalNodes>
          <leafValues>
            -6.7751336097717285e-01 5.7184749841690063e-01</leafValues></_>
        <_>
          <internalNodes>
            0 -1 56 -126343691 -104606433 -1659334433 1474268638
            1169726367 -207387457 -511036436 1009787665</internalNodes>
          <leafValues>
            -5.9386277198791504e-01 3.3242377638816833e-01</leafValues></_>
        <_>
          <internalNodes>
            0 -1 40 533885079 1002132446 -1860461157 967119260
            2043309524 -1346823489 985243101 936858207</internalNodes>
          <leafValues>
            -4.5398390293121338e-01 3.6584177613258362e-01</leafValues></_>
        <_>
          <internalNodes>
            0 -1 64 -1299044906 -1335078520 -783991890 -149632066
            822311282 97212731 -1639667460 1953261439</internalNodes>
          <leafValues>
            -7.0226466655731201e-01 2.3503944277763367e-01</leafValues></_>
        <_>
          <internalNodes>
            0 -1 79 -45950547 -854420907 294727852 -1340206604
            -1048229639 -1228175352 504333301 1558668212</internalNodes>
          <leafValues>
            -4.8081180453300476e-01 3.6132174730300903e-01</leafValues></_>
        <_>
          <internalNodes>
            0 -1 1 812778231 1151047032 -1738141508 1121522142
            1764051697 -1277851462 1218648892 738542709</internalNodes>
          <leafValues>
            -5.6144469976425171e-01 2.8834453225135803e-01</leafValues></_>
        <_>
          <internalNodes>
            0 -1 48 957770420 -1651388095 -1073086541 1955594590
            -1744659515 -1155563389 -1742571007 -1103812290</internalNodes>
          <leafValues>
            -4.7256633639335632e-01 3.7829554080963135e-01</leafValues></_></weakClassifiers></_>
    <!-- stage 13 -->
    <_>
      <maxWeakCount>6</maxWeakCount>
      <stageThreshold>-1.0553508996963501e+00</stageThreshold>
      <weakClassifiers>
        <_>
          <internalNodes>
            0 -1 6 -355361 -38158313 2006651357 -544091261 -664226881
            -1154154309 -1617314065 -5266961</internalNodes>
          <leafValues>
            -6.7751479148864746e-01 4.6774193644523621e-01</leafValues></_>
        <_>
          <internalNodes>
            0 -1 26 -1592558673 2074807675 -394192589 935065401
            -2129670179 399931459 -1360593459 1073479535</internalNodes>
          <leafValues>
            -4.5810788869857788e-01 4.5740258693695068e-01</leafValues></_>
        <_>
          <internalNodes>
            0 -1 11 809219742 795865099 1145098383 1198959294 1246636807
            2030112102 -338528288 1033207284</internalNodes>
          <leafValues>
            -6.7128032445907593e-01 2.6843455433845520e-01</leafValues></_>
        <_>
          <internalNodes>
            0 -1 72 -1121013682 199946967 1224741810 -1366183013
            -1975550083 325263787 -83117332 1983966109</internalNodes>
          <leafValues>
            -7.3303109407424927e-01 2.3122780025005341e-01</leafValues></_>
        <_>
          <internalNodes>
            0 -1 110 962555383 737466782 -2142881441 718041926 583258743
            75522595 1761993339 547119098</internalNodes>
          <leafValues>
            -6.5275567770004272e-01 2.5726342201232910e-01</leafValues></_>
        <_>
          <internalNodes>
            0 -1 42 -222779219 -1555847397 -805181992 1217983753
            1561436880 1561367197 -268424579 2002125373</internalNodes>
          <leafValues>
            -6.2333214282989502e-01 2.8760489821434021e-01</leafValues></_></weakClassifiers></_>
    <!-- stage 14 -->
    <_>
      <maxWeakCount>7</maxWeakCount>
      <stageThreshold>-1.2625136375427246e+00</stageThreshold>
      <weakClassifiers>
        <_>
          <internalNodes>
            0 -1 47 -478755873 -615411215 -652739073 -35821093
            1502130175 -87883616 -72701185 -5649415</internalNodes>
          <leafValues>
            -6.7301124334335327e-01 5.0997149944305420e-01</leafValues></_>
        <_>
          <internalNodes>
            0 -1 69 -1342542121 -1077944995 -1073742081 -537665670
            -84672529 -413696003 -262275 -75526305</internalNodes>
          <leafValues>
            -4.0361368656158447e-01 5.5471575260162354e-01</leafValues></_>
        <_>
          <internalNodes>
            0 -1 76 -712931152 -717504068 297852205 -1172254332
            2074777858 -16121832 -1283933244 -137036220</internalNodes>
          <leafValues>
            -4.3030598759651184e-01 4.1727319359779358e-01</leafValues></_>
        <_>
          <internalNodes>
            0 -1 16 -195149583 501939263 335795996 -1610638946 349797083
            -1381672617 -498533901 -1267398361</internalNodes>
          <leafValues>
            -4.2496594786643982e-01 4.2220941185951233e-01</leafValues></_>
        <_>
          <internalNodes>
            0 -1 51 -1371662111 1708483335 -1837039347 -28902482
            1005138795 -1602136049 -1382381273 -2049357595</internalNodes>
          <leafValues>
            -5.7303845882415771e-01 2.9908186197280884e-01</leafValues></_>
        <_>
          <internalNodes>
            0 -1 82 1788159062 -1585328035 -447632109 1854673224
            -892094105 -480802807 -958293324 169358646</internalNodes>
          <leafValues>
            -7.3651951551437378e-01 2.3429258167743683e-01</leafValues></_>
        <_>
          <internalNodes>
            0 -1 94 -877212762 31163394 -666369574 -1074372109
            1537909543 -1291646455 -754202013 307127724</internalNodes>
          <leafValues>
            -6.3724976778030396e-01 2.5964552164077759e-01</leafValues></_></weakClassifiers></_>
    <!-- stage 15 -->
    <_>
      <maxWeakCount>6</maxWeakCount>
      <stageThreshold>-1.0767121315002441e+00</stageThreshold>
      <weakClassifiers>
        <_>
          <internalNodes>
            0 -1 31 -1084756227 -146164897 -549399041 2104357787
            -1606308901 -1194591569 -345986053 -3159813</internalNodes>
          <leafValues>
            -7.1955716609954834e-01 3.2803180813789368e-01</leafValues></_>
        <_>
          <internalNodes>
            0 -1 4 -84129963 1734066459 -1340218597 -1744920165
            -534304801 864406027 -2122067975 1441054773</internalNodes>
          <leafValues>
            -6.3491344451904297e-01 2.4677643179893494e-01</leafValues></_>
        <_>
          <internalNodes>
            0 -1 58 -1479590937 -13373957 495501877 -1410121573
            780828724 -751226696 -1280757456 -1961885547</internalNodes>
          <leafValues>
            -5.7508236169815063e-01 3.1381860375404358e-01</leafValues></_>
        <_>
          <internalNodes>
            0 -1 17 1096038907 -1979268047 523838674 513413210
            1535850081 1270584383 -40134419 232765632</internalNodes>
          <leafValues>
            -6.2942039966583252e-01 2.8021708130836487e-01</leafValues></_>
        <_>
          <internalNodes>
            0 -1 3 -2070300818 118949273 1354565718 872504067 -419930785
            -1831630013 184626233 926367151</internalNodes>
          <leafValues>
            -6.1519712209701538e-01 3.0315855145454407e-01</leafValues></_>
        <_>
          <internalNodes>
            0 -1 101 -1501129435 -795098703 335856789 718835923
            -720984518 293634176 2014295895 -361738460</internalNodes>
          <leafValues>
            -5.5863195657730103e-01 3.2686755061149597e-01</leafValues></_></weakClassifiers></_>
    <!-- stage 16 -->
    <_>
      <maxWeakCount>6</maxWeakCount>
      <stageThreshold>-9.1566711664199829e-01</stageThreshold>
      <weakClassifiers>
        <_>
          <internalNodes>
            0 -1 46 -268456073 -5638151 -644549633 -1116058 -1380452355
            -2295299 -141627848 -539112980</internalNodes>
          <leafValues>
            -7.4082314968109131e-01 2.1926909685134888e-01</leafValues></_>
        <_>
          <internalNodes>
            0 -1 10 1308571135 -1382697473 -1772399114 -336790544
            -1838682249 913607335 -428350092 -320835628</internalNodes>
          <leafValues>
            -6.0204458236694336e-01 3.0888110399246216e-01</leafValues></_>
        <_>
          <internalNodes>
            0 -1 108 1892499359 1644682175 -8391715 -224399922
            2076113503 -177433670 -39158249 -261579426</internalNodes>
          <leafValues>
            -5.1276195049285889e-01 4.0707960724830627e-01</leafValues></_>
        <_>
          <internalNodes>
            0 -1 88 937155837 -1498089482 402414582 -1629732866
            838106998 462277887 -537247919 -1426802831</internalNodes>
          <leafValues>
            -6.1311519145965576e-01 3.4213334321975708e-01</leafValues></_>
        <_>
          <internalNodes>
            0 -1 86 976184630 -279695086 106092030 1011806564
            -2014159626 -1417197259 -1376803628 557514737</internalNodes>
          <leafValues>
            -6.2435162067413330e-01 3.3120512962341309e-01</leafValues></_>
        <_>
          <internalNodes>
            0 -1 53 -948394010 -1420844611 -1083617025 2020276652
            -628126401 -1491367127 -75257280 -471712906</internalNodes>
          <leafValues>
            -6.0858643054962158e-01 3.4872728586196899e-01</leafValues></_></weakClassifiers></_>
    <!-- stage 17 -->
    <_>
      <maxWeakCount>7</maxWeakCount>
      <stageThreshold>-1.2319842576980591e+00</stageThreshold>
      <weakClassifiers>
        <_>
          <internalNodes>
            0 -1 77 -172493857 -81686057 1028330495 -1087941317
            964810202 -107904229 -1164707333 -923798533</internalNodes>
          <leafValues>
            -7.1503680944442749e-01 3.2128512859344482e-01</leafValues></_>
        <_>
          <internalNodes>
            0 -1 8 -1683065346 247931273 21497606 1160732994 -1056190933
            61248519 323164783 -1082431649</internalNodes>
          <leafValues>
            -6.6342234611511230e-01 2.2498077154159546e-01</leafValues></_>
        <_>
          <internalNodes>
            0 -1 97 -225510690 828784696 1612766036 1863971897 159847866
            330330665 25909227 1056107447</internalNodes>
          <leafValues>
            -4.5834013819694519e-01 3.5057023167610168e-01</leafValues></_>
        <_>
          <internalNodes>
            0 -1 20 -725226908 2006042350 -1849565218 -1054871243
            1929538517 -1568133112 1352804221 2062812036</internalNodes>
          <leafValues>
            -5.2853947877883911e-01 3.0034467577934265e-01</leafValues></_>
        <_>
          <internalNodes>
            0 -1 54 362193074 -510749881 1480810820 2144507028
            2074282789 281346074 -1473675264 1416770334</internalNodes>
          <leafValues>
            -5.8783262968063354e-01 3.0567309260368347e-01</leafValues></_>
        <_>
          <internalNodes>
            0 -1 99 1927273746 -1354657286 1627591868 -623197858
            -1538553154 2004944425 -662126413 -411379077</internalNodes>
          <leafValues>
            -4.3528437614440918e-01 3.8390174508094788e-01</leafValues></_>
        <_>
          <internalNodes>
            0 -1 89 -743246057 -1073840267 805289178 -1912787334
            2130673657 -786433 -1208002174 -1158697089</internalNodes>
          <leafValues>
            -3.6002811789512634e-01 4.7254472970962524e-01</leafValues></_></weakClassifiers></_>
    <!-- stage 18 -->
    <_>
      <maxWeakCount>6</maxWeakCount>
      <stageThreshold>-1.1927609443664551e+00</stageThreshold>
      <weakClassifiers>
        <_>
          <internalNodes>
            0 -1 70 -570565121 -176163693 -240922149 -3570865 -340792353
            -351616881 -281417045 -74976257</internalNodes>
          <leafValues>
            -6.6536962985992432e-01 4.8837208747863770e-01</leafValues></_>
        <_>
          <internalNodes>
            0 -1 29 320082449 856883547 319915999 524619817 2022646796
            1804814601 -1249335858 492568701</internalNodes>
          <leafValues>
            -5.1421266794204712e-01 3.1240996718406677e-01</leafValues></_>
        <_>
          <internalNodes>
            0 -1 104 614279902 1985762302 -11013442 1312222681
            -1618217393 -1441274599 1552808318 1652570992</internalNodes>
          <leafValues>
            -6.7843419313430786e-01 2.3499172925949097e-01</leafValues></_>
        <_>
          <internalNodes>
            0 -1 95 683469397 1707591004 1015912703 1940746692
            -941090601 1248477275 -1045893602 -232739523</internalNodes>
          <leafValues>
            -4.9371108412742615e-01 3.4624993801116943e-01</leafValues></_>
        <_>
          <internalNodes>
            0 -1 87 236070156 -1608744624 -1722445772 1871188309
            -1115469133 -1080277698 730530985 24074803</internalNodes>
          <leafValues>
            -6.1157810688018799e-01 3.0406090617179871e-01</leafValues></_>
        <_>
          <internalNodes>
            0 -1 37 247897238 -2029448777 -686693500 612438288
            -1233708970 1243814145 -1627289264 2116084456</internalNodes>
          <leafValues>
            -8.1167781352996826e-01 1.7989136278629303e-01</leafValues></_></weakClassifiers></_>
    <!-- stage 19 -->
    <_>
      <maxWeakCount>6</maxWeakCount>
      <stageThreshold>-1.0610356330871582e+00</stageThreshold>
      <weakClassifiers>
        <_>
          <internalNodes>
            0 -1 66 -570560273 2110248867 -16537781 -543450847
            -637086025 -50232597 -83064325 -135283713</internalNodes>
          <leafValues>
            -6.8798750638961792e-01 2.5786164402961731e-01</leafValues></_>
        <_>
          <internalNodes>
            0 -1 0 -6439487 -225339577 -1172860129 -275080574 -200548117
            -1484029501 -510816772 1435207007</internalNodes>
          <leafValues>
            -5.1655864715576172e-01 3.2623049616813660e-01</leafValues></_>
        <_>
          <internalNodes>
            0 -1 13 -2028984594 1789951060 489697494 -1611434534
            -1308600236 -1864759241 -115172516 889056052</internalNodes>
          <leafValues>
            -6.4896619319915771e-01 2.4277013540267944e-01</leafValues></_>
        <_>
          <internalNodes>
            0 -1 96 -1040273916 -342719141 -1828681578 -1485007505
            -527663010 -1444198290 -275920768 271626809</internalNodes>
          <leafValues>
            -6.2539362907409668e-01 2.9016906023025513e-01</leafValues></_>
        <_>
          <internalNodes>
            0 -1 61 -1048403111 -70975472 1183946 -1139015362 805518280
            1529817147 -854943190 389757497</internalNodes>
          <leafValues>
            -5.8327019214630127e-01 2.5925374031066895e-01</leafValues></_>
        <_>
          <internalNodes>
            0 -1 45 -83972942 -1571229255 1376313372 135682291 857875923
            -1253585775 -268092719 2088503223</internalNodes>
          <leafValues>
            -5.7590889930725098e-01 2.9048791527748108e-01</leafValues></_></weakClassifiers></_></stages>
  <features>
    <_>
      <rect>
        0 0 3 4</rect></_>
    <_>
      <rect>
        0 0 6 2</rect></_>
    <_>
      <rect>
        0 0 6 5</rect></_>
    <_>
      <rect>
        0 0 6 6</rect></_>
    <_>
      <rect>
        0 1 3 4</rect></_>
    <_>
      <rect>
        0 1 6 6</rect></_>
    <_>
      <rect>
        0 2 4 4</rect></_>
    <_>
      <rect>
        0 3 2 4</rect></_>
    <_>
      <rect>
        0 3 6 5</rect></_>
    <_>
      <rect>
        0 5 1 1</rect></_>
    <_>
      <rect>
        0 5 2 3</rect></_>
    <_>
      <rect>
        0 5 2 5</rect></_>
    <_>
      <rect>
        0 7 3 4</rect></_>
    <_>
      <rect>
        0 8 5 4</rect></_>
    <_>
      <rect>
        0 9 2 2</rect></_>
    <_>
      <rect>
        0 10 2 2</rect></_>
    <_>
      <rect>
        0 10 3 2</rect></_>
    <_>
      <rect>
        0 11 6 3</rect></_>
    <_>
      <rect>
        1 0 3 6</rect></_>
    <_>
      <rect>
        1 0 4 6</rect></_>
    <_>
      <rect>
        1 1 4 2</rect></_>
    <_>
      <rect>
        1 1 6 5</rect></_>
    <_>
      <rect>
        1 2 2 4</rect></_>
    <_>
      <rect>
        1 2 6 5</rect></_>
    <_>
      <rect>
        1 4 1 2</rect></_>
    <_>
      <rect>
        1 8 2 1</rect></_>
    <_>
      <rect>
        1 8 4 4</rect></_>
    <_>
      <rect>
        1 8 6 2</rect></_>
    <_>
      <rect>
        1 11 3 3</rect></_>
    <_>
      <rect>
        1 17 6 1</rect></_>
    <_>
      <rect>
        2 0 4 2</rect></_>
    <_>
      <rect>
        2 0 4 4</rect></_>
    <_>
      <rect>
        2 0 4 5</rect></_>
    <_>
      <rect>
        2 0 6 6</rect></_>
    <_>
      <rect>
        2 1 4 2</rect></_>
    <_>
      <rect>
        2 1 5 4</rect></_>
    <_>
      <rect>
        2 1 6 6</rect></_>
    <_>
      <rect>
        2 3 4 4</rect></_>
    <_>
      <rect>
        2 4 3 3</rect></_>
    <_>
      <rect>
        2 9 6 2</rect></_>
    <_>
      <rect>
        2 11 3 3</rect></_>
    <_>
      <rect>
        2 11 6 3</rect></_>
    <_>
      <rect>
        3 0 4 4</rect></_>
    <_>
      <rect>
        3 0 5 4</rect></_>
    <_>
      <rect>
        3 2 3 6</rect></_>
    <_>
      <rect>
        3 2 4 3</rect></_>
    <_>
      <rect>
        3 3 3 2</rect></_>
    <_>
      <rect>
        3 4 3 1</rect></_>
    <_>
      <rect>
        3 17 2 1</rect></_>
    <_>
      <rect>
        4 0 3 3</rect></_>
    <_>
      <rect>
        4 1 3 6</rect></_>
    <_>
      <rect>
        4 2 1 3</rect></_>
    <_>
      <rect>
        4 2 5 6</rect></_>
    <_>
      <rect>
        4 7 2 2</rect></_>
    <_>
      <rect>
        4 8 1 2</rect></_>
    <_>
      <rect>
        4 8 5 4</rect></_>
    <_>
      <rect>
        5 0 4 3</rect></_>
    <_>
      <rect>
        5 1 3 3</rect></_>
    <_>
      <rect>
        5 2 1 2</rect></_>
    <_>
      <rect>
        5 2 5 6</rect></_>
    <_>
      <rect>
        5 8 3 2</rect></_>
    <_>
      <rect>
        5 8 5 2</rect></_>
    <_>
      <rect>
        5 11 5 3</rect></_>
    <_>
      <rect>
        6 7 1 3</rect></_>
    <_>
      <rect>
        6 8 4 4</rect></_>
    <_>
      <rect>
        6 9 2 2</rect></_>
    <_>
      <rect>
        7 0 2 5</rect></_>
    <_>
      <rect>
        7 0 4 2</rect></_>
    <_>
      <rect>
        7 0 4 4</rect></_>
    <_>
      <rect>
        7 0 4 5</rect></_>
    <_>
      <rect>
        7 1 2 5</rect></_>
    <_>
      <rect>
        7 1 2 6</rect></_>
    <_>
      <rect>
        7 1 3 6</rect></_>
    <_>
      <rect>
        7 2 4 4</rect></_>
    <_>
      <rect>
        7 7 2 2</rect></_>
    <_>
      <rect>
        7 7 4 2</rect></_>
    <_>
      <rect>
        7 8 1 1</rect></_>
    <_>
      <rect>
        7 8 2 2</rect></_>
    <_>
      <rect>
        7 10 1 1</rect></_>
    <_>
      <rect>
        7 13 3 2</rect></_>
    <_>
      <rect>
        8 0 3 4</rect></_>
    <_>
      <rect>
        8 0 4 5</rect></_>
    <_>
      <rect>
        8 1 2 3</rect></_>
    <_>
      <rect>
        8 5 1 2</rect></_>
    <_>
      <rect>
        8 5 4 5</rect></_>
    <_>
      <rect>
        8 7 2 2</rect></_>
    <_>
      <rect>
        8 9 4 3</rect></_>
    <_>
      <rect>
        8 11 4 3</rect></_>
    <_>
      <rect>
        8 12 2 2</rect></_>
    <_>
      <rect>
        8 14 3 2</rect></_>
    <_>
      <rect>
        9 2 3 6</rect></_>
    <_>
      <rect>
        9 11 2 3</rect></_>
    <_>
      <rect>
        10 9 3 2</rect></_>
    <_>
      <rect>
        11 0 3 4</rect></_>
    <_>
      <rect>
        11 2 3 5</rect></_>
    <_>
      <rect>
        11 3 3 2</rect></_>
    <_>
      <rect>
        11 5 2 2</rect></_>
    <_>
      <rect>
        11 8 3 4</rect></_>
    <_>
      <rect>
        11 11 3 2</rect></_>
    <_>
      <rect>
        12 6 2 1</rect></_>
    <_>
      <rect>
        13 0 1 2</rect></_>
    <_>
      <rect>
        13 2 1 2</rect></_>
    <_>
      <rect>
        13 6 2 1</rect></_>
    <_>
      <rect>
        13 8 1 1</rect></_>
    <_>
      <rect>
        14 1 2 3</rect></_>
    <_>
      <rect>
        14 1 2 5</rect></_>
    <_>
      <rect>
        14 1 2 6</rect></_>
    <_>
      <rect>
        14 2 2 5</rect></_>
    <_>
      <rect>
        14 3 2 2</rect></_>
    <_>
      <rect>
        14 5 2 5</rect></_>
    <_>
      <rect>
        14 8 2 4</rect></_>
    <_>
      <rect>
        14 17 1 1</rect></_>
    <_>
      <rect>
        17 0 1 6</rect></_>
    <_>
      <rect>
        17 9 1 2</rect></_></features></cascade>
</opencv_storage>
