<?xml version="1.0"?>
<opencv_storage>
<cascade>
  <stageType>BOOST</stageType>
  <featureType>LBP</featureType>
  <height>24</height>
  <width>24</width>
  <stageParams>
    <boostType>GAB</boostType>
    <minHitRate>9.9500000476837158e-01</minHitRate>
    <maxFalseAlarm>3.0000001192092896e-01</maxFalseAlarm>
    <weightTrimRate>9.4999999999999996e-01</weightTrimRate>
    <maxDepth>1</maxDepth>
    <maxWeakCount>100</maxWeakCount></stageParams>
  <featureParams>
    <maxCatCount>256</maxCatCount>
    <featSize>1</featSize></featureParams>
  <stageNum>20</stageNum>
  <stages>
    <!-- stage 0 -->
    <_>
      <maxWeakCount>6</maxWeakCount>
      <stageThreshold>-8.6846357583999634e-01</stageThreshold>
      <weakClassifiers>
        <_>
          <internalNodes>
            0 -1 44 -35799041 -1081088033 -722503746 -1360860424
            -323115137 -6818955 -224658091 -16990281</internalNodes>
          <leafValues>
            -7.0476192235946655e-01 5.3333336114883423e-01</leafValues></_>
        <_>
          <internalNodes>
            0 -1 117 -1166024913 1806079886 -895681592 -420821523
            -542838971 670719919 -67504315 -2032272424</internalNodes>
          <leafValues>
            -7.5611644983291626e-01 4.0778124332427979e-01</leafValues></_>
        <_>
          <internalNodes>
            0 -1 62 232662311 -650904225 -1555584089 -2099199498
            93409103 2146114903 -538789260 -239015067</internalNodes>
          <leafValues>
            -6.7751753330230713e-01 4.5278638601303101e-01</leafValues></_>
        <_>
          <internalNodes>
            0 -1 77 1064226735 781728190 -80310466 -386213478
            -1248251025 -1084502733 -368033448 -1970214096</internalNodes>
          <leafValues>
            -6.5495645999908447e-01 4.7850310802459717e-01</leafValues></_>
        <_>
          <internalNodes>
            0 -1 141 867325215 440361567 -1028353193 -2008766598
            202257727 -188302989 -437896940 642805615</internalNodes>
          <leafValues>
            -7.4765574932098389e-01 4.3210944533348083e-01</leafValues></_>
        <_>
          <internalNodes>
            0 -1 147 1000162191 904573235 -2077386986 713084285
            -1181529228 109629571 -206014652 71629109</internalNodes>
          <leafValues>
            -8.0141448974609375e-01 3.7518724799156189e-01</leafValues></_></weakClassifiers></_>
    <!-- stage 1 -->
    <_>
      <maxWeakCount>7</maxWeakCount>
      <stageThreshold>-8.3209490776062012e-01</stageThreshold>
      <weakClassifiers>
        <_>
          <internalNodes>
            0 -1 65 -536879177 -1447886913 -395058833 -318770306
            -106484401 -111741857 -5527579 -17512496</internalNodes>
          <leafValues>
            -7.1743488311767578e-01 4.3027889728546143e-01</leafValues></_>
        <_>
          <internalNodes>
            0 -1 50 -1409866889 2090704367 -265955361 -1365601891
            1878940467 -207364949 -1503934704 -325837024</internalNodes>
          <leafValues>
            -6.1771994829177856e-01 4.6156209707260132e-01</leafValues></_>
        <_>
          <internalNodes>
            0 -1 133 1056644991 1067326149 -1612743187 -1911675079
            -1016455609 -908680139 -70583819 -121607843</internalNodes>
          <leafValues>
            -5.6426489353179932e-01 5.3792232275009155e-01</leafValues></_>
        <_>
          <internalNodes>
            0 -1 11 -833618053 -1367481209 -439372370 871097342
            -748016841 387420765 -68420904 -681745793</internalNodes>
          <leafValues>
            -5.8540070056915283e-01 5.1352894306182861e-01</leafValues></_>
        <_>
          <internalNodes>
            0 -1 121 -1948829777 -1164257431 1504629092 -1936817790
            -250717327 -1489042686 -26590348 -857368392</internalNodes>
          <leafValues>
            -5.7131421566009521e-01 5.5104756355285645e-01</leafValues></_>
        <_>
          <internalNodes>
            0 -1 163 -1211837453 -910166544 -33171617 -1561945388
            -810848152 -1595672791 -98693768 -422790314</internalNodes>
          <leafValues>
            -5.6830763816833496e-01 5.8614271879196167e-01</leafValues></_>
        <_>
          <internalNodes>
            0 -1 115 1853845271 939372459 -17891459 1659830271
            2147450829 -1762230273 -134217878 -1258369195</internalNodes>
          <leafValues>
            -5.0822609663009644e-01 6.2277150154113770e-01</leafValues></_></weakClassifiers></_>
    <!-- stage 2 -->
    <_>
      <maxWeakCount>6</maxWeakCount>
      <stageThreshold>-7.3485910892486572e-01</stageThreshold>
      <weakClassifiers>
        <_>
          <internalNodes>
            0 -1 45 -773996545 -1519863009 -1839093538 1604138975
            -443614211 268054335 -3753762 -4526209</internalNodes>
          <leafValues>
            -6.5772432088851929e-01 5.0357997417449951e-01</leafValues></_>
        <_>
          <internalNodes>
            0 -1 13 -1889587697 -1572406410 -799553090 -1351557761
            -628156603 -1511448053 -1966197951 -303810064</internalNodes>
          <leafValues>
            -6.5247303247451782e-01 3.7708798050880432e-01</leafValues></_>
        <_>
          <internalNodes>
            0 -1 69 -1478360534 268390731 -1547619585 1575670754
            -307832033 855776743 -505464772 -143429739</internalNodes>
          <leafValues>
            -6.4060211181640625e-01 3.8593509793281555e-01</leafValues></_>
        <_>
          <internalNodes>
            0 -1 123 -355635365 -2032462708 352490695 779786324
            1611656058 -76741 -7636155 -2069361904</internalNodes>
          <leafValues>
            -6.7069649696350098e-01 3.9152753353118896e-01</leafValues></_>
        <_>
          <internalNodes>
            0 -1 18 1619314015 79908371 -250497825 -119063400
            -1032748977 1363789699 -1413255315 -1863567888</internalNodes>
          <leafValues>
            -5.6332290172576904e-01 4.8398223519325256e-01</leafValues></_>
        <_>
          <internalNodes>
            0 -1 159 -1875042569 -1963534433 -1197882550 2051596122
            171122992 1651886083 -1147086171 -1000052764</internalNodes>
          <leafValues>
            -6.5344363451004028e-01 4.4699889421463013e-01</leafValues></_></weakClassifiers></_>
    <!-- stage 3 -->
    <_>
      <maxWeakCount>8</maxWeakCount>
      <stageThreshold>-4.8241007328033447e-01</stageThreshold>
      <weakClassifiers>
        <_>
          <internalNodes>
            0 -1 83 1476070311 1737605119 -1610520181 -244204993
            1233320943 -205019127 -173827651 -52871185</internalNodes>
          <leafValues>
            -6.4140480756759644e-01 4.6411484479904175e-01</leafValues></_>
        <_>
          <internalNodes>
            0 -1 23 1014720503 757757822 755061005 -1281951369
            -1676967978 1752002652 -1142572292 -575636619</internalNodes>
          <leafValues>
            -5.7375872135162354e-01 4.3011853098869324e-01</leafValues></_>
        <_>
          <internalNodes>
            0 -1 14 -121742374 -2110057633 -1952055818 -1100865892
            -523662993 1194322523 -487137839 -1272460442</internalNodes>
          <leafValues>
            -6.4675724506378174e-01 3.8231334090232849e-01</leafValues></_>
        <_>
          <internalNodes>
            0 -1 96 -631984299 1330561351 -947174050 328122484
            -1324257457 -618547546 -614228996 -419546629</internalNodes>
          <leafValues>
            -5.0071626901626587e-01 5.0161212682723999e-01</leafValues></_>
        <_>
          <internalNodes>
            0 -1 165 1746143063 1774799127 -150239013 1712906509
            -1448977443 -1449932029 -222193954 -2071711179</internalNodes>
          <leafValues>
            -5.2380949258804321e-01 5.1528733968734741e-01</leafValues></_>
        <_>
          <internalNodes>
            0 -1 106 477564364 703399622 -1875033970 -1284844093
            -2095372685 388940058 -578186764 -1493501862</internalNodes>
          <leafValues>
            -6.3033515214920044e-01 4.1019195318222046e-01</leafValues></_>
        <_>
          <internalNodes>
            0 -1 29 -245369970 -2087107167 -2007897954 953229699
            1359065579 -1899822917 1895925949 928395843</internalNodes>
          <leafValues>
            -6.1402994394302368e-01 4.2438045144081116e-01</leafValues></_>
        <_>
          <internalNodes>
            0 -1 57 -277090307 1878031996 2147352302 -296124697
            -1082179713 -268533890 2013065212 -1252139041</internalNodes>
          <leafValues>
            -4.2528504133224487e-01 6.4536702632904053e-01</leafValues></_></weakClassifiers></_>
    <!-- stage 4 -->
    <_>
      <maxWeakCount>8</maxWeakCount>
      <stageThreshold>-6.2717592716217041e-01</stageThreshold>
      <weakClassifiers>
        <_>
          <internalNodes>
            0 -1 107 -73889 -75501697 -33562705 -310837378 -184557569 -1
            -1140850693 -138448897</internalNodes>
          <leafValues>
            -6.0202360153198242e-01 6.8152868747711182e-01</leafValues></_>
        <_>
          <internalNodes>
            0 -1 95 -2069063442 1624299557 599384251 -491019184
            1076998963 -62656102 973326892 -768506002</internalNodes>
          <leafValues>
            -5.9633427858352661e-01 3.7221086025238037e-01</leafValues></_>
        <_>
          <internalNodes>
            0 -1 38 -286526027 -428737551 -871745698 -1430096557
            -2126949537 610987475 810464928 -840619524</internalNodes>
          <leafValues>
            -5.3278458118438721e-01 4.3596220016479492e-01</leafValues></_>
        <_>
          <internalNodes>
            0 -1 114 -2067995502 175200095 1653152568 1328070786
            -130189097 720842843 -504240272 37343858</internalNodes>
          <leafValues>
            -6.7002612352371216e-01 3.6186304688453674e-01</leafValues></_>
        <_>
          <internalNodes>
            0 -1 25 -1802673025 -1480472615 1610985196 774820173
            98184989 -393510774 280673859 -318037979</internalNodes>
          <leafValues>
            -5.4751551151275635e-01 4.3855834007263184e-01</leafValues></_>
        <_>
          <internalNodes>
            0 -1 108 286795551 1833829632 -2061776420 1287910592
            1879167302 833329223 -1315573947 -753356198</internalNodes>
          <leafValues>
            -5.4765737056732178e-01 4.3871006369590759e-01</leafValues></_>
        <_>
          <internalNodes>
            0 -1 101 -2111119209 26873939 1091895496 1583613988
            -2002684798 -412731286 -1813987336 -1528606334</internalNodes>
          <leafValues>
            -5.0518560409545898e-01 4.6442496776580811e-01</leafValues></_>
        <_>
          <internalNodes>
            0 -1 63 -1794733781 -986168779 1585730295 376312533
            -1743767382 1074938059 -1833219483 -1102224721</internalNodes>
          <leafValues>
            -5.1862519979476929e-01 4.8866882920265198e-01</leafValues></_></weakClassifiers></_>
    <!-- stage 5 -->
    <_>
      <maxWeakCount>8</maxWeakCount>
      <stageThreshold>-6.4865344762802124e-01</stageThreshold>
      <weakClassifiers>
        <_>
          <internalNodes>
            0 -1 19 -179659640 -687763247 285217285 -183926773
            1350599311 813695107 1241712654 2070921867</internalNodes>
          <leafValues>
            -6.7941713333129883e-01 6.1194032430648804e-01</leafValues></_>
        <_>
          <internalNodes>
            0 -1 70 -180299640 1359070598 1073741831 -1659289342
            310411689 268435467 166443 1661848203</internalNodes>
          <leafValues>
            -5.5962735414505005e-01 5.1142191886901855e-01</leafValues></_>
        <_>
          <internalNodes>
            0 -1 169 -41171482 -969415998 -2146318771 -1471667966
            1178734719 19628169 -1148484747 -185357576</internalNodes>
          <leafValues>
            -6.0477656126022339e-01 3.6146053671836853e-01</leafValues></_>
        <_>
          <internalNodes>
            0 -1 124 1372120786 -249495533 301989891 117858562
            1217437855 -134152182 -2105473015 625963615</internalNodes>
          <leafValues>
            -4.3945908546447754e-01 4.9290242791175842e-01</leafValues></_>
        <_>
          <internalNodes>
            0 -1 128 -1465742272 -536805118 4521992 -350813560
            1208936522 469827712 1090865592 -1098597974</internalNodes>
          <leafValues>
            -5.6013637781143188e-01 4.1541388630867004e-01</leafValues></_>
        <_>
          <internalNodes>
            0 -1 155 -70978094 1958985731 -1073479420 -939311023
            -779468254 -1593696125 547530848 -1954002378</internalNodes>
          <leafValues>
            -5.6653767824172974e-01 3.5142147541046143e-01</leafValues></_>
        <_>
          <internalNodes>
            0 -1 17 535477993 695909999 -1342210120 -1140871425
            939491310 931037055 2105472413 765804031</internalNodes>
          <leafValues>
            -4.2284360527992249e-01 5.2689015865325928e-01</leafValues></_>
        <_>
          <internalNodes>
            0 -1 67 1997889997 -1320939263 -2146762223 -490225664
            -225770271 -1332150248 -368318464 -797161140</internalNodes>
          <leafValues>
            -5.8214718103408813e-01 4.1662466526031494e-01</leafValues></_></weakClassifiers></_>
    <!-- stage 6 -->
    <_>
      <maxWeakCount>8</maxWeakCount>
      <stageThreshold>-5.7535022497177124e-01</stageThreshold>
      <weakClassifiers>
        <_>
          <internalNodes>
            0 -1 54 -262709 -536887329 -805330946 -2 -134250497 -163969
            -67174658 -1</internalNodes>
          <leafValues>
            -5.9763312339782715e-01 6.5299683809280396e-01</leafValues></_>
        <_>
          <internalNodes>
            0 -1 49 -430200363 1364236804 -792156800 -687103915 36405718
            -1217738038 1066210935 2074346469</internalNodes>
          <leafValues>
            -5.5098599195480347e-01 4.1306960582733154e-01</leafValues></_>
        <_>
          <internalNodes>
            0 -1 26 -201409148 998227966 -286261388 1744732143 -16885891
            -143229057 -369182723 -479394305</internalNodes>
          <leafValues>
            -4.6163645386695862e-01 4.7348287701606750e-01</leafValues></_>
        <_>
          <internalNodes>
            0 -1 73 1489816507 1794692168 486704126 -588373680
            -929494675 1127189399 -769805895 -160758137</internalNodes>
          <leafValues>
            -4.8768222332000732e-01 4.4526714086532593e-01</leafValues></_>
        <_>
          <internalNodes>
            0 -1 157 -1579339457 -1048685882 -779447804 1085569489
            -905392125 -1815858656 1241579585 -1584918784</internalNodes>
          <leafValues>
            -5.6097871065139771e-01 3.8754832744598389e-01</leafValues></_>
        <_>
          <internalNodes>
            0 -1 21 -203285188 -1425829585 -1878916937 1141219718
            27451524 1770508422 186815077 -1464468652</internalNodes>
          <leafValues>
            -6.3300877809524536e-01 3.1856483221054077e-01</leafValues></_>
        <_>
          <internalNodes>
            0 -1 6 -344993804 1928263343 -33554444 -1837117458
            1467436894 1065320447 2130671576 -1880096897</internalNodes>
          <leafValues>
            -4.3952926993370056e-01 4.9088552594184875e-01</leafValues></_>
        <_>
          <internalNodes>
            0 -1 150 351982579 144335323 -1861512412 1840497607
            941836577 948750483 -2126077667 -1606665655</internalNodes>
          <leafValues>
            -5.9090614318847656e-01 3.5773676633834839e-01</leafValues></_></weakClassifiers></_>
    <!-- stage 7 -->
    <_>
      <maxWeakCount>8</maxWeakCount>
      <stageThreshold>-9.0239495038986206e-01</stageThreshold>
      <weakClassifiers>
        <_>
          <internalNodes>
            0 -1 40 -246296162 -208428077 1208157469 -749742575
            1695007931 -2021576307 -637429365 -12633489</internalNodes>
          <leafValues>
            -6.5321099758148193e-01 5.1707315444946289e-01</leafValues></_>
        <_>
          <internalNodes>
            0 -1 1 -1273352369 -1961372397 1074594270 1435517194
            -83869427 1906509835 -1992779624 1999104909</internalNodes>
          <leafValues>
            -5.7829707860946655e-01 3.4610873460769653e-01</leafValues></_>
        <_>
          <internalNodes>
            0 -1 28 -1207960659 -695210073 2129657494 1407909870
            863763375 -85590097 2004336574 -1162395797</internalNodes>
          <leafValues>
            -3.6688324809074402e-01 5.3522956371307373e-01</leafValues></_>
        <_>
          <internalNodes>
            0 -1 105 -1814783611 -447413819 -2050649904 639600796
            1562970470 -1565491064 -89412012 1185986864</internalNodes>
          <leafValues>
            -7.4486285448074341e-01 2.7907729148864746e-01</leafValues></_>
        <_>
          <internalNodes>
            0 -1 56 -1772580732 -1723705518 -1847516094 -2117659260
            269689033 429564005 1082698352 -1605303503</internalNodes>
          <leafValues>
            -5.4734230041503906e-01 3.7521770596504211e-01</leafValues></_>
        <_>
          <internalNodes>
            0 -1 127 -522814788 89821765 1812160516 1285993496
            1262258929 -1383952309 -804841877 1903505227</internalNodes>
          <leafValues>
            -6.0888427495956421e-01 3.5229590535163879e-01</leafValues></_>
        <_>
          <internalNodes>
            0 -1 168 1363952019 -1932996339 -1559222820 672192566
            -480194481 1342212227 327297634 1885804776</internalNodes>
          <leafValues>
            -6.3790243864059448e-01 3.4465235471725464e-01</leafValues></_>
        <_>
          <internalNodes>
            0 -1 42 -549416197 -1457049462 -2120121800 -1450164072
            981552221 -486342526 -1958977418 -1271549231</internalNodes>
          <leafValues>
            -5.0438016653060913e-01 4.0546765923500061e-01</leafValues></_></weakClassifiers></_>
    <!-- stage 8 -->
    <_>
      <maxWeakCount>9</maxWeakCount>
      <stageThreshold>-7.1342194080352783e-01</stageThreshold>
      <weakClassifiers>
        <_>
          <internalNodes>
            0 -1 12 -772306469 -740752119 957420846 -73557751
            -1610350149 -1725527413 -670331921 -13639617</internalNodes>
          <leafValues>
            -6.3423424959182739e-01 5.2307695150375366e-01</leafValues></_>
        <_>
          <internalNodes>
            0 -1 161 1288221886 1427804362 -213876478 -1123909353
            1084908035 -787283581 -201168809 584540462</internalNodes>
          <leafValues>
            -5.7210189104080200e-01 3.1869810819625854e-01</leafValues></_>
        <_>
          <internalNodes>
            0 -1 80 -732393095 1258640134 -1878424310 -629417717
            -1996469651 1089047104 1015505447 -2069640787</internalNodes>
          <leafValues>
            -6.1655080318450928e-01 3.3191490173339844e-01</leafValues></_>
        <_>
          <internalNodes>
            0 -1 20 -201857337 1736179663 -1048913 602734414 -138981891
            -1073754113 1878462462 -662368900</internalNodes>
          <leafValues>
            -3.8320985436439514e-01 5.1533097028732300e-01</leafValues></_>
        <_>
          <internalNodes>
            0 -1 125 820811782 -2023261936 -1853292362 262953028 8768554
            146847883 -351264735 -2039994083</internalNodes>
          <leafValues>
            -7.5143808126449585e-01 2.3991449177265167e-01</leafValues></_>
        <_>
          <internalNodes>
            0 -1 84 -1325386570 1771963207 -788430627 -287719161
            -1341979626 826834955 -92133050 -321133083</internalNodes>
          <leafValues>
            -4.9532294273376465e-01 3.7957319617271423e-01</leafValues></_>
        <_>
          <internalNodes>
            0 -1 140 343301105 327533122 -1859825118 547344662
            -2086188999 454685010 160385248 932454477</internalNodes>
          <leafValues>
            -7.6610201597213745e-01 2.2790929675102234e-01</leafValues></_>
        <_>
          <internalNodes>
            0 -1 24 -1777819438 1552488544 1091801145 -1169358444
            -1794549344 1261314075 -385558389 -1214641981</internalNodes>
          <leafValues>
            -4.2883312702178955e-01 4.7693040966987610e-01</leafValues></_>
        <_>
          <internalNodes>
            0 -1 10 -317951769 1837895736 -1853680880 1287766436
            806226220 -251653976 -1819713164 767713328</internalNodes>
          <leafValues>
            -7.1917545795440674e-01 2.6381796598434448e-01</leafValues></_></weakClassifiers></_>
    <!-- stage 9 -->
    <_>
      <maxWeakCount>9</maxWeakCount>
      <stageThreshold>-6.2466114759445190e-01</stageThreshold>
      <weakClassifiers>
        <_>
          <internalNodes>
            0 -1 82 -2171561 -8519809 -262145 -8519810 2013265903
            -16777421 -134217733 -6281</internalNodes>
          <leafValues>
            -5.8655464649200439e-01 6.3870966434478760e-01</leafValues></_>
        <_>
          <internalNodes>
            0 -1 87 891227539 695603286 627153286 1925351426 -1647930828
            -248776665 -1597693728 -199869647</internalNodes>
          <leafValues>
            -5.8733767271041870e-01 2.9129987955093384e-01</leafValues></_>
        <_>
          <internalNodes>
            0 -1 41 -1399388299 -319613445 101828431 1066960138
            -1777736899 799736969 29725429 346553638</internalNodes>
          <leafValues>
            -5.7312023639678955e-01 3.1141787767410278e-01</leafValues></_>
        <_>
          <internalNodes>
            0 -1 151 215668162 -1489289186 -1743879745 122454482
            -1509433049 1192436745 -377056501 907257169</internalNodes>
          <leafValues>
            -6.1662620306015015e-01 3.1086459755897522e-01</leafValues></_>
        <_>
          <internalNodes>
            0 -1 93 -1312655948 -767663863 360934603 -321136560
            177185063 1562952192 -1718952924 1239505173</internalNodes>
          <leafValues>
            -6.0102438926696777e-01 3.0161643028259277e-01</leafValues></_>
        <_>
          <internalNodes>
            0 -1 100 -780091048 880838297 705740844 521306880 104772376
            1310314512 194118312 -629052662</internalNodes>
          <leafValues>
            -4.8453271389007568e-01 4.2355552315711975e-01</leafValues></_>
        <_>
          <internalNodes>
            0 -1 119 -1256663431 689101059 287114529 -2145418105
            1091740277 -640900847 -947873516 -671375117</internalNodes>
          <leafValues>
            -5.5687761306762695e-01 3.5751163959503174e-01</leafValues></_>
        <_>
          <internalNodes>
            0 -1 132 629354749 258150420 155559865 -1179474555 142895877
            -1148878650 159500940 1880624006</internalNodes>
          <leafValues>
            -5.5244714021682739e-01 3.7536516785621643e-01</leafValues></_>
        <_>
          <internalNodes>
            0 -1 166 1141254079 1888726426 404363815 741696520 766095710
            1966145936 -536086526 -1590029900</internalNodes>
          <leafValues>
            -5.7383716106414795e-01 3.7170368432998657e-01</leafValues></_></weakClassifiers></_>
    <!-- stage 10 -->
    <_>
      <maxWeakCount>9</maxWeakCount>
      <stageThreshold>-7.7662277221679688e-01</stageThreshold>
      <weakClassifiers>
        <_>
          <internalNodes>
            0 -1 75 -214042405 -73834721 167843163 -419330547
            -2063492209 -486862507 -1937569557 -50351265</internalNodes>
          <leafValues>
            -6.1096376180648804e-01 5.1761519908905029e-01</leafValues></_>
        <_>
          <internalNodes>
            0 -1 109 -983193314 -418204453 -1052240561 -1244077868
            -1790411999 998244552 422364617 -126416087</internalNodes>
          <leafValues>
            -5.1331114768981934e-01 3.5022732615470886e-01</leafValues></_>
        <_>
          <internalNodes>
            0 -1 158 -1899203723 1723867968 -250772707 -1077529779
            1636106879 -1320171389 -703863968 146073762</internalNodes>
          <leafValues>
            -6.2511539459228516e-01 2.9224061965942383e-01</leafValues></_>
        <_>
          <internalNodes>
            0 -1 36 542968686 806057300 -2146434782 -586088126
            1133020367 1065949593 -399529933 1448239105</internalNodes>
          <leafValues>
            -6.2047958374023438e-01 3.2720562815666199e-01</leafValues></_>
        <_>
          <internalNodes>
            0 -1 15 2039257519 -886417027 86315298 1025156876
            -1583711078 -1653473268 977818086 323476291</internalNodes>
          <leafValues>
            -5.0525140762329102e-01 3.8276794552803040e-01</leafValues></_>
        <_>
          <internalNodes>
            0 -1 33 -2129216538 1728065879 -2045853409 393613586 565309
            -686681519 75868189 851531608</internalNodes>
          <leafValues>
            -6.1796754598617554e-01 3.1481477618217468e-01</leafValues></_>
        <_>
          <internalNodes>
            0 -1 122 -703327819 1638175123 872484895 -1131081707
            1090714503 -87015158 193659463 1412439364</internalNodes>
          <leafValues>
            -7.0087867975234985e-01 2.4412308633327484e-01</leafValues></_>
        <_>
          <internalNodes>
            0 -1 2 -2092723451 1099149331 -586082863 -1347123744
            -32352335 -1680176879 -502622512 -495296383</internalNodes>
          <leafValues>
            -4.5509362220764160e-01 4.1752359271049500e-01</leafValues></_>
        <_>
          <internalNodes>
            0 -1 152 654448693 -1334910254 1225408771 -88079805
            -1869968069 -1063253887 550636147 871150323</internalNodes>
          <leafValues>
            -6.1677783727645874e-01 3.2203772664070129e-01</leafValues></_></weakClassifiers></_>
    <!-- stage 11 -->
    <_>
      <maxWeakCount>9</maxWeakCount>
      <stageThreshold>-7.8560888767242432e-01</stageThreshold>
      <weakClassifiers>
        <_>
          <internalNodes>
            0 -1 97 -861283361 -15662974 -553447017 -150765311
            -1001928533 1040417032 -988554737 -1573909</internalNodes>
          <leafValues>
            -5.9201389551162720e-01 5.2298849821090698e-01</leafValues></_>
        <_>
          <internalNodes>
            0 -1 55 -84611383 -4292614 -1493206033 -1073741826
            -1073774681 402489215 2147415743 721387327</internalNodes>
          <leafValues>
            -3.8750612735748291e-01 4.9507740139961243e-01</leafValues></_>
        <_>
          <internalNodes>
            0 -1 58 -799932708 -851193711 285278324 -96025596 -997015107
            1929879577 1128526064 1219240496</internalNodes>
          <leafValues>
            -5.3315186500549316e-01 3.1534034013748169e-01</leafValues></_>
        <_>
          <internalNodes>
            0 -1 135 1201977079 -1906698225 8737807 -326711143
            -519739130 1090691201 -374613760 -1808306330</internalNodes>
          <leafValues>
            -5.4637783765792847e-01 3.3124929666519165e-01</leafValues></_>
        <_>
          <internalNodes>
            0 -1 81 -1453680530 43078226 -2122108903 1557349121
            1476558902 -1073414015 -933014816 1863718663</internalNodes>
          <leafValues>
            -5.8243209123611450e-01 2.7968052029609680e-01</leafValues></_>
        <_>
          <internalNodes>
            0 -1 47 -993541192 -1476388390 -653963248 493783184
            1132658705 562135584 671369680 820931525</internalNodes>
          <leafValues>
            -7.0633322000503540e-01 2.4339364469051361e-01</leafValues></_>
        <_>
          <internalNodes>
            0 -1 37 -1986971312 -1056276472 -1727981367 1922846726
            -1039883556 964727273 30122220 1085366801</internalNodes>
          <leafValues>
            -6.0427939891815186e-01 2.8838437795639038e-01</leafValues></_>
        <_>
          <internalNodes>
            0 -1 9 -783742761 -1810857845 1359546648 -719351536
            -1333780431 -2004279166 -2104776487 1231575851</internalNodes>
          <leafValues>
            -4.9059399962425232e-01 3.7777811288833618e-01</leafValues></_>
        <_>
          <internalNodes>
            0 -1 130 -1536800067 1851316471 289472536 -514973438
            1074405969 -389840766 1272293743 353204337</internalNodes>
          <leafValues>
            -7.2627961635589600e-01 2.1992747485637665e-01</leafValues></_></weakClassifiers></_>
    <!-- stage 12 -->
    <_>
      <maxWeakCount>10</maxWeakCount>
      <stageThreshold>-7.6794534921646118e-01</stageThreshold>
      <weakClassifiers>
        <_>
          <internalNodes>
            0 -1 72 -648431137 -1290337897 1126220185 1606489478
            674988712 -1168113664 -1608476420 -1138958536</internalNodes>
          <leafValues>
            -6.1437338590621948e-01 5.5988860130310059e-01</leafValues></_>
        <_>
          <internalNodes>
            0 -1 27 -1868331275 1929609429 285341727 1250363461
            335610332 -243052405 -389904136 1766334739</internalNodes>
          <leafValues>
            -5.1479667425155640e-01 4.2178001999855042e-01</leafValues></_>
        <_>
          <internalNodes>
            0 -1 156 547950877 1622409674 1476497879 -766254887
            1665862176 -490176511 -1014904690 1813839801</internalNodes>
          <leafValues>
            -5.6302809715270996e-01 3.1573802232742310e-01</leafValues></_>
        <_>
          <internalNodes>
            0 -1 162 902600886 1086348824 67258808 1882243993 32055310
            -687734654 9044111 172579552</internalNodes>
          <leafValues>
            -6.6753542423248291e-01 2.5848910212516785e-01</leafValues></_>
        <_>
          <internalNodes>
            0 -1 113 -83180464 -1237286442 66057 1832943721 470384796
            -2004770572 698479081 303940269</internalNodes>
          <leafValues>
            -5.4617738723754883e-01 3.5088348388671875e-01</leafValues></_>
        <_>
          <internalNodes>
            0 -1 88 -1026278920 -1392234304 395008067 -1878478592
            76236831 -1105297407 1209511962 1814556842</internalNodes>
          <leafValues>
            -5.4945582151412964e-01 3.5628050565719604e-01</leafValues></_>
        <_>
          <internalNodes>
            0 -1 71 -2017279490 -238992408 -749461122 -2142076646
            -921673558 1124810754 1703582498 -714767456</internalNodes>
          <leafValues>
            -5.6867516040802002e-01 3.2539716362953186e-01</leafValues></_>
        <_>
          <internalNodes>
            0 -1 34 559504353 -401422199 50403785 2073266390 135413807
            -123567998 -2028468216 -1373961483</internalNodes>
          <leafValues>
            -4.6297869086265564e-01 4.3499180674552917e-01</leafValues></_>
        <_>
          <internalNodes>
            0 -1 154 1023792602 -610533247 -1861713680 1032376330
            -2147294997 50724995 134556327 -891170230</internalNodes>
          <leafValues>
            -3.8690981268882751e-01 5.0196027755737305e-01</leafValues></_>
        <_>
          <internalNodes>
            0 -1 131 -826704235 1977613687 1878712303 -67704850
            -856179779 -65539 1824456310 -1128113723</internalNodes>
          <leafValues>
            -3.9658477902412415e-01 5.2040517330169678e-01</leafValues></_></weakClassifiers></_>
    <!-- stage 13 -->
    <_>
      <maxWeakCount>10</maxWeakCount>
      <stageThreshold>-1.0219339132308960e+00</stageThreshold>
      <weakClassifiers>
        <_>
          <internalNodes>
            0 -1 61 -126947337 857195337 -1308147647 1599161751
            547971498 -218021878 -477394837 -5153</internalNodes>
          <leafValues>
            -6.1400359869003296e-01 4.7668394446372986e-01</leafValues></_>
        <_>
          <internalNodes>
            0 -1 0 -543805040 1006731344 -183909873 1393787281
            -465238369 -1786773351 1103986589 -436213218</internalNodes>
          <leafValues>
            -4.1197827458381653e-01 4.2224693298339844e-01</leafValues></_>
        <_>
          <internalNodes>
            0 -1 142 1251706940 1717977309 -502496894 1179099598 8955922
            427967105 810445926 -528975147</internalNodes>
          <leafValues>
            -6.3949239253997803e-01 2.7506583929061890e-01</leafValues></_>
        <_>
          <internalNodes>
            0 -1 126 -218333058 1079820315 -1962931938 1029293818
            1225294027 1468695552 1653099471 2070907727</internalNodes>
          <leafValues>
            -4.2972356081008911e-01 4.2196318507194519e-01</leafValues></_>
        <_>
          <internalNodes>
            0 -1 39 1543798802 -2121977007 1028364928 -2013228797
            -316712141 415563924 -2052478080 -1724534232</internalNodes>
          <leafValues>
            -5.5738574266433716e-01 3.4612619876861572e-01</leafValues></_>
        <_>
          <internalNodes>
            0 -1 138 805916888 93323512 1426657410 -1160589308 151617916
            1774913683 -2102857645 925354662</internalNodes>
          <leafValues>
            -7.1446394920349121e-01 2.2367098927497864e-01</leafValues></_>
        <_>
          <internalNodes>
            0 -1 52 -2040049882 -1493369857 -1207963921 -218120194
            2013231450 -134253187 -2030567436 -326121665</internalNodes>
          <leafValues>
            -3.8369944691658020e-01 4.6237319707870483e-01</leafValues></_>
        <_>
          <internalNodes>
            0 -1 22 -654245118 534417498 -1877799152 -765538262
            -1186397499 444926396 178978820 1177838084</internalNodes>
          <leafValues>
            -6.5921485424041748e-01 2.8647202253341675e-01</leafValues></_>
        <_>
          <internalNodes>
            0 -1 146 -1400249617 -1342078310 1623310340 -1669939184
            -1182557942 -1635221365 177146431 -1434648288</internalNodes>
          <leafValues>
            -4.6638816595077515e-01 3.9603877067565918e-01</leafValues></_>
        <_>
          <internalNodes>
            0 -1 170 1195527310 1627160858 8394017 1412370564
            -2138568701 664448014 -1425988685 339749017</internalNodes>
          <leafValues>
            -7.5177258253097534e-01 2.5643375515937805e-01</leafValues></_></weakClassifiers></_>
    <!-- stage 14 -->
    <_>
      <maxWeakCount>10</maxWeakCount>
      <stageThreshold>-1.0760849714279175e+00</stageThreshold>
      <weakClassifiers>
        <_>
          <internalNodes>
            0 -1 102 -275006465 -682917631 -1287441041 -183299706
            -771191057 -1079016936 -1125652242 -322206741</internalNodes>
          <leafValues>
            -5.7472246885299683e-01 5.2583587169647217e-01</leafValues></_>
        <_>
          <internalNodes>
            0 -1 103 -217238371 -2055644855 85037266 -654028717
            -81182470 -1568585717 14934524 1523788799</internalNodes>
          <leafValues>
            -4.8703229427337646e-01 3.3799529075622559e-01</leafValues></_>
        <_>
          <internalNodes>
            0 -1 60 -380588259 432119962 -1862237742 240827842
            -423431307 -1702821431 1837164923 -149325545</internalNodes>
          <leafValues>
            -4.3563359975814819e-01 3.9995965361595154e-01</leafValues></_>
        <_>
          <internalNodes>
            0 -1 3 -1320172491 236062546 -645708461 -35318720 -396254665
            1511022731 -1722561819 -1560838211</internalNodes>
          <leafValues>
            -4.2886817455291748e-01 4.2540904879570007e-01</leafValues></_>
        <_>
          <internalNodes>
            0 -1 53 -1599454563 -1561298812 -2147458913 -901512446
            -651687810 2015985793 -1056066623 -867948330</internalNodes>
          <leafValues>
            -5.3625822067260742e-01 3.5775426030158997e-01</leafValues></_>
        <_>
          <internalNodes>
            0 -1 171 127358878 2051068026 -902729696 1986847115
            -528407920 -124739456 1540242284 -1819873696</internalNodes>
          <leafValues>
            -5.2697277069091797e-01 3.5269737243652344e-01</leafValues></_>
        <_>
          <internalNodes>
            0 -1 74 -840698766 1909690626 1476609302 1242664072
            -762933709 1342808192 -609140191 572719917</internalNodes>
          <leafValues>
            -5.3880119323730469e-01 3.4448376297950745e-01</leafValues></_>
        <_>
          <internalNodes>
            0 -1 31 -799944527 1619308609 310382872 1091211376 814323897
            -570412881 -1837098851 -1374805613</internalNodes>
          <leafValues>
            -4.1589546203613281e-01 4.6382233500480652e-01</leafValues></_>
        <_>
          <internalNodes>
            0 -1 172 -1972388269 662138847 -1073743892 1862237694
            536632310 -1216348161 1996242742 -1613556296</internalNodes>
          <leafValues>
            -4.0590399503707886e-01 4.7282883524894714e-01</leafValues></_>
        <_>
          <internalNodes>
            0 -1 134 -1445138657 -1311887039 285249741 1846804729
            -1979709241 315113560 -1396560822 -536231219</internalNodes>
          <leafValues>
            -4.6417775750160217e-01 4.3944981694221497e-01</leafValues></_></weakClassifiers></_>
    <!-- stage 15 -->
    <_>
      <maxWeakCount>10</maxWeakCount>
      <stageThreshold>-1.0054988861083984e+00</stageThreshold>
      <weakClassifiers>
        <_>
          <internalNodes>
            0 -1 76 -309988393 1998001556 -2063502959 -1349660488
            -1811445317 -83766389 -1960448629 -304093510</internalNodes>
          <leafValues>
            -5.9006214141845703e-01 4.4235923886299133e-01</leafValues></_>
        <_>
          <internalNodes>
            0 -1 149 1822374945 1124433932 -921054273 -4120683 411265715
            -1979146230 1089251914 -1397724368</internalNodes>
          <leafValues>
            -4.6792358160018921e-01 3.8674899935722351e-01</leafValues></_>
        <_>
          <internalNodes>
            0 -1 89 -868038404 -2138025600 -1297903944 -1694727984
            1317732971 705265673 1201325040 654308254</internalNodes>
          <leafValues>
            -7.1318274736404419e-01 2.5604507327079773e-01</leafValues></_>
        <_>
          <internalNodes>
            0 -1 116 -1234260197 -1048833 -268435475 1069219581
            2143256522 358088574 -1109412053 -302743554</internalNodes>
          <leafValues>
            -3.2093054056167603e-01 5.8233481645584106e-01</leafValues></_>
        <_>
          <internalNodes>
            0 -1 7 -1122316006 1267208659 1090929862 1279535877
            -1878054259 296290330 1099618378 846020709</internalNodes>
          <leafValues>
            -6.7944121360778809e-01 2.6004880666732788e-01</leafValues></_>
        <_>
          <internalNodes>
            0 -1 66 -1474562634 1633161614 -360119991 -1307631205
            484485920 -1834840053 -507346876 -837789694</internalNodes>
          <leafValues>
            -5.8895409107208252e-01 2.9955363273620605e-01</leafValues></_>
        <_>
          <internalNodes>
            0 -1 153 1880363476 -1941944296 1075095636 -1344630426
            42017574 768186561 1078211117 650496602</internalNodes>
          <leafValues>
            -6.0218632221221924e-01 3.0799567699432373e-01</leafValues></_>
        <_>
          <internalNodes>
            0 -1 112 -1596716853 1082306599 8454722 940675593 1344749610
            -1449549684 1375988402 -1870309447</internalNodes>
          <leafValues>
            -5.6502807140350342e-01 3.4084928035736084e-01</leafValues></_>
        <_>
          <internalNodes>
            0 -1 120 1434723782 -1307959287 1761940232 500715661
            -1402230532 -33398645 353617854 -1817914813</internalNodes>
          <leafValues>
            -4.4445759057998657e-01 4.1866743564605713e-01</leafValues></_>
        <_>
          <internalNodes>
            0 -1 129 -2035169249 -1199566413 302236448 -365918968
            -635002565 1245790337 273727520 937855330</internalNodes>
          <leafValues>
            -5.6572550535202026e-01 3.3765906095504761e-01</leafValues></_></weakClassifiers></_>
    <!-- stage 16 -->
    <_>
      <maxWeakCount>10</maxWeakCount>
      <stageThreshold>-1.0965062379837036e+00</stageThreshold>
      <weakClassifiers>
        <_>
          <internalNodes>
            0 -1 30 -609162755 -1311152107 -1811861089 -170274463
            1476446879 -125140821 1224874427 -72630037</internalNodes>
          <leafValues>
            -5.7705479860305786e-01 5.2409636974334717e-01</leafValues></_>
        <_>
          <internalNodes>
            0 -1 4 -1085144851 153669971 256051489 256180632 -803727293
            815878679 -580294063 571253176</internalNodes>
          <leafValues>
            -6.0609734058380127e-01 2.5045427680015564e-01</leafValues></_>
        <_>
          <internalNodes>
            0 -1 137 2044357234 -1130266095 83955870 995660746 942344569
            -2087313202 161678124 387898666</internalNodes>
          <leafValues>
            -5.7517659664154053e-01 2.8089818358421326e-01</leafValues></_>
        <_>
          <internalNodes>
            0 -1 32 -1862365034 934435080 69944 977666208 -1971207768
            -729546733 960533152 -1261215529</internalNodes>
          <leafValues>
            -4.6660757064819336e-01 3.8436931371688843e-01</leafValues></_>
        <_>
          <internalNodes>
            0 -1 79 19256271 -1849224946 -1857486544 -1889668844
            -1040170261 -1313373365 1099098641 -428838679</internalNodes>
          <leafValues>
            -4.3531131744384766e-01 3.7599849700927734e-01</leafValues></_>
        <_>
          <internalNodes>
            0 -1 85 161583489 738791610 -2130243198 -527679122
            1762076987 725303297 1116943132 791970461</internalNodes>
          <leafValues>
            -6.3689261674880981e-01 2.5682258605957031e-01</leafValues></_>
        <_>
          <internalNodes>
            0 -1 136 -1332608492 -469690219 1880277443 728668332
            1726009209 -1718550400 -1952763373 241320197</internalNodes>
          <leafValues>
            -7.3944354057312012e-01 2.7627575397491455e-01</leafValues></_>
        <_>
          <internalNodes>
            0 -1 94 941756424 563184209 -1996422869 1216856320
            1828790571 596312321 188783148 887686014</internalNodes>
          <leafValues>
            -6.9636785984039307e-01 2.3914329707622528e-01</leafValues></_>
        <_>
          <internalNodes>
            0 -1 118 2081621069 -587038399 74084 1149747226 -927375181
            831195403 470502223 781804993</internalNodes>
          <leafValues>
            -4.7335100173950195e-01 3.7619304656982422e-01</leafValues></_>
        <_>
          <internalNodes>
            0 -1 143 -1291705487 -489094606 1149386945 975012033
            -670547325 -1585348470 42150244 234662421</internalNodes>
          <leafValues>
            -6.2178289890289307e-01 2.8029951453208923e-01</leafValues></_></weakClassifiers></_>
    <!-- stage 17 -->
    <_>
      <maxWeakCount>10</maxWeakCount>
      <stageThreshold>-1.0380266904830933e+00</stageThreshold>
      <weakClassifiers>
        <_>
          <internalNodes>
            0 -1 64 -8388673 -8388609 -101777441 -1074794497 -17 -1
            1879031791 -25165825</internalNodes>
          <leafValues>
            -5.3072625398635864e-01 6.6801619529724121e-01</leafValues></_>
        <_>
          <internalNodes>
            0 -1 16 608430691 -1038679716 596197722 839954867
            -1743577045 109701227 1176484564 1476062386</internalNodes>
          <leafValues>
            -6.8901020288467407e-01 2.4254468083381653e-01</leafValues></_>
        <_>
          <internalNodes>
            0 -1 164 853933499 -904772215 -2130669297 -1284111431
            152229559 1354107415 1699474026 -1266227802</internalNodes>
          <leafValues>
            -4.5235967636108398e-01 3.6090651154518127e-01</leafValues></_>
        <_>
          <internalNodes>
            0 -1 92 -1119221092 798442821 -652704266 251286925
            -633122251 848495266 43420427 1663272764</internalNodes>
          <leafValues>
            -6.7292696237564087e-01 2.4577465653419495e-01</leafValues></_>
        <_>
          <internalNodes>
            0 -1 139 66403130 1142149916 -1050557740 -1918844436
            204095774 1804108943 1373092660 147856592</internalNodes>
          <leafValues>
            -6.9698035717010498e-01 2.3940026760101318e-01</leafValues></_>
        <_>
          <internalNodes>
            0 -1 48 -71322299 1189609389 -1052673 -9712289 2147221239
            -146800769 334968316 -1452172994</internalNodes>
          <leafValues>
            -3.6968043446540833e-01 4.7542437911033630e-01</leafValues></_>
        <_>
          <internalNodes>
            0 -1 78 -1710112331 -1572397054 -2147319793 1716900187
            -2025253765 -1803018208 196323522 -346547317</internalNodes>
          <leafValues>
            -4.3867698311805725e-01 3.9665707945823669e-01</leafValues></_>
        <_>
          <internalNodes>
            0 -1 90 -1484176093 -40431007 -2075066109 840342153
            -534728281 360745544 -1442668158 1704198172</internalNodes>
          <leafValues>
            -5.3042918443679810e-01 3.4654352068901062e-01</leafValues></_>
        <_>
          <internalNodes>
            0 -1 68 1000255049 -1491972074 1107577862 671211785
            969973804 579340971 1770791490 1108977985</internalNodes>
          <leafValues>
            -5.6248778104782104e-01 3.1999346613883972e-01</leafValues></_>
        <_>
          <internalNodes>
            0 -1 160 -1336898502 -1932406253 1342378153 872911324
            -1056352205 -1987641117 1632175298 -1266632265</internalNodes>
          <leafValues>
            -5.3979337215423584e-01 3.4287518262863159e-01</leafValues></_></weakClassifiers></_>
    <!-- stage 18 -->
    <_>
      <maxWeakCount>10</maxWeakCount>
      <stageThreshold>-8.7413799762725830e-01</stageThreshold>
      <weakClassifiers>
        <_>
          <internalNodes>
            0 -1 98 -52604547 -250228451 -2062421633 -1176532495
            -804256103 -1198997303 -1723614276 -2103933</internalNodes>
          <leafValues>
            -5.7773852348327637e-01 4.1847825050354004e-01</leafValues></_>
        <_>
          <internalNodes>
            0 -1 104 -1190801323 -2045931016 -2129476411 -1242373989
            -188462497 2139832361 -1150578191 -990576531</internalNodes>
          <leafValues>
            -5.2041029930114746e-01 3.1382203102111816e-01</leafValues></_>
        <_>
          <internalNodes>
            0 -1 91 -1216419109 2144823255 -1052689 -1491863717
            -201918546 2146959355 -1216872642 1853318974</internalNodes>
          <leafValues>
            -3.4719309210777283e-01 4.7678619623184204e-01</leafValues></_>
        <_>
          <internalNodes>
            0 -1 51 -104109836 -1478393579 689494646 -315387883
            -1189568453 -780105581 -1482470319 -417479733</internalNodes>
          <leafValues>
            -4.5162975788116455e-01 3.9225825667381287e-01</leafValues></_>
        <_>
          <internalNodes>
            0 -1 144 177259780 214581645 -1996455620 -1426930902
            -1878791887 43485570 184803881 1963745936</internalNodes>
          <leafValues>
            -8.0777513980865479e-01 2.4288183450698853e-01</leafValues></_>
        <_>
          <internalNodes>
            0 -1 59 -1210933271 1325601030 419676734 -1763311032
            1082360523 2039185412 -914117892 -763863273</internalNodes>
          <leafValues>
            -4.4273650646209717e-01 3.8167622685432434e-01</leafValues></_>
        <_>
          <internalNodes>
            0 -1 173 779742943 -1610612753 -555880595 1979678454
            1870552958 -1443364996 -1275725963 -1707655868</internalNodes>
          <leafValues>
            -3.8706168532371521e-01 4.8241087794303894e-01</leafValues></_>
        <_>
          <internalNodes>
            0 -1 148 409489767 -1937718839 -1996420797 -335260848
            1258293780 -1970632648 -1601617836 1310153111</internalNodes>
          <leafValues>
            -6.9465053081512451e-01 2.5410711765289307e-01</leafValues></_>
        <_>
          <internalNodes>
            0 -1 167 -1591727210 -157933409 144711752 1250873650
            965058726 687997058 -1291677406 -2045061918</internalNodes>
          <leafValues>
            -4.8025050759315491e-01 3.6407363414764404e-01</leafValues></_>
        <_>
          <internalNodes>
            0 -1 35 -1852792663 1478003161 151027830 -880503808
            -536826966 -1725824896 1759697521 967812828</internalNodes>
          <leafValues>
            -4.9554702639579773e-01 3.9972701668739319e-01</leafValues></_></weakClassifiers></_>
    <!-- stage 19 -->
    <_>
      <maxWeakCount>9</maxWeakCount>
      <stageThreshold>-1.0492644309997559e+00</stageThreshold>
      <weakClassifiers>
        <_>
          <internalNodes>
            0 -1 111 -1073874061 -8404993 -285246469 -524545 1876885384
            -268566545 -65560 -4194821</internalNodes>
          <leafValues>
            -5.3360325098037720e-01 6.0000002384185791e-01</leafValues></_>
        <_>
          <internalNodes>
            0 -1 8 -350403132 -620285303 -938315775 -1857382459
            -750755760 -1056735225 -1869878784 -520855212</internalNodes>
          <leafValues>
            -6.1153161525726318e-01 2.4288630485534668e-01</leafValues></_>
        <_>
          <internalNodes>
            0 -1 86 -1153616413 -133251 -1023410192 255586015 -34210706
            1870004095 -1888125057 -111676106</internalNodes>
          <leafValues>
            -3.5678637027740479e-01 4.6818464994430542e-01</leafValues></_>
        <_>
          <internalNodes>
            0 -1 43 104371230 89874649 -1073348386 1577531245 1082218682
            253298776 -494272413 2121759081</internalNodes>
          <leafValues>
            -5.7367217540740967e-01 2.9892534017562866e-01</leafValues></_>
        <_>
          <internalNodes>
            0 -1 5 -896480400 50450432 -608064114 -1845473280 1981683813
            -1239021566 396824685 1693038852</internalNodes>
          <leafValues>
            -6.5126371383666992e-01 2.3512360453605652e-01</leafValues></_>
        <_>
          <internalNodes>
            0 -1 110 -428496471 -318094146 555754251 -1788837187
            -99678461 -612169214 -1366357103 -466156266</internalNodes>
          <leafValues>
            -4.0740725398063660e-01 4.0872603654861450e-01</leafValues></_>
        <_>
          <internalNodes>
            0 -1 46 2145384927 939261947 -268961805 -1380520326
            1069539326 1610545018 939499478 -1084311556</internalNodes>
          <leafValues>
            -3.3934614062309265e-01 4.9238875508308411e-01</leafValues></_>
        <_>
          <internalNodes>
            0 -1 99 302551858 -401472633 1191252831 -1404632696
            1897932919 -527925184 546408566 269676711</internalNodes>
          <leafValues>
            -6.7976754903793335e-01 2.3684655129909515e-01</leafValues></_>
        <_>
          <internalNodes>
            0 -1 145 -466703982 -1449819128 1086329118 151163331
            -1063542781 1518698505 -1962901468 279597768</internalNodes>
          <leafValues>
            -7.0508855581283569e-01 2.2280560433864594e-01</leafValues></_></weakClassifiers></_></stages>
  <features>
    <_>
      <rect>
        0 1 4 5</rect></_>
    <_>
      <rect>
        0 1 6 7</rect></_>
    <_>
      <rect>
        0 2 2 2</rect></_>
    <_>
      <rect>
        0 2 2 6</rect></_>
    <_>
      <rect>
        0 2 5 5</rect></_>
    <_>
      <rect>
        0 3 4 3</rect></_>
    <_>
      <rect>
        0 3 6 2</rect></_>
    <_>
      <rect>
        0 3 7 7</rect></_>
    <_>
      <rect>
        0 4 1 4</rect></_>
    <_>
      <rect>
        0 6 8 6</rect></_>
    <_>
      <rect>
        0 7 2 2</rect></_>
    <_>
      <rect>
        0 7 8 4</rect></_>
    <_>
      <rect>
        0 8 8 3</rect></_>
    <_>
      <rect>
        0 9 2 5</rect></_>
    <_>
      <rect>
        0 10 4 3</rect></_>
    <_>
      <rect>
        0 12 3 2</rect></_>
    <_>
      <rect>
        0 12 7 4</rect></_>
    <_>
      <rect>
        0 15 4 3</rect></_>
    <_>
      <rect>
        1 0 2 5</rect></_>
    <_>
      <rect>
        1 0 4 7</rect></_>
    <_>
      <rect>
        1 0 6 4</rect></_>
    <_>
      <rect>
        1 1 1 3</rect></_>
    <_>
      <rect>
        1 1 2 2</rect></_>
    <_>
      <rect>
        1 9 2 4</rect></_>
    <_>
      <rect>
        1 11 5 2</rect></_>
    <_>
      <rect>
        1 14 2 1</rect></_>
    <_>
      <rect>
        2 0 4 6</rect></_>
    <_>
      <rect>
        2 0 6 3</rect></_>
    <_>
      <rect>
        2 1 7 4</rect></_>
    <_>
      <rect>
        2 1 7 5</rect></_>
    <_>
      <rect>
        2 2 5 3</rect></_>
    <_>
      <rect>
        2 2 7 3</rect></_>
    <_>
      <rect>
        2 5 3 4</rect></_>
    <_>
      <rect>
        2 8 4 5</rect></_>
    <_>
      <rect>
        2 20 1 1</rect></_>
    <_>
      <rect>
        3 0 6 4</rect></_>
    <_>
      <rect>
        3 0 7 8</rect></_>
    <_>
      <rect>
        3 1 2 2</rect></_>
    <_>
      <rect>
        3 1 2 4</rect></_>
    <_>
      <rect>
        3 2 3 4</rect></_>
    <_>
      <rect>
        3 3 6 5</rect></_>
    <_>
      <rect>
        3 5 2 2</rect></_>
    <_>
      <rect>
        3 7 3 3</rect></_>
    <_>
      <rect>
        3 7 5 4</rect></_>
    <_>
      <rect>
        3 10 4 2</rect></_>
    <_>
      <rect>
        3 10 7 4</rect></_>
    <_>
      <rect>
        3 15 4 3</rect></_>
    <_>
      <rect>
        3 15 5 3</rect></_>
    <_>
      <rect>
        4 0 3 3</rect></_>
    <_>
      <rect>
        4 0 4 3</rect></_>
    <_>
      <rect>
        4 3 2 2</rect></_>
    <_>
      <rect>
        4 5 2 1</rect></_>
    <_>
      <rect>
        4 7 1 1</rect></_>
    <_>
      <rect>
        4 7 1 2</rect></_>
    <_>
      <rect>
        4 7 6 5</rect></_>
    <_>
      <rect>
        4 9 4 5</rect></_>
    <_>
      <rect>
        4 10 4 4</rect></_>
    <_>
      <rect>
        4 11 1 3</rect></_>
    <_>
      <rect>
        5 0 6 3</rect></_>
    <_>
      <rect>
        5 1 2 3</rect></_>
    <_>
      <rect>
        5 2 3 3</rect></_>
    <_>
      <rect>
        5 3 4 6</rect></_>
    <_>
      <rect>
        5 4 4 1</rect></_>
    <_>
      <rect>
        5 6 3 6</rect></_>
    <_>
      <rect>
        5 7 4 4</rect></_>
    <_>
      <rect>
        5 10 3 3</rect></_>
    <_>
      <rect>
        5 12 3 3</rect></_>
    <_>
      <rect>
        5 18 1 2</rect></_>
    <_>
      <rect>
        6 0 4 8</rect></_>
    <_>
      <rect>
        6 0 5 7</rect></_>
    <_>
      <rect>
        6 3 6 7</rect></_>
    <_>
      <rect>
        6 8 2 2</rect></_>
    <_>
      <rect>
        6 9 4 2</rect></_>
    <_>
      <rect>
        6 15 4 2</rect></_>
    <_>
      <rect>
        7 0 3 6</rect></_>
    <_>
      <rect>
        7 7 3 3</rect></_>
    <_>
      <rect>
        7 8 2 3</rect></_>
    <_>
      <rect>
        7 10 2 4</rect></_>
    <_>
      <rect>
        7 11 1 2</rect></_>
    <_>
      <rect>
        7 11 3 2</rect></_>
    <_>
      <rect>
        7 12 3 1</rect></_>
    <_>
      <rect>
        8 1 3 5</rect></_>
    <_>
      <rect>
        8 1 5 4</rect></_>
    <_>
      <rect>
        8 2 3 3</rect></_>
    <_>
      <rect>
        8 4 2 3</rect></_>
    <_>
      <rect>
        8 4 2 5</rect></_>
    <_>
      <rect>
        8 6 2 4</rect></_>
    <_>
      <rect>
        8 7 3 3</rect></_>
    <_>
      <rect>
        8 11 2 3</rect></_>
    <_>
      <rect>
        8 15 4 3</rect></_>
    <_>
      <rect>
        9 0 2 2</rect></_>
    <_>
      <rect>
        9 0 5 6</rect></_>
    <_>
      <rect>
        9 0 5 8</rect></_>
    <_>
      <rect>
        9 1 1 2</rect></_>
    <_>
      <rect>
        9 1 3 5</rect></_>
    <_>
      <rect>
        9 1 3 6</rect></_>
    <_>
      <rect>
        9 2 5 5</rect></_>
    <_>
      <rect>
        9 3 2 5</rect></_>
    <_>
      <rect>
        9 3 4 2</rect></_>
    <_>
      <rect>
        9 6 1 1</rect></_>
    <_>
      <rect>
        9 6 5 3</rect></_>
    <_>
      <rect>
        9 8 5 3</rect></_>
    <_>
      <rect>
        9 9 3 2</rect></_>
    <_>
      <rect>
        9 9 5 5</rect></_>
    <_>
      <rect>
        9 10 2 2</rect></_>
    <_>
      <rect>
        9 11 1 1</rect></_>
    <_>
      <rect>
        9 13 4 3</rect></_>
    <_>
      <rect>
        10 2 4 4</rect></_>
    <_>
      <rect>
        10 4 2 2</rect></_>
    <_>
      <rect>
        10 5 3 6</rect></_>
    <_>
      <rect>
        10 6 2 3</rect></_>
    <_>
      <rect>
        10 10 4 1</rect></_>
    <_>
      <rect>
        11 2 2 4</rect></_>
    <_>
      <rect>
        11 2 4 5</rect></_>
    <_>
      <rect>
        11 3 3 6</rect></_>
    <_>
      <rect>
        11 3 4 2</rect></_>
    <_>
      <rect>
        11 8 3 2</rect></_>
    <_>
      <rect>
        11 9 4 1</rect></_>
    <_>
      <rect>
        11 12 3 4</rect></_>
    <_>
      <rect>
        11 14 2 1</rect></_>
    <_>
      <rect>
        11 14 3 3</rect></_>
    <_>
      <rect>
        11 15 2 2</rect></_>
    <_>
      <rect>
        12 0 1 1</rect></_>
    <_>
      <rect>
        12 0 3 2</rect></_>
    <_>
      <rect>
        12 0 4 7</rect></_>
    <_>
      <rect>
        12 1 3 5</rect></_>
    <_>
      <rect>
        12 1 4 4</rect></_>
    <_>
      <rect>
        12 3 3 6</rect></_>
    <_>
      <rect>
        12 4 2 4</rect></_>
    <_>
      <rect>
        12 5 2 3</rect></_>
    <_>
      <rect>
        12 8 1 1</rect></_>
    <_>
      <rect>
        12 8 1 2</rect></_>
    <_>
      <rect>
        12 20 2 1</rect></_>
    <_>
      <rect>
        13 3 1 2</rect></_>
    <_>
      <rect>
        13 4 2 2</rect></_>
    <_>
      <rect>
        13 9 2 2</rect></_>
    <_>
      <rect>
        13 10 1 1</rect></_>
    <_>
      <rect>
        13 12 3 4</rect></_>
    <_>
      <rect>
        13 13 2 1</rect></_>
    <_>
      <rect>
        13 16 2 2</rect></_>
    <_>
      <rect>
        13 21 1 1</rect></_>
    <_>
      <rect>
        14 2 1 1</rect></_>
    <_>
      <rect>
        14 2 2 3</rect></_>
    <_>
      <rect>
        14 3 1 2</rect></_>
    <_>
      <rect>
        14 4 2 5</rect></_>
    <_>
      <rect>
        14 5 3 4</rect></_>
    <_>
      <rect>
        14 16 1 2</rect></_>
    <_>
      <rect>
        14 18 1 1</rect></_>
    <_>
      <rect>
        14 20 2 1</rect></_>
    <_>
      <rect>
        15 0 2 1</rect></_>
    <_>
      <rect>
        15 1 1 2</rect></_>
    <_>
      <rect>
        15 2 3 6</rect></_>
    <_>
      <rect>
        15 6 1 3</rect></_>
    <_>
      <rect>
        15 9 3 5</rect></_>
    <_>
      <rect>
        15 14 2 3</rect></_>
    <_>
      <rect>
        16 0 1 4</rect></_>
    <_>
      <rect>
        16 3 1 1</rect></_>
    <_>
      <rect>
        16 3 1 2</rect></_>
    <_>
      <rect>
        16 9 1 2</rect></_>
    <_>
      <rect>
        16 12 2 3</rect></_>
    <_>
      <rect>
        16 15 2 2</rect></_>
    <_>
      <rect>
        17 0 2 8</rect></_>
    <_>
      <rect>
        17 3 2 5</rect></_>
    <_>
      <rect>
        17 10 2 3</rect></_>
    <_>
      <rect>
        17 11 2 3</rect></_>
    <_>
      <rect>
        18 1 2 3</rect></_>
    <_>
      <rect>
        18 5 2 2</rect></_>
    <_>
      <rect>
        18 6 1 2</rect></_>
    <_>
      <rect>
        18 7 2 3</rect></_>
    <_>
      <rect>
        18 11 2 2</rect></_>
    <_>
      <rect>
        19 8 1 1</rect></_>
    <_>
      <rect>
        20 4 1 2</rect></_>
    <_>
      <rect>
        20 18 1 2</rect></_>
    <_>
      <rect>
        20 21 1 1</rect></_></features></cascade>
</opencv_storage>
