<?xml version="1.0"?>
<opencv_storage>
<cascade>
  <stageType>BOOST</stageType>
  <featureType>LBP</featureType>
  <height>20</height>
  <width>20</width>
  <stageParams>
    <boostType>GAB</boostType>
    <minHitRate>9.9900001287460327e-01</minHitRate>
    <maxFalseAlarm>5.0000000000000000e-01</maxFalseAlarm>
    <weightTrimRate>9.4999999999999996e-01</weightTrimRate>
    <maxDepth>1</maxDepth>
    <maxWeakCount>100</maxWeakCount></stageParams>
  <featureParams>
    <maxCatCount>256</maxCatCount>
    <featSize>1</featSize></featureParams>
  <stageNum>17</stageNum>
  <stages>
    <!-- stage 0 -->
    <_>
      <maxWeakCount>2</maxWeakCount>
      <stageThreshold>-1.7956069111824036e-01</stageThreshold>
      <weakClassifiers>
        <_>
          <internalNodes>
            0 -1 4 -103555105 -586821623 1895842070 -749666285
            -2147302757 -595066879 -2146795318 -73694545</internalNodes>
          <leafValues>
            -9.7177422046661377e-01 8.9215683937072754e-01</leafValues></_>
        <_>
          <internalNodes>
            0 -1 6 -249572898 -251449319 1073823761 -586084351
            -2138848597 -1459551999 -2146794769 -1343013</internalNodes>
          <leafValues>
            -1. 7.9221349954605103e-01</leafValues></_></weakClassifiers></_>
    <!-- stage 1 -->
    <_>
      <maxWeakCount>2</maxWeakCount>
      <stageThreshold>-1.7307555675506592e-01</stageThreshold>
      <weakClassifiers>
        <_>
          <internalNodes>
            0 -1 17 -719503393 -1084025997 -1135234659 -353525121
            -477126721 -303095551 -578242595 -324213524</internalNodes>
          <leafValues>
            -9.8744767904281616e-01 7.7477478981018066e-01</leafValues></_>
        <_>
          <internalNodes>
            0 -1 19 2039158575 -46410481 -238564873 -82322967 1871750399
            -39351121 -457195281 -4466513</internalNodes>
          <leafValues>
            -9.4785034656524658e-01 8.5142368078231812e-01</leafValues></_></weakClassifiers></_>
    <!-- stage 2 -->
    <_>
      <maxWeakCount>2</maxWeakCount>
      <stageThreshold>-9.4433382153511047e-02</stageThreshold>
      <weakClassifiers>
        <_>
          <internalNodes>
            0 -1 33 -10751657 -650948509 -2068188873 -912039481
            -876086515 -469528573 -1192513317 -3150145</internalNodes>
          <leafValues>
            -9.2504930496215820e-01 8.7564766407012939e-01</leafValues></_>
        <_>
          <internalNodes>
            0 -1 28 869759767 -1017314531 -574182561 -194273 -1263462881
            -41285362 -123113877 -2257233</internalNodes>
          <leafValues>
            -9.6893036365509033e-01 8.3061593770980835e-01</leafValues></_></weakClassifiers></_>
    <!-- stage 3 -->
    <_>
      <maxWeakCount>2</maxWeakCount>
      <stageThreshold>-2.2996625304222107e-01</stageThreshold>
      <weakClassifiers>
        <_>
          <internalNodes>
            0 -1 1 -12788769 -586034971 1342329055 -165887847 -391464753
            -91807743 -1159486209 -4983617</internalNodes>
          <leafValues>
            -9.4683027267456055e-01 7.7251183986663818e-01</leafValues></_>
        <_>
          <internalNodes>
            0 -1 15 1540348415 -824277417 -800915183 -419645853
            -163136383 -453719935 -71125428 -89326354</internalNodes>
          <leafValues>
            -9.7069406509399414e-01 7.1686398983001709e-01</leafValues></_></weakClassifiers></_>
    <!-- stage 4 -->
    <_>
      <maxWeakCount>2</maxWeakCount>
      <stageThreshold>-2.0333825051784515e-01</stageThreshold>
      <weakClassifiers>
        <_>
          <internalNodes>
            0 -1 14 -793698825 -12084949 -1715139681 -274252503
            -1526561129 -198032571 -1400653601 -319099297</internalNodes>
          <leafValues>
            -9.4616979360580444e-01 7.2350227832794189e-01</leafValues></_>
        <_>
          <internalNodes>
            0 -1 27 -1140899905 -193770933 -1043484379 -612185662
            -1144095861 -854949207 -100628162 -5770034</internalNodes>
          <leafValues>
            -9.2684054374694824e-01 7.7871000766754150e-01</leafValues></_></weakClassifiers></_>
    <!-- stage 5 -->
    <_>
      <maxWeakCount>2</maxWeakCount>
      <stageThreshold>-2.3449647426605225e-01</stageThreshold>
      <weakClassifiers>
        <_>
          <internalNodes>
            0 -1 34 -681839617 -644142307 1904214619 -605939253
            -1987004413 -654667595 -124276013 -18118465</internalNodes>
          <leafValues>
            -9.5824635028839111e-01 7.1945703029632568e-01</leafValues></_>
        <_>
          <internalNodes>
            0 -1 10 -787135009 -143354541 -116985546 -94628832
            -1046892291 -19815749 -1341249 -23352387</internalNodes>
          <leafValues>
            -9.4133543968200684e-01 7.2374987602233887e-01</leafValues></_></weakClassifiers></_>
    <!-- stage 6 -->
    <_>
      <maxWeakCount>2</maxWeakCount>
      <stageThreshold>-3.2883575558662415e-01</stageThreshold>
      <weakClassifiers>
        <_>
          <internalNodes>
            0 -1 22 -168454217 -79335101 -1070335497 -304636109
            -786962617 -373439903 -1609850741 -923948293</internalNodes>
          <leafValues>
            -9.5698922872543335e-01 6.1702126264572144e-01</leafValues></_>
        <_>
          <internalNodes>
            0 -1 30 -1986715665 -1713905245 1342548162 -1203394489
            -1018116017 -1394736164 -80107385 -33821718</internalNodes>
          <leafValues>
            -9.3654060363769531e-01 6.2815350294113159e-01</leafValues></_></weakClassifiers></_>
    <!-- stage 7 -->
    <_>
      <maxWeakCount>2</maxWeakCount>
      <stageThreshold>-3.8161998987197876e-01</stageThreshold>
      <weakClassifiers>
        <_>
          <internalNodes>
            0 -1 37 -674245673 -338980727 1455495115 -1042312553
            -431238301 -670428432 -1157375150 -355497042</internalNodes>
          <leafValues>
            -9.5289081335067749e-01 6.2231761217117310e-01</leafValues></_>
        <_>
          <internalNodes>
            0 -1 0 -325849121 -582771967 -788492005 -45006591 10613659
            -678616959 1468578205 -8185605</internalNodes>
          <leafValues>
            -9.5316725969314575e-01 5.7127082347869873e-01</leafValues></_></weakClassifiers></_>
    <!-- stage 8 -->
    <_>
      <maxWeakCount>2</maxWeakCount>
      <stageThreshold>-4.3232315778732300e-01</stageThreshold>
      <weakClassifiers>
        <_>
          <internalNodes>
            0 -1 7 -545192449 391741839 320731630 -149094277 1208060063
            -1340964864 -1585137410 -2411265</internalNodes>
          <leafValues>
            -9.7285068035125732e-01 5.0387597084045410e-01</leafValues></_>
        <_>
          <internalNodes>
            0 -1 24 -619629073 -414624509 -533487390 1859863435
            -380325381 -35183587 -119170565 -251665762</internalNodes>
          <leafValues>
            -9.3619912862777710e-01 5.8915239572525024e-01</leafValues></_></weakClassifiers></_>
    <!-- stage 9 -->
    <_>
      <maxWeakCount>3</maxWeakCount>
      <stageThreshold>-1.1857564449310303e+00</stageThreshold>
      <weakClassifiers>
        <_>
          <internalNodes>
            0 -1 35 -804257793 -245607877 67471807 -238843697 -746555385
            -1576656149 -897033197 -2176261</internalNodes>
          <leafValues>
            -9.0833336114883423e-01 6.1818182468414307e-01</leafValues></_>
        <_>
          <internalNodes>
            0 -1 2 -1786392065 1929855745 -183044610 2006366691
            -1878010993 -1853751255 -1987230769 -3192801</internalNodes>
          <leafValues>
            -8.7578630447387695e-01 6.8786275386810303e-01</leafValues></_>
        <_>
          <internalNodes>
            0 -1 3 -784912963 -577695485 1501655253 -83797923 -92229190
            -1324691064 -2134848791 1998834707</internalNodes>
          <leafValues>
            -9.4430971145629883e-01 5.9836316108703613e-01</leafValues></_></weakClassifiers></_>
    <!-- stage 10 -->
    <_>
      <maxWeakCount>2</maxWeakCount>
      <stageThreshold>-2.2281681001186371e-01</stageThreshold>
      <weakClassifiers>
        <_>
          <internalNodes>
            0 -1 11 1092335391 -631963409 675365131 -850411343
            -2037383662 -1555955520 -858716845 -52583410</internalNodes>
          <leafValues>
            -9.0650409460067749e-01 7.0192307233810425e-01</leafValues></_>
        <_>
          <internalNodes>
            0 -1 32 -53478893 -803368638 591936 -670988285 570599595
            -1683980150 -905416021 -176303173</internalNodes>
          <leafValues>
            -9.2473989725112915e-01 7.0130997896194458e-01</leafValues></_></weakClassifiers></_>
    <!-- stage 11 -->
    <_>
      <maxWeakCount>3</maxWeakCount>
      <stageThreshold>-1.1288900375366211e+00</stageThreshold>
      <weakClassifiers>
        <_>
          <internalNodes>
            0 -1 18 290674167 -403857267 1470657559 -8398627 -1470848491
            -119189867 -1635726885 -320807008</internalNodes>
          <leafValues>
            -8.9604991674423218e-01 5.9817349910736084e-01</leafValues></_>
        <_>
          <internalNodes>
            0 -1 36 -2015378965 2118848927 1090791115 -142605169
            -907046341 -610547830 -880082619 -269504957</internalNodes>
          <leafValues>
            -8.9613312482833862e-01 6.4942282438278198e-01</leafValues></_>
        <_>
          <internalNodes>
            0 -1 38 -540019253 1084474251 -1869049657 -1877901021
            -938299717 67414209 -930300931 1400864939</internalNodes>
          <leafValues>
            -9.4982612133026123e-01 6.6329294443130493e-01</leafValues></_></weakClassifiers></_>
    <!-- stage 12 -->
    <_>
      <maxWeakCount>3</maxWeakCount>
      <stageThreshold>-1.1917227506637573e+00</stageThreshold>
      <weakClassifiers>
        <_>
          <internalNodes>
            0 -1 9 -434905637 -19310085 807506961 -87665838 -1030716639
            -636603645 -804323105 -17106453</internalNodes>
          <leafValues>
            -9.3176972866058350e-01 5.9307360649108887e-01</leafValues></_>
        <_>
          <internalNodes>
            0 -1 25 1603007483 -1979298997 -1037744825 -334520067
            138580359 -403995598 -980956499 -318905604</internalNodes>
          <leafValues>
            -8.4649920463562012e-01 6.5447872877120972e-01</leafValues></_>
        <_>
          <internalNodes>
            0 -1 39 -79589381 -1566850077 -515256317 475366935 109299959
            629493794 937683439 1351085758</internalNodes>
          <leafValues>
            -9.1443175077438354e-01 6.4777964353561401e-01</leafValues></_></weakClassifiers></_>
    <!-- stage 13 -->
    <_>
      <maxWeakCount>3</maxWeakCount>
      <stageThreshold>-1.0765271186828613e+00</stageThreshold>
      <weakClassifiers>
        <_>
          <internalNodes>
            0 -1 21 -203706917 -249736361 -1340884705 -1311137329
            -1204831825 -177010426 -458827345 -323098021</internalNodes>
          <leafValues>
            -8.6773544549942017e-01 6.6169154644012451e-01</leafValues></_>
        <_>
          <internalNodes>
            0 -1 12 827412087 -2025106419 -2134674055 -1235826044
            12116127 -58081116 -660600133 -203109976</internalNodes>
          <leafValues>
            -8.7433594465255737e-01 6.7530703544616699e-01</leafValues></_>
        <_>
          <internalNodes>
            0 -1 8 -347146337 1646195487 1967284547 -3755769 -422664849
            -299466223 -928671737 -1946164547</internalNodes>
          <leafValues>
            -8.8409864902496338e-01 6.9538432359695435e-01</leafValues></_></weakClassifiers></_>
    <!-- stage 14 -->
    <_>
      <maxWeakCount>3</maxWeakCount>
      <stageThreshold>-1.0915013551712036e+00</stageThreshold>
      <weakClassifiers>
        <_>
          <internalNodes>
            0 -1 21 -80899041 -1146465481 1895895823 -1313998957
            -1436239857 -159371040 -1945984121 -318784985</internalNodes>
          <leafValues>
            -8.5770750045776367e-01 6.9072163105010986e-01</leafValues></_>
        <_>
          <internalNodes>
            0 -1 23 413086495 -615387785 -1154938543 -804925424
            -905235219 -167755520 -1433726758 -35949432</internalNodes>
          <leafValues>
            -9.1151762008666992e-01 6.0814249515533447e-01</leafValues></_>
        <_>
          <internalNodes>
            0 -1 26 -600378883 -392885923 -1442806393 -1308293887
            1922075071 -1696429886 -84961272 -670766572</internalNodes>
          <leafValues>
            -9.1001516580581665e-01 6.7772376537322998e-01</leafValues></_></weakClassifiers></_>
    <!-- stage 15 -->
    <_>
      <maxWeakCount>3</maxWeakCount>
      <stageThreshold>-1.1207188367843628e+00</stageThreshold>
      <weakClassifiers>
        <_>
          <internalNodes>
            0 -1 13 303235863 -754351807 98581 -1390718699 -2147000245
            -494321266 -2088656725 -16805498</internalNodes>
          <leafValues>
            -8.5518592596054077e-01 7.2486770153045654e-01</leafValues></_>
        <_>
          <internalNodes>
            0 -1 29 -1286514181 -1321074686 -2130680536 -2147377151
            -804683093 -100202240 -398093381 -532027224</internalNodes>
          <leafValues>
            -9.0953397750854492e-01 6.6052204370498657e-01</leafValues></_>
        <_>
          <internalNodes>
            0 -1 16 205460367 -99893179 -670760439 -794438905 287443840
            -1006239068 -1417661926 -312817463</internalNodes>
          <leafValues>
            -9.0522021055221558e-01 6.4400106668472290e-01</leafValues></_></weakClassifiers></_>
    <!-- stage 16 -->
    <_>
      <maxWeakCount>3</maxWeakCount>
      <stageThreshold>-1.2399916648864746e+00</stageThreshold>
      <weakClassifiers>
        <_>
          <internalNodes>
            0 -1 31 -549088933 -1017950067 536944819 -1508669695
            -83251039 -108511102 -935220541 -54416863</internalNodes>
          <leafValues>
            -9.2410713434219360e-01 4.5238095521926880e-01</leafValues></_>
        <_>
          <internalNodes>
            0 -1 20 880408063 -1590623401 612959623 -1718250686 82026982
            -1339916286 -2126429789 -1533976133</internalNodes>
          <leafValues>
            -8.9553278684616089e-01 5.9024691581726074e-01</leafValues></_>
        <_>
          <internalNodes>
            0 -1 5 -795635589 925042136 17137809 1427188045 1107361979
            -1799290871 -1744205045 -1197271181</internalNodes>
          <leafValues>
            -7.9683983325958252e-01 7.1850252151489258e-01</leafValues></_></weakClassifiers></_></stages>
  <features>
    <_>
      <rect>
        0 2 4 2</rect></_>
    <_>
      <rect>
        0 2 5 6</rect></_>
    <_>
      <rect>
        0 4 6 5</rect></_>
    <_>
      <rect>
        1 0 6 2</rect></_>
    <_>
      <rect>
        1 5 6 5</rect></_>
    <_>
      <rect>
        1 11 3 3</rect></_>
    <_>
      <rect>
        2 0 6 6</rect></_>
    <_>
      <rect>
        2 8 6 3</rect></_>
    <_>
      <rect>
        3 5 1 2</rect></_>
    <_>
      <rect>
        3 8 2 2</rect></_>
    <_>
      <rect>
        3 8 3 1</rect></_>
    <_>
      <rect>
        5 6 3 3</rect></_>
    <_>
      <rect>
        5 7 2 1</rect></_>
    <_>
      <rect>
        5 7 2 3</rect></_>
    <_>
      <rect>
        5 8 3 2</rect></_>
    <_>
      <rect>
        5 9 1 1</rect></_>
    <_>
      <rect>
        6 4 1 1</rect></_>
    <_>
      <rect>
        6 7 2 2</rect></_>
    <_>
      <rect>
        6 11 2 1</rect></_>
    <_>
      <rect>
        7 2 3 2</rect></_>
    <_>
      <rect>
        7 5 2 3</rect></_>
    <_>
      <rect>
        7 6 2 2</rect></_>
    <_>
      <rect>
        7 7 2 2</rect></_>
    <_>
      <rect>
        8 4 1 1</rect></_>
    <_>
      <rect>
        8 9 2 1</rect></_>
    <_>
      <rect>
        8 10 1 2</rect></_>
    <_>
      <rect>
        9 0 2 1</rect></_>
    <_>
      <rect>
        9 2 1 2</rect></_>
    <_>
      <rect>
        9 5 2 1</rect></_>
    <_>
      <rect>
        9 8 1 1</rect></_>
    <_>
      <rect>
        9 9 2 1</rect></_>
    <_>
      <rect>
        9 11 1 1</rect></_>
    <_>
      <rect>
        10 0 3 5</rect></_>
    <_>
      <rect>
        11 2 2 4</rect></_>
    <_>
      <rect>
        11 8 2 1</rect></_>
    <_>
      <rect>
        12 9 1 1</rect></_>
    <_>
      <rect>
        12 10 1 1</rect></_>
    <_>
      <rect>
        13 8 1 1</rect></_>
    <_>
      <rect>
        14 6 2 2</rect></_>
    <_>
      <rect>
        14 10 2 2</rect></_></features></cascade>
</opencv_storage>
