<?xml version="1.0"?>
<opencv_storage>
<cascade>
  <stageType>BOOST</stageType>
  <featureType>LBP</featureType>
  <height>20</height>
  <width>20</width>
  <stageParams>
    <boostType>GAB</boostType>
    <minHitRate>9.9900001287460327e-01</minHitRate>
    <maxFalseAlarm>5.0000000000000000e-01</maxFalseAlarm>
    <weightTrimRate>9.4999999999999996e-01</weightTrimRate>
    <maxDepth>1</maxDepth>
    <maxWeakCount>100</maxWeakCount></stageParams>
  <featureParams>
    <maxCatCount>256</maxCatCount>
    <featSize>1</featSize></featureParams>
  <stageNum>18</stageNum>
  <stages>
    <!-- stage 0 -->
    <_>
      <maxWeakCount>2</maxWeakCount>
      <stageThreshold>-1.5223312377929688e-01</stageThreshold>
      <weakClassifiers>
        <_>
          <internalNodes>
            0 -1 14 -644220434 -615706175 -2095869809 -652666621
            -2003138113 -645201781 -1333018369 -4457537</internalNodes>
          <leafValues>
            -9.9793171882629395e-01 9.2229729890823364e-01</leafValues></_>
        <_>
          <internalNodes>
            0 -1 13 -678431762 -113176367 -250508899 -543739113
            -810820097 -1718812145 -760353793 -4463717</internalNodes>
          <leafValues>
            -9.8600792884826660e-01 8.4569865465164185e-01</leafValues></_></weakClassifiers></_>
    <!-- stage 1 -->
    <_>
      <maxWeakCount>3</maxWeakCount>
      <stageThreshold>-1.0542938709259033e+00</stageThreshold>
      <weakClassifiers>
        <_>
          <internalNodes>
            0 -1 46 -134480897 -2100497 -1152571951 -1801 -129
            -369248018 -610271369 -4097</internalNodes>
          <leafValues>
            -9.3750000000000000e-01 9.0123456716537476e-01</leafValues></_>
        <_>
          <internalNodes>
            0 -1 16 -672006145 -305139249 2088763103 -362815489
            -82073729 -806381137 -7606273 -1057</internalNodes>
          <leafValues>
            -8.9200824499130249e-01 8.3035367727279663e-01</leafValues></_>
        <_>
          <internalNodes>
            0 -1 30 -67633153 -278433298 -108531714 -285221121
            -155192417 -807435633 -1119237 -84214277</internalNodes>
          <leafValues>
            -8.7166041135787964e-01 7.7521437406539917e-01</leafValues></_></weakClassifiers></_>
    <!-- stage 2 -->
    <_>
      <maxWeakCount>2</maxWeakCount>
      <stageThreshold>-3.5851463675498962e-01</stageThreshold>
      <weakClassifiers>
        <_>
          <internalNodes>
            0 -1 47 2039479295 -637035 420600791 -35847969 -1164183433
            -1189429119 -5439497 -28001</internalNodes>
          <leafValues>
            -9.5570319890975952e-01 6.7682927846908569e-01</leafValues></_>
        <_>
          <internalNodes>
            0 -1 39 -371211420 -2246561 -151201321 -33556273 -596971533
            -370437978 -104268865 -13825</internalNodes>
          <leafValues>
            -9.3492817878723145e-01 5.9718859195709229e-01</leafValues></_></weakClassifiers></_>
    <!-- stage 3 -->
    <_>
      <maxWeakCount>3</maxWeakCount>
      <stageThreshold>-1.1697767972946167e+00</stageThreshold>
      <weakClassifiers>
        <_>
          <internalNodes>
            0 -1 8 -715261441 -176062305 1909321946 -136613421 -91489025
            352329944 -1649148933 -5121</internalNodes>
          <leafValues>
            -8.7165772914886475e-01 6.3461536169052124e-01</leafValues></_>
        <_>
          <internalNodes>
            0 -1 17 -831016961 -6685397 1930819423 -543688869 -383081557
            -13062752 -877409909 -974175780</internalNodes>
          <leafValues>
            -8.6289000511169434e-01 6.8824899196624756e-01</leafValues></_>
        <_>
          <internalNodes>
            0 -1 32 -169943044 -36203137 -169436673 -539016709
            -511788545 -86287045 -216854017 -1553</internalNodes>
          <leafValues>
            -9.4150221347808838e-01 5.7170021533966064e-01</leafValues></_></weakClassifiers></_>
    <!-- stage 4 -->
    <_>
      <maxWeakCount>3</maxWeakCount>
      <stageThreshold>-1.1153213977813721e+00</stageThreshold>
      <weakClassifiers>
        <_>
          <internalNodes>
            0 -1 27 -1288699937 -270010277 -631893753 -285354721
            -539905565 -4767024 -1622702439 -22065</internalNodes>
          <leafValues>
            -8.8146549463272095e-01 6.3232964277267456e-01</leafValues></_>
        <_>
          <internalNodes>
            0 -1 44 -111166153 -573734625 -1517430277 -1344303087
            -107051521 -741757482 -1362564881 -1154368449</internalNodes>
          <leafValues>
            -8.8192784786224365e-01 5.7684236764907837e-01</leafValues></_>
        <_>
          <internalNodes>
            0 -1 60 -1477445637 -2041656434 -515712838 -1564159417
            -171050241 -158170359 -501486713 -1157631351</internalNodes>
          <leafValues>
            -8.1069827079772949e-01 6.6243922710418701e-01</leafValues></_></weakClassifiers></_>
    <!-- stage 5 -->
    <_>
      <maxWeakCount>3</maxWeakCount>
      <stageThreshold>-1.1784360408782959e+00</stageThreshold>
      <weakClassifiers>
        <_>
          <internalNodes>
            0 -1 4 -27262985 -193450607 -8261353 -2925751 -791171941
            -259930112 1073872299 -139150936</internalNodes>
          <leafValues>
            -8.7695747613906860e-01 5.4887217283248901e-01</leafValues></_>
        <_>
          <internalNodes>
            0 -1 48 1006621695 1473609749 -1039689289 -67907565
            -390988978 -91573624 -336920585 -356523851</internalNodes>
          <leafValues>
            -9.0823012590408325e-01 5.4776507616043091e-01</leafValues></_>
        <_>
          <internalNodes>
            0 -1 31 -11567233 1040162231 -603514049 1069168926
            2139247483 1068308562 -290956957 -17251748</internalNodes>
          <leafValues>
            -8.4924364089965820e-01 6.6502034664154053e-01</leafValues></_></weakClassifiers></_>
    <!-- stage 6 -->
    <_>
      <maxWeakCount>3</maxWeakCount>
      <stageThreshold>-1.2009816169738770e+00</stageThreshold>
      <weakClassifiers>
        <_>
          <internalNodes>
            0 -1 42 -1789264897 824136181 -1651140101 -1119239683
            831553535 1357557955 -1148253508 -1074025800</internalNodes>
          <leafValues>
            -8.4288746118545532e-01 6.0777956247329712e-01</leafValues></_>
        <_>
          <internalNodes>
            0 -1 24 2001991422 -108813161 1880879356 -169389765
            -1060850433 -1180626797 565180925 2073031595</internalNodes>
          <leafValues>
            -9.6424043178558350e-01 5.1403278112411499e-01</leafValues></_>
        <_>
          <internalNodes>
            0 -1 0 302153463 -794149 -247742117 -41681525 1498673599
            -71983941 -49865227 -176720559</internalNodes>
          <leafValues>
            -8.4104919433593750e-01 6.0614627599716187e-01</leafValues></_></weakClassifiers></_>
    <!-- stage 7 -->
    <_>
      <maxWeakCount>3</maxWeakCount>
      <stageThreshold>-1.0613764524459839e+00</stageThreshold>
      <weakClassifiers>
        <_>
          <internalNodes>
            0 -1 21 -589302849 -602819823 -750700713 -15999671
            -662438929 -16414590 -545009878 -579741053</internalNodes>
          <leafValues>
            -8.1447499990463257e-01 6.5743947029113770e-01</leafValues></_>
        <_>
          <internalNodes>
            0 -1 20 -740983493 -1088355919 -1723531785 -11183865
            -375731713 -1081100078 -119621442 336259247</internalNodes>
          <leafValues>
            -7.8023189306259155e-01 6.6574692726135254e-01</leafValues></_>
        <_>
          <internalNodes>
            0 -1 2 -542310406 -709918247 -6687265 -653192683 -184366662
            -150615605 -610297601 -9703285</internalNodes>
          <leafValues>
            -9.1264843940734863e-01 5.7499772310256958e-01</leafValues></_></weakClassifiers></_>
    <!-- stage 8 -->
    <_>
      <maxWeakCount>3</maxWeakCount>
      <stageThreshold>-1.0886765718460083e+00</stageThreshold>
      <weakClassifiers>
        <_>
          <internalNodes>
            0 -1 29 -136588801 -344649031 -803602763 -19295911
            -216956997 -81674031 -217564741 -5523221</internalNodes>
          <leafValues>
            -8.9016020298004150e-01 5.2408760786056519e-01</leafValues></_>
        <_>
          <internalNodes>
            0 -1 49 860315135 765416927 -1851959809 358871707 -341923333
            -1154637335 1002916093 -1077970689</internalNodes>
          <leafValues>
            -7.6856899261474609e-01 7.4350953102111816e-01</leafValues></_>
        <_>
          <internalNodes>
            0 -1 55 -70517761 -213032617 -1857972737 -678485925
            -1198785996 -1081437525 -640746508 -69384</internalNodes>
          <leafValues>
            -8.4419518709182739e-01 6.6689765453338623e-01</leafValues></_></weakClassifiers></_>
    <!-- stage 9 -->
    <_>
      <maxWeakCount>2</maxWeakCount>
      <stageThreshold>-4.4216558337211609e-01</stageThreshold>
      <weakClassifiers>
        <_>
          <internalNodes>
            0 -1 23 -1750114833 -1078774657 -581594142 -40167755
            -1279411217 -343832349 -1182213141 -614721</internalNodes>
          <leafValues>
            -9.2390012741088867e-01 4.9860724806785583e-01</leafValues></_>
        <_>
          <internalNodes>
            0 -1 9 -172533761 -49917455 -586589313 1067069402 1238530622
            2109633031 -610043013 2127264191</internalNodes>
          <leafValues>
            -8.8446336984634399e-01 4.8173454403877258e-01</leafValues></_></weakClassifiers></_>
    <!-- stage 10 -->
    <_>
      <maxWeakCount>5</maxWeakCount>
      <stageThreshold>-1.1639856100082397e+00</stageThreshold>
      <weakClassifiers>
        <_>
          <internalNodes>
            0 -1 52 -814743565 -556820521 -1975260499 -39023474
            -1985414009 -1729067004 -932672805 -95446897</internalNodes>
          <leafValues>
            -7.9728317260742188e-01 5.7142859697341919e-01</leafValues></_>
        <_>
          <internalNodes>
            0 -1 1 152093183 -1085040547 433184735 -8703687 -1064090977
            -52917109 -334606561 -145685931</internalNodes>
          <leafValues>
            -7.4566674232482910e-01 6.1141967773437500e-01</leafValues></_>
        <_>
          <internalNodes>
            0 -1 10 -144966145 -674794162 -629990162 -288370002
            2042215311 -876001139 -1626762529 -268701623</internalNodes>
          <leafValues>
            -8.7197422981262207e-01 5.5247986316680908e-01</leafValues></_>
        <_>
          <internalNodes>
            0 -1 45 -1073791309 -8437889 1073709055 -1 -11 -1 -1
            -268470401</internalNodes>
          <leafValues>
            -6.6651326417922974e-01 7.3647612333297729e-01</leafValues></_>
        <_>
          <internalNodes>
            0 -1 43 51497471 146870293 -1455302153 609297681 1091290617
            1003734704 184686837 2045753021</internalNodes>
          <leafValues>
            -8.6408865451812744e-01 6.2787526845932007e-01</leafValues></_></weakClassifiers></_>
    <!-- stage 11 -->
    <_>
      <maxWeakCount>4</maxWeakCount>
      <stageThreshold>-8.2592552900314331e-01</stageThreshold>
      <weakClassifiers>
        <_>
          <internalNodes>
            0 -1 34 -686689317 -292548375 -620422817 -31354851
            -1073565526 -200736639 -788417877 -17631057</internalNodes>
          <leafValues>
            -8.2483369112014771e-01 4.9467274546623230e-01</leafValues></_>
        <_>
          <internalNodes>
            0 -1 35 -268443836 -134501891 -677867041 -44978051 -37768705
            -251012976 -632708386 -53412947</internalNodes>
          <leafValues>
            -8.9330494403839111e-01 4.5920145511627197e-01</leafValues></_>
        <_>
          <internalNodes>
            0 -1 7 1474264031 -5371639 -126622961 -1081155351 2044416127
            -3323323 2124376063 616919777</internalNodes>
          <leafValues>
            -9.1906148195266724e-01 4.3982776999473572e-01</leafValues></_>
        <_>
          <internalNodes>
            0 -1 57 -2130123 937264395 473137599 -145645537 -1060480919
            -357783528 -1681198849 -11339234</internalNodes>
          <leafValues>
            -8.3519518375396729e-01 4.9176809191703796e-01</leafValues></_></weakClassifiers></_>
    <!-- stage 12 -->
    <_>
      <maxWeakCount>4</maxWeakCount>
      <stageThreshold>-7.6743060350418091e-01</stageThreshold>
      <weakClassifiers>
        <_>
          <internalNodes>
            0 -1 38 -783158273 836071489 -1877643038 -52997633 314708671
            -125206453 -1282670601 -71307077</internalNodes>
          <leafValues>
            -8.7871289253234863e-01 3.8748335838317871e-01</leafValues></_>
        <_>
          <internalNodes>
            0 -1 18 1426411865 -540044647 -333925889 -538984101
            279479522 -374421264 -309482843 -994047872</internalNodes>
          <leafValues>
            -7.8243976831436157e-01 5.7721662521362305e-01</leafValues></_>
        <_>
          <internalNodes>
            0 -1 53 -103592609 -976518934 -1601929007 -645988272
            -204875733 -1143439221 -71959945 -86925</internalNodes>
          <leafValues>
            -8.8694393634796143e-01 5.1588821411132813e-01</leafValues></_>
        <_>
          <internalNodes>
            0 -1 58 -2097153 2145096887 67117451 932672843 -142501739
            176819845 970323417 300938207</internalNodes>
          <leafValues>
            -8.4199798107147217e-01 5.1446974277496338e-01</leafValues></_></weakClassifiers></_>
    <!-- stage 13 -->
    <_>
      <maxWeakCount>4</maxWeakCount>
      <stageThreshold>-1.6882928609848022e+00</stageThreshold>
      <weakClassifiers>
        <_>
          <internalNodes>
            0 -1 22 -293605377 -28058343 2001057565 -150914229
            1758703535 -1148698624 -150865655 -785649141</internalNodes>
          <leafValues>
            -8.2494002580642700e-01 3.7103447318077087e-01</leafValues></_>
        <_>
          <internalNodes>
            0 -1 41 -1554006529 814162191 -1017696285 -842294587
            -1607814322 -2105505685 -1278087625 -104083789</internalNodes>
          <leafValues>
            -6.9661080837249756e-01 5.3237867355346680e-01</leafValues></_>
        <_>
          <internalNodes>
            0 -1 61 -807939601 -1537326951 742452771 -1937259638
            -1303740321 -911730557 -678564877 -90195249</internalNodes>
          <leafValues>
            -6.9737076759338379e-01 5.8575934171676636e-01</leafValues></_>
        <_>
          <internalNodes>
            0 -1 51 2119258201 1016320173 68395484 -19103285 -343723944
            -343832341 -90112024 -1191647184</internalNodes>
          <leafValues>
            -6.9836074113845825e-01 5.2586853504180908e-01</leafValues></_></weakClassifiers></_>
    <!-- stage 14 -->
    <_>
      <maxWeakCount>5</maxWeakCount>
      <stageThreshold>-1.2549140453338623e+00</stageThreshold>
      <weakClassifiers>
        <_>
          <internalNodes>
            0 -1 33 -83908353 -25716333 -610791231 -203722543 -83708721
            -1241481088 -485511782 -1080886645</internalNodes>
          <leafValues>
            -7.2064775228500366e-01 5.1313483715057373e-01</leafValues></_>
        <_>
          <internalNodes>
            0 -1 15 -914098257 -1508305903 -1795074593 -41582193 8426229
            -1558575055 1470469107 -676676982</internalNodes>
          <leafValues>
            -8.0396860837936401e-01 4.6836882829666138e-01</leafValues></_>
        <_>
          <internalNodes>
            0 -1 19 453851409 -674807348 -581592609 -674815596
            -1601660501 -1158772571 -1971149827 -158537212</internalNodes>
          <leafValues>
            -6.3958477973937988e-01 6.1579447984695435e-01</leafValues></_>
        <_>
          <internalNodes>
            0 -1 40 7316177 42043863 671221889 -1576750581 -1567650022
            -355825142 -1970626205 -1421890641</internalNodes>
          <leafValues>
            -8.4259051084518433e-01 4.3263098597526550e-01</leafValues></_>
        <_>
          <internalNodes>
            0 -1 50 415309864 -1851703138 -2130671411 -783171430
            547389579 -1601535992 -1260135766 -1145885716</internalNodes>
          <leafValues>
            -7.1093684434890747e-01 5.1809495687484741e-01</leafValues></_></weakClassifiers></_>
    <!-- stage 15 -->
    <_>
      <maxWeakCount>4</maxWeakCount>
      <stageThreshold>-9.8254537582397461e-01</stageThreshold>
      <weakClassifiers>
        <_>
          <internalNodes>
            0 -1 11 -634651009 -23912127 -149174987 -545189871
            -632110709 -33488879 -32251453 -262153981</internalNodes>
          <leafValues>
            -8.0906921625137329e-01 3.5922330617904663e-01</leafValues></_>
        <_>
          <internalNodes>
            0 -1 37 1888590335 298909701 -1671751966 -132427457
            -1558138369 -1163395072 -1198330377 -1178871141</internalNodes>
          <leafValues>
            -8.3114355802536011e-01 3.6198091506958008e-01</leafValues></_>
        <_>
          <internalNodes>
            0 -1 25 -618924332 -1166948296 -1725570433 -250883953
            -1464816683 1355907329 -1687368001 -72417361</internalNodes>
          <leafValues>
            -9.0371793508529663e-01 3.4747883677482605e-01</leafValues></_>
        <_>
          <internalNodes>
            0 -1 12 -2097093665 -149843515 855750931 -7278563 704702089
            -1425518455 -385823183 100319829</internalNodes>
          <leafValues>
            -8.0955928564071655e-01 3.9309287071228027e-01</leafValues></_></weakClassifiers></_>
    <!-- stage 16 -->
    <_>
      <maxWeakCount>5</maxWeakCount>
      <stageThreshold>-1.3474774360656738e+00</stageThreshold>
      <weakClassifiers>
        <_>
          <internalNodes>
            0 -1 6 1379860767 -284749055 -935649767 -488691711
            -715325177 1605304705 -908967747 -134283263</internalNodes>
          <leafValues>
            -8.0372673273086548e-01 3.0238726735115051e-01</leafValues></_>
        <_>
          <internalNodes>
            0 -1 59 -1489570890 -1504407127 1094959235 -1466448381
            -1311579701 -536772600 -372268885 -1358956561</internalNodes>
          <leafValues>
            -7.9658132791519165e-01 3.8367903232574463e-01</leafValues></_>
        <_>
          <internalNodes>
            0 -1 54 -782667267 -641136541 262395 -916881206 -1736390017
            -927334261 -930438171 -73420891</internalNodes>
          <leafValues>
            -7.2287464141845703e-01 4.6688771247863770e-01</leafValues></_>
        <_>
          <internalNodes>
            0 -1 5 -1278761745 -108462075 65753 1952268561 18061547
            -578600960 24316005 -720018669</internalNodes>
          <leafValues>
            -6.6851341724395752e-01 5.2501922845840454e-01</leafValues></_>
        <_>
          <internalNodes>
            0 -1 26 -426325223 1728905415 -402059245 1997254657
            -1962336101 -618627072 -745489543 -310279925</internalNodes>
          <leafValues>
            -6.4215570688247681e-01 5.4230892658233643e-01</leafValues></_></weakClassifiers></_>
    <!-- stage 17 -->
    <_>
      <maxWeakCount>4</maxWeakCount>
      <stageThreshold>-7.7469724416732788e-01</stageThreshold>
      <weakClassifiers>
        <_>
          <internalNodes>
            0 -1 3 1560668911 -73674312 -1992227883 -376069425
            -519967017 -341114164 -2003728201 -212370585</internalNodes>
          <leafValues>
            -7.4454146623611450e-01 4.0902021527290344e-01</leafValues></_>
        <_>
          <internalNodes>
            0 -1 28 269569523 -720299853 -2138549773 -1844863983
            -2078236977 235538968 -357977310 1627947117</internalNodes>
          <leafValues>
            -7.7600252628326416e-01 4.5051035284996033e-01</leafValues></_>
        <_>
          <internalNodes>
            0 -1 36 -138544677 -963735336 1082876307 -355040812
            -1610497918 -108986239 -2138834776 -348021</internalNodes>
          <leafValues>
            -8.4347540140151978e-01 4.0902099013328552e-01</leafValues></_>
        <_>
          <internalNodes>
            0 -1 56 -790945737 1078558726 -2004547128 -1140457399
            -930119474 -2138472412 -2138386278 -1408169969</internalNodes>
          <leafValues>
            -7.9075247049331665e-01 4.4203421473503113e-01</leafValues></_></weakClassifiers></_></stages>
  <features>
    <_>
      <rect>
        0 0 2 5</rect></_>
    <_>
      <rect>
        0 0 5 2</rect></_>
    <_>
      <rect>
        0 0 5 6</rect></_>
    <_>
      <rect>
        0 1 2 5</rect></_>
    <_>
      <rect>
        0 2 4 3</rect></_>
    <_>
      <rect>
        0 3 2 3</rect></_>
    <_>
      <rect>
        1 4 4 4</rect></_>
    <_>
      <rect>
        1 5 2 5</rect></_>
    <_>
      <rect>
        1 5 6 5</rect></_>
    <_>
      <rect>
        1 14 4 2</rect></_>
    <_>
      <rect>
        2 6 4 3</rect></_>
    <_>
      <rect>
        3 0 2 4</rect></_>
    <_>
      <rect>
        3 0 3 2</rect></_>
    <_>
      <rect>
        3 2 4 4</rect></_>
    <_>
      <rect>
        3 2 5 5</rect></_>
    <_>
      <rect>
        3 4 2 1</rect></_>
    <_>
      <rect>
        3 7 3 2</rect></_>
    <_>
      <rect>
        4 0 2 3</rect></_>
    <_>
      <rect>
        4 0 3 1</rect></_>
    <_>
      <rect>
        4 0 4 1</rect></_>
    <_>
      <rect>
        4 0 5 2</rect></_>
    <_>
      <rect>
        4 2 2 3</rect></_>
    <_>
      <rect>
        4 3 2 2</rect></_>
    <_>
      <rect>
        4 7 5 2</rect></_>
    <_>
      <rect>
        4 7 5 4</rect></_>
    <_>
      <rect>
        5 1 5 6</rect></_>
    <_>
      <rect>
        5 3 1 2</rect></_>
    <_>
      <rect>
        5 5 2 3</rect></_>
    <_>
      <rect>
        5 5 5 3</rect></_>
    <_>
      <rect>
        5 8 2 1</rect></_>
    <_>
      <rect>
        5 8 2 2</rect></_>
    <_>
      <rect>
        5 14 2 2</rect></_>
    <_>
      <rect>
        6 2 2 6</rect></_>
    <_>
      <rect>
        6 3 1 2</rect></_>
    <_>
      <rect>
        6 10 1 1</rect></_>
    <_>
      <rect>
        7 3 2 2</rect></_>
    <_>
      <rect>
        7 9 1 2</rect></_>
    <_>
      <rect>
        7 10 2 1</rect></_>
    <_>
      <rect>
        7 11 2 1</rect></_>
    <_>
      <rect>
        8 3 2 2</rect></_>
    <_>
      <rect>
        8 4 3 4</rect></_>
    <_>
      <rect>
        8 6 2 3</rect></_>
    <_>
      <rect>
        8 14 2 2</rect></_>
    <_>
      <rect>
        8 14 3 2</rect></_>
    <_>
      <rect>
        9 0 2 3</rect></_>
    <_>
      <rect>
        9 3 1 1</rect></_>
    <_>
      <rect>
        9 6 2 2</rect></_>
    <_>
      <rect>
        9 8 2 1</rect></_>
    <_>
      <rect>
        9 8 2 2</rect></_>
    <_>
      <rect>
        9 14 2 2</rect></_>
    <_>
      <rect>
        9 17 1 1</rect></_>
    <_>
      <rect>
        10 0 2 1</rect></_>
    <_>
      <rect>
        10 2 2 3</rect></_>
    <_>
      <rect>
        10 7 1 1</rect></_>
    <_>
      <rect>
        10 8 1 1</rect></_>
    <_>
      <rect>
        10 10 1 2</rect></_>
    <_>
      <rect>
        11 2 1 2</rect></_>
    <_>
      <rect>
        12 3 1 2</rect></_>
    <_>
      <rect>
        13 2 2 6</rect></_>
    <_>
      <rect>
        16 3 1 5</rect></_>
    <_>
      <rect>
        16 7 1 4</rect></_>
    <_>
      <rect>
        17 9 1 1</rect></_></features></cascade>
</opencv_storage>
