<?xml version="1.0"?>
<opencv_storage>
<cascade>
  <stageType>BOOST</stageType>
  <featureType>LBP</featureType>
  <height>20</height>
  <width>20</width>
  <stageParams>
    <boostType>GAB</boostType>
    <minHitRate>9.9989998340606689e-01</minHitRate>
    <maxFalseAlarm>5.0000000000000000e-01</maxFalseAlarm>
    <weightTrimRate>9.4999999999999996e-01</weightTrimRate>
    <maxDepth>1</maxDepth>
    <maxWeakCount>100</maxWeakCount></stageParams>
  <featureParams>
    <maxCatCount>256</maxCatCount>
    <featSize>1</featSize></featureParams>
  <stageNum>19</stageNum>
  <stages>
    <!-- stage 0 -->
    <_>
      <maxWeakCount>2</maxWeakCount>
      <stageThreshold>-3.2197609543800354e-01</stageThreshold>
      <weakClassifiers>
        <_>
          <internalNodes>
            0 -1 11 -536870914 -2097697 -538969106 -8225 -51650561 -1105
            -1114113 -5</internalNodes>
          <leafValues>
            -9.9099099636077881e-01 6.3728815317153931e-01</leafValues></_>
        <_>
          <internalNodes>
            0 -1 29 -1358975297 -24641 -524289 -17409 788467695
            -268488801 -53249 -16465</internalNodes>
          <leafValues>
            -9.1576099395751953e-01 6.6901487112045288e-01</leafValues></_></weakClassifiers></_>
    <!-- stage 1 -->
    <_>
      <maxWeakCount>3</maxWeakCount>
      <stageThreshold>-1.2345460653305054e+00</stageThreshold>
      <weakClassifiers>
        <_>
          <internalNodes>
            0 -1 25 -706740225 -34613265 -833093633 -1360068610
            -70648833 -2518789 -67108865 -83951617</internalNodes>
          <leafValues>
            -9.0677964687347412e-01 6.6223907470703125e-01</leafValues></_>
        <_>
          <internalNodes>
            0 -1 47 -2228227 -674571364 -236717065 -139722755 -890373121
            -69209669 -353506305 -856817667</internalNodes>
          <leafValues>
            -8.9400601387023926e-01 6.0755240917205811e-01</leafValues></_>
        <_>
          <internalNodes>
            0 -1 0 -65537 -2434081 -175392001 -2101793 -2687233 -2838609
            -76022921 2004320119</internalNodes>
          <leafValues>
            -9.3531882762908936e-01 5.7610130310058594e-01</leafValues></_></weakClassifiers></_>
    <!-- stage 2 -->
    <_>
      <maxWeakCount>3</maxWeakCount>
      <stageThreshold>-1.2658923864364624e+00</stageThreshold>
      <weakClassifiers>
        <_>
          <internalNodes>
            0 -1 34 -2097410 -21790533 -1246637217 -5777513 -606208001
            -73666645 -181667329 -1</internalNodes>
          <leafValues>
            -9.2364901304244995e-01 5.4694229364395142e-01</leafValues></_>
        <_>
          <internalNodes>
            0 -1 2 -135008257 -921325 -204081665 -8392225 -1929217
            -71626081 -1011109889 1937708371</internalNodes>
          <leafValues>
            -8.8034629821777344e-01 5.6273293495178223e-01</leafValues></_>
        <_>
          <internalNodes>
            0 -1 67 -185 1196411823 -310120865 21846607 -4259977
            1872483279 -21241937 603977727</internalNodes>
          <leafValues>
            -9.3248844146728516e-01 5.3854066133499146e-01</leafValues></_></weakClassifiers></_>
    <!-- stage 3 -->
    <_>
      <maxWeakCount>3</maxWeakCount>
      <stageThreshold>-1.2328542470932007e+00</stageThreshold>
      <weakClassifiers>
        <_>
          <internalNodes>
            0 -1 1 -528897 -36186657 -1657668609 -1025 -108318721
            -270913 -338728961 -8977547</internalNodes>
          <leafValues>
            -8.4011089801788330e-01 5.8185404539108276e-01</leafValues></_>
        <_>
          <internalNodes>
            0 -1 63 -71968274 -40492066 -221850654 -53835426 -1157647795
            -97676877 -50398474 -51380225</internalNodes>
          <leafValues>
            -9.1039437055587769e-01 5.1811778545379639e-01</leafValues></_>
        <_>
          <internalNodes>
            0 -1 33 -134283266 -16844357 -715399037 -17116325 -3409249
            -2004123070 -71566625 -1140853841</internalNodes>
          <leafValues>
            -9.0431392192840576e-01 5.4228818416595459e-01</leafValues></_></weakClassifiers></_>
    <!-- stage 4 -->
    <_>
      <maxWeakCount>3</maxWeakCount>
      <stageThreshold>-1.2858413457870483e+00</stageThreshold>
      <weakClassifiers>
        <_>
          <internalNodes>
            0 -1 10 -144724481 -19973 -203555977 -133637 -80508929
            -70123117 -71582725 1601641983</internalNodes>
          <leafValues>
            -9.3625068664550781e-01 3.8055765628814697e-01</leafValues></_>
        <_>
          <internalNodes>
            0 -1 46 -67568391 -1082371 666630111 -1347456515 -91686214
            -292929 -20989185 -319947861</internalNodes>
          <leafValues>
            -8.8031387329101563e-01 4.5087459683418274e-01</leafValues></_>
        <_>
          <internalNodes>
            0 -1 8 -32769 -42113 -748993577 -344489 -17858721 1432760658
            -108299401 -557193</internalNodes>
          <leafValues>
            -7.8608512878417969e-01 5.9691828489303589e-01</leafValues></_></weakClassifiers></_>
    <!-- stage 5 -->
    <_>
      <maxWeakCount>3</maxWeakCount>
      <stageThreshold>-1.2483873367309570e+00</stageThreshold>
      <weakClassifiers>
        <_>
          <internalNodes>
            0 -1 5 1846996991 -15082639 -14942285 -11932407 1167282175
            -207897773 2011921339 -138543169</internalNodes>
          <leafValues>
            -8.9248436689376831e-01 3.8193345069885254e-01</leafValues></_>
        <_>
          <internalNodes>
            0 -1 18 -1493239073 -204475905 -788016625 -3150961 -67126273
            -83717975 -74449937 -989871883</internalNodes>
          <leafValues>
            -8.2472503185272217e-01 4.9179893732070923e-01</leafValues></_>
        <_>
          <internalNodes>
            0 -1 40 -145229330 -209726519 -7349265 -268443651
            -1611008001 -71347927 -84410385 -318899205</internalNodes>
          <leafValues>
            -8.0559569597244263e-01 5.4180520772933960e-01</leafValues></_></weakClassifiers></_>
    <!-- stage 6 -->
    <_>
      <maxWeakCount>3</maxWeakCount>
      <stageThreshold>-1.2017428874969482e+00</stageThreshold>
      <weakClassifiers>
        <_>
          <internalNodes>
            0 -1 66 -1074003969 -268435969 -1077944578 -1375752961
            -4203523 -1879311169 -1342177291 -570425345</internalNodes>
          <leafValues>
            -8.1568998098373413e-01 4.6892654895782471e-01</leafValues></_>
        <_>
          <internalNodes>
            0 -1 51 -536888033 -1082142849 -587858433 -11405953
            1995401983 1526589531 -540050177 -9209732</internalNodes>
          <leafValues>
            -8.5424453020095825e-01 5.0545662641525269e-01</leafValues></_>
        <_>
          <internalNodes>
            0 -1 3 -268458497 -2369029 -90449057 -536879617 1760243711
            -67141637 -91543553 -143166091</internalNodes>
          <leafValues>
            -8.1642490625381470e-01 4.9726539850234985e-01</leafValues></_></weakClassifiers></_>
    <!-- stage 7 -->
    <_>
      <maxWeakCount>3</maxWeakCount>
      <stageThreshold>-1.2648366689682007e+00</stageThreshold>
      <weakClassifiers>
        <_>
          <internalNodes>
            0 -1 13 1944049631 1400370687 1402950650 1071618559
            -1786147841 2058399179 2073013247 1073739775</internalNodes>
          <leafValues>
            -8.4755176305770874e-01 3.7677526473999023e-01</leafValues></_>
        <_>
          <internalNodes>
            0 -1 43 -167772833 -77728433 -725229057 -8400513 -724508417
            -1133782959 -457258753 1065320447</internalNodes>
          <leafValues>
            -9.0198898315429688e-01 4.0061670541763306e-01</leafValues></_>
        <_>
          <internalNodes>
            0 -1 9 -58305 -68733057 -213657113 -35923521 -17861833
            1382484279 -5539013 -558093</internalNodes>
          <leafValues>
            -7.3962295055389404e-01 5.4565012454986572e-01</leafValues></_></weakClassifiers></_>
    <!-- stage 8 -->
    <_>
      <maxWeakCount>3</maxWeakCount>
      <stageThreshold>-1.1249861717224121e+00</stageThreshold>
      <weakClassifiers>
        <_>
          <internalNodes>
            0 -1 38 -342099969 -1411386637 1897222995 -270535785
            -351018513 -41187154 -104091393 -68696</internalNodes>
          <leafValues>
            -8.0996739864349365e-01 4.9563530087471008e-01</leafValues></_>
        <_>
          <internalNodes>
            0 -1 55 964626959 -10826923 -203599373 -176889486 -645326149
            -375734135 -575890724 -35344735</internalNodes>
          <leafValues>
            -7.9108875989913940e-01 5.4257696866989136e-01</leafValues></_>
        <_>
          <internalNodes>
            0 -1 73 -134220809 117955727 -1295787781 41935805 -779160583
            1611310083 -68425113 938994659</internalNodes>
          <leafValues>
            -8.2953268289566040e-01 5.4667693376541138e-01</leafValues></_></weakClassifiers></_>
    <!-- stage 9 -->
    <_>
      <maxWeakCount>3</maxWeakCount>
      <stageThreshold>-1.0785622596740723e+00</stageThreshold>
      <weakClassifiers>
        <_>
          <internalNodes>
            0 -1 16 -29974529 -44887085 -740638838 -2928165 -1689273345
            -12122741 -1613766657 -2368037</internalNodes>
          <leafValues>
            -7.9887747764587402e-01 4.6153846383094788e-01</leafValues></_>
        <_>
          <internalNodes>
            0 -1 59 -1128768035 -56781845 -95161905 -323493756
            -353275989 -350044152 -87818309 -51389813</internalNodes>
          <leafValues>
            -8.2703256607055664e-01 4.7824251651763916e-01</leafValues></_>
        <_>
          <internalNodes>
            0 -1 28 -1412694017 -71306533 1359048999 -134349039
            -224674913 -139421527 -338691185 -1879058003</internalNodes>
          <leafValues>
            -7.1306818723678589e-01 6.1708068847656250e-01</leafValues></_></weakClassifiers></_>
    <!-- stage 10 -->
    <_>
      <maxWeakCount>4</maxWeakCount>
      <stageThreshold>-2.0358881950378418e+00</stageThreshold>
      <weakClassifiers>
        <_>
          <internalNodes>
            0 -1 23 -65537 -76833 -674818721 -2174465 -606156817
            -5060373 -68159281 -1077937425</internalNodes>
          <leafValues>
            -8.2444226741790771e-01 4.2293906211853027e-01</leafValues></_>
        <_>
          <internalNodes>
            0 -1 20 64988159 -134245925 -69608961 -67259905 -1793
            -543433985 1807727615 1998851332</internalNodes>
          <leafValues>
            -9.0971946716308594e-01 3.8327145576477051e-01</leafValues></_>
        <_>
          <internalNodes>
            0 -1 49 -214041603 -16575519 -545262625 -275775503
            -161700101 -5256709 -352404481 -318963719</internalNodes>
          <leafValues>
            -8.5154271125793457e-01 4.4588136672973633e-01</leafValues></_>
        <_>
          <internalNodes>
            0 -1 32 81463159 588843345 286367743 -1144255716 836989307
            972755114 -1681343497 -344209</internalNodes>
          <leafValues>
            -7.4317467212677002e-01 5.2820658683776855e-01</leafValues></_></weakClassifiers></_>
    <!-- stage 11 -->
    <_>
      <maxWeakCount>5</maxWeakCount>
      <stageThreshold>-1.2274092435836792e+00</stageThreshold>
      <weakClassifiers>
        <_>
          <internalNodes>
            0 -1 6 -113254401 -621045429 -1185180193 -542128385
            2136994815 1948009882 -203974939 -134218313</internalNodes>
          <leafValues>
            -7.6957696676254272e-01 5.0418412685394287e-01</leafValues></_>
        <_>
          <internalNodes>
            0 -1 71 -1243612161 -1141197733 -1727601281 -1235829566
            -1147411717 -209596277 1006369020 -1610626563</internalNodes>
          <leafValues>
            -7.6596313714981079e-01 5.6151717901229858e-01</leafValues></_>
        <_>
          <internalNodes>
            0 -1 60 -766582837 -167931443 1562358434 -111853253
            -87360561 -1149530921 -17907973 -118095873</internalNodes>
          <leafValues>
            -7.1919053792953491e-01 6.2638789415359497e-01</leafValues></_>
        <_>
          <internalNodes>
            0 -1 30 -519834129 -1897212005 2030605820 -184618498
            -1425891175 -73752407 -1185828165 -4284997</internalNodes>
          <leafValues>
            -8.1209450960159302e-01 4.9034538865089417e-01</leafValues></_>
        <_>
          <internalNodes>
            0 -1 45 -1111991047 -35923681 -1476300449 -327056631
            -72630338 -1281645941 -521426005 -387142709</internalNodes>
          <leafValues>
            -7.3678505420684814e-01 5.4846101999282837e-01</leafValues></_></weakClassifiers></_>
    <!-- stage 12 -->
    <_>
      <maxWeakCount>5</maxWeakCount>
      <stageThreshold>-1.4341906309127808e+00</stageThreshold>
      <weakClassifiers>
        <_>
          <internalNodes>
            0 -1 26 614144311 555155795 222531071 -1078001266 865804287
            2141948121 -1147749889 -1079263233</internalNodes>
          <leafValues>
            -7.9123586416244507e-01 3.3042719960212708e-01</leafValues></_>
        <_>
          <internalNodes>
            0 -1 58 -1174446243 -33951105 -264179201 -68300709
            1757965311 -792166255 -225809921 -18194102</internalNodes>
          <leafValues>
            -8.0037140846252441e-01 4.1116988658905029e-01</leafValues></_>
        <_>
          <internalNodes>
            0 -1 27 -1140850689 -16256306 -1593338469 -138169571
            -203170913 -70636659 -73401429 -1879063043</internalNodes>
          <leafValues>
            -7.2063595056533813e-01 5.3688883781433105e-01</leafValues></_>
        <_>
          <internalNodes>
            0 -1 75 -1281363025 -2083683934 -2122065569 -35696421
            2078535764 170541320 1497030916 -469765381</internalNodes>
          <leafValues>
            -6.9799721240997314e-01 5.4414176940917969e-01</leafValues></_>
        <_>
          <internalNodes>
            0 -1 39 -371075777 -276065811 956535099 -270552739
            -753163921 -18284483 -645819957 -318964772</internalNodes>
          <leafValues>
            -7.8775233030319214e-01 4.9096769094467163e-01</leafValues></_></weakClassifiers></_>
    <!-- stage 13 -->
    <_>
      <maxWeakCount>5</maxWeakCount>
      <stageThreshold>-1.6033558845520020e+00</stageThreshold>
      <weakClassifiers>
        <_>
          <internalNodes>
            0 -1 68 -44566529 -3021850 -1856778114 -1099525946
            -1089471555 -372604749 402643453 -536875009</internalNodes>
          <leafValues>
            -7.7300906181335449e-01 3.6355227231979370e-01</leafValues></_>
        <_>
          <internalNodes>
            0 -1 4 -279446049 -283521791 -11666433 -15467109 2132803563
            1930082952 128112631 2009819119</internalNodes>
          <leafValues>
            -8.6620837450027466e-01 3.3535602688789368e-01</leafValues></_>
        <_>
          <internalNodes>
            0 -1 61 -585894929 -2289447 -1675578142 -59927841 -73686033
            -69484531 -104875009 -185287745</internalNodes>
          <leafValues>
            -8.0110800266265869e-01 4.0585654973983765e-01</leafValues></_>
        <_>
          <internalNodes>
            0 -1 19 -300357890 -11279599 -753798893 -113118975
            1679025011 -82719995 -1945371725 -73462993</internalNodes>
          <leafValues>
            -7.5593364238739014e-01 4.6193283796310425e-01</leafValues></_>
        <_>
          <internalNodes>
            0 -1 74 938999799 233831166 -1992558141 -419435881 264195061
            100474941 1325063137 2011167679</internalNodes>
          <leafValues>
            -8.1562578678131104e-01 3.9543983340263367e-01</leafValues></_></weakClassifiers></_>
    <!-- stage 14 -->
    <_>
      <maxWeakCount>4</maxWeakCount>
      <stageThreshold>-1.1776235103607178e+00</stageThreshold>
      <weakClassifiers>
        <_>
          <internalNodes>
            0 -1 24 -356585473 -458991 -216681609 -6295015 -925386021
            -86045678 -273818725 -33822070</internalNodes>
          <leafValues>
            -7.9231566190719604e-01 2.3801916837692261e-01</leafValues></_>
        <_>
          <internalNodes>
            0 -1 56 -250871830 957462785 -77905984 -12214449 -1727940673
            -687636463 -134219801 -319816721</internalNodes>
          <leafValues>
            -8.0716562271118164e-01 3.4634846448898315e-01</leafValues></_>
        <_>
          <internalNodes>
            0 -1 14 -208331969 -16280163 -610795529 -6300227 -23381185
            -4547905 -73680321 808206142</internalNodes>
          <leafValues>
            -8.9425534009933472e-01 3.2191079854965210e-01</leafValues></_>
        <_>
          <internalNodes>
            0 -1 12 2136964959 2138914623 -1743857409 -1115639875
            -445024665 2037198874 -100105265 886397311</internalNodes>
          <leafValues>
            -8.6773580312728882e-01 3.4787502884864807e-01</leafValues></_></weakClassifiers></_>
    <!-- stage 15 -->
    <_>
      <maxWeakCount>6</maxWeakCount>
      <stageThreshold>-1.2020813226699829e+00</stageThreshold>
      <weakClassifiers>
        <_>
          <internalNodes>
            0 -1 15 -85986369 -336624965 -1576299968 -288367777
            -2100573473 -1333350513 -204473353 -522718487</internalNodes>
          <leafValues>
            -7.6942610740661621e-01 2.3738627135753632e-01</leafValues></_>
        <_>
          <internalNodes>
            0 -1 17 -1302397953 -263646895 -767132962 579852571
            -821328097 -544652027 -606347265 -67110017</internalNodes>
          <leafValues>
            -7.1600097417831421e-01 4.2462530732154846e-01</leafValues></_>
        <_>
          <internalNodes>
            0 -1 53 -1129292547 -2702521 -774189171 -2326392 -83498065
            -79986686 -38934581 -34735733</internalNodes>
          <leafValues>
            -7.6471370458602905e-01 3.7304371595382690e-01</leafValues></_>
        <_>
          <internalNodes>
            0 -1 50 -241830593 1061146239 -846341739 2138882121
            -2134325009 746096872 -1059288883 860539100</internalNodes>
          <leafValues>
            -9.1376554965972900e-01 3.3375540375709534e-01</leafValues></_>
        <_>
          <internalNodes>
            0 -1 64 -681577473 -720305609 -1732410658 -1906507081
            -69356547 1334411283 234612989 -805572683</internalNodes>
          <leafValues>
            -6.4355427026748657e-01 4.5046946406364441e-01</leafValues></_>
        <_>
          <internalNodes>
            0 -1 48 452950015 -774241852 -259260141 -10698692 1778419969
            -125787511 545305176 -273222384</internalNodes>
          <leafValues>
            -6.3321417570114136e-01 4.9417293071746826e-01</leafValues></_></weakClassifiers></_>
    <!-- stage 16 -->
    <_>
      <maxWeakCount>6</maxWeakCount>
      <stageThreshold>-2.1488554477691650e+00</stageThreshold>
      <weakClassifiers>
        <_>
          <internalNodes>
            0 -1 37 2006480383 865727025 -1142082129 -1077079185
            -1083008325 -1149042672 -38011412 -105530437</internalNodes>
          <leafValues>
            -7.4370920658111572e-01 3.5658913850784302e-01</leafValues></_>
        <_>
          <internalNodes>
            0 -1 7 -1 -237245453 -775431293 -548947541 1801420639
            1768667235 -102813057 2002092031</internalNodes>
          <leafValues>
            -7.9573822021484375e-01 3.6736449599266052e-01</leafValues></_>
        <_>
          <internalNodes>
            0 -1 44 -51552595 1393754377 -80854831 2145927433 -319979065
            -149749497 -492107781 -324144529</internalNodes>
          <leafValues>
            -7.9383665323257446e-01 4.0483641624450684e-01</leafValues></_>
        <_>
          <internalNodes>
            0 -1 52 666332983 2063765906 -250260207 -1223567589
            1879138915 -469610232 -1291293661 -77596629</internalNodes>
          <leafValues>
            -7.4807268381118774e-01 3.9956620335578918e-01</leafValues></_>
        <_>
          <internalNodes>
            0 -1 65 -481873429 586604698 1695224349 -1350641156
            -1073557029 469959494 -259265538 -301999875</internalNodes>
          <leafValues>
            -6.0998409986495972e-01 4.9476668238639832e-01</leafValues></_>
        <_>
          <internalNodes>
            0 -1 22 -543532673 -1309511293 -1055915895 -601963507
            -784695289 -1182113597 -711228977 1073467791</internalNodes>
          <leafValues>
            -8.2068848609924316e-01 3.7938275933265686e-01</leafValues></_></weakClassifiers></_>
    <!-- stage 17 -->
    <_>
      <maxWeakCount>7</maxWeakCount>
      <stageThreshold>-1.6076971292495728e+00</stageThreshold>
      <weakClassifiers>
        <_>
          <internalNodes>
            0 -1 36 76215263 1058705607 -1861152741 -2099201 -1052702715
            -657624958 -831323903 -16793618</internalNodes>
          <leafValues>
            -6.6848510503768921e-01 4.5911949872970581e-01</leafValues></_>
        <_>
          <internalNodes>
            0 -1 54 -1145545479 -617151627 -402530067 -552349513
            -1433714 -1157431141 -392107282 -393299025</internalNodes>
          <leafValues>
            -7.4424415826797485e-01 3.7829679250717163e-01</leafValues></_>
        <_>
          <internalNodes>
            0 -1 62 -241454858 2066180799 807076425 1932649235
            -1218468620 -751120203 925086371 -206849365</internalNodes>
          <leafValues>
            -7.5672066211700439e-01 3.7586531043052673e-01</leafValues></_>
        <_>
          <internalNodes>
            0 -1 42 -73596935 -102978824 -2079608618 -35720996
            -2117368919 -1447525988 -1142123598 -895707008</internalNodes>
          <leafValues>
            -6.1219841241836548e-01 4.6797600388526917e-01</leafValues></_>
        <_>
          <internalNodes>
            0 -1 35 580524927 1359053600 -1709309929 -277900500
            -1962372685 463667233 -1100345321 -318973271</internalNodes>
          <leafValues>
            -7.7869153022766113e-01 3.8397547602653503e-01</leafValues></_>
        <_>
          <internalNodes>
            0 -1 69 823253999 -775880667 1530958210 1016079320
            -511471277 1393563779 -1214584845 1975235519</internalNodes>
          <leafValues>
            -7.0432931184768677e-01 4.1349101066589355e-01</leafValues></_>
        <_>
          <internalNodes>
            0 -1 41 1066876895 1529279188 -2021584437 -1099247342
            -632745049 1808761537 604505006 -256175246</internalNodes>
          <leafValues>
            -6.8531686067581177e-01 4.1413056850433350e-01</leafValues></_></weakClassifiers></_>
    <!-- stage 18 -->
    <_>
      <maxWeakCount>6</maxWeakCount>
      <stageThreshold>-2.0530114173889160e+00</stageThreshold>
      <weakClassifiers>
        <_>
          <internalNodes>
            0 -1 57 -889992197 -276107002 -251608305 -184428285
            -788399229 -1560231936 -486358783 -1220318065</internalNodes>
          <leafValues>
            -7.6105743646621704e-01 2.2213047742843628e-01</leafValues></_>
        <_>
          <internalNodes>
            0 -1 72 -389856689 -124133233 -1060453266 -790839159
            1740888128 -1348237302 -924333836 -92044149</internalNodes>
          <leafValues>
            -6.5106993913650513e-01 3.9892959594726563e-01</leafValues></_>
        <_>
          <internalNodes>
            0 -1 76 -162019351 720540 1080541250 -494476416 2077197254
            -989298136 -233639763 -1459686434</internalNodes>
          <leafValues>
            -7.1345889568328857e-01 3.9856463670730591e-01</leafValues></_>
        <_>
          <internalNodes>
            0 -1 31 -1358331905 670306815 152173306 670962110 -268377966
            -73863029 1342988379 2140784383</internalNodes>
          <leafValues>
            -7.2173440456390381e-01 3.8834843039512634e-01</leafValues></_>
        <_>
          <internalNodes>
            0 -1 70 -1561376169 1905568479 25215181 -939478834
            -2139039543 -2147450752 -1064793653 -246790136</internalNodes>
          <leafValues>
            -7.2208172082901001e-01 4.1107717156410217e-01</leafValues></_>
        <_>
          <internalNodes>
            0 -1 21 -435497989 -251424765 268771346 -1560202927
            -654204789 -2146992128 -788270957 -1056980839</internalNodes>
          <leafValues>
            -7.2879153490066528e-01 4.1012805700302124e-01</leafValues></_></weakClassifiers></_></stages>
  <features>
    <_>
      <rect>
        0 0 2 6</rect></_>
    <_>
      <rect>
        0 0 5 2</rect></_>
    <_>
      <rect>
        0 0 5 3</rect></_>
    <_>
      <rect>
        0 1 5 2</rect></_>
    <_>
      <rect>
        0 3 3 2</rect></_>
    <_>
      <rect>
        0 4 4 2</rect></_>
    <_>
      <rect>
        0 5 2 2</rect></_>
    <_>
      <rect>
        0 5 2 5</rect></_>
    <_>
      <rect>
        0 8 2 3</rect></_>
    <_>
      <rect>
        0 8 2 4</rect></_>
    <_>
      <rect>
        1 0 5 3</rect></_>
    <_>
      <rect>
        1 7 6 2</rect></_>
    <_>
      <rect>
        1 11 3 3</rect></_>
    <_>
      <rect>
        1 11 6 3</rect></_>
    <_>
      <rect>
        2 0 6 2</rect></_>
    <_>
      <rect>
        2 2 1 3</rect></_>
    <_>
      <rect>
        2 5 5 4</rect></_>
    <_>
      <rect>
        2 5 6 5</rect></_>
    <_>
      <rect>
        3 0 1 4</rect></_>
    <_>
      <rect>
        3 0 3 4</rect></_>
    <_>
      <rect>
        3 0 4 2</rect></_>
    <_>
      <rect>
        3 2 1 3</rect></_>
    <_>
      <rect>
        3 2 2 6</rect></_>
    <_>
      <rect>
        3 4 2 4</rect></_>
    <_>
      <rect>
        3 5 2 2</rect></_>
    <_>
      <rect>
        3 9 4 2</rect></_>
    <_>
      <rect>
        3 17 5 1</rect></_>
    <_>
      <rect>
        4 0 1 3</rect></_>
    <_>
      <rect>
        4 1 1 3</rect></_>
    <_>
      <rect>
        4 3 3 2</rect></_>
    <_>
      <rect>
        4 9 2 1</rect></_>
    <_>
      <rect>
        4 14 4 2</rect></_>
    <_>
      <rect>
        4 17 4 1</rect></_>
    <_>
      <rect>
        5 2 1 5</rect></_>
    <_>
      <rect>
        5 2 5 6</rect></_>
    <_>
      <rect>
        5 8 3 2</rect></_>
    <_>
      <rect>
        5 9 2 3</rect></_>
    <_>
      <rect>
        6 7 3 2</rect></_>
    <_>
      <rect>
        6 9 1 2</rect></_>
    <_>
      <rect>
        6 9 2 2</rect></_>
    <_>
      <rect>
        6 9 3 2</rect></_>
    <_>
      <rect>
        6 13 2 2</rect></_>
    <_>
      <rect>
        7 0 1 1</rect></_>
    <_>
      <rect>
        7 0 4 4</rect></_>
    <_>
      <rect>
        7 5 2 4</rect></_>
    <_>
      <rect>
        7 6 2 2</rect></_>
    <_>
      <rect>
        7 7 2 2</rect></_>
    <_>
      <rect>
        7 7 2 3</rect></_>
    <_>
      <rect>
        7 8 1 1</rect></_>
    <_>
      <rect>
        7 8 2 2</rect></_>
    <_>
      <rect>
        8 0 4 4</rect></_>
    <_>
      <rect>
        8 3 3 2</rect></_>
    <_>
      <rect>
        8 4 1 1</rect></_>
    <_>
      <rect>
        8 5 1 2</rect></_>
    <_>
      <rect>
        8 6 2 2</rect></_>
    <_>
      <rect>
        8 7 1 1</rect></_>
    <_>
      <rect>
        8 10 3 2</rect></_>
    <_>
      <rect>
        9 0 1 4</rect></_>
    <_>
      <rect>
        9 4 2 2</rect></_>
    <_>
      <rect>
        9 5 1 2</rect></_>
    <_>
      <rect>
        9 8 2 2</rect></_>
    <_>
      <rect>
        9 10 2 1</rect></_>
    <_>
      <rect>
        10 4 3 5</rect></_>
    <_>
      <rect>
        10 10 2 1</rect></_>
    <_>
      <rect>
        10 11 3 3</rect></_>
    <_>
      <rect>
        10 12 1 2</rect></_>
    <_>
      <rect>
        10 13 3 2</rect></_>
    <_>
      <rect>
        11 0 3 5</rect></_>
    <_>
      <rect>
        11 11 2 3</rect></_>
    <_>
      <rect>
        11 12 2 1</rect></_>
    <_>
      <rect>
        12 3 1 3</rect></_>
    <_>
      <rect>
        12 13 1 2</rect></_>
    <_>
      <rect>
        13 8 1 1</rect></_>
    <_>
      <rect>
        14 2 2 6</rect></_>
    <_>
      <rect>
        14 8 2 3</rect></_>
    <_>
      <rect>
        15 11 1 1</rect></_>
    <_>
      <rect>
        17 2 1 5</rect></_></features></cascade>
</opencv_storage>
