<?xml version="1.0"?>
<opencv_storage>
<cascade>
  <stageType>BOOST</stageType>
  <featureType>LBP</featureType>
  <height>20</height>
  <width>20</width>
  <stageParams>
    <boostType>GAB</boostType>
    <minHitRate>9.9000000953674316e-01</minHitRate>
    <maxFalseAlarm>5.0000000000000000e-01</maxFalseAlarm>
    <weightTrimRate>9.4999999999999996e-01</weightTrimRate>
    <maxDepth>1</maxDepth>
    <maxWeakCount>100</maxWeakCount></stageParams>
  <featureParams>
    <maxCatCount>256</maxCatCount>
    <featSize>1</featSize></featureParams>
  <stageNum>15</stageNum>
  <stages>
    <!-- stage 0 -->
    <_>
      <maxWeakCount>1</maxWeakCount>
      <stageThreshold>8.4126985073089600e-01</stageThreshold>
      <weakClassifiers>
        <_>
          <internalNodes>
            0 -1 5 -2621986 -137890309 -251537193 -6434535 -1999967233
            -113213275 -810497029 -1391635</internalNodes>
          <leafValues>
            -9.9608612060546875e-01 8.4126985073089600e-01</leafValues></_></weakClassifiers></_>
    <!-- stage 1 -->
    <_>
      <maxWeakCount>2</maxWeakCount>
      <stageThreshold>-2.1133147180080414e-01</stageThreshold>
      <weakClassifiers>
        <_>
          <internalNodes>
            0 -1 11 -14680065 -288358489 -637019189 -85984821 -392752733
            -36982069 -90524773 -337</internalNodes>
          <leafValues>
            -9.1312557458877563e-01 7.8299123048782349e-01</leafValues></_>
        <_>
          <internalNodes>
            0 -1 19 -67379405 488980759 -544745985 2099110237 -72091649
            -72775494 -34038273 -69273429</internalNodes>
          <leafValues>
            -9.5685786008834839e-01 7.0179414749145508e-01</leafValues></_></weakClassifiers></_>
    <!-- stage 2 -->
    <_>
      <maxWeakCount>3</maxWeakCount>
      <stageThreshold>-1.1581797599792480e+00</stageThreshold>
      <weakClassifiers>
        <_>
          <internalNodes>
            0 -1 23 1572862463 -1311297249 -583198753 -142606853
            -342099105 -71587107 -68158601 -137</internalNodes>
          <leafValues>
            -9.2175573110580444e-01 7.5568181276321411e-01</leafValues></_>
        <_>
          <internalNodes>
            0 -1 16 -608174221 1607673271 999544653 -852604 -1144263681
            -608345125 -4215037 -656557</internalNodes>
          <leafValues>
            -9.2298096418380737e-01 6.4725148677825928e-01</leafValues></_>
        <_>
          <internalNodes>
            0 -1 10 -288358401 -287321153 -584589377 -67373665
            -2085356065 -967134806 -850396177 -1050705</internalNodes>
          <leafValues>
            -8.8367551565170288e-01 7.3143678903579712e-01</leafValues></_></weakClassifiers></_>
    <!-- stage 3 -->
    <_>
      <maxWeakCount>3</maxWeakCount>
      <stageThreshold>-1.1311937570571899e+00</stageThreshold>
      <weakClassifiers>
        <_>
          <internalNodes>
            0 -1 24 -203423745 1938623839 968834047 -1342178337
            -553910433 -1107593009 -17170569 -1310729</internalNodes>
          <leafValues>
            -8.9923954010009766e-01 7.0689654350280762e-01</leafValues></_>
        <_>
          <internalNodes>
            0 -1 0 -1249 -347081777 -217855477 -14694005 -1022399993
            -628899513 -364435967 -33947</internalNodes>
          <leafValues>
            -8.9162963628768921e-01 6.4285331964492798e-01</leafValues></_>
        <_>
          <internalNodes>
            0 -1 34 -1210058753 331334299 -1062746889 -1226841849
            -1461766257 -1329075838 -397943813 -1342177537</internalNodes>
          <leafValues>
            -8.7480759620666504e-01 7.0557141304016113e-01</leafValues></_></weakClassifiers></_>
    <!-- stage 4 -->
    <_>
      <maxWeakCount>3</maxWeakCount>
      <stageThreshold>-1.0320712327957153e+00</stageThreshold>
      <weakClassifiers>
        <_>
          <internalNodes>
            0 -1 22 -1050625 -570992385 -500968725 -1033 -300171809
            -18887445 -32801 -525449</internalNodes>
          <leafValues>
            -8.9115643501281738e-01 5.8490568399429321e-01</leafValues></_>
        <_>
          <internalNodes>
            0 -1 6 -547924481 -577267343 -1216874514 -134145 -1045750789
            -1093113655 -1156841985 -139265</internalNodes>
          <leafValues>
            -8.5908776521682739e-01 6.4624309539794922e-01</leafValues></_>
        <_>
          <internalNodes>
            0 -1 35 -3377 148818867 335659010 -1473319969 -208931861
            -289148894 -142347557 -352650241</internalNodes>
          <leafValues>
            -7.8715789318084717e-01 7.7338403463363647e-01</leafValues></_></weakClassifiers></_>
    <!-- stage 5 -->
    <_>
      <maxWeakCount>2</maxWeakCount>
      <stageThreshold>-4.2360240221023560e-01</stageThreshold>
      <weakClassifiers>
        <_>
          <internalNodes>
            0 -1 22 1542976511 -167774977 -1310359185 -52745 -1014238497
            -84237337 -117459457 -8914089</internalNodes>
          <leafValues>
            -9.1742193698883057e-01 5.1842749118804932e-01</leafValues></_>
        <_>
          <internalNodes>
            0 -1 36 -1363148801 752867279 -788019745 -1429212965
            -1549014545 -84422576 -6308405 -1361058849</internalNodes>
          <leafValues>
            -9.4202989339828491e-01 5.3737646341323853e-01</leafValues></_></weakClassifiers></_>
    <!-- stage 6 -->
    <_>
      <maxWeakCount>2</maxWeakCount>
      <stageThreshold>-4.3974468111991882e-01</stageThreshold>
      <weakClassifiers>
        <_>
          <internalNodes>
            0 -1 9 -324012033 -6302829 -44966497 -3677285 -877136901
            -475356861 -883163309 -2097717</internalNodes>
          <leafValues>
            -8.9620757102966309e-01 4.9748742580413818e-01</leafValues></_>
        <_>
          <internalNodes>
            0 -1 1 -2097153 -37643297 -1154295841 -3024913 1990966007
            -1081091621 -135669769 938866145</internalNodes>
          <leafValues>
            -9.3723213672637939e-01 4.8990741372108459e-01</leafValues></_></weakClassifiers></_>
    <!-- stage 7 -->
    <_>
      <maxWeakCount>2</maxWeakCount>
      <stageThreshold>-3.8570082187652588e-01</stageThreshold>
      <weakClassifiers>
        <_>
          <internalNodes>
            0 -1 12 -1579684865 -210112205 -787458117 -145012672
            -1432245789 -242904648 -1206197845 -1080321125</internalNodes>
          <leafValues>
            -9.3989634513854980e-01 4.7586205601692200e-01</leafValues></_>
        <_>
          <internalNodes>
            0 -1 4 286724471 -10649391 1360516575 534757533 807403523
            1552818713 -1975342145 -1140874853</internalNodes>
          <leafValues>
            -8.6156290769577026e-01 6.1681026220321655e-01</leafValues></_></weakClassifiers></_>
    <!-- stage 8 -->
    <_>
      <maxWeakCount>3</maxWeakCount>
      <stageThreshold>-1.2736246585845947e+00</stageThreshold>
      <weakClassifiers>
        <_>
          <internalNodes>
            0 -1 30 -203950113 -1579967553 -1019015585 -70280198
            -353378311 -1041289459 -70304785 -65552</internalNodes>
          <leafValues>
            -9.0092879533767700e-01 4.0139210224151611e-01</leafValues></_>
        <_>
          <internalNodes>
            0 -1 17 -1111248929 1560348959 -2102136481 -202135074
            -49573041 -22021185 -262369 -524425</internalNodes>
          <leafValues>
            -8.6166799068450928e-01 4.8978853225708008e-01</leafValues></_>
        <_>
          <internalNodes>
            0 -1 8 -149441537 -149479011 -681846305 -137129711
            -120461329 -809380431 -74077701 80481241</internalNodes>
          <leafValues>
            -9.5035457611083984e-01 4.8897206783294678e-01</leafValues></_></weakClassifiers></_>
    <!-- stage 9 -->
    <_>
      <maxWeakCount>3</maxWeakCount>
      <stageThreshold>-1.1628409624099731e+00</stageThreshold>
      <weakClassifiers>
        <_>
          <internalNodes>
            0 -1 13 -278922241 -941628497 1678811231 -287316745
            -95694065 -216464351 -850417493 -5409</internalNodes>
          <leafValues>
            -8.3538317680358887e-01 5.3352767229080200e-01</leafValues></_>
        <_>
          <internalNodes>
            0 -1 33 -1073745953 -1351093347 -116273038 -1344412145
            -1172059137 -351559525 -1344889601 -1393821713</internalNodes>
          <leafValues>
            -8.4177422523498535e-01 5.2755373716354370e-01</leafValues></_>
        <_>
          <internalNodes>
            0 -1 26 593440253 466989975 -612249377 -471877123
            -1399523926 -662650805 -1143817313 -2102337</internalNodes>
          <leafValues>
            -8.5501152276992798e-01 5.7026863098144531e-01</leafValues></_></weakClassifiers></_>
    <!-- stage 10 -->
    <_>
      <maxWeakCount>3</maxWeakCount>
      <stageThreshold>-1.2487926483154297e+00</stageThreshold>
      <weakClassifiers>
        <_>
          <internalNodes>
            0 -1 20 -1208764429 1503337303 -1716682113 -606104745
            -1987589701 -306248741 -1146618945 -67637417</internalNodes>
          <leafValues>
            -8.6400002241134644e-01 4.0999999642372131e-01</leafValues></_>
        <_>
          <internalNodes>
            0 -1 18 -8429569 -142633799 -1810802210 -81843250
            -1554809345 -12796215 -1145356904 -1283773637</internalNodes>
          <leafValues>
            -8.4943312406539917e-01 4.9203407764434814e-01</leafValues></_>
        <_>
          <internalNodes>
            0 -1 2 -100698753 1608217563 -1073459965 -5975 -641004673
            564871759 -569415059 1970793343</internalNodes>
          <leafValues>
            -8.7682670354843140e-01 4.7407913208007813e-01</leafValues></_></weakClassifiers></_>
    <!-- stage 11 -->
    <_>
      <maxWeakCount>3</maxWeakCount>
      <stageThreshold>-1.3038668632507324e+00</stageThreshold>
      <weakClassifiers>
        <_>
          <internalNodes>
            0 -1 25 -770590209 -138178147 1499292407 -638385665
            -1465323705 -341998167 -1081491721 -791385</internalNodes>
          <leafValues>
            -8.9121341705322266e-01 3.4234234690666199e-01</leafValues></_>
        <_>
          <internalNodes>
            0 -1 20 -1880706569 -298665 -507431553 -575153849
            -1381581905 -859862353 -1147016353 -9044409</internalNodes>
          <leafValues>
            -8.1904244422912598e-01 4.9278950691223145e-01</leafValues></_>
        <_>
          <internalNodes>
            0 -1 31 -539239049 -2632707 -1857200129 -560231075
            -219697545 1970507979 -1815889769 -159123305</internalNodes>
          <leafValues>
            -8.2716679573059082e-01 5.0892579555511475e-01</leafValues></_></weakClassifiers></_>
    <!-- stage 12 -->
    <_>
      <maxWeakCount>3</maxWeakCount>
      <stageThreshold>-1.1947008371353149e+00</stageThreshold>
      <weakClassifiers>
        <_>
          <internalNodes>
            0 -1 15 614536127 -241498489 397532063 -873102609 570995199
            -1917124117 -1213220129 -67638409</internalNodes>
          <leafValues>
            -8.5643070936203003e-01 4.0050378441810608e-01</leafValues></_>
        <_>
          <internalNodes>
            0 -1 7 -473434113 -212751599 -197372201 -533606393
            -1013992001 -762150693 -345244519 -1879315533</internalNodes>
          <leafValues>
            -8.6911875009536743e-01 4.0826404094696045e-01</leafValues></_>
        <_>
          <internalNodes>
            0 -1 14 -1858126473 -35933867 -1992050177 -1214506546
            -1719396805 1435111427 -72369221 -1081099204</internalNodes>
          <leafValues>
            -7.4653410911560059e-01 5.3189897537231445e-01</leafValues></_></weakClassifiers></_>
    <!-- stage 13 -->
    <_>
      <maxWeakCount>3</maxWeakCount>
      <stageThreshold>-1.2277334928512573e+00</stageThreshold>
      <weakClassifiers>
        <_>
          <internalNodes>
            0 -1 17 -2028662273 -1582055105 -2057567905 1937182943
            -1574265137 -1567948642 -325666017 -529353</internalNodes>
          <leafValues>
            -9.1035217046737671e-01 3.3045357465744019e-01</leafValues></_>
        <_>
          <internalNodes>
            0 -1 32 -613442699 362523535 572216067 -62946689 -1441561911
            -711856084 -805586033 -34866517</internalNodes>
          <leafValues>
            -7.2117382287979126e-01 5.3340256214141846e-01</leafValues></_>
        <_>
          <internalNodes>
            0 -1 3 1201627063 -134849185 344022431 -1151450801
            -1870103953 1914200695 -636945713 1928592303</internalNodes>
          <leafValues>
            -9.5554596185684204e-01 4.0379253029823303e-01</leafValues></_></weakClassifiers></_>
    <!-- stage 14 -->
    <_>
      <maxWeakCount>4</maxWeakCount>
      <stageThreshold>-8.6782908439636230e-01</stageThreshold>
      <weakClassifiers>
        <_>
          <internalNodes>
            0 -1 21 1129552127 -2054454909 -888598113 -1295144889
            -158398577 -1540644102 -1143891489 -9176457</internalNodes>
          <leafValues>
            -8.8675427436828613e-01 4.3065693974494934e-01</leafValues></_>
        <_>
          <internalNodes>
            0 -1 29 -1727802147 9674947 -2113339077 -230489917
            -929368071 -124800785 -74760273 -1107329072</internalNodes>
          <leafValues>
            -8.4308826923370361e-01 3.7586107850074768e-01</leafValues></_>
        <_>
          <internalNodes>
            0 -1 27 298342876 -1646571331 -1047678309 -103550881
            -581156709 -668237650 -809499650 -188416002</internalNodes>
          <leafValues>
            -8.2882064580917358e-01 4.3427279591560364e-01</leafValues></_>
        <_>
          <internalNodes>
            0 -1 28 -514633317 -1017698962 -506389049 -145784629
            -786231138 -1161100214 -1141917697 -680366238</internalNodes>
          <leafValues>
            -7.9120862483978271e-01 5.1418650150299072e-01</leafValues></_></weakClassifiers></_></stages>
  <features>
    <_>
      <rect>
        0 0 1 6</rect></_>
    <_>
      <rect>
        0 0 4 2</rect></_>
    <_>
      <rect>
        0 10 2 3</rect></_>
    <_>
      <rect>
        0 14 3 2</rect></_>
    <_>
      <rect>
        0 17 3 1</rect></_>
    <_>
      <rect>
        1 2 6 5</rect></_>
    <_>
      <rect>
        1 9 6 2</rect></_>
    <_>
      <rect>
        2 0 4 4</rect></_>
    <_>
      <rect>
        2 0 6 2</rect></_>
    <_>
      <rect>
        3 3 2 3</rect></_>
    <_>
      <rect>
        3 5 2 2</rect></_>
    <_>
      <rect>
        3 8 2 2</rect></_>
    <_>
      <rect>
        4 3 3 2</rect></_>
    <_>
      <rect>
        4 8 1 2</rect></_>
    <_>
      <rect>
        4 16 2 1</rect></_>
    <_>
      <rect>
        6 7 3 3</rect></_>
    <_>
      <rect>
        6 8 3 2</rect></_>
    <_>
      <rect>
        6 9 3 2</rect></_>
    <_>
      <rect>
        6 14 2 2</rect></_>
    <_>
      <rect>
        7 3 4 2</rect></_>
    <_>
      <rect>
        7 7 2 2</rect></_>
    <_>
      <rect>
        7 7 2 3</rect></_>
    <_>
      <rect>
        7 8 2 2</rect></_>
    <_>
      <rect>
        7 9 3 2</rect></_>
    <_>
      <rect>
        7 10 3 2</rect></_>
    <_>
      <rect>
        7 12 2 1</rect></_>
    <_>
      <rect>
        9 5 1 1</rect></_>
    <_>
      <rect>
        10 8 1 1</rect></_>
    <_>
      <rect>
        10 9 1 2</rect></_>
    <_>
      <rect>
        10 9 2 3</rect></_>
    <_>
      <rect>
        11 9 1 2</rect></_>
    <_>
      <rect>
        13 7 2 1</rect></_>
    <_>
      <rect>
        14 4 2 3</rect></_>
    <_>
      <rect>
        14 13 2 2</rect></_>
    <_>
      <rect>
        16 8 1 4</rect></_>
    <_>
      <rect>
        17 2 1 3</rect></_>
    <_>
      <rect>
        17 11 1 3</rect></_></features></cascade>
</opencv_storage>
