<?xml version="1.0"?>
<opencv_storage>
<cascade>
  <stageType>BOOST</stageType>
  <featureType>LBP</featureType>
  <height>20</height>
  <width>20</width>
  <stageParams>
    <boostType>GAB</boostType>
    <minHitRate>9.9900001287460327e-01</minHitRate>
    <maxFalseAlarm>5.0000000000000000e-01</maxFalseAlarm>
    <weightTrimRate>9.4999999999999996e-01</weightTrimRate>
    <maxDepth>1</maxDepth>
    <maxWeakCount>100</maxWeakCount></stageParams>
  <featureParams>
    <maxCatCount>256</maxCatCount>
    <featSize>1</featSize></featureParams>
  <stageNum>20</stageNum>
  <stages>
    <!-- stage 0 -->
    <_>
      <maxWeakCount>6</maxWeakCount>
      <stageThreshold>-2.2244203090667725e+00</stageThreshold>
      <weakClassifiers>
        <_>
          <internalNodes>
            0 -1 91 -2031634 -17 -983041 -1 -8126469 -5 -5242881
            -1048577</internalNodes>
          <leafValues>
            -8.2851755619049072e-01 5.7803374528884888e-01</leafValues></_>
        <_>
          <internalNodes>
            0 -1 251 -683 -838992387 -1 150994431 -3 -33685505 -1
            16776703</internalNodes>
          <leafValues>
            -7.8257346153259277e-01 4.8477452993392944e-01</leafValues></_>
        <_>
          <internalNodes>
            0 -1 60 -352649345 -81985 2147482559 -65537 624901911
            1040154495 935296849 2147448695</internalNodes>
          <leafValues>
            -7.1911346912384033e-01 4.9692010879516602e-01</leafValues></_>
        <_>
          <internalNodes>
            0 -1 29 804204462 -557073 -65794 -2 2131720143 932151086
            -134217729 2004187125</internalNodes>
          <leafValues>
            -8.4481978416442871e-01 3.5994949936866760e-01</leafValues></_>
        <_>
          <internalNodes>
            0 -1 54 931096439 2122315775 872350458 -201342978 794783743
            2147450879 1073690556 2147123196</internalNodes>
          <leafValues>
            -6.6020780801773071e-01 4.3976873159408569e-01</leafValues></_>
        <_>
          <internalNodes>
            0 -1 12 1323755335 -1048713 -2049 -16777217 122617799
            -536871089 390853973 1742689655</internalNodes>
          <leafValues>
            -7.0519828796386719e-01 4.1384133696556091e-01</leafValues></_></weakClassifiers></_>
    <!-- stage 1 -->
    <_>
      <maxWeakCount>7</maxWeakCount>
      <stageThreshold>-1.5719105005264282e+00</stageThreshold>
      <weakClassifiers>
        <_>
          <internalNodes>
            0 -1 192 -5111819 -524331 -33 -524475 -196641 -1 -16973985
            -17498299</internalNodes>
          <leafValues>
            -7.6931035518646240e-01 4.5687499642372131e-01</leafValues></_>
        <_>
          <internalNodes>
            0 -1 144 -49349 -134512837 -1 -88145985 -1 -71696453 -1
            269025211</internalNodes>
          <leafValues>
            -7.6664167642593384e-01 4.0067678689956665e-01</leafValues></_>
        <_>
          <internalNodes>
            0 -1 219 -1107296257 482327295 -1 -9 738197247 201326591
            1006501876 989724668</internalNodes>
          <leafValues>
            -7.2144293785095215e-01 4.4328469038009644e-01</leafValues></_>
        <_>
          <internalNodes>
            0 -1 19 804761591 -274464769 -13 -1 1199533943 -805568513
            1409242615 -559627</internalNodes>
          <leafValues>
            -5.5709981918334961e-01 5.6083220243453979e-01</leafValues></_>
        <_>
          <internalNodes>
            0 -1 66 800010158 -134480389 -33588630 -134301705 -5246993
            -13668497 -83886347 1977745397</internalNodes>
          <leafValues>
            -7.4683445692062378e-01 3.9849430322647095e-01</leafValues></_>
        <_>
          <internalNodes>
            0 -1 72 -538017921 1862141295 -9478153 1056585726 2004834165
            796882799 2013214037 2143223550</internalNodes>
          <leafValues>
            -6.5767067670822144e-01 4.0967455506324768e-01</leafValues></_>
        <_>
          <internalNodes>
            0 -1 208 -536871631 298966935 -69206027 822018047 -163
            -1124073481 -11 -1330069507</internalNodes>
          <leafValues>
            -5.5057048797607422e-01 4.6181216835975647e-01</leafValues></_></weakClassifiers></_>
    <!-- stage 2 -->
    <_>
      <maxWeakCount>9</maxWeakCount>
      <stageThreshold>-1.9632947444915771e+00</stageThreshold>
      <weakClassifiers>
        <_>
          <internalNodes>
            0 -1 51 -32769 -1 1073165042 -32966 -32769 -32777 2147448831
            -98444</internalNodes>
          <leafValues>
            -7.5522768497467041e-01 3.3697685599327087e-01</leafValues></_>
        <_>
          <internalNodes>
            0 -1 2 -285278209 -285278345 -536872961 -9 -473956489
            -268436481 -138414219 1937733495</internalNodes>
          <leafValues>
            -6.7624878883361816e-01 4.1238647699356079e-01</leafValues></_>
        <_>
          <internalNodes>
            0 -1 25 250540031 -1344012289 -1 -1 266293247 -1 2013222911
            2146924021</internalNodes>
          <leafValues>
            -6.6231971979141235e-01 4.2718899250030518e-01</leafValues></_>
        <_>
          <internalNodes>
            0 -1 279 -33555971 803198975 -1 -1342242817 -131587
            1023279101 -8397323 218062333</internalNodes>
          <leafValues>
            -6.9315576553344727e-01 3.8952717185020447e-01</leafValues></_>
        <_>
          <internalNodes>
            0 -1 86 1073557295 1048542911 -131073 -1090715715 -1
            -1379565697 -131073 8400861</internalNodes>
          <leafValues>
            -6.9455993175506592e-01 3.4745585918426514e-01</leafValues></_>
        <_>
          <internalNodes>
            0 -1 40 -269815809 -422643742 -134283266 -151060614
            2000814079 1934098279 1983346687 -143163530</internalNodes>
          <leafValues>
            -5.5142593383789063e-01 4.2813882231712341e-01</leafValues></_>
        <_>
          <internalNodes>
            0 -1 186 897586673 -269000863 -9 -165899 -1078198273
            -1048835 -1074856076 1066933688</internalNodes>
          <leafValues>
            -6.9013607501983643e-01 3.1106129288673401e-01</leafValues></_>
        <_>
          <internalNodes>
            0 -1 242 -285212905 502775679 -68157441 855564031 -187
            1430255487 -44 -1329668161</internalNodes>
          <leafValues>
            -5.8346605300903320e-01 3.6947828531265259e-01</leafValues></_>
        <_>
          <internalNodes>
            0 -1 101 1660897151 -49162 922362618 729431742 -412127362
            930578300 -67162244 1852981118</internalNodes>
          <leafValues>
            -6.4157646894454956e-01 3.2805317640304565e-01</leafValues></_></weakClassifiers></_>
    <!-- stage 3 -->
    <_>
      <maxWeakCount>9</maxWeakCount>
      <stageThreshold>-2.1181135177612305e+00</stageThreshold>
      <weakClassifiers>
        <_>
          <internalNodes>
            0 -1 34 -16777217 -285278209 -1 -285212673 2004877175
            1933311855 2013263733 -134219777</internalNodes>
          <leafValues>
            -7.0566427707672119e-01 3.4135290980339050e-01</leafValues></_>
        <_>
          <internalNodes>
            0 -1 156 -1 -2057 -1073803010 -32779 266861567 -1 1006569724
            2146729973</internalNodes>
          <leafValues>
            -7.2520178556442261e-01 3.2460233569145203e-01</leafValues></_>
        <_>
          <internalNodes>
            0 -1 252 -235 1979187061 -67108865 -520650881 -7 -604110849
            -262145 3932159</internalNodes>
          <leafValues>
            -6.0908079147338867e-01 3.6988881230354309e-01</leafValues></_>
        <_>
          <internalNodes>
            0 -1 6 267882485 -68026377 -8391683 -527152 -4763657
            -9043971 2147448821 2146784597</internalNodes>
          <leafValues>
            -5.7346832752227783e-01 4.0583413839340210e-01</leafValues></_>
        <_>
          <internalNodes>
            0 -1 41 804253678 -301990929 -327954 -589825 2122006527
            1802190415 -16777217 1979186039</internalNodes>
          <leafValues>
            -7.8282463550567627e-01 2.7941802144050598e-01</leafValues></_>
        <_>
          <internalNodes>
            0 -1 130 2137079728 2147434480 -9338884 -16826564 2138127035
            -16449 2071330815 2138341361</internalNodes>
          <leafValues>
            -7.6132518053054810e-01 2.3757240176200867e-01</leafValues></_>
        <_>
          <internalNodes>
            0 -1 287 -25166539 -1912758275 -35670018 -2063663622 -525351
            -1107362049 -524364 83811830</internalNodes>
          <leafValues>
            -6.4525228738784790e-01 2.9651004076004028e-01</leafValues></_>
        <_>
          <internalNodes>
            0 -1 43 -1409 -352428709 -570 -58998913 2105535351
            1971011199 2004304688 -150994945</internalNodes>
          <leafValues>
            -4.5512217283248901e-01 4.5085006952285767e-01</leafValues></_>
        <_>
          <internalNodes>
            0 -1 212 -1078919692 -9044619 -67141635 -133291 -608501762
            -1073775617 1069037919 804271988</internalNodes>
          <leafValues>
            -7.5661027431488037e-01 2.4101358652114868e-01</leafValues></_></weakClassifiers></_>
    <!-- stage 4 -->
    <_>
      <maxWeakCount>10</maxWeakCount>
      <stageThreshold>-1.8882118463516235e+00</stageThreshold>
      <weakClassifiers>
        <_>
          <internalNodes>
            0 -1 17 -286265361 -1 -1 -3073 1439629311 -137363457
            1465120767 2004875263</internalNodes>
          <leafValues>
            -7.6750278472900391e-01 2.0054502785205841e-01</leafValues></_>
        <_>
          <internalNodes>
            0 -1 76 -269484033 -487653394 -24 -152764446 1474002943
            1195638215 2013214719 -134217741</internalNodes>
          <leafValues>
            -6.7083799839019775e-01 3.0872949957847595e-01</leafValues></_>
        <_>
          <internalNodes>
            0 -1 256 -33554667 1442183157 -16777233 1090486271 -262659
            -707395651 -269488387 12320751</internalNodes>
          <leafValues>
            -6.8625712394714355e-01 3.1608197093009949e-01</leafValues></_>
        <_>
          <internalNodes>
            0 -1 163 1061158911 259391351 -1 939458046 234618365
            230686715 -1409319172 1002242044</internalNodes>
          <leafValues>
            -6.0129112005233765e-01 3.5981360077857971e-01</leafValues></_>
        <_>
          <internalNodes>
            0 -1 135 -1410465810 -286525714 -17076544 -227682686
            2143281015 -168035329 2147429696 -143130843</internalNodes>
          <leafValues>
            -6.5721213817596436e-01 2.9721558094024658e-01</leafValues></_>
        <_>
          <internalNodes>
            0 -1 9 800041646 -17306625 -235144707 -199171 -1229984787
            -72153087 -335545857 1560637255</internalNodes>
          <leafValues>
            -6.9722568988800049e-01 2.7555179595947266e-01</leafValues></_>
        <_>
          <internalNodes>
            0 -1 218 -120 296876403 -275775491 1441264531 -50331956
            150986591 -64487436 607647602</internalNodes>
          <leafValues>
            -7.3981463909149170e-01 2.3809608817100525e-01</leafValues></_>
        <_>
          <internalNodes>
            0 -1 166 -1365117535 -10767 -100664327 -131619 -1347682821
            -11018 -1381638145 -1425930493</internalNodes>
          <leafValues>
            -5.3244847059249878e-01 3.3445161581039429e-01</leafValues></_>
        <_>
          <internalNodes>
            0 -1 26 -1376849922 2146431983 -134284809 -100688905
            1996838133 -107032839 2143813119 2134341075</internalNodes>
          <leafValues>
            -6.1997902393341064e-01 3.0176433920860291e-01</leafValues></_>
        <_>
          <internalNodes>
            0 -1 179 981423999 -6652929 -1107411234 -338002210
            1073698684 -293896321 -1074119076 -16418187</internalNodes>
          <leafValues>
            -5.0640177726745605e-01 3.5669830441474915e-01</leafValues></_></weakClassifiers></_>
    <!-- stage 5 -->
    <_>
      <maxWeakCount>11</maxWeakCount>
      <stageThreshold>-2.2949836254119873e+00</stageThreshold>
      <weakClassifiers>
        <_>
          <internalNodes>
            0 -1 68 -487587841 -420544530 -33554433 -16777365 2004877183
            1126236031 1945630071 2013263871</internalNodes>
          <leafValues>
            -7.9077064990997314e-01 8.5452802479267120e-02</leafValues></_>
        <_>
          <internalNodes>
            0 -1 213 -33563240 -167813859 -16777227 -2138283 -285278514
            -37814465 -16844812 -1111836684</internalNodes>
          <leafValues>
            -6.5249872207641602e-01 2.7664163708686829e-01</leafValues></_>
        <_>
          <internalNodes>
            0 -1 4 -270274591 -2624001 -1049601 -2099722 -548405305 -101
            1598748127 1476351479</internalNodes>
          <leafValues>
            -5.7056635618209839e-01 3.5183152556419373e-01</leafValues></_>
        <_>
          <internalNodes>
            0 -1 205 -134219888 -575547919 -18433 1442838013 -263249
            -168036361 -1049729 1355542714</internalNodes>
          <leafValues>
            -7.1398943662643433e-01 2.9782128334045410e-01</leafValues></_>
        <_>
          <internalNodes>
            0 -1 162 -759465985 -2131985 1073620734 997862142
            -1073913860 -33041 -1073860868 -49154</internalNodes>
          <leafValues>
            -4.5816302299499512e-01 4.1787588596343994e-01</leafValues></_>
        <_>
          <internalNodes>
            0 -1 18 -51718 -573046785 -839494177 -2163201 2138782643
            -539017413 434631163 -9470149</internalNodes>
          <leafValues>
            -5.2679550647735596e-01 3.4114089608192444e-01</leafValues></_>
        <_>
          <internalNodes>
            0 -1 119 -403742721 -420515857 -25722902 -218398801
            2147478367 41056891 -1218758864 -147062917</internalNodes>
          <leafValues>
            -4.4087314605712891e-01 3.9226254820823669e-01</leafValues></_>
        <_>
          <internalNodes>
            0 -1 168 799086048 -268437837 -1073741825 -536873615
            -1346846785 -268461057 733020141 262735275</internalNodes>
          <leafValues>
            -7.0870286226272583e-01 2.4346317350864410e-01</leafValues></_>
        <_>
          <internalNodes>
            0 -1 73 -236523786 2139043318 804063164 2138980030
            2137374654 2139045686 2144337917 1860927486</internalNodes>
          <leafValues>
            -5.9877413511276245e-01 2.4649316072463989e-01</leafValues></_>
        <_>
          <internalNodes>
            0 -1 22 -16851020 1946038256 -67113742 -1382788 2000647989
            524238719 2000648048 2126148981</internalNodes>
          <leafValues>
            -6.9342076778411865e-01 2.4623435735702515e-01</leafValues></_>
        <_>
          <internalNodes>
            0 -1 87 -182518 -251857429 -103415809 -1532070481 -37750785
            -1164939039 -1 134545295</internalNodes>
          <leafValues>
            -6.9339722394943237e-01 2.1221636235713959e-01</leafValues></_></weakClassifiers></_>
    <!-- stage 6 -->
    <_>
      <maxWeakCount>12</maxWeakCount>
      <stageThreshold>-2.1566677093505859e+00</stageThreshold>
      <weakClassifiers>
        <_>
          <internalNodes>
            0 -1 71 -218103809 -487694482 -17921 -25198737 2004877183
            1110605695 1937241335 2004877311</internalNodes>
          <leafValues>
            -7.7084809541702271e-01 5.5170968174934387e-02</leafValues></_>
        <_>
          <internalNodes>
            0 -1 191 -1078954767 -43583 -67633169 -524991 -17498369 -1
            -1091244033 -1074462905</internalNodes>
          <leafValues>
            -5.6849682331085205e-01 3.2589191198348999e-01</leafValues></_>
        <_>
          <internalNodes>
            0 -1 23 -269488129 -270204929 -13770821 -3145865 1198489527
            -276889601 1476359639 -559691</internalNodes>
          <leafValues>
            -4.5322975516319275e-01 3.8862308859825134e-01</leafValues></_>
        <_>
          <internalNodes>
            0 -1 267 -1342177285 330743227 -168304801 -1682189365
            268435447 268435455 -1157759748 788529148</internalNodes>
          <leafValues>
            -5.4430770874023438e-01 3.5825708508491516e-01</leafValues></_>
        <_>
          <internalNodes>
            0 -1 47 -1122561 -202640670 -738773298 -218663326 2136473599
            2000781142 2079799295 -159940741</internalNodes>
          <leafValues>
            -4.9029195308685303e-01 3.3108094334602356e-01</leafValues></_>
        <_>
          <internalNodes>
            0 -1 188 530583792 -274632719 -537002029 -2793517
            -1342898465 -2409254 -1073954945 462429693</internalNodes>
          <leafValues>
            -7.1103733777999878e-01 2.2714048624038696e-01</leafValues></_>
        <_>
          <internalNodes>
            0 -1 202 -168283073 -588843553 -84156706 -1325740293
            -21660289 -121741954 -838 941293503</internalNodes>
          <leafValues>
            -5.5941784381866455e-01 2.5992283225059509e-01</leafValues></_>
        <_>
          <internalNodes>
            0 -1 151 -33604336 -778839808 -287365133 1375728947
            -54526306 -1990468454 1804291941 62619631</internalNodes>
          <leafValues>
            -7.1938270330429077e-01 1.9085822999477386e-01</leafValues></_>
        <_>
          <internalNodes>
            0 -1 98 -489686202 -496337554 -201370708 1920941600
            1178842973 1081244527 1903654817 1375729522</internalNodes>
          <leafValues>
            -6.7873513698577881e-01 2.1037872135639191e-01</leafValues></_>
        <_>
          <internalNodes>
            0 -1 123 2009027707 -16875653 -1073856786 880426991
            2109439608 930250363 -67158532 -76333057</internalNodes>
          <leafValues>
            -4.6258479356765747e-01 3.0415982007980347e-01</leafValues></_>
        <_>
          <internalNodes>
            0 -1 10 -1079039254 -101974281 -1224746241 -268566545
            -47186006 -105168856 -357564502 1912828416</internalNodes>
          <leafValues>
            -7.3702728748321533e-01 2.0561550557613373e-01</leafValues></_>
        <_>
          <internalNodes>
            0 -1 264 -33576684 -1917479548 -343162945 -1732686466
            -1342459907 226490235 964148600 82836462</internalNodes>
          <leafValues>
            -6.2825834751129150e-01 2.1507386863231659e-01</leafValues></_></weakClassifiers></_>
    <!-- stage 7 -->
    <_>
      <maxWeakCount>12</maxWeakCount>
      <stageThreshold>-2.0033700466156006e+00</stageThreshold>
      <weakClassifiers>
        <_>
          <internalNodes>
            0 -1 111 -487587858 -487587858 -25 -218104352 116391935
            1206646495 1409284095 -134236161</internalNodes>
          <leafValues>
            -7.3367589712142944e-01 9.8637096583843231e-02</leafValues></_>
        <_>
          <internalNodes>
            0 -1 136 -1081362 -286261266 -1092653472 -218153362 -8389793
            -135005185 -1342752000 -134267085</internalNodes>
          <leafValues>
            -6.5784347057342529e-01 2.4158401787281036e-01</leafValues></_>
        <_>
          <internalNodes>
            0 -1 170 -1080012576 -5285950 -571113477 -32955 -1090724129
            -17989 -1124271361 -1074461465</internalNodes>
          <leafValues>
            -6.1584901809692383e-01 2.5906425714492798e-01</leafValues></_>
        <_>
          <internalNodes>
            0 -1 259 -134217963 100137587 -17826051 544997247
            -1074796555 -436737066 -278921235 817561583</internalNodes>
          <leafValues>
            -5.9481328725814819e-01 2.8855836391448975e-01</leafValues></_>
        <_>
          <internalNodes>
            0 -1 53 1988061183 -67403818 2146841590 -151044098
            2122315775 2147448355 2147447807 -4292802</internalNodes>
          <leafValues>
            -4.4583573937416077e-01 3.6033913493156433e-01</leafValues></_>
        <_>
          <internalNodes>
            0 -1 5 -823204404 -33557645 -3 -2099265 1430978474
            -1614808072 -2129471521 1968141607</internalNodes>
          <leafValues>
            -6.4926660060882568e-01 2.4819271266460419e-01</leafValues></_>
        <_>
          <internalNodes>
            0 -1 234 -20719 389242239 -536879120 861871063 -68158644
            763297151 -17040396 -1800470529</internalNodes>
          <leafValues>
            -5.1590096950531006e-01 2.6078492403030396e-01</leafValues></_>
        <_>
          <internalNodes>
            0 -1 262 -303040164 -2055217153 -1078218819 16738751
            -570426627 -1912619523 1031798760 422313951</internalNodes>
          <leafValues>
            -5.9726905822753906e-01 2.3233686387538910e-01</leafValues></_>
        <_>
          <internalNodes>
            0 -1 50 -157858050 -151093250 1509900206 -226542025
            2002711391 2004049754 868613947 -143163521</internalNodes>
          <leafValues>
            -4.2975744605064392e-01 3.2695126533508301e-01</leafValues></_>
        <_>
          <internalNodes>
            0 -1 147 2141280480 -80257579 -541069353 -537395243
            -1620189697 -72648453 -1612057361 -352126070</internalNodes>
          <leafValues>
            -5.8253991603851318e-01 2.3248837888240814e-01</leafValues></_>
        <_>
          <internalNodes>
            0 -1 16 -278671517 1336129535 -551621648 -33038728
            1262434167 -880936967 1610438133 -1739276</internalNodes>
          <leafValues>
            -4.5887327194213867e-01 2.9574292898178101e-01</leafValues></_>
        <_>
          <internalNodes>
            0 -1 63 804155386 988475818 -7015809 -88413706 1326403573
            -272016399 2013231101 2138534133</internalNodes>
          <leafValues>
            -6.0131585597991943e-01 2.3304791748523712e-01</leafValues></_></weakClassifiers></_>
    <!-- stage 8 -->
    <_>
      <maxWeakCount>13</maxWeakCount>
      <stageThreshold>-2.3027579784393311e+00</stageThreshold>
      <weakClassifiers>
        <_>
          <internalNodes>
            0 -1 99 -134217729 863969663 -1048496676 867842974 -12590097
            840569707 1789656047 2147483647</internalNodes>
          <leafValues>
            -7.0659881830215454e-01 2.5350099802017212e-01</leafValues></_>
        <_>
          <internalNodes>
            0 -1 24 -487591954 -771769942 -1073933423 -42998 1396964266
            1409759499 2002252767 1971316719</internalNodes>
          <leafValues>
            -5.9417003393173218e-01 2.7115797996520996e-01</leafValues></_>
        <_>
          <internalNodes>
            0 -1 289 -303060483 83798970 -443650370 -2132102198
            -572654344 150926334 -937539 218103807</internalNodes>
          <leafValues>
            -6.4270776510238647e-01 2.6316788792610168e-01</leafValues></_>
        <_>
          <internalNodes>
            0 -1 69 -1118210 1940847078 -101133057 -34578974 1594216191
            881817821 1027602943 2012706811</internalNodes>
          <leafValues>
            -5.6856548786163330e-01 3.0553138256072998e-01</leafValues></_>
        <_>
          <internalNodes>
            0 -1 192 -1180633920 -541757119 -19474102 -4720061
            -1144730930 -352326657 -18547873 -1170984121</internalNodes>
          <leafValues>
            -6.6120165586471558e-01 2.3455548286437988e-01</leafValues></_>
        <_>
          <internalNodes>
            0 -1 89 -167774980 356462847 1493654989 2136996863 -3185921
            970662138 -808976417 1884529194</internalNodes>
          <leafValues>
            -6.4788895845413208e-01 2.2447291016578674e-01</leafValues></_>
        <_>
          <internalNodes>
            0 -1 249 -16826876 -713753051 -1058939106 -794570849
            -27473156 -100482355 -388239652 539225855</internalNodes>
          <leafValues>
            -6.2301349639892578e-01 2.2489625215530396e-01</leafValues></_>
        <_>
          <internalNodes>
            0 -1 84 1794113518 -134220325 1960806859 1610601982
            -494154358 -14181462 705420267 1611642794</internalNodes>
          <leafValues>
            -4.9360287189483643e-01 2.7007269859313965e-01</leafValues></_>
        <_>
          <internalNodes>
            0 -1 159 -1835162 -134756857 -1325906866 -50857023
            -1013230625 -742694214 315432447 -445153417</internalNodes>
          <leafValues>
            -3.8898822665214539e-01 3.5818776488304138e-01</leafValues></_>
        <_>
          <internalNodes>
            0 -1 239 -268437250 167753213 -914153059 267377807
            2127030716 -1108627057 -318159492 2109716726</internalNodes>
          <leafValues>
            -4.4560506939888000e-01 2.8533110022544861e-01</leafValues></_>
        <_>
          <internalNodes>
            0 -1 32 -218108118 -231339877 -7417489 -26340519 1730117124
            523174123 2012172080 1920909077</internalNodes>
          <leafValues>
            -5.4330211877822876e-01 2.4470190703868866e-01</leafValues></_>
        <_>
          <internalNodes>
            0 -1 268 368384287 -1074292907 1440037885 -170001570
            -1982522660 -2131121974 422983160 -620954660</internalNodes>
          <leafValues>
            -4.3737950921058655e-01 2.9974287748336792e-01</leafValues></_>
        <_>
          <internalNodes>
            0 -1 102 612333142 -2107497 899560122 1878228394 -346045459
            1802140161 2079797245 1245343733</internalNodes>
          <leafValues>
            -5.2156072854995728e-01 2.5114494562149048e-01</leafValues></_></weakClassifiers></_>
    <!-- stage 9 -->
    <_>
      <maxWeakCount>15</maxWeakCount>
      <stageThreshold>-2.3095111846923828e+00</stageThreshold>
      <weakClassifiers>
        <_>
          <internalNodes>
            0 -1 120 -704686337 -16875521 -1101119762 846348223
            -34607105 1920364127 -49220 -142606337</internalNodes>
          <leafValues>
            -6.4352154731750488e-01 1.1540029942989349e-01</leafValues></_>
        <_>
          <internalNodes>
            0 -1 214 -3586 -772808203 -679739545 2112875243 -1426067714
            268434687 -117440770 587202294</internalNodes>
          <leafValues>
            -5.6112253665924072e-01 2.5613892078399658e-01</leafValues></_>
        <_>
          <internalNodes>
            0 -1 115 -269552146 -1058578 -571458610 -17727776 119532287
            -973631233 -1242096897 -176867369</internalNodes>
          <leafValues>
            -6.6188794374465942e-01 2.1820507943630219e-01</leafValues></_>
        <_>
          <internalNodes>
            0 -1 13 267825139 -1091503620 928740345 -33558535 2129087477
            -67871491 2145255420 2136233301</internalNodes>
          <leafValues>
            -5.9329646825790405e-01 2.6912930607795715e-01</leafValues></_>
        <_>
          <internalNodes>
            0 -1 255 -69386475 2004262711 1920981757 1880321855
            -537985028 1282816756 -872485891 -131416290</internalNodes>
          <leafValues>
            -4.2015597224235535e-01 3.1134888529777527e-01</leafValues></_>
        <_>
          <internalNodes>
            0 -1 31 -352321694 -285325386 -1158152708 -285278328
            1988054866 51595953 2004305776 1950348131</internalNodes>
          <leafValues>
            -6.6458112001419067e-01 1.9502840936183929e-01</leafValues></_>
        <_>
          <internalNodes>
            0 -1 175 -1417674505 -1615889 1573518539 -673118 1073544907
            -4486665 -1128956849 -185082041</internalNodes>
          <leafValues>
            -3.6278903484344482e-01 3.5664954781532288e-01</leafValues></_>
        <_>
          <internalNodes>
            0 -1 230 -1078960652 -2660587 -1062219313 -1617099
            -1157717266 -204504437 -1074876421 -1083032206</internalNodes>
          <leafValues>
            -5.0111818313598633e-01 2.3556998372077942e-01</leafValues></_>
        <_>
          <internalNodes>
            0 -1 285 -150997449 -406327377 -858034586 -221799698
            -33554833 -51380233 -268435458 -488378385</internalNodes>
          <leafValues>
            -2.8324332833290100e-01 4.5308333635330200e-01</leafValues></_>
        <_>
          <internalNodes>
            0 -1 33 -1343295750 -1116806738 -181267210 -34031124
            1260593151 2141850617 2021651967 2113360127</internalNodes>
          <leafValues>
            -5.9745073318481445e-01 2.1181261539459229e-01</leafValues></_>
        <_>
          <internalNodes>
            0 -1 64 -188176 2013229819 528220344 2147432437 1674457651
            971979667 2004285406 2146202357</internalNodes>
          <leafValues>
            -6.7898702621459961e-01 1.7129151523113251e-01</leafValues></_>
        <_>
          <internalNodes>
            0 -1 52 -956858817 1474255213 -1269950534 1902542719 1014830
            2055174197 -95180873 2071936447</internalNodes>
          <leafValues>
            -4.6846356987953186e-01 2.5256228446960449e-01</leafValues></_>
        <_>
          <internalNodes>
            0 -1 194 -5212230 -7908762 -224470258 2059041623 200560844
            -339919109 1056472671 -84639913</internalNodes>
          <leafValues>
            -4.4731849431991577e-01 2.8684392571449280e-01</leafValues></_>
        <_>
          <internalNodes>
            0 -1 106 1815031592 -545262625 2012717431 -73410281
            -909246641 -173556534 -1953500185 9421195</internalNodes>
          <leafValues>
            -5.0601154565811157e-01 2.1893039345741272e-01</leafValues></_>
        <_>
          <internalNodes>
            0 -1 97 -1351685249 -270079540 908654558 -169415806
            1262440447 63404625 1394307441 -34377615</internalNodes>
          <leafValues>
            -4.5236918330192566e-01 2.5289145112037659e-01</leafValues></_></weakClassifiers></_>
    <!-- stage 10 -->
    <_>
      <maxWeakCount>15</maxWeakCount>
      <stageThreshold>-2.2511553764343262e+00</stageThreshold>
      <weakClassifiers>
        <_>
          <internalNodes>
            0 -1 220 -917505 -76168201 -939066369 -2104329 1006563807
            -71307521 -1090584705 -17549705</internalNodes>
          <leafValues>
            -6.4180213212966919e-01 1.2563925981521606e-01</leafValues></_>
        <_>
          <internalNodes>
            0 -1 161 -201367586 -145000579 1071005438 1006255103
            871329788 -540313617 -1140969476 -32795</internalNodes>
          <leafValues>
            -5.0536894798278809e-01 2.6277250051498413e-01</leafValues></_>
        <_>
          <internalNodes>
            0 -1 172 -1079938879 -10299 -604636605 -35134 -1426806017
            -1426085697 -1125862689 -1393215673</internalNodes>
          <leafValues>
            -4.2974883317947388e-01 3.2011809945106506e-01</leafValues></_>
        <_>
          <internalNodes>
            0 -1 248 2147467181 -8388745 -1 -17434305 -65537 -65538
            -17170433 -266160621</internalNodes>
          <leafValues>
            -3.5459604859352112e-01 3.9355906844139099e-01</leafValues></_>
        <_>
          <internalNodes>
            0 -1 105 536098229 1383917053 2130181116 -67308547 733346805
            -67878915 1006436348 251921884</internalNodes>
          <leafValues>
            -6.2859624624252319e-01 2.3575635254383087e-01</leafValues></_>
        <_>
          <internalNodes>
            0 -1 67 -16386 -100839171 284950596 1977464311 -23068689
            -13369688 -527107841 1799184309</internalNodes>
          <leafValues>
            -5.6661182641983032e-01 2.1351425349712372e-01</leafValues></_>
        <_>
          <internalNodes>
            0 -1 117 -1347437722 -353438994 -41134880 -227863038
            1201367007 1207636159 2007184176 -138947727</internalNodes>
          <leafValues>
            -5.8638066053390503e-01 2.1810019016265869e-01</leafValues></_>
        <_>
          <internalNodes>
            0 -1 200 168187647 1056327443 -1512440065 307996887
            1071985661 -269524993 -1426191617 -1074832801</internalNodes>
          <leafValues>
            -3.6888787150382996e-01 3.3405822515487671e-01</leafValues></_>
        <_>
          <internalNodes>
            0 -1 116 -540747300 -615000122 1030822478 -180824
            -2094268506 1778633131 825235663 1886666501</internalNodes>
          <leafValues>
            -7.0125305652618408e-01 1.6480652987957001e-01</leafValues></_>
        <_>
          <internalNodes>
            0 -1 62 -218220836 1937377322 -312508021 -539082986
            2012952912 398393915 2013221733 2029941583</internalNodes>
          <leafValues>
            -6.6186755895614624e-01 1.6353578865528107e-01</leafValues></_>
        <_>
          <internalNodes>
            0 -1 281 -286281931 96970359 -414462226 -1594642754
            -1313088771 78310819 759157228 -1598833941</internalNodes>
          <leafValues>
            -4.0068191289901733e-01 2.7493992447853088e-01</leafValues></_>
        <_>
          <internalNodes>
            0 -1 92 1073687646 836262365 -1818386959 -1109405209
            -603982081 -97816974 -890634241 462412287</internalNodes>
          <leafValues>
            -4.7479727864265442e-01 2.4289259314537048e-01</leafValues></_>
        <_>
          <internalNodes>
            0 -1 286 -276911500 -1376475204 -416521290 -1459835022
            -71963964 -61556038 -3149836 13169910</internalNodes>
          <leafValues>
            -6.8885421752929688e-01 1.6894204914569855e-01</leafValues></_>
        <_>
          <internalNodes>
            0 -1 197 902132575 -17141281 -161547026 -269454337
            1062081037 -910990553 184491228 -164402413</internalNodes>
          <leafValues>
            -4.2414671182632446e-01 2.5525307655334473e-01</leafValues></_>
        <_>
          <internalNodes>
            0 -1 45 -420493106 -204582166 -1084284242 -159416462
            1464586222 2001764170 1967604443 -147375245</internalNodes>
          <leafValues>
            -4.0458858013153076e-01 2.6771530508995056e-01</leafValues></_></weakClassifiers></_>
    <!-- stage 11 -->
    <_>
      <maxWeakCount>15</maxWeakCount>
      <stageThreshold>-1.9928151369094849e+00</stageThreshold>
      <weakClassifiers>
        <_>
          <internalNodes>
            0 -1 185 -6160927 -269091329 -805315585 -917505 -5505025
            -320865537 -5505537 -6162437</internalNodes>
          <leafValues>
            -6.5863978862762451e-01 6.6501550376415253e-02</leafValues></_>
        <_>
          <internalNodes>
            0 -1 224 1073708031 -80511105 -271058977 -10854401 469464573
            -50180 264199423 -78433441</internalNodes>
          <leafValues>
            -4.0612250566482544e-01 3.4565773606300354e-01</leafValues></_>
        <_>
          <internalNodes>
            0 -1 190 464539888 -1747647 -34078985 -537428155 -1141448994
            -269238530 -1090720001 800332887</internalNodes>
          <leafValues>
            -6.7484968900680542e-01 1.8494980037212372e-01</leafValues></_>
        <_>
          <internalNodes>
            0 -1 178 -1180666642 -5767702 -734922554 -118227232
            -1678427313 -100715265 -84542369 -185207977</internalNodes>
          <leafValues>
            -4.6226102113723755e-01 2.7369055151939392e-01</leafValues></_>
        <_>
          <internalNodes>
            0 -1 204 -57584 -718211695 -12289 -706226727 -551552017
            -1111232601 -337642625 11787441</internalNodes>
          <leafValues>
            -7.0384877920150757e-01 1.8400119245052338e-01</leafValues></_>
        <_>
          <internalNodes>
            0 -1 114 -16842850 998119423 -950598180 931020734 860417983
            1006517783 2092900028 -4227074</internalNodes>
          <leafValues>
            -4.4264197349548340e-01 2.5545233488082886e-01</leafValues></_>
        <_>
          <internalNodes>
            0 -1 21 1799876607 1001455547 -1625489487 -17303352
            521096997 -75620353 2010019669 2136437877</internalNodes>
          <leafValues>
            -5.4952841997146606e-01 2.0358553528785706e-01</leafValues></_>
        <_>
          <internalNodes>
            0 -1 276 -25057 1575997295 -539185185 1082115679 -1417725065
            1207398270 -67174924 -232359169</internalNodes>
          <leafValues>
            -4.1736808419227600e-01 2.6313513517379761e-01</leafValues></_>
        <_>
          <internalNodes>
            0 -1 232 -5187076 -1082104957 -1581797385 -71441851
            502988030 -1130447889 771634942 -1078183118</internalNodes>
          <leafValues>
            -4.7065365314483643e-01 2.4626894295215607e-01</leafValues></_>
        <_>
          <internalNodes>
            0 -1 11 -889295076 -16980362 -834144516 -790077 -204212876
            2128592625 1673254768 1988065138</internalNodes>
          <leafValues>
            -5.9159904718399048e-01 1.5780653059482574e-01</leafValues></_>
        <_>
          <internalNodes>
            0 -1 113 -491786460 1651171302 -204141344 1887387168
            1129892319 69376399 1402808252 1442149218</internalNodes>
          <leafValues>
            -6.3573998212814331e-01 1.5311513841152191e-01</leafValues></_>
        <_>
          <internalNodes>
            0 -1 245 1069707773 173045646 2035769343 -229389 266696693
            -1963231557 -1938350081 -1447290880</internalNodes>
          <leafValues>
            -4.0497636795043945e-01 2.4708129465579987e-01</leafValues></_>
        <_>
          <internalNodes>
            0 -1 265 -1644194532 -2019071207 -284951555 -1599400625
            234355197 234830839 771728636 766984120</internalNodes>
          <leafValues>
            -4.8850110173225403e-01 2.1217902004718781e-01</leafValues></_>
        <_>
          <internalNodes>
            0 -1 260 -536941044 734779910 -828843554 541314255
            -146034826 1723203651 -815268875 -1597010018</internalNodes>
          <leafValues>
            -4.8948109149932861e-01 2.1072153747081757e-01</leafValues></_>
        <_>
          <internalNodes>
            0 -1 74 -68747274 -202230062 1548883678 -210551864 -82444354
            859790258 707997695 -261079105</internalNodes>
          <leafValues>
            -5.2012860774993896e-01 1.7425958812236786e-01</leafValues></_></weakClassifiers></_>
    <!-- stage 12 -->
    <_>
      <maxWeakCount>20</maxWeakCount>
      <stageThreshold>-2.2428028583526611e+00</stageThreshold>
      <weakClassifiers>
        <_>
          <internalNodes>
            0 -1 182 -6031889 -1058307 -825237537 -134229505 -5505281
            -838871585 -74715745 -1565272581</internalNodes>
          <leafValues>
            -5.2469086647033691e-01 1.9036744534969330e-01</leafValues></_>
        <_>
          <internalNodes>
            0 -1 15 -201392141 -7405769 -36202 -24199201 859782997
            799276927 2003777141 2130673519</internalNodes>
          <leafValues>
            -5.8971822261810303e-01 1.8314322829246521e-01</leafValues></_>
        <_>
          <internalNodes>
            0 -1 206 363861208 -172551 -268435467 -268665867 -2319137
            -270173697 -1144078609 1069026783</internalNodes>
          <leafValues>
            -5.9817945957183838e-01 1.9221079349517822e-01</leafValues></_>
        <_>
          <internalNodes>
            0 -1 96 -487587858 -479306770 929021826 -218138808
            1466892151 1109453371 1943532423 1442780633</internalNodes>
          <leafValues>
            -5.1319158077239990e-01 2.2332550585269928e-01</leafValues></_>
        <_>
          <internalNodes>
            0 -1 54 561989119 -555888129 872362682 -486539267 776957437
            2079292927 2147431925 2147123092</internalNodes>
          <leafValues>
            -5.2500969171524048e-01 2.1582603454589844e-01</leafValues></_>
        <_>
          <internalNodes>
            0 -1 222 1071218687 1406476759 495353343 -94734107 469661013
            -1342231553 519929695 -15707529</internalNodes>
          <leafValues>
            -4.0979054570198059e-01 2.5361603498458862e-01</leafValues></_>
        <_>
          <internalNodes>
            0 -1 153 -8310304 -553651004 -571354560 -17319872
            -1008346881 -906034453 -1930038785 -1795877803</internalNodes>
          <leafValues>
            -4.9003997445106506e-01 2.0878313481807709e-01</leafValues></_>
        <_>
          <internalNodes>
            0 -1 261 -441471979 1441692507 -297607441 8276703
            -1481657867 1442183998 -544241924 834387967</internalNodes>
          <leafValues>
            -5.3184318542480469e-01 1.8883669376373291e-01</leafValues></_>
        <_>
          <internalNodes>
            0 -1 122 -141730746 -294773270 -1361609078 1916418155
            1530622469 1131690799 468794928 1997232959</internalNodes>
          <leafValues>
            -6.1607754230499268e-01 1.4653408527374268e-01</leafValues></_>
        <_>
          <internalNodes>
            0 -1 125 799223984 -385997315 -220598051 -472063367
            -626599692 -172740101 -72418380 59442203</internalNodes>
          <leafValues>
            -6.0187608003616333e-01 1.5955089032649994e-01</leafValues></_>
        <_>
          <internalNodes>
            0 -1 44 -201327104 -89502625 -552763432 1346057852
            -276996556 2117806906 1473982800 1991744495</internalNodes>
          <leafValues>
            -4.9911415576934814e-01 1.7369645833969116e-01</leafValues></_>
        <_>
          <internalNodes>
            0 -1 150 1979661312 277943296 -841482767 1098808639
            -540254369 -2097099909 -822153481 134807551</internalNodes>
          <leafValues>
            -7.7959609031677246e-01 1.1862058937549591e-01</leafValues></_>
        <_>
          <internalNodes>
            0 -1 104 358973311 586634974 -1493180674 585038590
            -1785465612 805255891 1274953215 469687279</internalNodes>
          <leafValues>
            -3.9793491363525391e-01 2.4426846206188202e-01</leafValues></_>
        <_>
          <internalNodes>
            0 -1 238 -1073965826 -675736066 862533564 -8430662 782172159
            1049509359 -1140900496 2143042216</internalNodes>
          <leafValues>
            -4.6283513307571411e-01 2.1248079836368561e-01</leafValues></_>
        <_>
          <internalNodes>
            0 -1 134 -1109410040 -1116111367 2009023492 -2112073
            733716174 446672507 989460996 620099429</internalNodes>
          <leafValues>
            -6.7190307378768921e-01 1.4423459768295288e-01</leafValues></_>
        <_>
          <internalNodes>
            0 -1 247 -33704323 -522346659 -711057698 -788932613
            -855645958 -557292919 -570819361 -803702753</internalNodes>
          <leafValues>
            -3.1331324577331543e-01 3.0591037869453430e-01</leafValues></_>
        <_>
          <internalNodes>
            0 -1 152 799044080 -1410657824 2113468737 -537192096
            -1414680866 -357627650 -1734017841 898044086</internalNodes>
          <leafValues>
            -5.8136558532714844e-01 1.6271102428436279e-01</leafValues></_>
        <_>
          <internalNodes>
            0 -1 209 -1794028033 -1474561 1877999607 -546099229
            -857893122 -277872769 1546968831 -1171217132</internalNodes>
          <leafValues>
            -2.8820365667343140e-01 3.2632002234458923e-01</leafValues></_>
        <_>
          <internalNodes>
            0 -1 148 2132893424 2003795829 2077392871 1233092605
            56945387 -1163412038 97877676 2104048546</internalNodes>
          <leafValues>
            -6.1086821556091309e-01 1.5417660772800446e-01</leafValues></_>
        <_>
          <internalNodes>
            0 -1 55 -1412626880 -270905473 586165214 -267748569
            1118196000 2121432158 -831764940 1983020991</internalNodes>
          <leafValues>
            -6.3682824373245239e-01 1.3997425138950348e-01</leafValues></_></weakClassifiers></_>
    <!-- stage 13 -->
    <_>
      <maxWeakCount>19</maxWeakCount>
      <stageThreshold>-1.9269070625305176e+00</stageThreshold>
      <weakClassifiers>
        <_>
          <internalNodes>
            0 -1 137 -245368833 -134250497 1006517502 1006256127
            -67108865 2057006762 -1073795075 -278529</internalNodes>
          <leafValues>
            -5.4000645875930786e-01 1.1818825453519821e-01</leafValues></_>
        <_>
          <internalNodes>
            0 -1 12 -286265373 -9701494 -2098246 -5245001 1431240685
            -583811191 353031643 1998550527</internalNodes>
          <leafValues>
            -5.7254391908645630e-01 1.7865315079689026e-01</leafValues></_>
        <_>
          <internalNodes>
            0 -1 215 -1615800072 -134897263 -1901347841 -19928235
            -1143144754 -67137361 1056864127 -1158401452</internalNodes>
          <leafValues>
            -5.7390326261520386e-01 1.7862656712532043e-01</leafValues></_>
        <_>
          <internalNodes>
            0 -1 253 -1442842180 100482301 -1142688833 234805742
            -5506051 503149501 -9175184 100644095</internalNodes>
          <leafValues>
            -7.0708841085433960e-01 1.6683842241764069e-01</leafValues></_>
        <_>
          <internalNodes>
            0 -1 30 -134250498 -89130787 -1875898162 -1613639457
            -616563283 -65552974 -535727425 1816100605</internalNodes>
          <leafValues>
            -4.8281896114349365e-01 1.9657795131206512e-01</leafValues></_>
        <_>
          <internalNodes>
            0 -1 58 -1192220739 -252321025 -1076858403 -17499144
            -1107840015 -1443595275 -4195333 352619485</internalNodes>
          <leafValues>
            -5.3465467691421509e-01 1.8292690813541412e-01</leafValues></_>
        <_>
          <internalNodes>
            0 -1 160 -1797162302 -1070762778 478035080 1994276541
            971914958 1918063615 989608968 -11042987</internalNodes>
          <leafValues>
            -5.0858741998672485e-01 1.8529802560806274e-01</leafValues></_>
        <_>
          <internalNodes>
            0 -1 173 -1652481537 -1347457557 -2754705 -1579038
            -1342379617 -1879471107 -662327553 -185304617</internalNodes>
          <leafValues>
            -2.9998674988746643e-01 3.2270699739456177e-01</leafValues></_>
        <_>
          <internalNodes>
            0 -1 42 -872959102 -361786386 2101251996 -92316805
            2134887170 1400864115 -160454896 -135284801</internalNodes>
          <leafValues>
            -4.3927973508834839e-01 2.0675836503505707e-01</leafValues></_>
        <_>
          <internalNodes>
            0 -1 223 -1619264709 133324026 1574434299 2113896191
            1073741809 260800426 -1401028870 799987708</internalNodes>
          <leafValues>
            -4.3494623899459839e-01 1.9960500299930573e-01</leafValues></_>
        <_>
          <internalNodes>
            0 -1 70 -570821712 -946348052 2143301886 -33743044
            -586991695 151604888 1919048639 1785757669</internalNodes>
          <leafValues>
            -6.1049497127532959e-01 1.5298692882061005e-01</leafValues></_>
        <_>
          <internalNodes>
            0 -1 274 -287334635 1164271399 -429961124 -527192289
            -1175744779 1171151794 1859035116 1613381166</internalNodes>
          <leafValues>
            -5.0206351280212402e-01 1.7641109228134155e-01</leafValues></_>
        <_>
          <internalNodes>
            0 -1 269 -1342483116 -2050601685 1627420117 1838043983
            536280574 -1916912641 503000568 -1648902150</internalNodes>
          <leafValues>
            -3.2226473093032837e-01 2.8305831551551819e-01</leafValues></_>
        <_>
          <internalNodes>
            0 -1 141 673281312 1839198511 -251799585 -101334397
            -1532301144 -20000374 -1467351045 201556739</internalNodes>
          <leafValues>
            -6.5907198190689087e-01 1.3739733397960663e-01</leafValues></_>
        <_>
          <internalNodes>
            0 -1 235 1065039734 242098175 -624271361 -270631210
            480793716 -1915126867 486284542 -3139566</internalNodes>
          <leafValues>
            -4.1541045904159546e-01 2.1264730393886566e-01</leafValues></_>
        <_>
          <internalNodes>
            0 -1 78 -671153964 1807381854 -247114550 2050716971
            -15784925 1446918780 -146378238 2000665535</internalNodes>
          <leafValues>
            -4.5065185427665710e-01 1.8891276419162750e-01</leafValues></_>
        <_>
          <internalNodes>
            0 -1 229 -34662632 363154971 -544281611 1359997789
            -1393614898 88048511 1860887268 -2126857818</internalNodes>
          <leafValues>
            -4.7121131420135498e-01 1.8265792727470398e-01</leafValues></_>
        <_>
          <internalNodes>
            0 -1 297 -159137598 -900767680 1610809348 1099252362
            -1912557438 17825836 1744871451 285544843</internalNodes>
          <leafValues>
            -3.6739698052406311e-01 2.4547097086906433e-01</leafValues></_>
        <_>
          <internalNodes>
            0 -1 88 1068118240 -50402321 -791293601 -1191434133
            -222300952 -13750272 -117574418 453602251</internalNodes>
          <leafValues>
            -5.7804614305496216e-01 1.4073704183101654e-01</leafValues></_></weakClassifiers></_>
    <!-- stage 14 -->
    <_>
      <maxWeakCount>22</maxWeakCount>
      <stageThreshold>-2.0002820491790771e+00</stageThreshold>
      <weakClassifiers>
        <_>
          <internalNodes>
            0 -1 77 -270075393 -1125906 -46211585 -33619970 2144141055
            -73805345 -24157441 -134235137</internalNodes>
          <leafValues>
            -5.4800897836685181e-01 5.5954985320568085e-02</leafValues></_>
        <_>
          <internalNodes>
            0 -1 121 -268340009 1004238199 466768126 863649791
            -260378641 1064794199 -1493221380 2134621183</internalNodes>
          <leafValues>
            -4.2485341429710388e-01 2.3709154129028320e-01</leafValues></_>
        <_>
          <internalNodes>
            0 -1 167 -358482016 -536870923 -488639489 -35684396
            -1347682306 -268443791 1068070383 1864496899</internalNodes>
          <leafValues>
            -5.6057101488113403e-01 1.7357040941715240e-01</leafValues></_>
        <_>
          <internalNodes>
            0 -1 36 -487588873 -135540826 2131879327 -560894 2000940975
            1665300490 937899741 -142641345</internalNodes>
          <leafValues>
            -3.0622497200965881e-01 3.3223873376846313e-01</leafValues></_>
        <_>
          <internalNodes>
            0 -1 287 -344278019 -1912820230 -1350893570 -1528123914
            -136987719 -167993546 -2753603 83556350</internalNodes>
          <leafValues>
            -5.6830257177352905e-01 1.6077733039855957e-01</leafValues></_>
        <_>
          <internalNodes>
            0 -1 189 -1375644399 -109589168 -744680105 -13147371
            -67568717 -104085357 -1694697117 -1141111785</internalNodes>
          <leafValues>
            -4.2481392621994019e-01 2.1567121148109436e-01</leafValues></_>
        <_>
          <internalNodes>
            0 -1 6 267644785 -206504014 -884998181 -1837934 -1073787019
            -79364103 1034884853 2137478484</internalNodes>
          <leafValues>
            -4.9340248107910156e-01 1.7665871977806091e-01</leafValues></_>
        <_>
          <internalNodes>
            0 -1 195 1031873775 -1630880 445110479 -21353017 1002049615
            -1409344705 986250879 -17406089</internalNodes>
          <leafValues>
            -3.4800165891647339e-01 2.6049435138702393e-01</leafValues></_>
        <_>
          <internalNodes>
            0 -1 227 1062754142 668784648 -160890914 -547603362
            535641076 -872841554 266296319 -1363665313</internalNodes>
          <leafValues>
            -3.3569934964179993e-01 2.6414600014686584e-01</leafValues></_>
        <_>
          <internalNodes>
            0 -1 48 -947596034 1937735666 1515599866 -134791366
            -668598306 -143624206 409108155 -562659777</internalNodes>
          <leafValues>
            -3.7145286798477173e-01 2.2750008106231689e-01</leafValues></_>
        <_>
          <internalNodes>
            0 -1 294 -5264590 -1883264086 46959262 -1929446728
            -147148504 1156709799 1968641501 -192941361</internalNodes>
          <leafValues>
            -3.4729364514350891e-01 2.5299701094627380e-01</leafValues></_>
        <_>
          <internalNodes>
            0 -1 254 1608490764 -983565977 -941633538 -797454513
            1808715775 -570630427 -321983748 -81024977</internalNodes>
          <leafValues>
            -3.1826141476631165e-01 2.8429004549980164e-01</leafValues></_>
        <_>
          <internalNodes>
            0 -1 202 -688114126 -924940394 -624161058 -128397345
            1559572063 -42445572 -33743778 270073135</internalNodes>
          <leafValues>
            -5.9098696708679199e-01 1.5432509779930115e-01</leafValues></_>
        <_>
          <internalNodes>
            0 -1 100 -486547635 -488210582 1360418248 1914384170
            1934613365 119685695 1668227076 1475345395</internalNodes>
          <leafValues>
            -4.6432992815971375e-01 1.7833015322685242e-01</leafValues></_>
        <_>
          <internalNodes>
            0 -1 28 791605118 585562588 -279644911 -1078619820
            1326993390 126836166 2012968957 1605857749</internalNodes>
          <leafValues>
            -6.3340765237808228e-01 1.2307565659284592e-01</leafValues></_>
        <_>
          <internalNodes>
            0 -1 191 -1415555858 -1106752 -856831009 2076119617
            -1613964642 -910712657 -1194825138 1072706119</internalNodes>
          <leafValues>
            -4.4392073154449463e-01 1.8110705912113190e-01</leafValues></_>
        <_>
          <internalNodes>
            0 -1 75 2146435006 -1918953900 1045759118 1474124287
            453236974 -1155565333 1956928204 1962200951</internalNodes>
          <leafValues>
            -5.3120619058609009e-01 1.3530321419239044e-01</leafValues></_>
        <_>
          <internalNodes>
            0 -1 165 -450393310 -564380058 1065484956 446618426
            935141236 402546161 936348669 -16497635</internalNodes>
          <leafValues>
            -3.5353866219520569e-01 2.3192282021045685e-01</leafValues></_>
        <_>
          <internalNodes>
            0 -1 145 -377532080 96293372 -812679401 1426029756
            -611587665 -140801863 -810295505 1345478770</internalNodes>
          <leafValues>
            -7.5746196508407593e-01 9.6460148692131042e-02</leafValues></_>
        <_>
          <internalNodes>
            0 -1 1 -486658272 -289474448 1925700070 -3129484 1472377667
            -829628514 129758068 893718900</internalNodes>
          <leafValues>
            -6.6903638839721680e-01 1.1137419193983078e-01</leafValues></_>
        <_>
          <internalNodes>
            0 -1 171 1610574300 -236857249 -875700496 -590673201
            1239566030 -1626683169 1653531367 992651239</internalNodes>
          <leafValues>
            -3.7274309992790222e-01 2.0921920239925385e-01</leafValues></_>
        <_>
          <internalNodes>
            0 -1 180 805795834 -739323825 -1786882322 1934232816
            -1619943355 -23122409 256580045 -97261977</internalNodes>
          <leafValues>
            -3.1225019693374634e-01 2.6178085803985596e-01</leafValues></_></weakClassifiers></_>
    <!-- stage 15 -->
    <_>
      <maxWeakCount>25</maxWeakCount>
      <stageThreshold>-2.1798880100250244e+00</stageThreshold>
      <weakClassifiers>
        <_>
          <internalNodes>
            0 -1 248 -540033057 -212353249 -355605506 -34083873
            -270598929 -1061401 -275969 -215761401</internalNodes>
          <leafValues>
            -5.2908635139465332e-01 8.8106498122215271e-02</leafValues></_>
        <_>
          <internalNodes>
            0 -1 118 -271581202 -353483026 -23117280 -219448766
            1443888639 1193431291 1170158352 -134250505</internalNodes>
          <leafValues>
            -5.7592976093292236e-01 1.5117031335830688e-01</leafValues></_>
        <_>
          <internalNodes>
            0 -1 140 282280030 -536970241 484081390 854732538
            -1325438852 2117281854 -1074840168 2004565499</internalNodes>
          <leafValues>
            -5.1563984155654907e-01 1.6794100403785706e-01</leafValues></_>
        <_>
          <internalNodes>
            0 -1 157 -671091715 -705072719 1737485783 -145275037
            250325244 800848858 -335558412 1945960436</internalNodes>
          <leafValues>
            -4.8930650949478149e-01 2.0829522609710693e-01</leafValues></_>
        <_>
          <internalNodes>
            0 -1 95 804138238 -1108434706 -196022019 -546303778
            187649023 -2035350273 817733053 1186943487</internalNodes>
          <leafValues>
            -5.9612357616424561e-01 1.5024542808532715e-01</leafValues></_>
        <_>
          <internalNodes>
            0 -1 83 -781997278 -1327206401 934161687 1073741303
            -1715534980 -101436289 -1211140283 -724880</internalNodes>
          <leafValues>
            -3.5711142420768738e-01 2.4616852402687073e-01</leafValues></_>
        <_>
          <internalNodes>
            0 -1 210 -1078897327 -603993529 -607432257 -16821657
            -68244725 -377230133 -1157704913 -1074381961</internalNodes>
          <leafValues>
            -3.1344091892242432e-01 2.5428846478462219e-01</leafValues></_>
        <_>
          <internalNodes>
            0 -1 19 1341362163 -310019407 1594487090 -83493140
            1192132467 -815570969 1468937111 -5868043</internalNodes>
          <leafValues>
            -3.8528206944465637e-01 2.1047414839267731e-01</leafValues></_>
        <_>
          <internalNodes>
            0 -1 119 902518126 -403745201 -891986202 1924890347
            1602382894 36715614 864812832 1463251963</internalNodes>
          <leafValues>
            -4.5607006549835205e-01 1.7501734197139740e-01</leafValues></_>
        <_>
          <internalNodes>
            0 -1 181 2769998 -740336933 -1478590754 315762910 861961572
            -276867457 -1075372804 799681243</internalNodes>
          <leafValues>
            -5.1722538471221924e-01 1.3245248794555664e-01</leafValues></_>
        <_>
          <internalNodes>
            0 -1 109 2061860836 1366785534 1599150588 -681618692
            -604848646 -144714440 927325663 2018376588</internalNodes>
          <leafValues>
            -4.6365737915039063e-01 1.7504829168319702e-01</leafValues></_>
        <_>
          <internalNodes>
            0 -1 52 -1068473312 -539013786 1055604670 -672252357 5174276
            1651474033 -333203681 1730574242</internalNodes>
          <leafValues>
            -4.5230862498283386e-01 1.7925606667995453e-01</leafValues></_>
        <_>
          <internalNodes>
            0 -1 240 -824201677 659024718 1591692748 811000926
            -968277424 1338789520 -602153529 943259500</internalNodes>
          <leafValues>
            -4.7345843911170959e-01 1.6074675321578979e-01</leafValues></_>
        <_>
          <internalNodes>
            0 -1 20 -487705110 2046738458 -1076395132 1560070298
            1997475754 879101999 1864883729 1953026797</internalNodes>
          <leafValues>
            -6.0807359218597412e-01 1.1052046716213226e-01</leafValues></_>
        <_>
          <internalNodes>
            0 -1 201 1056464331 -33563137 -1 -637549091 -131077 -81933
            -1 -603267688</internalNodes>
          <leafValues>
            -2.1278886497020721e-01 3.6428511142730713e-01</leafValues></_>
        <_>
          <internalNodes>
            0 -1 292 -1434456538 55556814 1801121356 -1057488934
            706666694 1155918444 1983017045 1618737014</internalNodes>
          <leafValues>
            -4.5278578996658325e-01 1.6954955458641052e-01</leafValues></_>
        <_>
          <internalNodes>
            0 -1 228 -1078962700 -73064203 -1142677041 -1611555
            -69452822 -355971000 -1142277165 -1163783836</internalNodes>
          <leafValues>
            -4.7423267364501953e-01 1.6682752966880798e-01</leafValues></_>
        <_>
          <internalNodes>
            0 -1 266 -1925479152 487964754 -1849432120 -1059954597
            503306687 242211743 427653628 2104833520</internalNodes>
          <leafValues>
            -4.6575456857681274e-01 1.6244965791702271e-01</leafValues></_>
        <_>
          <internalNodes>
            0 -1 271 878343474 642732186 1465865695 13037004 -2047492624
            218087357 -1640628386 635232668</internalNodes>
          <leafValues>
            -5.4223734140396118e-01 1.1648423969745636e-01</leafValues></_>
        <_>
          <internalNodes>
            0 -1 90 -1245760472 -1279609620 32882940 -290938709
            1905718511 -1425523386 -538054403 179336891</internalNodes>
          <leafValues>
            -5.8749097585678101e-01 1.3475376367568970e-01</leafValues></_>
        <_>
          <internalNodes>
            0 -1 246 -720674680 1914635456 890438619 1896812035
            -1207390070 526356617 931369887 -150223410</internalNodes>
          <leafValues>
            -2.4634850025177002e-01 3.1661343574523926e-01</leafValues></_>
        <_>
          <internalNodes>
            0 -1 142 2141262272 -830472707 1089454679 -729813517
            1922025954 -536912677 -1870046518 -16551296</internalNodes>
          <leafValues>
            -5.1065540313720703e-01 1.5413214266300201e-01</leafValues></_>
        <_>
          <internalNodes>
            0 -1 193 392171754 -1951677751 -703227793 2129562080
            -1141703602 -1413592179 -2007576865 -1225370809</internalNodes>
          <leafValues>
            -3.2141166925430298e-01 2.4167276918888092e-01</leafValues></_>
        <_>
          <internalNodes>
            0 -1 299 -3149688 -452129202 1114561056 1836026211
            -1077347926 9585969 -771697397 -754752597</internalNodes>
          <leafValues>
            -2.4099275469779968e-01 3.3208739757537842e-01</leafValues></_>
        <_>
          <internalNodes>
            0 -1 27 -1030755826 -421867452 -568989008 -294739774
            2004545348 33622734 1944807201 1981756972</internalNodes>
          <leafValues>
            -5.5654454231262207e-01 1.5379589796066284e-01</leafValues></_></weakClassifiers></_>
    <!-- stage 16 -->
    <_>
      <maxWeakCount>24</maxWeakCount>
      <stageThreshold>-1.8812881708145142e+00</stageThreshold>
      <weakClassifiers>
        <_>
          <internalNodes>
            0 -1 183 -134619653 -268448257 -1525682177 -537930539
            -1445990485 -269493765 -814747653 -541336134</internalNodes>
          <leafValues>
            -5.1023221015930176e-01 1.3264687359333038e-01</leafValues></_>
        <_>
          <internalNodes>
            0 -1 174 -1079905821 -654322489 199858378 -17597 -1946903889
            -876895489 -1124803121 -706233</internalNodes>
          <leafValues>
            -3.8387623429298401e-01 2.6225394010543823e-01</leafValues></_>
        <_>
          <internalNodes>
            0 -1 277 -419449580 100099639 -275789123 1073969951
            233566717 94463537 -1112801796 825442106</internalNodes>
          <leafValues>
            -5.3198987245559692e-01 1.6449595987796783e-01</leafValues></_>
        <_>
          <internalNodes>
            0 -1 39 -957952001 720295146 -182543013 -251735982
            1191464957 54606837 1973121439 -134225609</internalNodes>
          <leafValues>
            -4.6482732892036438e-01 2.0014189183712006e-01</leafValues></_>
        <_>
          <internalNodes>
            0 -1 216 -1146028045 1073961847 1439793085 1451716785
            523030204 -1365540929 989514494 989609983</internalNodes>
          <leafValues>
            -4.2923691868782043e-01 1.8344131112098694e-01</leafValues></_>
        <_>
          <internalNodes>
            0 -1 226 -1748017925 -1007790087 -208446498 -8749090
            524252532 -805477345 489299229 -15518189</internalNodes>
          <leafValues>
            -3.1604456901550293e-01 2.6993778347969055e-01</leafValues></_>
        <_>
          <internalNodes>
            0 -1 237 1977531708 -126954492 -974863876 -801770017
            -695426819 -270788276 -33974017 -1323681249</internalNodes>
          <leafValues>
            -3.3548897504806519e-01 2.3616957664489746e-01</leafValues></_>
        <_>
          <internalNodes>
            0 -1 283 -1075054116 115798362 -481691368 965443726
            536862205 -1381347175 1073683965 -43780</internalNodes>
          <leafValues>
            -3.1077247858047485e-01 2.6590159535408020e-01</leafValues></_>
        <_>
          <internalNodes>
            0 -1 128 -1755920 -41986603 2147288308 -111182572 569172734
            -877934658 577010600 2137030529</internalNodes>
          <leafValues>
            -6.2038064002990723e-01 1.1596288532018661e-01</leafValues></_>
        <_>
          <internalNodes>
            0 -1 57 523317216 -1821344972 -15639619 -8061472 2072132533
            -1240105281 1337766804 1331971157</internalNodes>
          <leafValues>
            -5.8673352003097534e-01 1.2278699874877930e-01</leafValues></_>
        <_>
          <internalNodes>
            0 -1 110 -498895378 -496013938 2065299763 -251813632
            1254883123 -942753134 45601337 1475674877</internalNodes>
          <leafValues>
            -4.3411803245544434e-01 1.7223729193210602e-01</leafValues></_>
        <_>
          <internalNodes>
            0 -1 211 934301912 802510145 -1011366931 1860651365
            -1347904882 -1414553457 989076350 1050942244</internalNodes>
          <leafValues>
            -5.9308028221130371e-01 1.3025626540184021e-01</leafValues></_>
        <_>
          <internalNodes>
            0 -1 159 -958267450 -1325431097 -1339008818 -763381037
            1083392719 -191923270 150276168 -193495081</internalNodes>
          <leafValues>
            -3.8515207171440125e-01 1.9213670492172241e-01</leafValues></_>
        <_>
          <internalNodes>
            0 -1 38 -656939700 -75617921 293667804 2124821054 1669306291
            2134838316 1383670430 1849327394</internalNodes>
          <leafValues>
            -4.7372844815254211e-01 1.6226045787334442e-01</leafValues></_>
        <_>
          <internalNodes>
            0 -1 270 1873473033 132025102 -1852597521 273319132
            -1447566523 83854267 968865788 -1061174273</internalNodes>
          <leafValues>
            -4.2395764589309692e-01 1.7195069789886475e-01</leafValues></_>
        <_>
          <internalNodes>
            0 -1 257 1311743509 1173766007 -858798852 1074794045
            -389093124 -705738011 1823188732 825929646</internalNodes>
          <leafValues>
            -4.0804398059844971e-01 1.7512102425098419e-01</leafValues></_>
        <_>
          <internalNodes>
            0 -1 3 -1927042814 -2124311297 1603076353 1431295837
            -1905509004 -1896773394 667702773 -1616394764</internalNodes>
          <leafValues>
            -3.8102695345878601e-01 2.0091603696346283e-01</leafValues></_>
        <_>
          <internalNodes>
            0 -1 93 1977430128 1978627571 936247536 603849653 554640106
            679752151 2010431924 1156589553</internalNodes>
          <leafValues>
            -7.4065500497817993e-01 8.1316761672496796e-02</leafValues></_>
        <_>
          <internalNodes>
            0 -1 94 -487632918 -146123878 1943376989 1996034881
            -537936051 19009691 1917563549 1372574207</internalNodes>
          <leafValues>
            -3.6274015903472900e-01 1.9625048339366913e-01</leafValues></_>
        <_>
          <internalNodes>
            0 -1 196 1048656874 1440229073 1476743806 1850742122
            128423756 1034682710 -1702999170 -99271865</internalNodes>
          <leafValues>
            -3.6641505360603333e-01 2.0339307188987732e-01</leafValues></_>
        <_>
          <internalNodes>
            0 -1 103 1816854606 -1977663010 -1477629186 -539658401
            -659207344 1750212383 66388925 2145083359</internalNodes>
          <leafValues>
            -3.9224445819854736e-01 2.0307210087776184e-01</leafValues></_>
        <_>
          <internalNodes>
            0 -1 65 -1926696972 -779119126 475005158 -676233780
            1596694431 -1658889548 1377310975 608004845</internalNodes>
          <leafValues>
            -5.3432029485702515e-01 1.4090254902839661e-01</leafValues></_>
        <_>
          <internalNodes>
            0 -1 291 -16897731 -1979916390 1943291608 -1334153048
            -606221328 -1996705194 -671744548 1040056276</internalNodes>
          <leafValues>
            -4.6296939253807068e-01 1.5553696453571320e-01</leafValues></_>
        <_>
          <internalNodes>
            0 -1 155 -1142853131 -269517086 1001453901 -803098
            -1881854209 1073577983 -1393083297 -1512612397</internalNodes>
          <leafValues>
            -2.6852235198020935e-01 2.9023733735084534e-01</leafValues></_></weakClassifiers></_>
    <!-- stage 17 -->
    <_>
      <maxWeakCount>24</maxWeakCount>
      <stageThreshold>-1.8742377758026123e+00</stageThreshold>
      <weakClassifiers>
        <_>
          <internalNodes>
            0 -1 164 -218139425 -52961793 -1084850178 861022975
            -1077183756 -67409554 -1073803331 -8667649</internalNodes>
          <leafValues>
            -5.6621766090393066e-01 -3.0782986432313919e-02</leafValues></_>
        <_>
          <internalNodes>
            0 -1 127 2137333744 1865866709 1600487103 2054635515
            1160100586 2063580587 1648746223 2146500521</internalNodes>
          <leafValues>
            -5.6475591659545898e-01 1.2717694044113159e-01</leafValues></_>
        <_>
          <internalNodes>
            0 -1 61 -487592132 -336613247 -149553384 -8392188 1160445732
            1158413064 361493776 1432319075</internalNodes>
          <leafValues>
            -5.7244664430618286e-01 1.3012836873531342e-01</leafValues></_>
        <_>
          <internalNodes>
            0 -1 212 -139395162 -905584383 600519615 -1431722489
            252238330 -1971156961 1069428927 1000354663</internalNodes>
          <leafValues>
            -4.4891512393951416e-01 1.8918812274932861e-01</leafValues></_>
        <_>
          <internalNodes>
            0 -1 250 -267748 -706348427 -276116481 -990383241 -68420621
            -128656649 -67392577 11762975</internalNodes>
          <leafValues>
            -4.9768859148025513e-01 1.6737793385982513e-01</leafValues></_>
        <_>
          <internalNodes>
            0 -1 46 -284766721 -347940630 -1621206800 -252651270
            1732446719 1866709899 1974161599 -201633541</internalNodes>
          <leafValues>
            -4.0823096036911011e-01 1.9170495867729187e-01</leafValues></_>
        <_>
          <internalNodes>
            0 -1 199 172912986 -1138275405 1056955082 122835662
            1069365749 -67147249 736300731 -1079289189</internalNodes>
          <leafValues>
            -3.4697368741035461e-01 2.1859905123710632e-01</leafValues></_>
        <_>
          <internalNodes>
            0 -1 126 774479616 2111806437 -111586977 -178261555
            -355995206 -34343501 -494415361 -1030766197</internalNodes>
          <leafValues>
            -4.0647581219673157e-01 1.9159938395023346e-01</leafValues></_>
        <_>
          <internalNodes>
            0 -1 293 -346046685 -805312522 1330987726 -2063690774
            1057726649 73921192 2001166239 1892941727</internalNodes>
          <leafValues>
            -3.1551104784011841e-01 2.3103800415992737e-01</leafValues></_>
        <_>
          <internalNodes>
            0 -1 187 -168878952 -1851701823 -871707931 -705804436
            -334803958 -376713253 -1989424825 -1953841365</internalNodes>
          <leafValues>
            -3.7319105863571167e-01 2.0343339443206787e-01</leafValues></_>
        <_>
          <internalNodes>
            0 -1 81 130301952 -35825281 262094558 382605135 339792912
            1064980005 -731898118 1999776687</internalNodes>
          <leafValues>
            -5.1531833410263062e-01 1.2009800225496292e-01</leafValues></_>
        <_>
          <internalNodes>
            0 -1 296 -774119222 -749928000 268435528 1896849599
            -1090463702 553655305 -1826585925 -754208549</internalNodes>
          <leafValues>
            -1.9586008787155151e-01 3.7243363261222839e-01</leafValues></_>
        <_>
          <internalNodes>
            0 -1 278 -1376813036 -1780244187 1373881005 -1263917798
            503051773 -1913689091 -1717572100 489158654</internalNodes>
          <leafValues>
            -3.7517288327217102e-01 1.9902350008487701e-01</leafValues></_>
        <_>
          <internalNodes>
            0 -1 184 1987849264 -696892065 -757794594 -256321976
            1574924604 -593203339 -52570177 135805709</internalNodes>
          <leafValues>
            -5.7529824972152710e-01 1.2450885027647018e-01</leafValues></_>
        <_>
          <internalNodes>
            0 -1 225 1071020906 1314119496 -700195233 -2467246 251608549
            -927193106 148723182 -357017572</internalNodes>
          <leafValues>
            -3.2866874337196350e-01 2.0540188252925873e-01</leafValues></_>
        <_>
          <internalNodes>
            0 -1 129 1973073076 1334487974 -580969616 832732938
            362069490 676527 302378734 1901887460</internalNodes>
          <leafValues>
            -5.8180260658264160e-01 1.3081704080104828e-01</leafValues></_>
        <_>
          <internalNodes>
            0 -1 35 -218153968 -472231597 -640259932 -295872161
            1988066932 1470781483 2009547060 1990193157</internalNodes>
          <leafValues>
            -4.8896157741546631e-01 1.4650563895702362e-01</leafValues></_>
        <_>
          <internalNodes>
            0 -1 241 -101389049 -8397288 -297471658 1344258207
            -204820430 1595066465 -206079953 -787555827</internalNodes>
          <leafValues>
            -2.7511593699455261e-01 2.6460048556327820e-01</leafValues></_>
        <_>
          <internalNodes>
            0 -1 146 797048976 -438432262 -254479140 -973201163
            -1188776024 -289589343 815395480 252189176</internalNodes>
          <leafValues>
            -6.7878437042236328e-01 9.7268037497997284e-02</leafValues></_>
        <_>
          <internalNodes>
            0 -1 284 -237766434 -941534064 1209114688 1428385834
            553684614 53478726 1930157707 -750269969</internalNodes>
          <leafValues>
            -2.1162235736846924e-01 3.5305690765380859e-01</leafValues></_>
        <_>
          <internalNodes>
            0 -1 158 -1124060165 -43789589 -1360956288 -51121824
            798030555 -1381784321 -2072698609 -239651881</internalNodes>
          <leafValues>
            -2.6137629151344299e-01 2.6443740725517273e-01</leafValues></_>
        <_>
          <internalNodes>
            0 -1 272 -1220816896 728786184 -380447248 -1408885998
            1032208328 132113564 -1352894754 462092427</internalNodes>
          <leafValues>
            -4.1240045428276062e-01 1.5906065702438354e-01</leafValues></_>
        <_>
          <internalNodes>
            0 -1 258 -404947448 1674497262 113270470 1087344351
            -1081958842 1200467250 -1893743645 -1062492514</internalNodes>
          <leafValues>
            -4.1232922673225403e-01 1.6530843079090118e-01</leafValues></_>
        <_>
          <internalNodes>
            0 -1 221 462443677 1543046133 345938173 2128298325 948458588
            -1342416437 851327870 -93030672</internalNodes>
          <leafValues>
            -3.4718644618988037e-01 1.9855177402496338e-01</leafValues></_></weakClassifiers></_>
    <!-- stage 18 -->
    <_>
      <maxWeakCount>27</maxWeakCount>
      <stageThreshold>-1.8844021558761597e+00</stageThreshold>
      <weakClassifiers>
        <_>
          <internalNodes>
            0 -1 120 -780188545 -108033 513171180 855260863 -512776097
            1396333695 -1073791048 1999618047</internalNodes>
          <leafValues>
            -6.4885497093200684e-01 -1.2274201214313507e-01</leafValues></_>
        <_>
          <internalNodes>
            0 -1 135 -1088293394 -270297938 -627876128 -219425280
            1806682367 1206618357 1811875072 -168296537</internalNodes>
          <leafValues>
            -5.4791802167892456e-01 1.3093344867229462e-01</leafValues></_>
        <_>
          <internalNodes>
            0 -1 186 866210289 -186691091 -728770209 1306416351
            -1081409601 -789614607 -1131677795 379258111</internalNodes>
          <leafValues>
            -4.7234466671943665e-01 2.0431356132030487e-01</leafValues></_>
        <_>
          <internalNodes>
            0 -1 244 697531484 99237764 2136030681 -10566698 494927358
            217970679 1278311162 3634682</internalNodes>
          <leafValues>
            -5.3196930885314941e-01 1.2595482170581818e-01</leafValues></_>
        <_>
          <internalNodes>
            0 -1 56 -889278700 -73663980 2131754695 -2098457 -907608817
            -812253233 -343214799 1125119271</internalNodes>
          <leafValues>
            -4.2808955907821655e-01 1.6530370712280273e-01</leafValues></_>
        <_>
          <internalNodes>
            0 -1 133 -573222608 1623325876 -1351808262 -2683472
            759827672 1342590991 603131128 2003057716</internalNodes>
          <leafValues>
            -7.4472880363464355e-01 8.9129909873008728e-02</leafValues></_>
        <_>
          <internalNodes>
            0 -1 131 -1111540328 -174369447 -2095184042 1438586679
            -602326854 -620033253 -1468002489 456875905</internalNodes>
          <leafValues>
            -5.0445538759231567e-01 1.2759962677955627e-01</leafValues></_>
        <_>
          <internalNodes>
            0 -1 176 -1683885342 -1063300541 -1592550838 -202015913
            865816844 -1996787457 448006235 -52330633</internalNodes>
          <leafValues>
            -3.5567173361778259e-01 1.8854415416717529e-01</leafValues></_>
        <_>
          <internalNodes>
            0 -1 14 413150182 -1332682571 2050568432 -84088456
            -1331302203 -1124053131 -100795486 1567901149</internalNodes>
          <leafValues>
            -5.0118488073348999e-01 1.3505160808563232e-01</leafValues></_>
        <_>
          <internalNodes>
            0 -1 273 -16859188 -134746498 -33571138 -931807505 -17104899
            -67305476 -33947682 -499929473</internalNodes>
          <leafValues>
            -2.4739943444728851e-01 2.7733609080314636e-01</leafValues></_>
        <_>
          <internalNodes>
            0 -1 243 490216927 -1153616385 -1049233217 2138420980
            83761533 -1078689217 517904360 -1795913220</internalNodes>
          <leafValues>
            -3.6656782031059265e-01 1.9548964500427246e-01</leafValues></_>
        <_>
          <internalNodes>
            0 -1 290 1868490534 130547246 205487310 551550718
            -1372330314 1199924982 1464055500 -1565851669</internalNodes>
          <leafValues>
            -3.4509703516960144e-01 1.8564009666442871e-01</leafValues></_>
        <_>
          <internalNodes>
            0 -1 154 -1489817613 -411043425 -1763501 1913743395
            -1436341253 1194572330 -739642448 1467189015</internalNodes>
          <leafValues>
            -3.1984755396842957e-01 2.0977921783924103e-01</leafValues></_>
        <_>
          <internalNodes>
            0 -1 8 1873739514 819985887 1087848925 -1124215333
            1060444216 -377578575 1044247206 -47318237</internalNodes>
          <leafValues>
            -4.3884429335594177e-01 1.5535022318363190e-01</leafValues></_>
        <_>
          <internalNodes>
            0 -1 59 -551195902 -1025490130 535371696 1609030906
            -748409036 139296702 1927108064 -537633291</internalNodes>
          <leafValues>
            -3.7052068114280701e-01 1.9373002648353577e-01</leafValues></_>
        <_>
          <internalNodes>
            0 -1 78 -154583024 -67209993 269028012 1916763935 1738368516
            1395292799 352482068 2008743935</internalNodes>
          <leafValues>
            -3.9067369699478149e-01 1.6465266048908234e-01</leafValues></_>
        <_>
          <internalNodes>
            0 -1 130 2133171680 -1021145131 1196783441 -280949224
            -514741606 1477154230 591781615 1784970992</internalNodes>
          <leafValues>
            -5.7308179140090942e-01 9.2267811298370361e-02</leafValues></_>
        <_>
          <internalNodes>
            0 -1 101 6373964 -1140904250 970732254 796277496 -2141788948
            1880061041 736706397 102906942</internalNodes>
          <leafValues>
            -5.6991195678710938e-01 1.1133165657520294e-01</leafValues></_>
        <_>
          <internalNodes>
            0 -1 207 1062517490 1938321057 -2000336644 -1163190368
            452111102 -1366587729 439359613 774913893</internalNodes>
          <leafValues>
            -5.4552084207534790e-01 1.1046188324689865e-01</leafValues></_>
        <_>
          <internalNodes>
            0 -1 177 -1973281037 -933825933 -941696141 -1575591673
            672625003 1851942187 1526403892 223285559</internalNodes>
          <leafValues>
            -3.5578343272209167e-01 1.8065097928047180e-01</leafValues></_>
        <_>
          <internalNodes>
            0 -1 298 -250872182 1942950474 -1469497150 1281600528
            -183241077 -1068164859 -267194078 -1034944817</internalNodes>
          <leafValues>
            -2.0210732519626617e-01 3.2833680510520935e-01</leafValues></_>
        <_>
          <internalNodes>
            0 -1 236 932329014 48152619 2009432031 2126410366 261783288
            -1901158997 652508800 713560216</internalNodes>
          <leafValues>
            -5.8651751279830933e-01 1.0478459298610687e-01</leafValues></_>
        <_>
          <internalNodes>
            0 -1 79 -1995951906 -712048410 1624388834 -696402400
            142724602 1464156275 797186045 -1000308879</internalNodes>
          <leafValues>
            -5.1660799980163574e-01 1.1581021547317505e-01</leafValues></_>
        <_>
          <internalNodes>
            0 -1 280 -221365675 1138654071 -1744493874 -1058288849
            -2015449348 1091322320 -1865613668 -1073594513</internalNodes>
          <leafValues>
            -3.3215236663818359e-01 1.9247381389141083e-01</leafValues></_>
        <_>
          <internalNodes>
            0 -1 31 -523301144 -277348218 -1670445524 -270663391
            326858532 1179272320 2013222240 1694164836</internalNodes>
          <leafValues>
            -4.6700540184974670e-01 1.4216345548629761e-01</leafValues></_>
        <_>
          <internalNodes>
            0 -1 49 -272131828 -290463804 269605346 -227027488
            1535840782 1191446826 1670260219 -210350730</internalNodes>
          <leafValues>
            -4.6349510550498962e-01 1.2636983394622803e-01</leafValues></_>
        <_>
          <internalNodes>
            0 -1 85 94970620 -1579096360 1884017523 1617734069
            -1465718052 -925556671 -1297950600 235230491</internalNodes>
          <leafValues>
            -5.9500855207443237e-01 9.9044740200042725e-02</leafValues></_></weakClassifiers></_>
    <!-- stage 19 -->
    <_>
      <maxWeakCount>29</maxWeakCount>
      <stageThreshold>-1.9361163377761841e+00</stageThreshold>
      <weakClassifiers>
        <_>
          <internalNodes>
            0 -1 198 -13935137 1484769675 -3803681 -2369330 531576317
            -876908932 -1964023809 -67151265</internalNodes>
          <leafValues>
            -5.2418392896652222e-01 2.1276595070958138e-02</leafValues></_>
        <_>
          <internalNodes>
            0 -1 37 -337772688 -130363 -780079111 -586255529 2146397456
            863970415 2070902832 2022634443</internalNodes>
          <leafValues>
            -4.5487675070762634e-01 1.5308247506618500e-01</leafValues></_>
        <_>
          <internalNodes>
            0 -1 149 -37773059 905916669 -1383344507 1991997439
            -1165230102 -1144322305 -276116571 2046513851</internalNodes>
          <leafValues>
            -4.4274175167083740e-01 1.7058734595775604e-01</leafValues></_>
        <_>
          <internalNodes>
            0 -1 182 -274607647 -286401027 -925901089 -708455215
            -1970538293 -898678279 -1080297989 -2105289229</internalNodes>
          <leafValues>
            -3.1210625171661377e-01 2.7585723996162415e-01</leafValues></_>
        <_>
          <internalNodes>
            0 -1 231 -4530793 -534697 2147467229 -1073787041 -1078001667
            -1073742337 -1074086401 -1074348161</internalNodes>
          <leafValues>
            -2.1274185180664063e-01 3.5366156697273254e-01</leafValues></_>
        <_>
          <internalNodes>
            0 -1 169 -1374585293 -279612422 -238757435 -70823857
            -1503544373 -207089146 -545655921 -1409676872</internalNodes>
          <leafValues>
            -3.3592951297760010e-01 2.2274129092693329e-01</leafValues></_>
        <_>
          <internalNodes>
            0 -1 203 -2875490 -192920009 -825566520 -780972210
            -815960321 -409678267 -825373201 826007311</internalNodes>
          <leafValues>
            -4.0336680412292480e-01 1.5473547577857971e-01</leafValues></_>
        <_>
          <internalNodes>
            0 -1 217 -1612731111 352718345 -20252175 991858815
            -1985246516 -1825855366 1319812836 -1932883265</internalNodes>
          <leafValues>
            -3.0555009841918945e-01 2.4237683415412903e-01</leafValues></_>
        <_>
          <internalNodes>
            0 -1 132 -1574755262 -354185082 -206483136 1929196032
            46375067 1135743091 72405133 99944261</internalNodes>
          <leafValues>
            -6.0737901926040649e-01 9.7528517246246338e-02</leafValues></_>
        <_>
          <internalNodes>
            0 -1 80 798442076 -17932694 1977037546 -151047557 467530026
            2003832594 1556903546 1999789367</internalNodes>
          <leafValues>
            -4.1974365711212158e-01 1.4606580138206482e-01</leafValues></_>
        <_>
          <internalNodes>
            0 -1 275 -16866251 1173802615 -829814020 -1003049138
            -1930515459 -725403025 -1395675652 -1154745778</internalNodes>
          <leafValues>
            -2.7011498808860779e-01 2.4461854994297028e-01</leafValues></_>
        <_>
          <internalNodes>
            0 -1 82 759644672 -825328033 108929022 -539028722 1968405600
            -1351983749 1077942447 1931675531</internalNodes>
          <leafValues>
            -4.2858186364173889e-01 1.4352160692214966e-01</leafValues></_>
        <_>
          <internalNodes>
            0 -1 209 1058102783 2133153401 -211698721 1561719888
            -881420161 -898664433 -660292929 1510999076</internalNodes>
          <leafValues>
            -3.1714141368865967e-01 2.0864422619342804e-01</leafValues></_>
        <_>
          <internalNodes>
            0 -1 282 -1354780912 99328990 -1898464530 -1530995454
            -1861487111 82174698 922944508 275243931</internalNodes>
          <leafValues>
            -4.6047219634056091e-01 1.2834978103637695e-01</leafValues></_>
        <_>
          <internalNodes>
            0 -1 197 -1245235745 -222398497 1996455670 -50823185
            802950253 -806062132 -1933697793 -9175193</internalNodes>
          <leafValues>
            -2.3334665596485138e-01 2.7104195952415466e-01</leafValues></_>
        <_>
          <internalNodes>
            0 -1 143 -610149136 2095019504 53210943 1302298069
            -1953910038 -539014918 -930743042 -777291408</internalNodes>
          <leafValues>
            -5.1119643449783325e-01 1.0966064780950546e-01</leafValues></_>
        <_>
          <internalNodes>
            0 -1 108 -3148821 1926606044 702556688 -859440837 712324098
            -187942776 144323862 -1739168748</internalNodes>
          <leafValues>
            -2.9834145307540894e-01 2.0905131101608276e-01</leafValues></_>
        <_>
          <internalNodes>
            0 -1 233 1028660703 -1087769609 -52684355 -1073898503
            1997822155 -1692743380 1151105862 -1271652524</internalNodes>
          <leafValues>
            -3.9703163504600525e-01 1.7207209765911102e-01</leafValues></_>
        <_>
          <internalNodes>
            0 -1 98 -487864126 -496086322 -1878846048 1914379552
            239829549 3293291 1405305489 1434432474</internalNodes>
          <leafValues>
            -5.5384826660156250e-01 1.1731762439012527e-01</leafValues></_>
        <_>
          <internalNodes>
            0 -1 139 938423379 -335659378 1272007807 1342839679
            1449928259 38935067 1142915472 2141858523</internalNodes>
          <leafValues>
            -3.4229049086570740e-01 1.7637072503566742e-01</leafValues></_>
        <_>
          <internalNodes>
            0 -1 7 165687204 -1610571020 967442236 -2855180 -1146892383
            -2131698883 938004413 1566856317</internalNodes>
          <leafValues>
            -5.4895853996276855e-01 1.1056160181760788e-01</leafValues></_>
        <_>
          <internalNodes>
            0 -1 138 1344361572 -800463670 802170110 1073115318
            -1170018852 -397710214 -1078292521 1311010545</internalNodes>
          <leafValues>
            -3.6525437235832214e-01 1.6126592457294464e-01</leafValues></_>
        <_>
          <internalNodes>
            0 -1 295 -1211502000 91132308 -212509616 835472404
            1028142622 1611477128 1430639582 59417322</internalNodes>
          <leafValues>
            -3.5965958237648010e-01 1.7252814769744873e-01</leafValues></_>
        <_>
          <internalNodes>
            0 -1 263 -1814423524 -2024058864 -486303726 68075658
            260570557 233831303 485962940 480589732</internalNodes>
          <leafValues>
            -5.8544790744781494e-01 1.0897254943847656e-01</leafValues></_>
        <_>
          <internalNodes>
            0 -1 112 -487598588 -4319169 -781901371 -791339735
            -1014245681 262242842 25536713 -716375201</internalNodes>
          <leafValues>
            -2.6735216379165649e-01 2.3441049456596375e-01</leafValues></_>
        <_>
          <internalNodes>
            0 -1 107 -60102134 -665744136 -1909839601 519521879
            1744965427 -111540118 2099725938 -732784315</internalNodes>
          <leafValues>
            -3.3961123228073120e-01 1.7960040271282196e-01</leafValues></_>
        <_>
          <internalNodes>
            0 -1 0 -360575148 -820840204 -984761402 -553256643 303022022
            -1365231630 1470935911 1472689447</internalNodes>
          <leafValues>
            -3.7345704436302185e-01 1.7489872872829437e-01</leafValues></_>
        <_>
          <internalNodes>
            0 -1 288 -445767628 -1983075742 -1492245794 -2063684872
            -1687106672 1280368736 2031484281 6676598</internalNodes>
          <leafValues>
            -6.4577651023864746e-01 9.6316553652286530e-02</leafValues></_>
        <_>
          <internalNodes>
            0 -1 124 847930374 -269600037 202864366 1928599197
            1607315545 1195014178 999233210 -147125377</internalNodes>
          <leafValues>
            -3.4820818901062012e-01 1.7974704504013062e-01</leafValues></_></weakClassifiers></_></stages>
  <features>
    <_>
      <rect>
        0 0 2 4</rect></_>
    <_>
      <rect>
        0 0 2 5</rect></_>
    <_>
      <rect>
        0 0 2 6</rect></_>
    <_>
      <rect>
        0 0 3 2</rect></_>
    <_>
      <rect>
        0 0 3 4</rect></_>
    <_>
      <rect>
        0 0 3 5</rect></_>
    <_>
      <rect>
        0 0 4 3</rect></_>
    <_>
      <rect>
        0 0 5 3</rect></_>
    <_>
      <rect>
        0 0 5 6</rect></_>
    <_>
      <rect>
        0 0 6 4</rect></_>
    <_>
      <rect>
        0 0 6 5</rect></_>
    <_>
      <rect>
        0 1 2 5</rect></_>
    <_>
      <rect>
        0 1 3 4</rect></_>
    <_>
      <rect>
        0 1 5 3</rect></_>
    <_>
      <rect>
        0 1 6 3</rect></_>
    <_>
      <rect>
        0 2 2 6</rect></_>
    <_>
      <rect>
        0 2 3 2</rect></_>
    <_>
      <rect>
        0 2 3 4</rect></_>
    <_>
      <rect>
        0 2 5 6</rect></_>
    <_>
      <rect>
        0 3 3 2</rect></_>
    <_>
      <rect>
        0 3 3 5</rect></_>
    <_>
      <rect>
        0 3 4 2</rect></_>
    <_>
      <rect>
        0 4 2 5</rect></_>
    <_>
      <rect>
        0 4 3 2</rect></_>
    <_>
      <rect>
        0 4 3 4</rect></_>
    <_>
      <rect>
        0 4 4 2</rect></_>
    <_>
      <rect>
        0 4 5 3</rect></_>
    <_>
      <rect>
        0 5 2 3</rect></_>
    <_>
      <rect>
        0 5 4 2</rect></_>
    <_>
      <rect>
        0 5 6 2</rect></_>
    <_>
      <rect>
        0 5 6 3</rect></_>
    <_>
      <rect>
        0 6 2 3</rect></_>
    <_>
      <rect>
        0 6 2 4</rect></_>
    <_>
      <rect>
        0 6 5 2</rect></_>
    <_>
      <rect>
        0 7 2 2</rect></_>
    <_>
      <rect>
        0 7 2 3</rect></_>
    <_>
      <rect>
        0 7 3 2</rect></_>
    <_>
      <rect>
        0 8 2 4</rect></_>
    <_>
      <rect>
        0 8 3 4</rect></_>
    <_>
      <rect>
        0 8 4 1</rect></_>
    <_>
      <rect>
        0 8 4 2</rect></_>
    <_>
      <rect>
        0 8 6 1</rect></_>
    <_>
      <rect>
        0 9 2 1</rect></_>
    <_>
      <rect>
        0 9 2 2</rect></_>
    <_>
      <rect>
        0 9 2 3</rect></_>
    <_>
      <rect>
        0 9 3 2</rect></_>
    <_>
      <rect>
        0 9 4 1</rect></_>
    <_>
      <rect>
        0 9 4 2</rect></_>
    <_>
      <rect>
        0 9 4 3</rect></_>
    <_>
      <rect>
        0 10 3 1</rect></_>
    <_>
      <rect>
        0 10 3 2</rect></_>
    <_>
      <rect>
        0 10 5 3</rect></_>
    <_>
      <rect>
        0 11 3 3</rect></_>
    <_>
      <rect>
        0 11 5 3</rect></_>
    <_>
      <rect>
        0 11 6 3</rect></_>
    <_>
      <rect>
        0 12 3 2</rect></_>
    <_>
      <rect>
        1 0 2 5</rect></_>
    <_>
      <rect>
        1 0 4 3</rect></_>
    <_>
      <rect>
        1 0 6 3</rect></_>
    <_>
      <rect>
        1 1 3 2</rect></_>
    <_>
      <rect>
        1 2 2 6</rect></_>
    <_>
      <rect>
        1 4 2 3</rect></_>
    <_>
      <rect>
        1 5 2 5</rect></_>
    <_>
      <rect>
        1 5 4 2</rect></_>
    <_>
      <rect>
        1 5 6 5</rect></_>
    <_>
      <rect>
        1 6 5 3</rect></_>
    <_>
      <rect>
        1 6 6 2</rect></_>
    <_>
      <rect>
        1 6 6 3</rect></_>
    <_>
      <rect>
        1 7 2 2</rect></_>
    <_>
      <rect>
        1 7 4 2</rect></_>
    <_>
      <rect>
        1 7 5 4</rect></_>
    <_>
      <rect>
        1 8 2 2</rect></_>
    <_>
      <rect>
        1 8 2 4</rect></_>
    <_>
      <rect>
        1 8 3 4</rect></_>
    <_>
      <rect>
        1 8 4 3</rect></_>
    <_>
      <rect>
        1 8 6 2</rect></_>
    <_>
      <rect>
        1 9 3 1</rect></_>
    <_>
      <rect>
        1 9 4 1</rect></_>
    <_>
      <rect>
        1 10 2 2</rect></_>
    <_>
      <rect>
        1 10 4 2</rect></_>
    <_>
      <rect>
        1 11 3 2</rect></_>
    <_>
      <rect>
        1 13 3 2</rect></_>
    <_>
      <rect>
        1 14 3 2</rect></_>
    <_>
      <rect>
        2 0 3 2</rect></_>
    <_>
      <rect>
        2 0 3 6</rect></_>
    <_>
      <rect>
        2 0 4 4</rect></_>
    <_>
      <rect>
        2 0 6 3</rect></_>
    <_>
      <rect>
        2 0 6 4</rect></_>
    <_>
      <rect>
        2 1 5 4</rect></_>
    <_>
      <rect>
        2 1 6 6</rect></_>
    <_>
      <rect>
        2 2 6 3</rect></_>
    <_>
      <rect>
        2 4 4 4</rect></_>
    <_>
      <rect>
        2 4 6 3</rect></_>
    <_>
      <rect>
        2 5 6 5</rect></_>
    <_>
      <rect>
        2 6 2 3</rect></_>
    <_>
      <rect>
        2 6 4 2</rect></_>
    <_>
      <rect>
        2 7 2 2</rect></_>
    <_>
      <rect>
        2 7 3 1</rect></_>
    <_>
      <rect>
        2 8 2 2</rect></_>
    <_>
      <rect>
        2 8 2 4</rect></_>
    <_>
      <rect>
        2 9 2 2</rect></_>
    <_>
      <rect>
        2 11 3 3</rect></_>
    <_>
      <rect>
        2 11 4 3</rect></_>
    <_>
      <rect>
        2 14 4 2</rect></_>
    <_>
      <rect>
        2 14 6 2</rect></_>
    <_>
      <rect>
        3 0 4 3</rect></_>
    <_>
      <rect>
        3 1 2 5</rect></_>
    <_>
      <rect>
        3 2 5 1</rect></_>
    <_>
      <rect>
        3 3 3 1</rect></_>
    <_>
      <rect>
        3 3 3 5</rect></_>
    <_>
      <rect>
        3 6 2 2</rect></_>
    <_>
      <rect>
        3 7 2 2</rect></_>
    <_>
      <rect>
        3 7 2 3</rect></_>
    <_>
      <rect>
        3 8 2 2</rect></_>
    <_>
      <rect>
        3 8 2 4</rect></_>
    <_>
      <rect>
        3 8 3 2</rect></_>
    <_>
      <rect>
        3 8 4 3</rect></_>
    <_>
      <rect>
        3 9 2 1</rect></_>
    <_>
      <rect>
        3 10 2 1</rect></_>
    <_>
      <rect>
        3 11 2 1</rect></_>
    <_>
      <rect>
        3 11 2 2</rect></_>
    <_>
      <rect>
        3 11 2 3</rect></_>
    <_>
      <rect>
        3 12 2 1</rect></_>
    <_>
      <rect>
        3 12 2 2</rect></_>
