<?xml version="1.0"?>
<opencv_storage>
<cascade>
  <stageType>BOOST</stageType>
  <featureType>LBP</featureType>
  <height>20</height>
  <width>20</width>
  <stageParams>
    <boostType>GAB</boostType>
    <minHitRate>9.9900001287460327e-01</minHitRate>
    <maxFalseAlarm>5.0000000000000000e-01</maxFalseAlarm>
    <weightTrimRate>9.4999999999999996e-01</weightTrimRate>
    <maxDepth>1</maxDepth>
    <maxWeakCount>100</maxWeakCount></stageParams>
  <featureParams>
    <maxCatCount>256</maxCatCount>
    <featSize>1</featSize></featureParams>
  <stageNum>18</stageNum>
  <stages>
    <!-- stage 0 -->
    <_>
      <maxWeakCount>2</maxWeakCount>
      <stageThreshold>-1.3485991954803467e-01</stageThreshold>
      <weakClassifiers>
        <_>
          <internalNodes>
            0 -1 8 -243019554 1435582489 -989785701 2144409737
            -1971265281 -1953922933 -662454017 -7615489</internalNodes>
          <leafValues>
            -9.9757575988769531e-01 9.2344498634338379e-01</leafValues></_>
        <_>
          <internalNodes>
            0 -1 7 -1056382481 1429279185 -1064496649 -206493541
            -1987934049 -914292081 -2085910273 -541341201</internalNodes>
          <leafValues>
            -9.7639203071594238e-01 8.6271584033966064e-01</leafValues></_></weakClassifiers></_>
    <!-- stage 1 -->
    <_>
      <maxWeakCount>2</maxWeakCount>
      <stageThreshold>-8.4121391177177429e-02</stageThreshold>
      <weakClassifiers>
        <_>
          <internalNodes>
            0 -1 2 -10889729 -36089569 -605175810 -2139649 -1377256961
            -23414057 -68485121 -1315333</internalNodes>
          <leafValues>
            -9.3601894378662109e-01 8.8471180200576782e-01</leafValues></_>
        <_>
          <internalNodes>
            0 -1 14 -586047025 -69746247 1884803535 -10797859
            -1719488257 -86179654 -1626625857 -17729</internalNodes>
          <leafValues>
            -9.5941942930221558e-01 8.5189753770828247e-01</leafValues></_></weakClassifiers></_>
    <!-- stage 2 -->
    <_>
      <maxWeakCount>3</maxWeakCount>
      <stageThreshold>-1.1719406843185425e+00</stageThreshold>
      <weakClassifiers>
        <_>
          <internalNodes>
            0 -1 5 -270082049 -2255405 -105531915 -2102441 1340079359
            -5593216 1273166059 -2359650</internalNodes>
          <leafValues>
            -9.6240603923797607e-01 7.4382025003433228e-01</leafValues></_>
        <_>
          <internalNodes>
            0 -1 28 -136839169 -105382985 -109981825 -739404297
            -47186275 -302918989 -3408056 -2233436</internalNodes>
          <leafValues>
            -9.3539810180664063e-01 7.7039581537246704e-01</leafValues></_>
        <_>
          <internalNodes>
            0 -1 12 -420478993 -489837057 -241996091 -203429705
            -355501057 -855660506 233446319 -263985</internalNodes>
          <leafValues>
            -9.2016804218292236e-01 7.2586345672607422e-01</leafValues></_></weakClassifiers></_>
    <!-- stage 3 -->
    <_>
      <maxWeakCount>3</maxWeakCount>
      <stageThreshold>-1.2221300601959229e+00</stageThreshold>
      <weakClassifiers>
        <_>
          <internalNodes>
            0 -1 27 -211815425 -35700097 -585903137 -37361069
            -1831083089 -354299957 -690758833 -917673</internalNodes>
          <leafValues>
            -9.3341553211212158e-01 7.4074071645736694e-01</leafValues></_>
        <_>
          <internalNodes>
            0 -1 0 -15597609 -111077025 -8654342 -139463726 -752776965
            -229562995 -1714439169 -134220801</internalNodes>
          <leafValues>
            -9.3531918525695801e-01 6.4916974306106567e-01</leafValues></_>
        <_>
          <internalNodes>
            0 -1 18 726903743 -1277450419 -175642117 -174353997
            -1950225409 -551294328 -892731393 -268460810</internalNodes>
          <leafValues>
            -9.3350183963775635e-01 6.4660465717315674e-01</leafValues></_></weakClassifiers></_>
    <!-- stage 4 -->
    <_>
      <maxWeakCount>3</maxWeakCount>
      <stageThreshold>-1.0888179540634155e+00</stageThreshold>
      <weakClassifiers>
        <_>
          <internalNodes>
            0 -1 19 -167920673 -454305 1464062943 -1276915665 -742708593
            -1165125921 -274866613 -659497</internalNodes>
          <leafValues>
            -9.0841585397720337e-01 6.8275862932205200e-01</leafValues></_>
        <_>
          <internalNodes>
            0 -1 23 -572653763 2134610197 -2057453089 1111851853
            -1920684289 -322115351 -37172753 -539034164</internalNodes>
          <leafValues>
            -8.7171518802642822e-01 7.0358657836914063e-01</leafValues></_>
        <_>
          <internalNodes>
            0 -1 44 -262659 -242484905 -439631461 -640953917 -1279274123
            -138706381 -1344604427 -295937</internalNodes>
          <leafValues>
            -8.8398867845535278e-01 7.2736698389053345e-01</leafValues></_></weakClassifiers></_>
    <!-- stage 5 -->
    <_>
      <maxWeakCount>3</maxWeakCount>
      <stageThreshold>-1.3514477014541626e+00</stageThreshold>
      <weakClassifiers>
        <_>
          <internalNodes>
            0 -1 35 -541067777 -1785117253 286618431 -138433037
            -223497729 -536311633 -1094943905 -1769868</internalNodes>
          <leafValues>
            -9.7554349899291992e-01 5.5424064397811890e-01</leafValues></_>
        <_>
          <internalNodes>
            0 -1 37 -1679034401 -76704941 -1332617761 -412102409
            -1079772833 -337136997 -72615050 -67175948</internalNodes>
          <leafValues>
            -9.2768287658691406e-01 5.7633978128433228e-01</leafValues></_>
        <_>
          <internalNodes>
            0 -1 3 -806356993 -67145293 -1655622763 -204171848
            -810551013 -543499975 268038241 1609562627</internalNodes>
          <leafValues>
            -9.5224404335021973e-01 5.5214422941207886e-01</leafValues></_></weakClassifiers></_>
    <!-- stage 6 -->
    <_>
      <maxWeakCount>2</maxWeakCount>
      <stageThreshold>-3.5964784026145935e-01</stageThreshold>
      <weakClassifiers>
        <_>
          <internalNodes>
            0 -1 9 -1823255553 -783081201 -140542002 -6297091
            -1870325061 -352608101 -1329857537 -4485889</internalNodes>
          <leafValues>
            -9.3130779266357422e-01 5.5144035816192627e-01</leafValues></_>
        <_>
          <internalNodes>
            0 -1 36 -216534049 -604032501 1880175901 -196084833
            -347101612 -394264416 -70342207 -68092960</internalNodes>
          <leafValues>
            -9.1108816862106323e-01 5.8773779869079590e-01</leafValues></_></weakClassifiers></_>
    <!-- stage 7 -->
    <_>
      <maxWeakCount>3</maxWeakCount>
      <stageThreshold>-1.1270397901535034e+00</stageThreshold>
      <weakClassifiers>
        <_>
          <internalNodes>
            0 -1 25 -134874121 -210257634 1135970783 -738761145
            -733638401 -1014529877 -352343617 -71845257</internalNodes>
          <leafValues>
            -8.5714286565780640e-01 6.0092806816101074e-01</leafValues></_>
        <_>
          <internalNodes>
            0 -1 49 -2133889 -216039369 -766975935 1880589975
            -1517825917 -268435295 -124862770 -97334581</internalNodes>
          <leafValues>
            -7.9526329040527344e-01 6.8734925985336304e-01</leafValues></_>
        <_>
          <internalNodes>
            0 -1 17 -183371291 -778353455 1510018080 -656961127
            -1718574917 -125566744 -251491407 -6583331</internalNodes>
          <leafValues>
            -9.3270450830459595e-01 5.7442092895507813e-01</leafValues></_></weakClassifiers></_>
    <!-- stage 8 -->
    <_>
      <maxWeakCount>3</maxWeakCount>
      <stageThreshold>-1.1066545248031616e+00</stageThreshold>
      <weakClassifiers>
        <_>
          <internalNodes>
            0 -1 6 -947652609 -686425297 -108947077 -12080241 -272369997
            -807088739 -271207435 -806763071</internalNodes>
          <leafValues>
            -8.0115604400634766e-01 6.7724865674972534e-01</leafValues></_>
        <_>
          <internalNodes>
            0 -1 29 1914328831 -1173630601 -2130044993 -107013241
            -372274994 -611638905 -91317297 -80609513</internalNodes>
          <leafValues>
            -9.3078058958053589e-01 5.6756800413131714e-01</leafValues></_>
        <_>
          <internalNodes>
            0 -1 46 -11543689 -389562167 1409341539 -540030833
            -386709461 -892140911 -152872081 -1052299</internalNodes>
          <leafValues>
            -8.4590250253677368e-01 6.2528210878372192e-01</leafValues></_></weakClassifiers></_>
    <!-- stage 9 -->
    <_>
      <maxWeakCount>3</maxWeakCount>
      <stageThreshold>-1.1016329526901245e+00</stageThreshold>
      <weakClassifiers>
        <_>
          <internalNodes>
            0 -1 22 332642235 -539717435 -704578337 -543173399
            -255394307 -931102713 -402205496 -4068472</internalNodes>
          <leafValues>
            -9.3424659967422485e-01 4.7758284211158752e-01</leafValues></_>
        <_>
          <internalNodes>
            0 -1 48 -3672203 -146280841 -952692545 -171842889 -880022785
            -810892595 -523768597 -42927505</internalNodes>
          <leafValues>
            -8.2992225885391235e-01 6.3258647918701172e-01</leafValues></_>
        <_>
          <internalNodes>
            0 -1 38 -71233057 -845491652 -1861123663 -572667426
            -2125986965 -1136646080 -1954501637 -673980165</internalNodes>
          <leafValues>
            -7.4929344654083252e-01 7.1002614498138428e-01</leafValues></_></weakClassifiers></_>
    <!-- stage 10 -->
    <_>
      <maxWeakCount>3</maxWeakCount>
      <stageThreshold>-1.2061076164245605e+00</stageThreshold>
      <weakClassifiers>
        <_>
          <internalNodes>
            0 -1 15 -254028865 -354946671 352393041 -251717345
            -1606176741 -75488957 -1035954033 -1324101</internalNodes>
          <leafValues>
            -8.2309579849243164e-01 5.4312354326248169e-01</leafValues></_>
        <_>
          <internalNodes>
            0 -1 31 -641084113 1061748784 -717108001 403332021
            -1685480709 -1196821832 -1702712839 -1144354646</internalNodes>
          <leafValues>
            -8.6111205816268921e-01 5.5495280027389526e-01</leafValues></_>
        <_>
          <internalNodes>
            0 -1 50 -143654915 -720899809 -1253478191 -1210874481
            -1043338787 -1742026547 -672400119 485489385</internalNodes>
          <leafValues>
            -8.8811910152435303e-01 5.6583511829376221e-01</leafValues></_></weakClassifiers></_>
    <!-- stage 11 -->
    <_>
      <maxWeakCount>3</maxWeakCount>
      <stageThreshold>-1.1332750320434570e+00</stageThreshold>
      <weakClassifiers>
        <_>
          <internalNodes>
            0 -1 10 -274726913 -2508941 -1190670057 -16658129 -903820405
            -100492715 -449317965 -810827315</internalNodes>
          <leafValues>
            -7.9083430767059326e-01 6.0204082727432251e-01</leafValues></_>
        <_>
          <internalNodes>
            0 -1 45 -812125697 -746108777 -2130243245 -984766317
            -1580512787 -1069514621 -475305349 -67114052</internalNodes>
          <leafValues>
            -8.0067324638366699e-01 6.3752877712249756e-01</leafValues></_>
        <_>
          <internalNodes>
            0 -1 32 -1155516621 -71055185 -83240803 -691012642
            -136516918 -666304312 -1545891380 -7626558</internalNodes>
          <leafValues>
            -9.3464261293411255e-01 5.3809845447540283e-01</leafValues></_></weakClassifiers></_>
    <!-- stage 12 -->
    <_>
      <maxWeakCount>4</maxWeakCount>
      <stageThreshold>-7.3460161685943604e-01</stageThreshold>
      <weakClassifiers>
        <_>
          <internalNodes>
            0 -1 33 -36376097 -1912528505 -459945901 -1954305789
            -1966241093 -2020695405 -2100592373 -24663389</internalNodes>
          <leafValues>
            -8.3311939239501953e-01 4.5689654350280762e-01</leafValues></_>
        <_>
          <internalNodes>
            0 -1 30 -573978849 1431568605 -909273601 1910342735
            -2138322709 -863666035 -2004320033 -609402721</internalNodes>
          <leafValues>
            -7.7036684751510620e-01 6.0217392444610596e-01</leafValues></_>
        <_>
          <internalNodes>
            0 -1 20 -754867761 -786497219 268563648 -657260067
            -1869368729 -610269022 -1098269705 -2649931</internalNodes>
          <leafValues>
            -9.0295314788818359e-01 5.1221680641174316e-01</leafValues></_>
        <_>
          <internalNodes>
            0 -1 15 -877145641 -388363493 -581824483 -388312581
            -1492545393 -1515577192 -266626130 -4194917</internalNodes>
          <leafValues>
            -8.8737678527832031e-01 4.8182183504104614e-01</leafValues></_></weakClassifiers></_>
    <!-- stage 13 -->
    <_>
      <maxWeakCount>3</maxWeakCount>
      <stageThreshold>-1.0671199560165405e+00</stageThreshold>
      <weakClassifiers>
        <_>
          <internalNodes>
            0 -1 4 1828838911 -1090399969 -181371117 -14935757
            1258880587 -1149204081 1937811251 -36134515</internalNodes>
          <leafValues>
            -7.9928314685821533e-01 5.7142859697341919e-01</leafValues></_>
        <_>
          <internalNodes>
            0 -1 34 1111225343 1124303675 -2113096294 889905731
            -886915073 -1073119061 -89457971 -21693690</internalNodes>
          <leafValues>
            -8.4876620769500732e-01 4.9116882681846619e-01</leafValues></_>
        <_>
          <internalNodes>
            0 -1 42 -641117953 -738590312 1501630966 -203554152
            -1299664849 -376799199 -250942501 -408426387</internalNodes>
          <leafValues>
            -7.5900560617446899e-01 6.3552290201187134e-01</leafValues></_></weakClassifiers></_>
    <!-- stage 14 -->
    <_>
      <maxWeakCount>3</maxWeakCount>
      <stageThreshold>-1.0970457792282104e+00</stageThreshold>
      <weakClassifiers>
        <_>
          <internalNodes>
            0 -1 52 -235931697 -1937300725 -2045275613 -2038308725
            -800344053 -1869938166 -761537621 -1128268833</internalNodes>
          <leafValues>
            -7.8194606304168701e-01 5.8974361419677734e-01</leafValues></_>
        <_>
          <internalNodes>
            0 -1 16 -214190593 -1243929607 -644107825 -68136210
            -1975057105 -342913013 -116412273 -336084976</internalNodes>
          <leafValues>
            -8.2060086727142334e-01 5.6003075838088989e-01</leafValues></_>
        <_>
          <internalNodes>
            0 -1 41 -741109315 385958599 1620136281 1830891587
            -1576992335 -662510965 -5539849 -841093900</internalNodes>
          <leafValues>
            -8.5148632526397705e-01 5.0550115108489990e-01</leafValues></_></weakClassifiers></_>
    <!-- stage 15 -->
    <_>
      <maxWeakCount>3</maxWeakCount>
      <stageThreshold>-1.0211659669876099e+00</stageThreshold>
      <weakClassifiers>
        <_>
          <internalNodes>
            0 -1 13 -136347777 -138145097 143283451 -214153282
            -1556579525 -283037366 -1064521025 -69633</internalNodes>
          <leafValues>
            -7.6886790990829468e-01 5.4430377483367920e-01</leafValues></_>
        <_>
          <internalNodes>
            0 -1 26 -175377413 -2067298145 -66773802 -67263793
            -2004731201 -2069192405 -1599766118 -77219257</internalNodes>
          <leafValues>
            -9.2308700084686279e-01 3.9447021484375000e-01</leafValues></_>
        <_>
          <internalNodes>
            0 -1 51 -142608257 1900219089 -1996414718 -1333296465
            -775626353 -1693843286 -2088240389 -77923925</internalNodes>
          <leafValues>
            -6.4238274097442627e-01 6.9201421737670898e-01</leafValues></_></weakClassifiers></_>
    <!-- stage 16 -->
    <_>
      <maxWeakCount>4</maxWeakCount>
      <stageThreshold>-1.9383591413497925e+00</stageThreshold>
      <weakClassifiers>
        <_>
          <internalNodes>
            0 -1 40 -1189612587 -1853161174 298026283 -786464181
            -1293172021 -1340858109 -874266597 -590990</internalNodes>
          <leafValues>
            -8.1864625215530396e-01 4.4347825646400452e-01</leafValues></_>
        <_>
          <internalNodes>
            0 -1 47 -716999713 -679235377 -2130673441 -83393461
            -1596237222 -224984050 -99900619 -71572316</internalNodes>
          <leafValues>
            -8.5220724344253540e-01 4.5065641403198242e-01</leafValues></_>
        <_>
          <internalNodes>
            0 -1 21 2109952895 1375105114 -1995369986 931136594
            -1303833923 1243302044 -338621764 2147175227</internalNodes>
          <leafValues>
            -8.2906466722488403e-01 4.7801020741462708e-01</leafValues></_>
        <_>
          <internalNodes>
            0 -1 24 -656313 -207109337 956777887 -352214977 10425023
            -1163263969 -871691862 -320362325</internalNodes>
          <leafValues>
            -7.4551588296890259e-01 5.8503228425979614e-01</leafValues></_></weakClassifiers></_>
    <!-- stage 17 -->
    <_>
      <maxWeakCount>4</maxWeakCount>
      <stageThreshold>-8.4250748157501221e-01</stageThreshold>
      <weakClassifiers>
        <_>
          <internalNodes>
            0 -1 39 -124685385 -205567727 1495089627 -7925487 -778923557
            -87932795 -1462965528 -331300914</internalNodes>
          <leafValues>
            -8.6216598749160767e-01 3.3082705736160278e-01</leafValues></_>
        <_>
          <internalNodes>
            0 -1 11 -296757777 -16534751 -116944619 -1660832352
            -368602173 -484114176 42316193 1541839363</internalNodes>
          <leafValues>
            -9.0122622251510620e-01 4.1248252987861633e-01</leafValues></_>
        <_>
          <internalNodes>
            0 -1 43 1394037471 -775319499 -1726932586 -1614609588
            -1716974721 -1142414714 -274076812 -4249155</internalNodes>
          <leafValues>
            -9.3926262855529785e-01 3.7799510359764099e-01</leafValues></_>
        <_>
          <internalNodes>
            0 -1 1 -753278525 -750673644 -1725841199 -150622078
            1913434115 -1215676278 -1199542269 -6643576</internalNodes>
          <leafValues>
            -6.4655447006225586e-01 7.1312326192855835e-01</leafValues></_></weakClassifiers></_></stages>
  <features>
    <_>
      <rect>
        0 7 6 4</rect></_>
    <_>
      <rect>
        0 8 1 1</rect></_>
    <_>
      <rect>
        0 8 6 2</rect></_>
    <_>
      <rect>
        1 0 4 4</rect></_>
    <_>
      <rect>
        1 2 3 2</rect></_>
    <_>
      <rect>
        1 2 4 3</rect></_>
    <_>
      <rect>
        2 0 2 3</rect></_>
    <_>
      <rect>
        2 0 4 4</rect></_>
    <_>
      <rect>
        2 1 5 5</rect></_>
    <_>
      <rect>
        2 7 6 2</rect></_>
    <_>
      <rect>
        3 0 2 3</rect></_>
    <_>
      <rect>
        3 2 2 4</rect></_>
    <_>
      <rect>
        3 4 2 3</rect></_>
    <_>
      <rect>
        3 13 2 2</rect></_>
    <_>
      <rect>
        4 5 4 1</rect></_>
    <_>
      <rect>
        4 9 1 1</rect></_>
    <_>
      <rect>
        5 7 3 2</rect></_>
    <_>
      <rect>
        5 10 2 1</rect></_>
    <_>
      <rect>
        6 2 2 2</rect></_>
    <_>
      <rect>
        6 8 3 2</rect></_>
    <_>
      <rect>
        6 11 2 1</rect></_>
    <_>
      <rect>
        6 14 2 2</rect></_>
    <_>
      <rect>
        7 1 2 3</rect></_>
    <_>
      <rect>
        7 2 4 2</rect></_>
    <_>
      <rect>
        7 3 2 4</rect></_>
    <_>
      <rect>
        7 5 2 3</rect></_>
    <_>
      <rect>
        7 6 2 3</rect></_>
    <_>
      <rect>
        7 7 2 2</rect></_>
    <_>
      <rect>
        7 7 3 3</rect></_>
    <_>
      <rect>
        7 8 2 2</rect></_>
    <_>
      <rect>
        8 2 4 2</rect></_>
    <_>
      <rect>
        8 3 3 1</rect></_>
    <_>
      <rect>
        8 4 1 2</rect></_>
    <_>
      <rect>
        8 4 2 4</rect></_>
    <_>
      <rect>
        8 5 2 4</rect></_>
    <_>
      <rect>
        8 7 2 2</rect></_>
    <_>
      <rect>
        8 11 1 2</rect></_>
    <_>
      <rect>
        9 9 2 2</rect></_>
    <_>
      <rect>
        9 10 1 1</rect></_>
    <_>
      <rect>
        10 8 1 1</rect></_>
    <_>
      <rect>
        10 8 1 3</rect></_>
    <_>
      <rect>
        10 9 2 3</rect></_>
    <_>
      <rect>
        10 10 1 1</rect></_>
    <_>
      <rect>
        10 10 2 1</rect></_>
    <_>
      <rect>
        11 1 2 6</rect></_>
    <_>
      <rect>
        11 8 1 2</rect></_>
    <_>
      <rect>
        12 9 1 2</rect></_>
    <_>
      <rect>
        12 10 1 1</rect></_>
    <_>
      <rect>
        14 0 1 4</rect></_>
    <_>
      <rect>
        14 2 1 2</rect></_>
    <_>
      <rect>
        14 3 2 5</rect></_>
    <_>
      <rect>
        15 1 1 3</rect></_>
    <_>
      <rect>
        17 3 1 5</rect></_></features></cascade>
</opencv_storage>
