<?xml version="1.0"?>
<opencv_storage>
<cascade>
  <stageType>BOOST</stageType>
  <featureType>LBP</featureType>
  <height>20</height>
  <width>20</width>
  <stageParams>
    <boostType>GAB</boostType>
    <minHitRate>9.9900001287460327e-01</minHitRate>
    <maxFalseAlarm>5.0000000000000000e-01</maxFalseAlarm>
    <weightTrimRate>9.4999999999999996e-01</weightTrimRate>
    <maxDepth>1</maxDepth>
    <maxWeakCount>100</maxWeakCount></stageParams>
  <featureParams>
    <maxCatCount>256</maxCatCount>
    <featSize>1</featSize></featureParams>
  <stageNum>15</stageNum>
  <stages>
    <!-- stage 0 -->
    <_>
      <maxWeakCount>2</maxWeakCount>
      <stageThreshold>-8.4812127053737640e-02</stageThreshold>
      <weakClassifiers>
        <_>
          <internalNodes>
            0 -1 23 -513 -572531885 -686175806 -144582665 -917844401
            -82851707 -81997049 -5507253</internalNodes>
          <leafValues>
            -9.9044203758239746e-01 8.9152544736862183e-01</leafValues></_>
        <_>
          <internalNodes>
            0 -1 32 -786433 -204746427 -111947101 -25987785 -192159881
            -738999562 -12721305 -2364649</internalNodes>
          <leafValues>
            -9.7633755207061768e-01 9.0642333030700684e-01</leafValues></_></weakClassifiers></_>
    <!-- stage 1 -->
    <_>
      <maxWeakCount>3</maxWeakCount>
      <stageThreshold>-1.0340399742126465e+00</stageThreshold>
      <weakClassifiers>
        <_>
          <internalNodes>
            0 -1 17 -8388609 -349702153 -186524593 -354429233 -70789121
            -275020513 -70002182 -65</internalNodes>
          <leafValues>
            -9.4638693332672119e-01 8.9781022071838379e-01</leafValues></_>
        <_>
          <internalNodes>
            0 -1 1 -536872961 -73410133 -473043567 -2364247 -208930125
            -24391203 -117572063 -145359259</internalNodes>
          <leafValues>
            -9.1486585140228271e-01 8.6917054653167725e-01</leafValues></_>
        <_>
          <internalNodes>
            0 -1 28 2145385471 -153898241 -845555202 -73797381
            -338838690 -70680150 -269485197 -9</internalNodes>
          <leafValues>
            -9.7174715995788574e-01 8.2721281051635742e-01</leafValues></_></weakClassifiers></_>
    <!-- stage 2 -->
    <_>
      <maxWeakCount>1</maxWeakCount>
      <stageThreshold>7.2036474943161011e-01</stageThreshold>
      <weakClassifiers>
        <_>
          <internalNodes>
            0 -1 9 -1849569026 1426182469 -1877880366 -716893527
            1342222287 478152704 -1742550017 -112207153</internalNodes>
          <leafValues>
            -1. 7.2036474943161011e-01</leafValues></_></weakClassifiers></_>
    <!-- stage 3 -->
    <_>
      <maxWeakCount>3</maxWeakCount>
      <stageThreshold>-1.1417528390884399e+00</stageThreshold>
      <weakClassifiers>
        <_>
          <internalNodes>
            0 -1 40 -1285561601 -2104523965 1073811467 -2043675941
            -1316839289 -2004483965 -640419157 -16778273</internalNodes>
          <leafValues>
            -9.4160586595535278e-01 6.7096775770187378e-01</leafValues></_>
        <_>
          <internalNodes>
            0 -1 16 -488769793 -162282017 -1828503471 -773866099
            -517357069 -209210487 -108282949 -67372289</internalNodes>
          <leafValues>
            -8.9607107639312744e-01 8.0037885904312134e-01</leafValues></_>
        <_>
          <internalNodes>
            0 -1 5 -604552225 -24928221 -2146237695 -481847157
            1464017153 -1610121086 -2121579965 -33869</internalNodes>
          <leafValues>
            -9.1664958000183105e-01 7.4052357673645020e-01</leafValues></_></weakClassifiers></_>
    <!-- stage 4 -->
    <_>
      <maxWeakCount>3</maxWeakCount>
      <stageThreshold>-1.1849596500396729e+00</stageThreshold>
      <weakClassifiers>
        <_>
          <internalNodes>
            0 -1 33 -744504353 -793542010 -804941549 -142231385
            -1320175041 -1338998781 -86000905 -67376409</internalNodes>
          <leafValues>
            -8.8276672363281250e-01 6.7025089263916016e-01</leafValues></_>
        <_>
          <internalNodes>
            0 -1 22 -1442864345 -237258657 -1865370145 -2255573
            -406590789 -43574921 -338708305 -1075857809</internalNodes>
          <leafValues>
            -9.2798358201980591e-01 6.6119319200515747e-01</leafValues></_>
        <_>
          <internalNodes>
            0 -1 0 -570688513 -673336869 -1287042601 -39103568
            -1162757177 -338788212 -1969636464 -134745359</internalNodes>
          <leafValues>
            -9.2722696065902710e-01 6.4892804622650146e-01</leafValues></_></weakClassifiers></_>
    <!-- stage 5 -->
    <_>
      <maxWeakCount>2</maxWeakCount>
      <stageThreshold>-3.1172946095466614e-01</stageThreshold>
      <weakClassifiers>
        <_>
          <internalNodes>
            0 -1 18 -170133505 -271861265 1233753591 -16786973
            -382260325 -39214393 -207881733 -17061169</internalNodes>
          <leafValues>
            -9.2727273702621460e-01 6.4820843935012817e-01</leafValues></_>
        <_>
          <internalNodes>
            0 -1 37 -1677721601 -1551371889 -1023287037 -1361581989
            -1626618993 -2088755070 -219947633 -1109393425</internalNodes>
          <leafValues>
            -9.5579743385314941e-01 6.1554330587387085e-01</leafValues></_></weakClassifiers></_>
    <!-- stage 6 -->
    <_>
      <maxWeakCount>2</maxWeakCount>
      <stageThreshold>-3.3732303977012634e-01</stageThreshold>
      <weakClassifiers>
        <_>
          <internalNodes>
            0 -1 1 -2049 -15863923 -1860840977 -43656791 -608971825
            -297803117 -89527817 -211288219</internalNodes>
          <leafValues>
            -9.2978209257125854e-01 6.6013073921203613e-01</leafValues></_>
        <_>
          <internalNodes>
            0 -1 39 -134219777 -338959493 -536215526 -533014326
            -137889573 -771177887 -477436965 -1931805702</internalNodes>
          <leafValues>
            -9.6380174160003662e-01 5.9245902299880981e-01</leafValues></_></weakClassifiers></_>
    <!-- stage 7 -->
    <_>
      <maxWeakCount>3</maxWeakCount>
      <stageThreshold>-1.2084687948226929e+00</stageThreshold>
      <weakClassifiers>
        <_>
          <internalNodes>
            0 -1 21 355537403 -275414826 -1659813891 -578968165
            -1182135873 -1682783578 -1131931463 -72634881</internalNodes>
          <leafValues>
            -8.6326766014099121e-01 6.6542750597000122e-01</leafValues></_>
        <_>
          <internalNodes>
            0 -1 30 -440405597 -779111469 -1030716929 -658652841
            -1045834753 -1401247381 -236070417 -260572301</internalNodes>
          <leafValues>
            -9.4216793775558472e-01 5.5073291063308716e-01</leafValues></_>
        <_>
          <internalNodes>
            0 -1 35 -203425570 -221167369 1091609951 -599752490
            -762070023 -125321088 -1280771105 -1931688724</internalNodes>
          <leafValues>
            -8.9593404531478882e-01 6.1009889841079712e-01</leafValues></_></weakClassifiers></_>
    <!-- stage 8 -->
    <_>
      <maxWeakCount>3</maxWeakCount>
      <stageThreshold>-1.2476147413253784e+00</stageThreshold>
      <weakClassifiers>
        <_>
          <internalNodes>
            0 -1 34 2113895423 400414143 -956041767 -78783771 1070543359
            -1160116071 -1183745281 -2379297</internalNodes>
          <leafValues>
            -8.6416864395141602e-01 6.1870503425598145e-01</leafValues></_>
        <_>
          <internalNodes>
            0 -1 6 -207626241 -12377709 -913217077 -3862690 -90655809
            -106097533 -873489019 -1309282079</internalNodes>
          <leafValues>
            -9.4622945785522461e-01 4.8435300588607788e-01</leafValues></_>
        <_>
          <internalNodes>
            0 -1 24 -176949281 330535747 -1848569348 -1617975918
            2027377135 -121429829 -2422052 -67130389</internalNodes>
          <leafValues>
            -8.6779910326004028e-01 5.9716606140136719e-01</leafValues></_></weakClassifiers></_>
    <!-- stage 9 -->
    <_>
      <maxWeakCount>3</maxWeakCount>
      <stageThreshold>-1.2328652143478394e+00</stageThreshold>
      <weakClassifiers>
        <_>
          <internalNodes>
            0 -1 8 -162006049 -19196929 -1826236069 -10627789 -879170561
            2013825643 -16311893 -1342773</internalNodes>
          <leafValues>
            -8.5997664928436279e-01 6.2181818485260010e-01</leafValues></_>
        <_>
          <internalNodes>
            0 -1 25 -1814316233 -704679649 -800991521 -1747104897
            -179727393 -115861437 -24384577 -1086703305</internalNodes>
          <leafValues>
            -8.9792358875274658e-01 5.7781994342803955e-01</leafValues></_>
        <_>
          <internalNodes>
            0 -1 2 -707757569 -246277709 -1721773637 -1089400675
            -1865897217 -1092974133 -1381253129 1967132738</internalNodes>
          <leafValues>
            -9.3412697315216064e-01 5.2503502368927002e-01</leafValues></_></weakClassifiers></_>
    <!-- stage 10 -->
    <_>
      <maxWeakCount>3</maxWeakCount>
      <stageThreshold>-1.1820423603057861e+00</stageThreshold>
      <weakClassifiers>
        <_>
          <internalNodes>
            0 -1 12 -858260545 -95308301 -184483341 -15346669 -281943057
            -92036535 -642991125 -69469205</internalNodes>
          <leafValues>
            -8.7784433364868164e-01 5.6228953599929810e-01</leafValues></_>
        <_>
          <internalNodes>
            0 -1 31 -79831049 -572679401 -1391899393 -575814273
            -2138144617 -2142123353 -41056081 -158347281</internalNodes>
          <leafValues>
            -8.2282537221908569e-01 5.6733685731887817e-01</leafValues></_>
        <_>
          <internalNodes>
            0 -1 36 1033345467 762269975 -1827883975 536859499
            -121781313 -108881781 -905733441 -807674481</internalNodes>
          <leafValues>
            -8.7153488397598267e-01 5.6871694326400757e-01</leafValues></_></weakClassifiers></_>
    <!-- stage 11 -->
    <_>
      <maxWeakCount>4</maxWeakCount>
      <stageThreshold>-8.8950306177139282e-01</stageThreshold>
      <weakClassifiers>
        <_>
          <internalNodes>
            0 -1 13 -17041409 -29903021 -714654767 -57935043 -1247823881
            -62642173 -108290389 -4194609</internalNodes>
          <leafValues>
            -8.9027428627014160e-01 4.4848483800888062e-01</leafValues></_>
        <_>
          <internalNodes>
            0 -1 4 -204474373 -672926293 -2127751397 -108821493
            -242853115 -491581291 -68426971 -9473052</internalNodes>
          <leafValues>
            -9.3293201923370361e-01 3.9515876770019531e-01</leafValues></_>
        <_>
          <internalNodes>
            0 -1 15 1598017983 2006257797 -1749712523 -6324337
            -868810577 -125068627 -1667678721 42527502</internalNodes>
          <leafValues>
            -9.1465306282043457e-01 4.6679687500000000e-01</leafValues></_>
        <_>
          <internalNodes>
            0 -1 11 2065561071 -170667629 -1325312779 -71706185
            -306919513 -617421081 1368123835 -815018837</internalNodes>
          <leafValues>
            -8.1849360466003418e-01 5.9255099296569824e-01</leafValues></_></weakClassifiers></_>
    <!-- stage 12 -->
    <_>
      <maxWeakCount>3</maxWeakCount>
      <stageThreshold>-1.4049583673477173e+00</stageThreshold>
      <weakClassifiers>
        <_>
          <internalNodes>
            0 -1 14 -648185345 997735903 -1022670401 899222671
            1351805855 2077131487 -1305353235 -1073748005</internalNodes>
          <leafValues>
            -8.7373739480972290e-01 3.7058824300765991e-01</leafValues></_>
        <_>
          <internalNodes>
            0 -1 26 -1050680065 1440965303 -779574654 -414082423
            -1582916737 -124083069 -913774221 -89523985</internalNodes>
          <leafValues>
            -8.9357376098632813e-01 4.5387384295463562e-01</leafValues></_>
        <_>
          <internalNodes>
            0 -1 41 -1545620481 -1479544233 -1850914539 -1509429301
            -922629921 -796186496 -912539153 -1073751989</internalNodes>
          <leafValues>
            -8.8197278976440430e-01 4.6998858451843262e-01</leafValues></_></weakClassifiers></_>
    <!-- stage 13 -->
    <_>
      <maxWeakCount>4</maxWeakCount>
      <stageThreshold>-9.9349689483642578e-01</stageThreshold>
      <weakClassifiers>
        <_>
          <internalNodes>
            0 -1 10 -216014337 -217243813 -250596583 -82394829
            -339938629 -452816895 -339607585 -1061235545</internalNodes>
          <leafValues>
            -8.8548600673675537e-01 2.5984251499176025e-01</leafValues></_>
        <_>
          <internalNodes>
            0 -1 29 400219327 -103858165 252681725 -649056036
            -1600605346 -1196975895 -355747081 -7686995</internalNodes>
          <leafValues>
            -8.8150978088378906e-01 3.9911586046218872e-01</leafValues></_>
        <_>
          <internalNodes>
            0 -1 38 -747118593 -208248230 -762060641 -871640277
            -883760402 -1873803000 -209132886 -1462830382</internalNodes>
          <leafValues>
            -8.3837223052978516e-01 4.3795463442802429e-01</leafValues></_>
        <_>
          <internalNodes>
            0 -1 3 -673197089 -38991775 -1593505781 -1113652863
            -288388917 -1080327989 -341912761 1997266671</internalNodes>
          <leafValues>
            -8.9309120178222656e-01 4.6654257178306580e-01</leafValues></_></weakClassifiers></_>
    <!-- stage 14 -->
    <_>
      <maxWeakCount>5</maxWeakCount>
      <stageThreshold>-1.5616753101348877e+00</stageThreshold>
      <weakClassifiers>
        <_>
          <internalNodes>
            0 -1 42 -729810561 -1520838699 1464156489 -1491086071
            -1048321569 -116523008 -1694312305 -3441</internalNodes>
          <leafValues>
            -8.2275450229644775e-01 4.0740740299224854e-01</leafValues></_>
        <_>
          <internalNodes>
            0 -1 19 -270013690 -342495151 -1055469099 -1814970172
            -489230081 -784326512 -61609381 -271867757</internalNodes>
          <leafValues>
            -9.3284910917282104e-01 4.0649509429931641e-01</leafValues></_>
        <_>
          <internalNodes>
            0 -1 20 931209439 1263503511 -1718537225 -1109257971
            1327573371 -1198960528 -65326405 -1143067734</internalNodes>
          <leafValues>
            -7.9377716779708862e-01 4.9250090122222900e-01</leafValues></_>
        <_>
          <internalNodes>
            0 -1 7 392422871 -1345875963 -737869551 -1398824957
            -1231617617 97092293 -1249001469 -1291068537</internalNodes>
          <leafValues>
            -7.8834748268127441e-01 5.0607758760452271e-01</leafValues></_>
        <_>
          <internalNodes>
            0 -1 27 -2055208481 307298320 1114277 -1810353791
            -2146826145 -1446870872 -1968783115 -1249263414</internalNodes>
          <leafValues>
            -7.9345309734344482e-01 5.5101710557937622e-01</leafValues></_></weakClassifiers></_></stages>
  <features>
    <_>
      <rect>
        0 0 2 2</rect></_>
    <_>
      <rect>
        0 0 2 4</rect></_>
    <_>
      <rect>
        0 0 6 1</rect></_>
    <_>
      <rect>
        0 1 3 6</rect></_>
    <_>
      <rect>
        0 3 1 4</rect></_>
    <_>
      <rect>
        0 5 1 5</rect></_>
    <_>
      <rect>
        1 0 2 2</rect></_>
    <_>
      <rect>
        3 2 2 6</rect></_>
    <_>
      <rect>
        3 4 2 2</rect></_>
    <_>
      <rect>
        3 5 5 5</rect></_>
    <_>
      <rect>
        4 0 2 2</rect></_>
    <_>
      <rect>
        4 0 4 3</rect></_>
    <_>
      <rect>
        4 3 2 2</rect></_>
    <_>
      <rect>
        4 4 2 2</rect></_>
    <_>
      <rect>
        4 14 2 2</rect></_>
    <_>
      <rect>
        5 0 5 2</rect></_>
    <_>
      <rect>
        5 2 2 3</rect></_>
    <_>
      <rect>
        5 5 2 3</rect></_>
    <_>
      <rect>
        5 9 2 2</rect></_>
    <_>
      <rect>
        7 1 2 3</rect></_>
    <_>
      <rect>
        7 17 2 1</rect></_>
    <_>
      <rect>
        7 17 3 1</rect></_>
    <_>
      <rect>
        8 0 2 3</rect></_>
    <_>
      <rect>
        8 6 3 3</rect></_>
    <_>
      <rect>
        8 14 2 2</rect></_>
    <_>
      <rect>
        9 1 2 2</rect></_>
    <_>
      <rect>
        9 6 2 2</rect></_>
    <_>
      <rect>
        9 8 2 1</rect></_>
    <_>
      <rect>
        9 8 2 2</rect></_>
    <_>
      <rect>
        9 9 2 1</rect></_>
    <_>
      <rect>
        10 0 2 4</rect></_>
    <_>
      <rect>
        10 3 3 3</rect></_>
    <_>
      <rect>
        10 7 2 2</rect></_>
    <_>
      <rect>
        11 9 1 2</rect></_>
    <_>
      <rect>
        11 14 2 2</rect></_>
    <_>
      <rect>
        14 0 1 1</rect></_>
    <_>
      <rect>
        14 14 2 2</rect></_>
    <_>
      <rect>
        16 5 1 5</rect></_>
    <_>
      <rect>
        17 0 1 3</rect></_>
    <_>
      <rect>
        17 0 1 5</rect></_>
    <_>
      <rect>
        17 9 1 3</rect></_>
    <_>
      <rect>
        17 11 1 3</rect></_>
    <_>
      <rect>
        17 14 1 2</rect></_></features></cascade>
</opencv_storage>
