<?xml version="1.0"?>
<opencv_storage>
<cascade>
  <stageType>BOOST</stageType>
  <featureType>LBP</featureType>
  <height>20</height>
  <width>20</width>
  <stageParams>
    <boostType>GAB</boostType>
    <minHitRate>9.9900001287460327e-01</minHitRate>
    <maxFalseAlarm>5.0000000000000000e-01</maxFalseAlarm>
    <weightTrimRate>9.4999999999999996e-01</weightTrimRate>
    <maxDepth>1</maxDepth>
    <maxWeakCount>100</maxWeakCount></stageParams>
  <featureParams>
    <maxCatCount>256</maxCatCount>
    <featSize>1</featSize></featureParams>
  <stageNum>18</stageNum>
  <stages>
    <!-- stage 0 -->
    <_>
      <maxWeakCount>2</maxWeakCount>
      <stageThreshold>-1.6456587612628937e-01</stageThreshold>
      <weakClassifiers>
        <_>
          <internalNodes>
            0 -1 19 -778315282 1435599169 16843003 1368987913
            -1719537409 -1962246005 -528230145 -4207937</internalNodes>
          <leafValues>
            -9.9503719806671143e-01 9.2201834917068481e-01</leafValues></_>
        <_>
          <internalNodes>
            0 -1 5 -787361314 -780074808 1073873175 -82751223
            -1199537477 -645922807 -1467954961 -5519189</internalNodes>
          <leafValues>
            -9.7817194461822510e-01 8.3047133684158325e-01</leafValues></_></weakClassifiers></_>
    <!-- stage 1 -->
    <_>
      <maxWeakCount>3</maxWeakCount>
      <stageThreshold>-1.1548739671707153e+00</stageThreshold>
      <weakClassifiers>
        <_>
          <internalNodes>
            0 -1 36 -36439041 -538979331 -480396301 -3682113 -72614049
            -1347435397 -24383625 -280385</internalNodes>
          <leafValues>
            -9.6521741151809692e-01 8.6270022392272949e-01</leafValues></_>
        <_>
          <internalNodes>
            0 -1 21 -1081346049 -409995309 2114767707 -295767557
            -174341121 -271344961 -67388433 -1025</internalNodes>
          <leafValues>
            -9.2226833105087280e-01 8.5441786050796509e-01</leafValues></_>
        <_>
          <internalNodes>
            0 -1 44 -740559373 -170294811 -616440366 -10923571
            -793126089 -9797405 -629085641 -4289813</internalNodes>
          <leafValues>
            -9.9326908588409424e-01 7.3261171579360962e-01</leafValues></_></weakClassifiers></_>
    <!-- stage 2 -->
    <_>
      <maxWeakCount>3</maxWeakCount>
      <stageThreshold>-1.1195313930511475e+00</stageThreshold>
      <weakClassifiers>
        <_>
          <internalNodes>
            0 -1 14 -234883617 -808454673 -267157251 -352454787
            -1393427521 -40908849 -661406769 -9745</internalNodes>
          <leafValues>
            -9.5477384328842163e-01 8.0717486143112183e-01</leafValues></_>
        <_>
          <internalNodes>
            0 -1 46 1971322879 -552910433 -547784705 -72418641 -71436022
            -913317234 -3145737 -3595</internalNodes>
          <leafValues>
            -9.3356519937515259e-01 7.0638144016265869e-01</leafValues></_>
        <_>
          <internalNodes>
            0 -1 29 -269484217 -38014243 -42347554 -3161993 -274728193
            -209550136 -6164037 -3093</internalNodes>
          <leafValues>
            -8.5172069072723389e-01 7.6880770921707153e-01</leafValues></_></weakClassifiers></_>
    <!-- stage 3 -->
    <_>
      <maxWeakCount>3</maxWeakCount>
      <stageThreshold>-9.6505862474441528e-01</stageThreshold>
      <weakClassifiers>
        <_>
          <internalNodes>
            0 -1 9 -577775105 -14481543 -216018182 -137145863
            -1013974529 -242665331 -123994369 -67110417</internalNodes>
          <leafValues>
            -8.6538463830947876e-01 7.8048777580261230e-01</leafValues></_>
        <_>
          <internalNodes>
            0 -1 28 -139731505 -67931145 -1313678851 -37109281
            -178783241 -593243602 -39982145 -339229521</internalNodes>
          <leafValues>
            -8.1753772497177124e-01 7.8265655040740967e-01</leafValues></_>
        <_>
          <internalNodes>
            0 -1 13 -360712449 -86249039 1461844907 -3549031 -359924753
            -326830846 1223149991 -856958569</internalNodes>
          <leafValues>
            -8.4792721271514893e-01 7.1786373853683472e-01</leafValues></_></weakClassifiers></_>
    <!-- stage 4 -->
    <_>
      <maxWeakCount>3</maxWeakCount>
      <stageThreshold>-1.1410050392150879e+00</stageThreshold>
      <weakClassifiers>
        <_>
          <internalNodes>
            0 -1 23 -145239553 -268582445 -598404001 -16819725
            -1315859271 -6193008 -1144865793 -4544261</internalNodes>
          <leafValues>
            -9.1349935531616211e-01 6.2004172801971436e-01</leafValues></_>
        <_>
          <internalNodes>
            0 -1 40 -2116813 -711083713 -325333793 -20991589 -392374577
            -783177728 -909579779 -26742977</internalNodes>
          <leafValues>
            -9.0569937229156494e-01 6.3358461856842041e-01</leafValues></_>
        <_>
          <internalNodes>
            0 -1 12 262007807 -178398313 838982619 -2633249 -930284581
            -63714855 -1916186075 -944355836</internalNodes>
          <leafValues>
            -8.6109036207199097e-01 6.8746650218963623e-01</leafValues></_></weakClassifiers></_>
    <!-- stage 5 -->
    <_>
      <maxWeakCount>3</maxWeakCount>
      <stageThreshold>-1.2100801467895508e+00</stageThreshold>
      <weakClassifiers>
        <_>
          <internalNodes>
            0 -1 23 -620637737 -269249127 -225954829 -27273505
            -368529189 -1148092246 -1056785441 -280389</internalNodes>
          <leafValues>
            -9.0956073999404907e-01 6.4957267045974731e-01</leafValues></_>
        <_>
          <internalNodes>
            0 -1 54 -738502305 -750419692 -2063494305 -171452337
            -220550289 -1055252302 -87056537 -69357851</internalNodes>
          <leafValues>
            -9.2019045352935791e-01 5.3039824962615967e-01</leafValues></_>
        <_>
          <internalNodes>
            0 -1 37 -1142982657 524783865 -2029677569 1063176669
            1806268415 2065871526 -1412215668 -540542212</internalNodes>
          <leafValues>
            -8.3091759681701660e-01 6.7023527622222900e-01</leafValues></_></weakClassifiers></_>
    <!-- stage 6 -->
    <_>
      <maxWeakCount>3</maxWeakCount>
      <stageThreshold>-1.1481812000274658e+00</stageThreshold>
      <weakClassifiers>
        <_>
          <internalNodes>
            0 -1 11 -615172865 -47884635 1389756014 -271870654
            -287848193 -5661179 -68460549 -67381550</internalNodes>
          <leafValues>
            -9.1825610399246216e-01 5.3937005996704102e-01</leafValues></_>
        <_>
          <internalNodes>
            0 -1 49 -1075841697 -217116645 -255082845 -1946184194
            -1153569953 -1965891062 -400825231 -342904049</internalNodes>
          <leafValues>
            -9.0630471706390381e-01 5.4643905162811279e-01</leafValues></_>
        <_>
          <internalNodes>
            0 -1 34 -1353458177 223297745 286874109 -40251171 536900095
            990906616 -2021451624 -1141941669</internalNodes>
          <leafValues>
            -7.7636408805847168e-01 7.0845305919647217e-01</leafValues></_></weakClassifiers></_>
    <!-- stage 7 -->
    <_>
      <maxWeakCount>3</maxWeakCount>
      <stageThreshold>-1.1383037567138672e+00</stageThreshold>
      <weakClassifiers>
        <_>
          <internalNodes>
            0 -1 15 2065406815 -276343826 2132358621 -220911661
            -1453125190 -274001481 -83842412 -268833</internalNodes>
          <leafValues>
            -9.1506850719451904e-01 5.2343750000000000e-01</leafValues></_>
        <_>
          <internalNodes>
            0 -1 3 -186974214 -8397033 -687571043 -15497839 -611066901
            -16154229 -718599681 -4222089</internalNodes>
          <leafValues>
            -9.0748220682144165e-01 5.6561291217803955e-01</leafValues></_>
        <_>
          <internalNodes>
            0 -1 16 -614629377 -141001833 -553439745 -1078040149
            226700095 2143240733 -83658049 -1378138</internalNodes>
          <leafValues>
            -7.5425899028778076e-01 7.4935656785964966e-01</leafValues></_></weakClassifiers></_>
    <!-- stage 8 -->
    <_>
      <maxWeakCount>3</maxWeakCount>
      <stageThreshold>-1.1044754981994629e+00</stageThreshold>
      <weakClassifiers>
        <_>
          <internalNodes>
            0 -1 30 -6038065 -170397195 -755781125 -629853445 -493552389
            -1589067560 -390203209 -23269233</internalNodes>
          <leafValues>
            -8.4852373600006104e-01 5.6371492147445679e-01</leafValues></_>
        <_>
          <internalNodes>
            0 -1 45 -955127813 -740491130 421287411 -639434359
            -1870626721 -528383848 -609702937 -1402213</internalNodes>
          <leafValues>
            -9.1467976570129395e-01 4.9689614772796631e-01</leafValues></_>
        <_>
          <internalNodes>
            0 -1 2 -133841953 -609234549 -1793985697 -135554633
            1774426615 -387585649 -665722905 -243828889</internalNodes>
          <leafValues>
            -7.5284790992736816e-01 7.4992549419403076e-01</leafValues></_></weakClassifiers></_>
    <!-- stage 9 -->
    <_>
      <maxWeakCount>3</maxWeakCount>
      <stageThreshold>-1.1653678417205811e+00</stageThreshold>
      <weakClassifiers>
        <_>
          <internalNodes>
            0 -1 18 -292294657 -1088441533 2005431185 -551956206
            -419322947 -75454461 -909711569 -846210797</internalNodes>
          <leafValues>
            -8.5313749313354492e-01 4.8478701710700989e-01</leafValues></_>
        <_>
          <internalNodes>
            0 -1 56 2010641405 -545292003 -585008836 -1110998447
            -773916171 -588414271 1290587135 365428479</internalNodes>
          <leafValues>
            -8.2802653312683105e-01 5.7355797290802002e-01</leafValues></_>
        <_>
          <internalNodes>
            0 -1 41 -1377878153 -203739127 -784166445 -783289783
            -871698181 -1065330614 -869888261 -68185889</internalNodes>
          <leafValues>
            -8.2212829589843750e-01 6.3083916902542114e-01</leafValues></_></weakClassifiers></_>
    <!-- stage 10 -->
    <_>
      <maxWeakCount>3</maxWeakCount>
      <stageThreshold>-1.1082872152328491e+00</stageThreshold>
      <weakClassifiers>
        <_>
          <internalNodes>
            0 -1 47 -1856643585 199482168 -2091805709 -1178392034
            -104038915 978960530 -1342628871 -1090561362</internalNodes>
          <leafValues>
            -8.4496122598648071e-01 5.4273504018783569e-01</leafValues></_>
        <_>
          <internalNodes>
            0 -1 48 -104857731 -1014789349 1288363 1884015240
            -1534874633 -1156997102 -48256373 -70255701</internalNodes>
          <leafValues>
            -8.3885890245437622e-01 5.9531384706497192e-01</leafValues></_>
        <_>
          <internalNodes>
            0 -1 26 -1139548264 -384751983 -721342373 -86044328
            -1472030029 -1297612800 -385699109 -84245829</internalNodes>
          <leafValues>
            -8.1216335296630859e-01 6.3428252935409546e-01</leafValues></_></weakClassifiers></_>
    <!-- stage 11 -->
    <_>
      <maxWeakCount>3</maxWeakCount>
      <stageThreshold>-1.1149154901504517e+00</stageThreshold>
      <weakClassifiers>
        <_>
          <internalNodes>
            0 -1 4 -141035777 1539772685 -248145170 -571664984
            -1617101313 -594563877 -1314940161 -19576087</internalNodes>
          <leafValues>
            -8.4840422868728638e-01 4.8571428656578064e-01</leafValues></_>
        <_>
          <internalNodes>
            0 -1 59 -1075841057 -1462308741 -645889788 -1639007269
            -679086432 -498499446 -836523825 -1361069393</internalNodes>
          <leafValues>
            -8.1368446350097656e-01 5.7650965452194214e-01</leafValues></_>
        <_>
          <internalNodes>
            0 -1 32 -779656193 -357918968 -2129182461 -1560288555
            -243040149 -641529854 -619734358 -68661</internalNodes>
          <leafValues>
            -7.8694534301757813e-01 6.2645077705383301e-01</leafValues></_></weakClassifiers></_>
    <!-- stage 12 -->
    <_>
      <maxWeakCount>5</maxWeakCount>
      <stageThreshold>-1.4094332456588745e+00</stageThreshold>
      <weakClassifiers>
        <_>
          <internalNodes>
            0 -1 50 -233744897 -974569061 1342457287 -1467235671
            -1165255889 -863371128 -611602633 -337661251</internalNodes>
          <leafValues>
            -8.8368797302246094e-01 4.1527003049850464e-01</leafValues></_>
        <_>
          <internalNodes>
            0 -1 1 766601695 -137261601 -648953377 -188585 -1059450945
            -73883495 -1165980897 1936736785</internalNodes>
          <leafValues>
            -8.5187655687332153e-01 5.1224476099014282e-01</leafValues></_>
        <_>
          <internalNodes>
            0 -1 10 -782237697 -74215405 -14862530 -48950250 1535192063
            2073280953 1791500155 1989929402</internalNodes>
          <leafValues>
            -8.3738040924072266e-01 5.3516435623168945e-01</leafValues></_>
        <_>
          <internalNodes>
            0 -1 42 -1143139233 -787021751 272945405 -1785364007
            -1165842221 -1834991488 -99817285 -272033698</internalNodes>
          <leafValues>
            -7.2337269783020020e-01 6.8180227279663086e-01</leafValues></_>
        <_>
          <internalNodes>
            0 -1 8 -1852598305 -544038518 -1054748517 1987351187 1048989
            -1694039911 -2141093869 1873789151</internalNodes>
          <leafValues>
            -8.4427982568740845e-01 5.8792638778686523e-01</leafValues></_></weakClassifiers></_>
    <!-- stage 13 -->
    <_>
      <maxWeakCount>4</maxWeakCount>
      <stageThreshold>-7.3503649234771729e-01</stageThreshold>
      <weakClassifiers>
        <_>
          <internalNodes>
            0 -1 35 -924849817 -705049484 -1986962945 -117931813
            -225905929 -1445934909 -342760246 -100744454</internalNodes>
          <leafValues>
            -8.7731814384460449e-01 3.9741221070289612e-01</leafValues></_>
        <_>
          <internalNodes>
            0 -1 17 -1580870689 -146146849 -452830721 -4328737
            -171844613 -302466622 -1451123785 -1881489195</internalNodes>
          <leafValues>
            -7.4878203868865967e-01 5.9362816810607910e-01</leafValues></_>
        <_>
          <internalNodes>
            0 -1 33 -1687447041 -251656933 1113190110 -1450094207
            -845451019 163221949 -1952723724 -1210074625</internalNodes>
          <leafValues>
            -8.4264659881591797e-01 5.3480815887451172e-01</leafValues></_>
        <_>
          <internalNodes>
            0 -1 51 -796687873 -191168371 805542367 -106852005
            -1307883496 -268435293 -2131177641 -83953503</internalNodes>
          <leafValues>
            -9.1847485303878784e-01 4.7740623354911804e-01</leafValues></_></weakClassifiers></_>
    <!-- stage 14 -->
    <_>
      <maxWeakCount>4</maxWeakCount>
      <stageThreshold>-8.5594069957733154e-01</stageThreshold>
      <weakClassifiers>
        <_>
          <internalNodes>
            0 -1 6 -587784481 -327973115 -988735215 -10682107
            -1188196707 -582399996 1046284699 2144802048</internalNodes>
          <leafValues>
            -8.5337245464324951e-01 3.2499998807907104e-01</leafValues></_>
        <_>
          <internalNodes>
            0 -1 25 -822484177 -145653503 -718188053 -211959523
            -1047073814 -246376447 -92235638 -212086647</internalNodes>
          <leafValues>
            -8.1265205144882202e-01 4.4459626078605652e-01</leafValues></_>
        <_>
          <internalNodes>
            0 -1 58 -446742425 -1059597939 536969695 -288361640
            -1685888346 -1476327293 -649594146 -889406550</internalNodes>
          <leafValues>
            -7.5725865364074707e-01 5.4983824491500854e-01</leafValues></_>
        <_>
          <internalNodes>
            0 -1 7 -1680869569 -13325728 -801058585 1961742457
            1921757903 -1931395808 1959354822 1886675569</internalNodes>
          <leafValues>
            -8.6827832460403442e-01 4.3183171749114990e-01</leafValues></_></weakClassifiers></_>
    <!-- stage 15 -->
    <_>
      <maxWeakCount>5</maxWeakCount>
      <stageThreshold>-1.2540249824523926e+00</stageThreshold>
      <weakClassifiers>
        <_>
          <internalNodes>
            0 -1 27 -1316793889 -1647242859 -1862151201 -1612840750
            1060117119 2105713032 -1702626882 -1414821394</internalNodes>
          <leafValues>
            -7.8120976686477661e-01 4.4516128301620483e-01</leafValues></_>
        <_>
          <internalNodes>
            0 -1 22 -1523351297 -719376035 598726131 -750807123
            -1647793202 -74907442 -1480935886 -1148547537</internalNodes>
          <leafValues>
            -7.8126925230026245e-01 5.1657080650329590e-01</leafValues></_>
        <_>
          <internalNodes>
            0 -1 31 -1281764801 -518143853 -1560178339 -388103721
            -1174222711 -1438480888 -226319685 -22367957</internalNodes>
          <leafValues>
            -7.9388940334320068e-01 4.6619990468025208e-01</leafValues></_>
        <_>
          <internalNodes>
            0 -1 0 1921244927 -12089089 956514863 -71004179 2047336167
            -1070741367 -837707099 -143168665</internalNodes>
          <leafValues>
            -7.0680981874465942e-01 5.8015120029449463e-01</leafValues></_>
        <_>
          <internalNodes>
            0 -1 43 -1080352903 -712702656 1132528314 1132691666
            -2136992983 -2139061621 283894390 -73286936</internalNodes>
          <leafValues>
            -7.8427582979202271e-01 5.4906386137008667e-01</leafValues></_></weakClassifiers></_>
    <!-- stage 16 -->
    <_>
      <maxWeakCount>4</maxWeakCount>
      <stageThreshold>-8.6240822076797485e-01</stageThreshold>
      <weakClassifiers>
        <_>
          <internalNodes>
            0 -1 20 -1275079713 -78720086 1613332497 -185150958
            -1818123638 -1186758517 -855250533 -322178805</internalNodes>
          <leafValues>
            -8.0716252326965332e-01 3.6046510934829712e-01</leafValues></_>
        <_>
          <internalNodes>
            0 -1 57 -661783108 -502775597 -669925358 -66600509
            -800865793 -767459174 -663788629 -1392577877</internalNodes>
          <leafValues>
            -8.2799148559570313e-01 4.0412366390228271e-01</leafValues></_>
        <_>
          <internalNodes>
            0 -1 52 -560997323 -795639665 -1342058017 -740442065
            -474420395 -299622400 -2002458477 -70412222</internalNodes>
          <leafValues>
            -8.0467993021011353e-01 4.4325789809226990e-01</leafValues></_>
        <_>
          <internalNodes>
            0 -1 38 355849179 97943616 -2063597156 -1932155485 17074365
            947946122 764430780 2145949930</internalNodes>
          <leafValues>
            -8.2231706380844116e-01 4.6287325024604797e-01</leafValues></_></weakClassifiers></_>
    <!-- stage 17 -->
    <_>
      <maxWeakCount>4</maxWeakCount>
      <stageThreshold>-1.8514467477798462e+00</stageThreshold>
      <weakClassifiers>
        <_>
          <internalNodes>
            0 -1 24 -94396161 -79396521 1900347719 -12500534 -754870115
            -258998272 -483938259 -1391465981</internalNodes>
          <leafValues>
            -7.4250000715255737e-01 4.3891403079032898e-01</leafValues></_>
        <_>
          <internalNodes>
            0 -1 53 -506766849 -1064664950 1073758219 -2079554429
            -938859809 -1971158908 -1423785407 -823531935</internalNodes>
          <leafValues>
            -8.8355392217636108e-01 3.7439018487930298e-01</leafValues></_>
        <_>
          <internalNodes>
            0 -1 39 831681753 -677706745 -779861286 -170573542
            -794638099 -897570166 -1283409714 -18871984</internalNodes>
          <leafValues>
            -6.8962216377258301e-01 5.5396878719329834e-01</leafValues></_>
        <_>
          <internalNodes>
            0 -1 55 -267300504 -261010216 -805105443 -124468969
            -524156152 -1451047933 -218056514 -1104086668</internalNodes>
          <leafValues>
            -7.9371470212936401e-01 4.6066409349441528e-01</leafValues></_></weakClassifiers></_></stages>
  <features>
    <_>
      <rect>
        0 0 2 5</rect></_>
    <_>
      <rect>
        0 0 5 2</rect></_>
    <_>
      <rect>
        0 1 2 5</rect></_>
    <_>
      <rect>
        0 1 5 6</rect></_>
    <_>
      <rect>
        0 5 5 3</rect></_>
    <_>
      <rect>
        1 1 6 6</rect></_>
    <_>
      <rect>
        1 2 4 4</rect></_>
    <_>
      <rect>
        1 4 2 5</rect></_>
    <_>
      <rect>
        1 5 4 5</rect></_>
    <_>
      <rect>
        1 5 6 5</rect></_>
    <_>
      <rect>
        1 14 5 2</rect></_>
    <_>
      <rect>
        2 5 4 3</rect></_>
    <_>
      <rect>
        3 0 3 2</rect></_>
    <_>
      <rect>
        3 2 2 3</rect></_>
    <_>
      <rect>
        3 7 3 2</rect></_>
    <_>
      <rect>
        3 8 3 2</rect></_>
    <_>
      <rect>
        3 14 3 2</rect></_>
    <_>
      <rect>
        4 0 2 2</rect></_>
    <_>
      <rect>
        4 1 2 3</rect></_>
    <_>
      <rect>
        4 1 4 5</rect></_>
    <_>
      <rect>
        5 5 1 3</rect></_>
    <_>
      <rect>
        5 5 2 3</rect></_>
    <_>
      <rect>
        5 6 5 3</rect></_>
    <_>
      <rect>
        5 8 2 1</rect></_>
    <_>
      <rect>
        6 3 1 2</rect></_>
    <_>
      <rect>
        6 3 2 2</rect></_>
    <_>
      <rect>
        6 9 1 1</rect></_>
    <_>
      <rect>
        6 16 2 1</rect></_>
    <_>
      <rect>
        7 1 2 4</rect></_>
    <_>
      <rect>
        7 3 2 2</rect></_>
    <_>
      <rect>
        7 3 2 3</rect></_>
    <_>
      <rect>
        7 8 1 1</rect></_>
    <_>
      <rect>
        7 9 1 2</rect></_>
    <_>
      <rect>
        7 12 4 2</rect></_>
    <_>
      <rect>
        7 16 3 1</rect></_>
    <_>
      <rect>
        8 3 2 2</rect></_>
    <_>
      <rect>
        8 7 3 2</rect></_>
    <_>
      <rect>
        8 14 2 2</rect></_>
    <_>
      <rect>
        8 14 3 2</rect></_>
    <_>
      <rect>
        9 0 1 1</rect></_>
    <_>
      <rect>
        9 1 2 3</rect></_>
    <_>
      <rect>
        9 2 1 2</rect></_>
    <_>
      <rect>
        9 3 1 1</rect></_>
    <_>
      <rect>
        9 5 1 2</rect></_>
    <_>
      <rect>
        9 7 2 1</rect></_>
    <_>
      <rect>
        9 8 2 1</rect></_>
    <_>
      <rect>
        9 8 2 2</rect></_>
    <_>
      <rect>
        9 14 2 2</rect></_>
    <_>
      <rect>
        10 1 1 6</rect></_>
    <_>
      <rect>
        10 6 2 3</rect></_>
    <_>
      <rect>
        10 7 1 2</rect></_>
    <_>
      <rect>
        10 10 1 1</rect></_>
    <_>
      <rect>
        11 5 1 1</rect></_>
    <_>
      <rect>
        11 5 1 3</rect></_>
    <_>
      <rect>
        11 8 1 2</rect></_>
    <_>
      <rect>
        12 2 1 1</rect></_>
    <_>
      <rect>
        13 1 2 6</rect></_>
    <_>
      <rect>
        16 0 1 6</rect></_>
    <_>
      <rect>
        16 5 1 2</rect></_>
    <_>
      <rect>
        16 6 1 4</rect></_></features></cascade>
</opencv_storage>
