<?xml version="1.0"?>
<opencv_storage>
<cascade>
  <stageType>BOOST</stageType>
  <featureType>LBP</featureType>
  <height>20</height>
  <width>20</width>
  <stageParams>
    <boostType>GAB</boostType>
    <minHitRate>9.9900001287460327e-01</minHitRate>
    <maxFalseAlarm>5.0000000000000000e-01</maxFalseAlarm>
    <weightTrimRate>9.4999999999999996e-01</weightTrimRate>
    <maxDepth>1</maxDepth>
    <maxWeakCount>100</maxWeakCount></stageParams>
  <featureParams>
    <maxCatCount>256</maxCatCount>
    <featSize>1</featSize></featureParams>
  <stageNum>12</stageNum>
  <stages>
    <!-- stage 0 -->
    <_>
      <maxWeakCount>2</maxWeakCount>
      <stageThreshold>-9.1107115149497986e-02</stageThreshold>
      <weakClassifiers>
        <_>
          <internalNodes>
            0 -1 9 -805252624 1560346624 65873 -1656680448 134250683
            -2004877304 -2113746801 -15742581</internalNodes>
          <leafValues>
            -9.9582463502883911e-01 9.0476191043853760e-01</leafValues></_>
        <_>
          <internalNodes>
            0 -1 12 -212609643 -251592640 134545489 -587137015
            -2147434293 -1316880320 34130123 -74722225</internalNodes>
          <leafValues>
            -9.9586904048919678e-01 9.1525149345397949e-01</leafValues></_></weakClassifiers></_>
    <!-- stage 1 -->
    <_>
      <maxWeakCount>1</maxWeakCount>
      <stageThreshold>9.2553192377090454e-01</stageThreshold>
      <weakClassifiers>
        <_>
          <internalNodes>
            0 -1 2 -49031201 -787925605 352436488 -14745344 -2012614421
            -1691215872 444729515 -39061621</internalNodes>
          <leafValues>
            -1. 9.2553192377090454e-01</leafValues></_></weakClassifiers></_>
    <!-- stage 2 -->
    <_>
      <maxWeakCount>2</maxWeakCount>
      <stageThreshold>-1.5082837641239166e-01</stageThreshold>
      <weakClassifiers>
        <_>
          <internalNodes>
            0 -1 5 -416808961 -711241277 -1070885749 -40248573
            -410266901 -509509478 -526733393 -340018245</internalNodes>
          <leafValues>
            -9.6249997615814209e-01 8.2978725433349609e-01</leafValues></_>
        <_>
          <internalNodes>
            0 -1 21 -805273125 1343291541 -2130584165 -40009451
            -251625288 -930971254 -1182754384 -7631719</internalNodes>
          <leafValues>
            -9.7088229656219482e-01 8.1167161464691162e-01</leafValues></_></weakClassifiers></_>
    <!-- stage 3 -->
    <_>
      <maxWeakCount>2</maxWeakCount>
      <stageThreshold>-1.7326623201370239e-01</stageThreshold>
      <weakClassifiers>
        <_>
          <internalNodes>
            0 -1 8 -78268481 -598634191 1225794015 -179204077 -461002305
            -1192095605 -33324289 -1145066821</internalNodes>
          <leafValues>
            -9.6226418018341064e-01 8.0104714632034302e-01</leafValues></_>
        <_>
          <internalNodes>
            0 -1 15 -747382281 -645987945 102595 2111275015 -494163761
            -754220917 -611065622 -808441</internalNodes>
          <leafValues>
            -9.6632218360900879e-01 7.8899794816970825e-01</leafValues></_></weakClassifiers></_>
    <!-- stage 4 -->
    <_>
      <maxWeakCount>3</maxWeakCount>
      <stageThreshold>-1.0773359537124634e+00</stageThreshold>
      <weakClassifiers>
        <_>
          <internalNodes>
            0 -1 13 -270404769 545726515 -525369333 -1020821493
            -1601466085 -1878196210 -1064353637 -68174353</internalNodes>
          <leafValues>
            -9.4572025537490845e-01 7.7777779102325439e-01</leafValues></_>
        <_>
          <internalNodes>
            0 -1 20 -710674019 -620244719 148623 -409761781 -1953371665
            -2038235071 -1859482709 -472929365</internalNodes>
          <leafValues>
            -9.4746607542037964e-01 7.9401224851608276e-01</leafValues></_>
        <_>
          <internalNodes>
            0 -1 6 -720911361 -1449885691 -1325399919 -527300591
            -2146917246 -1878917120 -1423736657 -85227381</internalNodes>
          <leafValues>
            -9.7234857082366943e-01 8.1585043668746948e-01</leafValues></_></weakClassifiers></_>
    <!-- stage 5 -->
    <_>
      <maxWeakCount>2</maxWeakCount>
      <stageThreshold>-2.7459865808486938e-01</stageThreshold>
      <weakClassifiers>
        <_>
          <internalNodes>
            0 -1 10 -662308897 -199720687 562153167 -1326313461
            -1038823237 -1835809757 -1475722501 -84974953</internalNodes>
          <leafValues>
            -9.6969699859619141e-01 6.8932038545608521e-01</leafValues></_>
        <_>
          <internalNodes>
            0 -1 16 -776085537 -1320976273 -1258028865 -1180466657
            -211578625 1221165163 -902190369 -79320565</internalNodes>
          <leafValues>
            -9.6391904354095459e-01 7.0325243473052979e-01</leafValues></_></weakClassifiers></_>
    <!-- stage 6 -->
    <_>
      <maxWeakCount>2</maxWeakCount>
      <stageThreshold>-3.1361293792724609e-01</stageThreshold>
      <weakClassifiers>
        <_>
          <internalNodes>
            0 -1 19 -787253281 -753368939 -2096819943 -1479079895
            -635411553 -513785719 -1665463827 -1409561669</internalNodes>
          <leafValues>
            -9.6467989683151245e-01 6.0930234193801880e-01</leafValues></_>
        <_>
          <internalNodes>
            0 -1 3 -784218657 -36503471 293753311 -684654255 -1602172676
            -89947488 -2012706325 -259882879</internalNodes>
          <leafValues>
            -9.2291527986526489e-01 7.3367738723754883e-01</leafValues></_></weakClassifiers></_>
    <!-- stage 7 -->
    <_>
      <maxWeakCount>2</maxWeakCount>
      <stageThreshold>-3.2918056845664978e-01</stageThreshold>
      <weakClassifiers>
        <_>
          <internalNodes>
            0 -1 23 -1861168685 -792622831 -2146234334 -45907964
            -1845460566 -125828984 -1979148224 -68427016</internalNodes>
          <leafValues>
            -9.6043956279754639e-01 6.1502349376678467e-01</leafValues></_>
        <_>
          <internalNodes>
            0 -1 14 -661481199 2001797376 412193277 1536266457
            -1736390467 -67075672 -1992259393 -1148550934</internalNodes>
          <leafValues>
            -9.4420403242111206e-01 6.8618088960647583e-01</leafValues></_></weakClassifiers></_>
    <!-- stage 8 -->
    <_>
      <maxWeakCount>2</maxWeakCount>
      <stageThreshold>-3.0950787663459778e-01</stageThreshold>
      <weakClassifiers>
        <_>
          <internalNodes>
            0 -1 22 -766538833 1342636103 545472514 -1937260401
            -1052147497 -2137382902 -1719418873 -71142</internalNodes>
          <leafValues>
            -9.3548387289047241e-01 6.3546800613403320e-01</leafValues></_>
        <_>
          <internalNodes>
            0 -1 4 -544080483 -237959045 -989849331 -586178149
            -763316581 -1576824831 -1048515653 -1980804651</internalNodes>
          <leafValues>
            -9.4497585296630859e-01 6.9266170263290405e-01</leafValues></_></weakClassifiers></_>
    <!-- stage 9 -->
    <_>
      <maxWeakCount>2</maxWeakCount>
      <stageThreshold>-2.9266512393951416e-01</stageThreshold>
      <weakClassifiers>
        <_>
          <internalNodes>
            0 -1 0 -790703649 -648590703 -2087649277 -210665467
            -525797669 -1743683572 -658537493 -209743185</internalNodes>
          <leafValues>
            -9.2750531435012817e-01 6.4824122190475464e-01</leafValues></_>
        <_>
          <internalNodes>
            0 -1 17 -105443041 -265482225 -1810939857 -578450749
            -1329618277 -1205955671 -1145331493 -1578401</internalNodes>
          <leafValues>
            -9.4090634584426880e-01 6.8946474790573120e-01</leafValues></_></weakClassifiers></_>
    <!-- stage 10 -->
    <_>
      <maxWeakCount>3</maxWeakCount>
      <stageThreshold>-1.1353149414062500e+00</stageThreshold>
      <weakClassifiers>
        <_>
          <internalNodes>
            0 -1 7 -782282241 533823699 17302743 890963029 1003100927
            -108486475 -1165423363 -6633281</internalNodes>
          <leafValues>
            -9.6467989683151245e-01 6.0930234193801880e-01</leafValues></_>
        <_>
          <internalNodes>
            0 -1 24 -1143478305 -1463041905 -1065320447 -1174158840
            -2117877513 -2147319804 -1549070181 -341845361</internalNodes>
          <leafValues>
            -8.6487990617752075e-01 8.4864687919616699e-01</leafValues></_>
        <_>
          <internalNodes>
            0 -1 1 1374025727 1463415127 -740478246 1743330267
            -1241481013 -1048469248 -1232082257 -6295105</internalNodes>
          <leafValues>
            -9.7797936201095581e-01 6.9424486160278320e-01</leafValues></_></weakClassifiers></_>
    <!-- stage 11 -->
    <_>
      <maxWeakCount>3</maxWeakCount>
      <stageThreshold>-1.1199017763137817e+00</stageThreshold>
      <weakClassifiers>
        <_>
          <internalNodes>
            0 -1 7 -619613217 2038501509 -1860086529 423960979
            1648376719 -1709571935 -1367193447 -6577525</internalNodes>
          <leafValues>
            -9.3562233448028564e-01 6.4356434345245361e-01</leafValues></_>
        <_>
          <internalNodes>
            0 -1 11 -117308177 -228982452 37718025 -2125760 -1876262742
            -1082097520 -879979298 -67118522</internalNodes>
          <leafValues>
            -8.6799269914627075e-01 7.4329638481140137e-01</leafValues></_>
        <_>
          <internalNodes>
            0 -1 18 1081168713 -652673008 1157747193 -61784035
            -1590888369 -2039345110 -1962872645 -68965579</internalNodes>
          <leafValues>
            -9.7390198707580566e-01 6.8371319770812988e-01</leafValues></_></weakClassifiers></_></stages>
  <features>
    <_>
      <rect>
        0 0 4 6</rect></_>
    <_>
      <rect>
        1 5 6 5</rect></_>
    <_>
      <rect>
        1 8 5 3</rect></_>
    <_>
      <rect>
        2 0 5 1</rect></_>
    <_>
      <rect>
        3 0 2 2</rect></_>
    <_>
      <rect>
        3 0 3 4</rect></_>
    <_>
      <rect>
        4 8 1 1</rect></_>
    <_>
      <rect>
        4 14 4 2</rect></_>
    <_>
      <rect>
        5 0 4 3</rect></_>
    <_>
      <rect>
        5 3 5 3</rect></_>
    <_>
      <rect>
        6 5 4 5</rect></_>
    <_>
      <rect>
        6 8 2 1</rect></_>
    <_>
      <rect>
        7 0 3 6</rect></_>
    <_>
      <rect>
        7 3 2 4</rect></_>
    <_>
      <rect>
        7 4 4 1</rect></_>
    <_>
      <rect>
        7 6 2 2</rect></_>
    <_>
      <rect>
        7 6 2 3</rect></_>
    <_>
      <rect>
        7 7 2 2</rect></_>
    <_>
      <rect>
        7 10 2 1</rect></_>
    <_>
      <rect>
        7 14 2 2</rect></_>
    <_>
      <rect>
        8 2 4 4</rect></_>
    <_>
      <rect>
        8 8 3 1</rect></_>
    <_>
      <rect>
        10 7 1 3</rect></_>
    <_>
      <rect>
        11 9 1 1</rect></_>
    <_>
      <rect>
        17 8 1 4</rect></_></features></cascade>
</opencv_storage>
