<?xml version="1.0"?>
<opencv_storage>
<cascade>
  <stageType>BOOST</stageType>
  <featureType>LBP</featureType>
  <height>20</height>
  <width>20</width>
  <stageParams>
    <boostType>GAB</boostType>
    <minHitRate>9.9900001287460327e-01</minHitRate>
    <maxFalseAlarm>5.0000000000000000e-01</maxFalseAlarm>
    <weightTrimRate>9.4999999999999996e-01</weightTrimRate>
    <maxDepth>1</maxDepth>
    <maxWeakCount>100</maxWeakCount></stageParams>
  <featureParams>
    <maxCatCount>256</maxCatCount>
    <featSize>1</featSize></featureParams>
  <stageNum>17</stageNum>
  <stages>
    <!-- stage 0 -->
    <_>
      <maxWeakCount>2</maxWeakCount>
      <stageThreshold>-1.2402255088090897e-01</stageThreshold>
      <weakClassifiers>
        <_>
          <internalNodes>
            0 -1 12 -644220450 -615710271 -2129428337 -652666877
            -2003138369 -1718943605 -1609842433 -4459585</internalNodes>
          <leafValues>
            -9.9776786565780640e-01 9.2967033386230469e-01</leafValues></_>
        <_>
          <internalNodes>
            0 -1 6 -397153553 1393383325 -602306177 -211823397
            1083033855 -544232241 -762738177 -263493</internalNodes>
          <leafValues>
            -9.9123787879943848e-01 8.7374532222747803e-01</leafValues></_></weakClassifiers></_>
    <!-- stage 1 -->
    <_>
      <maxWeakCount>2</maxWeakCount>
      <stageThreshold>-1.5187396109104156e-01</stageThreshold>
      <weakClassifiers>
        <_>
          <internalNodes>
            0 -1 24 -39854243 -77603507 -1176675585 -580937633
            -386270465 -1198921281 -271586305 -67109649</internalNodes>
          <leafValues>
            -9.6850395202636719e-01 8.4415584802627563e-01</leafValues></_>
        <_>
          <internalNodes>
            0 -1 16 -67110401 -35669025 -639075361 -320013481 -72094785
            -72795181 -57672707 -50462981</internalNodes>
          <leafValues>
            -9.7416615486145020e-01 8.1663000583648682e-01</leafValues></_></weakClassifiers></_>
    <!-- stage 2 -->
    <_>
      <maxWeakCount>2</maxWeakCount>
      <stageThreshold>-2.4573218822479248e-01</stageThreshold>
      <weakClassifiers>
        <_>
          <internalNodes>
            0 -1 8 -1646790657 -45898241 -639830018 -517 -1425950241
            -3110799 -268509442 -8209</internalNodes>
          <leafValues>
            -9.5089286565780640e-01 8.3736264705657959e-01</leafValues></_>
        <_>
          <internalNodes>
            0 -1 27 -1 1577057759 -83140879 -274074115 -649070225
            -141702149 -384042033 -319947809</internalNodes>
          <leafValues>
            -9.6016699075698853e-01 7.0516067743301392e-01</leafValues></_></weakClassifiers></_>
    <!-- stage 3 -->
    <_>
      <maxWeakCount>3</maxWeakCount>
      <stageThreshold>-1.0879533290863037e+00</stageThreshold>
      <weakClassifiers>
        <_>
          <internalNodes>
            0 -1 3 -35791873 -610428837 -13975638 -8930433 -515297857
            -712560605 -5269077 -1077281</internalNodes>
          <leafValues>
            -9.3863636255264282e-01 7.5371551513671875e-01</leafValues></_>
        <_>
          <internalNodes>
            0 -1 32 -35652289 -8523425 -710942725 -10642980 -738207745
            -33713791 -1835345409 -35919114</internalNodes>
          <leafValues>
            -8.8310348987579346e-01 7.6773828268051147e-01</leafValues></_>
        <_>
          <internalNodes>
            0 -1 10 -453054465 -5004849 -741878313 -77614573 -625487425
            -3491809 -1047574485 -973092719</internalNodes>
          <leafValues>
            -9.2578196525573730e-01 7.3378652334213257e-01</leafValues></_></weakClassifiers></_>
    <!-- stage 4 -->
    <_>
      <maxWeakCount>3</maxWeakCount>
      <stageThreshold>-1.1861125230789185e+00</stageThreshold>
      <weakClassifiers>
        <_>
          <internalNodes>
            0 -1 45 -134217897 -168861765 -1332908065 -614468625
            -141821065 -32375957 -335547413 -3413265</internalNodes>
          <leafValues>
            -9.3742758035659790e-01 6.9262295961380005e-01</leafValues></_>
        <_>
          <internalNodes>
            0 -1 21 -742293537 -275815953 -213798947 -312485985
            -1229876565 -8451393 -4463653 -318833672</internalNodes>
          <leafValues>
            -9.5760631561279297e-01 6.3690948486328125e-01</leafValues></_>
        <_>
          <internalNodes>
            0 -1 2 -271063041 -48526371 -3581057 -15468119 61537279
            -181817957 1469037567 -206700657</internalNodes>
          <leafValues>
            -8.8559442758560181e-01 7.2893631458282471e-01</leafValues></_></weakClassifiers></_>
    <!-- stage 5 -->
    <_>
      <maxWeakCount>3</maxWeakCount>
      <stageThreshold>-1.0699278116226196e+00</stageThreshold>
      <weakClassifiers>
        <_>
          <internalNodes>
            0 -1 25 -324404225 -82079017 2033702215 -9447521 -234896749
            -217906385 -1146125879 -268353</internalNodes>
          <leafValues>
            -9.2566782236099243e-01 6.6530615091323853e-01</leafValues></_>
        <_>
          <internalNodes>
            0 -1 36 -575713 -15117449 -1069161985 -79703075 -1125124609
            -1039487400 -876088869 -5377041</internalNodes>
          <leafValues>
            -9.2856949567794800e-01 6.4646089076995850e-01</leafValues></_>
        <_>
          <internalNodes>
            0 -1 7 -585254913 -308438799 -250244769 -37649697 -485360901
            -1492481399 -1752189017 -540046341</internalNodes>
          <leafValues>
            -7.9072088003158569e-01 7.9464292526245117e-01</leafValues></_></weakClassifiers></_>
    <!-- stage 6 -->
    <_>
      <maxWeakCount>3</maxWeakCount>
      <stageThreshold>-1.0607988834381104e+00</stageThreshold>
      <weakClassifiers>
        <_>
          <internalNodes>
            0 -1 17 1464333311 -649508737 -1289879571 -550038637
            2043063039 -43810169 -70176516 -68693509</internalNodes>
          <leafValues>
            -8.8774341344833374e-01 6.3598328828811646e-01</leafValues></_>
        <_>
          <internalNodes>
            0 -1 43 -1082131457 -1411925861 -1457659937 -413671971
            -1181110036 -823428165 -1383335451 -33555461</internalNodes>
          <leafValues>
            -8.0711328983306885e-01 7.2321414947509766e-01</leafValues></_>
        <_>
          <internalNodes>
            0 -1 35 -1818906161 -1916047141 1376092561 -136998692
            -83185224 -2142699384 -1828025800 -973096280</internalNodes>
          <leafValues>
            -8.7690258026123047e-01 6.3405781984329224e-01</leafValues></_></weakClassifiers></_>
    <!-- stage 7 -->
    <_>
      <maxWeakCount>2</maxWeakCount>
      <stageThreshold>-3.6667448282241821e-01</stageThreshold>
      <weakClassifiers>
        <_>
          <internalNodes>
            0 -1 14 -642518529 -360966 1342558205 -2901545 -1056718547
            -2520941 -1982771813 -88933053</internalNodes>
          <leafValues>
            -8.8127851486206055e-01 6.3368421792984009e-01</leafValues></_>
        <_>
          <internalNodes>
            0 -1 23 -34209953 -143658929 -754126605 1065055069 -51601158
            2115150995 -1326424581 2134477167</internalNodes>
          <leafValues>
            -9.8681962490081787e-01 5.1460403203964233e-01</leafValues></_></weakClassifiers></_>
    <!-- stage 8 -->
    <_>
      <maxWeakCount>3</maxWeakCount>
      <stageThreshold>-1.1938127279281616e+00</stageThreshold>
      <weakClassifiers>
        <_>
          <internalNodes>
            0 -1 13 -1612709921 -138030809 587583617 -783302578
            -15101281 -905785334 -190072065 -1680883203</internalNodes>
          <leafValues>
            -8.8598573207855225e-01 5.4027503728866577e-01</leafValues></_>
        <_>
          <internalNodes>
            0 -1 48 -204508457 -2637607 -1995799073 -543260213
            -1310607337 -880049966 -234095629 -74727282</internalNodes>
          <leafValues>
            -8.4960216283798218e-01 6.4564681053161621e-01</leafValues></_>
        <_>
          <internalNodes>
            0 -1 34 1474237391 -1281547813 -653691573 -340796725
            2147206075 -17098749 -1393557842 -387843153</internalNodes>
          <leafValues>
            -8.8448560237884521e-01 6.3084048032760620e-01</leafValues></_></weakClassifiers></_>
    <!-- stage 9 -->
    <_>
      <maxWeakCount>3</maxWeakCount>
      <stageThreshold>-1.2681671380996704e+00</stageThreshold>
      <weakClassifiers>
        <_>
          <internalNodes>
            0 -1 11 -318833665 -543181837 -620658581 -135450303
            -644889681 -930512757 -506465329 -905971303</internalNodes>
          <leafValues>
            -8.8544154167175293e-01 5.2826511859893799e-01</leafValues></_>
        <_>
          <internalNodes>
            0 -1 9 -784205825 -107790181 1373633266 1937758685
            -1043551493 -1381957095 -521567233 2144070974</internalNodes>
          <leafValues>
            -9.1675692796707153e-01 5.0338864326477051e-01</leafValues></_>
        <_>
          <internalNodes>
            0 -1 28 -203105797 -205487643 150999131 -9518584 -1064389736
            -491446199 -96364326 -68818928</internalNodes>
          <leafValues>
            -8.7967526912689209e-01 6.0659927129745483e-01</leafValues></_></weakClassifiers></_>
    <!-- stage 10 -->
    <_>
      <maxWeakCount>3</maxWeakCount>
      <stageThreshold>-1.3006474971771240e+00</stageThreshold>
      <weakClassifiers>
        <_>
          <internalNodes>
            0 -1 20 -1342704645 -1422417697 -2147270149 -2013290225
            -1340894717 -251568112 -501513445 -66562</internalNodes>
          <leafValues>
            -8.7529975175857544e-01 5.0096714496612549e-01</leafValues></_>
        <_>
          <internalNodes>
            0 -1 0 -143329313 -641534845 -1585339439 -11017621 -11804181
            -400260949 2143514493 2138537007</internalNodes>
          <leafValues>
            -9.2277669906616211e-01 4.8952773213386536e-01</leafValues></_>
        <_>
          <internalNodes>
            0 -1 26 1289599935 -180807661 -483536515 -1523732136
            -122437957 -1179186551 -856706313 -50333765</internalNodes>
          <leafValues>
            -9.1487550735473633e-01 5.1712054014205933e-01</leafValues></_></weakClassifiers></_>
    <!-- stage 11 -->
    <_>
      <maxWeakCount>3</maxWeakCount>
      <stageThreshold>-1.0400177240371704e+00</stageThreshold>
      <weakClassifiers>
        <_>
          <internalNodes>
            0 -1 46 -1176436737 -268435457 -131073 -14337 -1074139203
            -1879048193 -1073741827 -5521409</internalNodes>
          <leafValues>
            -7.5830817222595215e-01 7.8770947456359863e-01</leafValues></_>
        <_>
          <internalNodes>
            0 -1 44 -72615145 -825652921 -1995210065 -70319805
            -1063059973 -626345752 -509617013 -235952201</internalNodes>
          <leafValues>
            -8.7140709161758423e-01 5.9767675399780273e-01</leafValues></_>
        <_>
          <internalNodes>
            0 -1 19 -144719873 -2019781795 268775687 -1411394919
            -2109351849 -1560076268 -1143754101 -83954690</internalNodes>
          <leafValues>
            -8.2769542932510376e-01 5.8969748020172119e-01</leafValues></_></weakClassifiers></_>
    <!-- stage 12 -->
    <_>
      <maxWeakCount>3</maxWeakCount>
      <stageThreshold>-1.2026467323303223e+00</stageThreshold>
      <weakClassifiers>
        <_>
          <internalNodes>
            0 -1 20 -1546669073 -1420619537 318837015 -1543814261
            -212620349 -510590845 -704435317 -67174402</internalNodes>
          <leafValues>
            -8.6633664369583130e-01 4.2173111438751221e-01</leafValues></_>
        <_>
          <internalNodes>
            0 -1 29 -1818233349 -676752791 332511450 -295724850
            -1331060055 -486498173 -423459064 -206590447</internalNodes>
          <leafValues>
            -8.4286087751388550e-01 5.2987957000732422e-01</leafValues></_>
        <_>
          <internalNodes>
            0 -1 15 322549247 999493841 -1123313377 -1886648008
            426842751 2059200920 -640172106 -7167717</internalNodes>
          <leafValues>
            -7.8151696920394897e-01 5.8523434400558472e-01</leafValues></_></weakClassifiers></_>
    <!-- stage 13 -->
    <_>
      <maxWeakCount>3</maxWeakCount>
      <stageThreshold>-1.2825958728790283e+00</stageThreshold>
      <weakClassifiers>
        <_>
          <internalNodes>
            0 -1 5 -384700417 -15180959 -108988457 -44706943 1149960127
            -99557372 1442906111 -74711398</internalNodes>
          <leafValues>
            -9.0957444906234741e-01 3.5559266805648804e-01</leafValues></_>
        <_>
          <internalNodes>
            0 -1 42 -783724049 -781119087 -988767794 -191754020
            -1437496961 -1192525734 -477907981 -6371169</internalNodes>
          <leafValues>
            -8.8908368349075317e-01 4.3938010931015015e-01</leafValues></_>
        <_>
          <internalNodes>
            0 -1 50 -162015239 -1399876965 -2130673633 -393819297
            -615001293 -238779648 -45491551 -1513098257</internalNodes>
          <leafValues>
            -7.4910485744476318e-01 6.1922651529312134e-01</leafValues></_></weakClassifiers></_>
    <!-- stage 14 -->
    <_>
      <maxWeakCount>5</maxWeakCount>
      <stageThreshold>-1.4764462709426880e+00</stageThreshold>
      <weakClassifiers>
        <_>
          <internalNodes>
            0 -1 33 796091327 -203580197 -712641129 -11706237 1032862618
            -637366144 -8012373 -73667605</internalNodes>
          <leafValues>
            -9.2582416534423828e-01 3.2584270834922791e-01</leafValues></_>
        <_>
          <internalNodes>
            0 -1 49 -85740065 -778633191 1124407447 -577919091
            -108019371 -1566867283 -796153163 -1053777</internalNodes>
          <leafValues>
            -8.4609615802764893e-01 4.8449587821960449e-01</leafValues></_>
        <_>
          <internalNodes>
            0 -1 22 -782773793 -719432816 1670615483 -71458856
            -2130696041 -95633253 -2050315889 -2007239877</internalNodes>
          <leafValues>
            -7.9224926233291626e-01 5.7356512546539307e-01</leafValues></_>
        <_>
          <internalNodes>
            0 -1 37 299466699 386504113 -1105579326 -183129833
            -518975009 -1049427967 -88147217 -325276673</internalNodes>
          <leafValues>
            -8.1183058023452759e-01 5.5559480190277100e-01</leafValues></_>
        <_>
          <internalNodes>
            0 -1 18 1126133843 -321437499 289997202 -286521493
            -1870036317 -1279131632 -1870430085 -557919810</internalNodes>
          <leafValues>
            -8.2244580984115601e-01 5.6896179914474487e-01</leafValues></_></weakClassifiers></_>
    <!-- stage 15 -->
    <_>
      <maxWeakCount>4</maxWeakCount>
      <stageThreshold>-6.3745206594467163e-01</stageThreshold>
      <weakClassifiers>
        <_>
          <internalNodes>
            0 -1 1 -1022245409 -149917547 822137183 -141029223
            1900861689 -23031400 293884923 -490935</internalNodes>
          <leafValues>
            -7.9703533649444580e-01 4.8101267218589783e-01</leafValues></_>
        <_>
          <internalNodes>
            0 -1 41 -175509289 -322354988 1533022385 -531232485
            -805072725 -612290559 -125257056 -730412</internalNodes>
          <leafValues>
            -8.2609683275222778e-01 4.8793509602546692e-01</leafValues></_>
        <_>
          <internalNodes>
            0 -1 4 -786740369 -73977477 1678092059 -711289867
            -1266212805 -1096146361 -1960308705 2137347011</internalNodes>
          <leafValues>
            -8.4041309356689453e-01 4.8196411132812500e-01</leafValues></_>
        <_>
          <internalNodes>
            0 -1 40 1364924899 -786890287 286331619 -598584417
            -1073708869 -1996484351 -1316424973 -84092737</internalNodes>
          <leafValues>
            -7.6598674058914185e-01 5.6226176023483276e-01</leafValues></_></weakClassifiers></_>
    <!-- stage 16 -->
    <_>
      <maxWeakCount>5</maxWeakCount>
      <stageThreshold>-1.1820869445800781e+00</stageThreshold>
      <weakClassifiers>
        <_>
          <internalNodes>
            0 -1 30 -1835986477 -1046937599 -1056898880 -873791205
            -1056866272 -1253834686 -746421832 -71379473</internalNodes>
          <leafValues>
            -7.7553308010101318e-01 4.7826087474822998e-01</leafValues></_>
        <_>
          <internalNodes>
            0 -1 38 -2003245805 -2110138303 269549649 -501802927
            -1324744695 -383713279 -2096953216 -201334037</internalNodes>
          <leafValues>
            -7.6745104789733887e-01 5.4761195182800293e-01</leafValues></_>
        <_>
          <internalNodes>
            0 -1 31 -1243105185 1258913899 10524911 1057128480
            -1467970389 -914257752 -1602174824 -392167255</internalNodes>
          <leafValues>
            -8.0774372816085815e-01 5.5703091621398926e-01</leafValues></_>
        <_>
          <internalNodes>
            0 -1 47 -1152649839 -1974943567 -921644809 -613858931
            310936225 -2096398296 -1870054692 -608439816</internalNodes>
          <leafValues>
            -6.7271441221237183e-01 6.8391215801239014e-01</leafValues></_>
        <_>
          <internalNodes>
            0 -1 39 290525271 1359020033 -1867427742 -805207271
            -2147483488 270073857 319328435 -124054597</internalNodes>
          <leafValues>
            -7.7721327543258667e-01 6.1493092775344849e-01</leafValues></_></weakClassifiers></_></stages>
  <features>
    <_>
      <rect>
        0 1 2 6</rect></_>
    <_>
      <rect>
        0 3 4 1</rect></_>
    <_>
      <rect>
        0 3 4 2</rect></_>
    <_>
      <rect>
        0 6 6 3</rect></_>
    <_>
      <rect>
        0 7 2 4</rect></_>
    <_>
      <rect>
        1 2 4 2</rect></_>
    <_>
      <rect>
        2 3 4 2</rect></_>
    <_>
      <rect>
        2 4 2 1</rect></_>
    <_>
      <rect>
        2 7 6 3</rect></_>
    <_>
      <rect>
        2 11 6 3</rect></_>
    <_>
      <rect>
        3 0 2 4</rect></_>
    <_>
      <rect>
        3 2 1 3</rect></_>
    <_>
      <rect>
        3 2 5 5</rect></_>
    <_>
      <rect>
        4 0 1 3</rect></_>
    <_>
      <rect>
        4 9 3 3</rect></_>
    <_>
      <rect>
        4 17 4 1</rect></_>
    <_>
      <rect>
        5 7 3 2</rect></_>
    <_>
      <rect>
        5 7 4 2</rect></_>
    <_>
      <rect>
        5 9 1 1</rect></_>
    <_>
      <rect>
        6 7 1 3</rect></_>
    <_>
      <rect>
        6 9 1 2</rect></_>
    <_>
      <rect>
        6 9 2 2</rect></_>
    <_>
      <rect>
        6 10 2 3</rect></_>
    <_>
      <rect>
        7 0 4 4</rect></_>
    <_>
      <rect>
        7 2 4 3</rect></_>
    <_>
      <rect>
        7 3 2 4</rect></_>
    <_>
      <rect>
        7 5 2 3</rect></_>
    <_>
      <rect>
        7 6 2 3</rect></_>
    <_>
      <rect>
        7 8 1 1</rect></_>
    <_>
      <rect>
        7 9 1 1</rect></_>
    <_>
      <rect>
        7 10 1 1</rect></_>
    <_>
      <rect>
        8 1 4 4</rect></_>
    <_>
      <rect>
        8 3 3 2</rect></_>
    <_>
      <rect>
        8 4 1 1</rect></_>
    <_>
      <rect>
        8 7 2 2</rect></_>
    <_>
      <rect>
        8 10 1 1</rect></_>
    <_>
      <rect>
        9 3 2 2</rect></_>
    <_>
      <rect>
        9 8 2 2</rect></_>
    <_>
      <rect>
        9 10 1 1</rect></_>
    <_>
      <rect>
        9 10 2 1</rect></_>
    <_>
      <rect>
        9 12 2 1</rect></_>
    <_>
      <rect>
        9 13 1 1</rect></_>
    <_>
      <rect>
        10 11 2 1</rect></_>
    <_>
      <rect>
        10 13 3 2</rect></_>
    <_>
      <rect>
        11 0 2 5</rect></_>
    <_>
      <rect>
        11 4 2 3</rect></_>
    <_>
      <rect>
        11 15 2 1</rect></_>
    <_>
      <rect>
        12 15 1 1</rect></_>
    <_>
      <rect>
        13 8 1 1</rect></_>
    <_>
      <rect>
        13 9 1 1</rect></_>
    <_>
      <rect>
        17 1 1 6</rect></_></features></cascade>
</opencv_storage>
