<?xml version="1.0"?>
<opencv_storage>
<cascade>
  <stageType>BOOST</stageType>
  <featureType>LBP</featureType>
  <height>20</height>
  <width>20</width>
  <stageParams>
    <boostType>GAB</boostType>
    <minHitRate>9.9900001287460327e-01</minHitRate>
    <maxFalseAlarm>5.0000000000000000e-01</maxFalseAlarm>
    <weightTrimRate>9.4999999999999996e-01</weightTrimRate>
    <maxDepth>1</maxDepth>
    <maxWeakCount>100</maxWeakCount></stageParams>
  <featureParams>
    <maxCatCount>256</maxCatCount>
    <featSize>1</featSize></featureParams>
  <stageNum>16</stageNum>
  <stages>
    <!-- stage 0 -->
    <_>
      <maxWeakCount>2</maxWeakCount>
      <stageThreshold>-1.2162331491708755e-01</stageThreshold>
      <weakClassifiers>
        <_>
          <internalNodes>
            0 -1 12 -644228642 -615710271 -2129428337 -652668925
            -2003138369 -1718943605 -1609842433 -4459585</internalNodes>
          <leafValues>
            -9.9773502349853516e-01 9.3147748708724976e-01</leafValues></_>
        <_>
          <internalNodes>
            0 -1 9 -397153553 1393382813 -602338945 -211823397
            1083033855 -544232241 -762738177 -263493</internalNodes>
          <leafValues>
            -9.8673593997955322e-01 8.7611168622970581e-01</leafValues></_></weakClassifiers></_>
    <!-- stage 1 -->
    <_>
      <maxWeakCount>2</maxWeakCount>
      <stageThreshold>-1.2399224936962128e-01</stageThreshold>
      <weakClassifiers>
        <_>
          <internalNodes>
            0 -1 22 -39854243 -77865651 -1174578945 -580937633
            -386270465 -1198921281 -271586305 -67109633</internalNodes>
          <leafValues>
            -9.5686721801757813e-01 8.4648185968399048e-01</leafValues></_>
        <_>
          <internalNodes>
            0 -1 18 -202129921 -3844629 -75770369 -286340625 -1166875649
            -120647537 -20972033 -318963713</internalNodes>
          <leafValues>
            -9.6158915758132935e-01 8.3287495374679565e-01</leafValues></_></weakClassifiers></_>
    <!-- stage 2 -->
    <_>
      <maxWeakCount>2</maxWeakCount>
      <stageThreshold>-2.8073340654373169e-01</stageThreshold>
      <weakClassifiers>
        <_>
          <internalNodes>
            0 -1 7 -539364353 -1074538511 -184156178 -534121 -1612713537
            -1081472791 -1114574849 -4195413</internalNodes>
          <leafValues>
            -9.6543776988983154e-01 8.1327801942825317e-01</leafValues></_>
        <_>
          <internalNodes>
            0 -1 25 -33554433 -715655713 -787875655 -274072707 -75499025
            -1210085909 -140786805 -319947809</internalNodes>
          <leafValues>
            -9.6817076206207275e-01 6.8470436334609985e-01</leafValues></_></weakClassifiers></_>
    <!-- stage 3 -->
    <_>
      <maxWeakCount>2</maxWeakCount>
      <stageThreshold>-1.9148218631744385e-01</stageThreshold>
      <weakClassifiers>
        <_>
          <internalNodes>
            0 -1 30 -136315073 -42206851 -740830241 -2117155 -1213219841
            -172379679 -629082369 -68164678</internalNodes>
          <leafValues>
            -9.1071426868438721e-01 8.1497794389724731e-01</leafValues></_>
        <_>
          <internalNodes>
            0 -1 6 -550243334 -746463785 -237841922 -2624515 -1307577089
            -39675889 -256994309 -1049601</internalNodes>
          <leafValues>
            -9.7121840715408325e-01 7.1923208236694336e-01</leafValues></_></weakClassifiers></_>
    <!-- stage 4 -->
    <_>
      <maxWeakCount>3</maxWeakCount>
      <stageThreshold>-1.1263675689697266e+00</stageThreshold>
      <weakClassifiers>
        <_>
          <internalNodes>
            0 -1 15 -1354254369 -269525633 993985383 -293744130
            -2071395361 -271323069 -339432649 -17104918</internalNodes>
          <leafValues>
            -9.7530865669250488e-01 6.3703703880310059e-01</leafValues></_>
        <_>
          <internalNodes>
            0 -1 14 -1747192833 -750259621 268911309 -649070389
            -141558097 -129783656 -661654545 -1610624531</internalNodes>
          <leafValues>
            -8.7402242422103882e-01 7.6510137319564819e-01</leafValues></_>
        <_>
          <internalNodes>
            0 -1 39 -387973289 -35831977 -49153137 -3302089 -527703313
            -129964025 -292696401 -68161586</internalNodes>
          <leafValues>
            -8.8938218355178833e-01 7.2489315271377563e-01</leafValues></_></weakClassifiers></_>
    <!-- stage 5 -->
    <_>
      <maxWeakCount>3</maxWeakCount>
      <stageThreshold>-1.1727421283721924e+00</stageThreshold>
      <weakClassifiers>
        <_>
          <internalNodes>
            0 -1 5 -279580673 -140902595 -250478637 -19028 1200619423
            -1376321 314141663 -1065985</internalNodes>
          <leafValues>
            -9.2065346240997314e-01 6.9574034214019775e-01</leafValues></_>
        <_>
          <internalNodes>
            0 -1 21 -780668417 -273869861 -1635264779 -268439301
            -1545666113 -205843749 -407120963 -319881256</internalNodes>
          <leafValues>
            -9.4108688831329346e-01 6.1892026662826538e-01</leafValues></_>
        <_>
          <internalNodes>
            0 -1 11 -413143041 -11566897 -43909285 -279233 -241311957
            -95694781 -980219905 -838873675</internalNodes>
          <leafValues>
            -8.7100899219512939e-01 6.9434964656829834e-01</leafValues></_></weakClassifiers></_>
    <!-- stage 6 -->
    <_>
      <maxWeakCount>2</maxWeakCount>
      <stageThreshold>-2.1601632237434387e-01</stageThreshold>
      <weakClassifiers>
        <_>
          <internalNodes>
            0 -1 23 -319946785 -7084253 -1081608813 2074413459 -46690101
            -91760041 -1144920425 -68158573</internalNodes>
          <leafValues>
            -9.0812718868255615e-01 6.4870262145996094e-01</leafValues></_>
        <_>
          <internalNodes>
            0 -1 8 -271319169 -212632697 -1856916901 -72092711 -1602629
            -83842378 -444342329 -839001971</internalNodes>
          <leafValues>
            -8.6471891403198242e-01 7.0602470636367798e-01</leafValues></_></weakClassifiers></_>
    <!-- stage 7 -->
    <_>
      <maxWeakCount>3</maxWeakCount>
      <stageThreshold>-1.0907398462295532e+00</stageThreshold>
      <weakClassifiers>
        <_>
          <internalNodes>
            0 -1 29 -623906945 1971183729 -1998545665 1896590639
            -1716921875 -1434143586 -779559681 -594691702</internalNodes>
          <leafValues>
            -9.1030305624008179e-01 5.8095240592956543e-01</leafValues></_>
        <_>
          <internalNodes>
            0 -1 37 -1005334017 -990052201 -1827545601 -581073447
            -1283335751 -1953775464 -1148612363 -105149790</internalNodes>
          <leafValues>
            -8.2813233137130737e-01 7.0911329984664917e-01</leafValues></_>
        <_>
          <internalNodes>
            0 -1 17 1610609503 -1615378087 1061426014 -546547841
            -87614529 -610334315 -839056714 -17029893</internalNodes>
          <leafValues>
            -8.4355992078781128e-01 6.9081795215606689e-01</leafValues></_></weakClassifiers></_>
    <!-- stage 8 -->
    <_>
      <maxWeakCount>3</maxWeakCount>
      <stageThreshold>-1.1677328348159790e+00</stageThreshold>
      <weakClassifiers>
        <_>
          <internalNodes>
            0 -1 20 -608219681 -543176271 1032181199 -202387033
            -80495649 -105727549 -100795144 -50743814</internalNodes>
          <leafValues>
            -9.3375796079635620e-01 5.0796461105346680e-01</leafValues></_>
        <_>
          <internalNodes>
            0 -1 43 -207981577 -748994429 319488281 -136343167
            -1144260573 -1431625592 -342889485 -203450134</internalNodes>
          <leafValues>
            -8.3359384536743164e-01 6.4362633228302002e-01</leafValues></_>
        <_>
          <internalNodes>
            0 -1 44 -1811941409 -1169186325 -1035562917 -245374971
            664627933 -1335975805 1070551757 -1610884119</internalNodes>
          <leafValues>
            -8.4210354089736938e-01 6.4222407341003418e-01</leafValues></_></weakClassifiers></_>
    <!-- stage 9 -->
    <_>
      <maxWeakCount>3</maxWeakCount>
      <stageThreshold>-1.0488046407699585e+00</stageThreshold>
      <weakClassifiers>
        <_>
          <internalNodes>
            0 -1 16 -1654696577 -34441766 -2003199023 -2128937 75989013
            -879814575 -83001135 -218633365</internalNodes>
          <leafValues>
            -8.3295196294784546e-01 5.9243696928024292e-01</leafValues></_>
        <_>
          <internalNodes>
            0 -1 26 -235418641 -2932192 -1593604857 -1084257636
            -1584713525 -603848680 -376461313 -33559832</internalNodes>
          <leafValues>
            -7.9945111274719238e-01 6.7524468898773193e-01</leafValues></_>
        <_>
          <internalNodes>
            0 -1 1 -673480705 1977158427 -318743621 -15674921 -15836737
            2014270211 -90752261 2071297019</internalNodes>
          <leafValues>
            -8.4179049730300903e-01 6.1766952276229858e-01</leafValues></_></weakClassifiers></_>
    <!-- stage 10 -->
    <_>
      <maxWeakCount>3</maxWeakCount>
      <stageThreshold>-1.2507349252700806e+00</stageThreshold>
      <weakClassifiers>
        <_>
          <internalNodes>
            0 -1 0 -52505121 -545429187 -572583659 -1076518901
            -584334453 -1163534142 -4258465 -1086340665</internalNodes>
          <leafValues>
            -8.3606559038162231e-01 5.4032260179519653e-01</leafValues></_>
        <_>
          <internalNodes>
            0 -1 24 -50470953 -738524401 1865277299 -1356522657
            -2005933273 2023439879 -395857933 -319816909</internalNodes>
          <leafValues>
            -8.9051836729049683e-01 5.5044949054718018e-01</leafValues></_>
        <_>
          <internalNodes>
            0 -1 3 -69805057 -15678629 1717556055 -573914283 -876101429
            -157252941 2144332863 2134211439</internalNodes>
          <leafValues>
            -9.6511882543563843e-01 4.7642013430595398e-01</leafValues></_></weakClassifiers></_>
    <!-- stage 11 -->
    <_>
      <maxWeakCount>3</maxWeakCount>
      <stageThreshold>-1.1719639301300049e+00</stageThreshold>
      <weakClassifiers>
        <_>
          <internalNodes>
            0 -1 27 -206327045 -201824155 -264117869 -210057126
            -2146925638 -492629631 -548165201 -1704432</internalNodes>
          <leafValues>
            -8.9027428627014160e-01 4.8905110359191895e-01</leafValues></_>
        <_>
          <internalNodes>
            0 -1 41 -1912612929 -1579731507 -600449345 -1081347965
            -196498499 -1343272569 -1446028867 -1049617</internalNodes>
          <leafValues>
            -7.5088840723037720e-01 7.1000647544860840e-01</leafValues></_>
        <_>
          <internalNodes>
            0 -1 40 -708456193 1956380887 1476604415 -787295795
            -608590253 -122779584 -1713833242 -68448086</internalNodes>
          <leafValues>
            -9.1012656688690186e-01 6.1162477731704712e-01</leafValues></_></weakClassifiers></_>
    <!-- stage 12 -->
    <_>
      <maxWeakCount>3</maxWeakCount>
      <stageThreshold>-1.0675473213195801e+00</stageThreshold>
      <weakClassifiers>
        <_>
          <internalNodes>
            0 -1 19 -104074277 -1353871279 -1870425853 -1412435505
            -785211253 -103284735 -2049212405 -67178338</internalNodes>
          <leafValues>
            -8.8674390316009521e-01 4.2408376932144165e-01</leafValues></_>
        <_>
          <internalNodes>
            0 -1 10 -618940461 -380071853 -1047922273 -7219108
            -205258829 -1410760541 109622195 -1078085</internalNodes>
          <leafValues>
            -7.4798017740249634e-01 6.3686865568161011e-01</leafValues></_>
        <_>
          <internalNodes>
            0 -1 32 -1156582449 -347089197 -1860075439 -757099911
            -99889480 -1987213312 -6112280 -239158818</internalNodes>
          <leafValues>
            -7.4365091323852539e-01 6.2768107652664185e-01</leafValues></_></weakClassifiers></_>
    <!-- stage 13 -->
    <_>
      <maxWeakCount>3</maxWeakCount>
      <stageThreshold>-1.0634052753448486e+00</stageThreshold>
      <weakClassifiers>
        <_>
          <internalNodes>
            0 -1 42 -1312694785 -271642178 -644704353 -136855465
            -392450115 -827850578 -1148665363 -1076499</internalNodes>
          <leafValues>
            -7.5160598754882813e-01 6.1538463830947876e-01</leafValues></_>
        <_>
          <internalNodes>
            0 -1 35 -316712527 -1488993611 1426063507 -296263205
            -561727341 -81062904 -754352114 -495454037</internalNodes>
          <leafValues>
            -8.4955894947052002e-01 5.3803360462188721e-01</leafValues></_>
        <_>
          <internalNodes>
            0 -1 38 -71573737 -879770041 276871919 -670054397
            -1446008337 -1463033206 -1029646177 -508845341</internalNodes>
          <leafValues>
            -8.2923090457916260e-01 5.4869407415390015e-01</leafValues></_></weakClassifiers></_>
    <!-- stage 14 -->
    <_>
      <maxWeakCount>4</maxWeakCount>
      <stageThreshold>-6.7177492380142212e-01</stageThreshold>
      <weakClassifiers>
        <_>
          <internalNodes>
            0 -1 13 482415101 1569812627 155226399 -1121058556 832090299
            1838923915 -1450645061 -24475569</internalNodes>
          <leafValues>
            -7.6315790414810181e-01 5.7077628374099731e-01</leafValues></_>
        <_>
          <internalNodes>
            0 -1 31 -70018081 -251285231 -1824138274 -74599945 865595807
            -95308941 -391907602 -320213013</internalNodes>
          <leafValues>
            -8.3608967065811157e-01 5.4743486642837524e-01</leafValues></_>
        <_>
          <internalNodes>
            0 -1 4 -604317737 -1633943139 1963262115 -2550969 -272612338
            -7200624 -13925239 2097121579</internalNodes>
          <leafValues>
            -8.9942342042922974e-01 4.8239842057228088e-01</leafValues></_>
        <_>
          <internalNodes>
            0 -1 36 -648162577 -1324019559 312127810 -1206605733
            -1587562641 -1333753726 -1415726089 -4464149</internalNodes>
          <leafValues>
            -8.8111454248428345e-01 4.9296191334724426e-01</leafValues></_></weakClassifiers></_>
    <!-- stage 15 -->
    <_>
      <maxWeakCount>4</maxWeakCount>
      <stageThreshold>-7.6524496078491211e-01</stageThreshold>
      <weakClassifiers>
        <_>
          <internalNodes>
            0 -1 2 -241848321 -787107567 1888547325 -250548175
            -117856325 -896366159 -132079173 -662561861</internalNodes>
          <leafValues>
            -8.1644815206527710e-01 4.6771037578582764e-01</leafValues></_>
        <_>
          <internalNodes>
            0 -1 28 -1224134153 -1520629687 -98250662 -984657458
            -1576365728 -917241727 -343233860 -37821715</internalNodes>
          <leafValues>
            -8.2157456874847412e-01 4.9185901880264282e-01</leafValues></_>
        <_>
          <internalNodes>
            0 -1 34 884555527 -175116094 -398363435 -42352503 -805287495
            -1340039126 -40724821 -3440133</internalNodes>
          <leafValues>
            -8.9429157972335815e-01 4.6969842910766602e-01</leafValues></_>
        <_>
          <internalNodes>
            0 -1 33 -774187525 -1211333229 -568131076 -1348564774
            -645858895 -83633256 2028863896 1203721431</internalNodes>
          <leafValues>
            -8.3052277565002441e-01 4.9840354919433594e-01</leafValues></_></weakClassifiers></_></stages>
  <features>
    <_>
      <rect>
        0 1 5 6</rect></_>
    <_>
      <rect>
        0 5 2 5</rect></_>
    <_>
      <rect>
        1 0 5 3</rect></_>
    <_>
      <rect>
        1 1 2 6</rect></_>
    <_>
      <rect>
        1 2 3 5</rect></_>
    <_>
      <rect>
        1 2 4 2</rect></_>
    <_>
      <rect>
        1 6 6 4</rect></_>
    <_>
      <rect>
        1 7 6 2</rect></_>
    <_>
      <rect>
        2 1 2 3</rect></_>
    <_>
      <rect>
        2 3 4 2</rect></_>
    <_>
      <rect>
        2 4 2 1</rect></_>
    <_>
      <rect>
        3 1 2 3</rect></_>
    <_>
      <rect>
        3 2 5 5</rect></_>
    <_>
      <rect>
        3 17 5 1</rect></_>
    <_>
      <rect>
        4 0 1 3</rect></_>
    <_>
      <rect>
        4 9 3 2</rect></_>
    <_>
      <rect>
        4 9 3 3</rect></_>
    <_>
      <rect>
        5 5 3 4</rect></_>
    <_>
      <rect>
        5 8 3 2</rect></_>
    <_>
      <rect>
        6 7 1 3</rect></_>
    <_>
      <rect>
        6 7 3 2</rect></_>
    <_>
      <rect>
        6 9 2 2</rect></_>
    <_>
      <rect>
        7 2 4 3</rect></_>
    <_>
      <rect>
        7 3 2 4</rect></_>
    <_>
      <rect>
        7 5 2 3</rect></_>
    <_>
      <rect>
        7 6 2 3</rect></_>
    <_>
      <rect>
        7 7 1 2</rect></_>
    <_>
      <rect>
        7 8 1 1</rect></_>
    <_>
      <rect>
        7 10 1 1</rect></_>
    <_>
      <rect>
        8 2 4 3</rect></_>
    <_>
      <rect>
        8 3 3 2</rect></_>
    <_>
      <rect>
        8 7 2 2</rect></_>
    <_>
      <rect>
        8 10 1 1</rect></_>
    <_>
      <rect>
        8 13 2 2</rect></_>
    <_>
      <rect>
        9 4 1 1</rect></_>
    <_>
      <rect>
        9 9 1 1</rect></_>
    <_>
      <rect>
        10 10 2 1</rect></_>
    <_>
      <rect>
        10 15 3 1</rect></_>
    <_>
      <rect>
        11 0 2 5</rect></_>
    <_>
      <rect>
        11 2 2 4</rect></_>
    <_>
      <rect>
        11 7 2 1</rect></_>
    <_>
      <rect>
        11 14 2 2</rect></_>
    <_>
      <rect>
        11 15 2 1</rect></_>
    <_>
      <rect>
        13 8 1 1</rect></_>
    <_>
      <rect>
        13 11 1 3</rect></_></features></cascade>
</opencv_storage>
