<?xml version="1.0"?>
<opencv_storage>
<cascade>
  <stageType>BOOST</stageType>
  <featureType>LBP</featureType>
  <height>20</height>
  <width>20</width>
  <stageParams>
    <boostType>GAB</boostType>
    <minHitRate>9.9900001287460327e-01</minHitRate>
    <maxFalseAlarm>5.0000000000000000e-01</maxFalseAlarm>
    <weightTrimRate>9.4999999999999996e-01</weightTrimRate>
    <maxDepth>1</maxDepth>
    <maxWeakCount>100</maxWeakCount></stageParams>
  <featureParams>
    <maxCatCount>256</maxCatCount>
    <featSize>1</featSize></featureParams>
  <stageNum>20</stageNum>
  <stages>
    <!-- stage 0 -->
    <_>
      <maxWeakCount>2</maxWeakCount>
      <stageThreshold>-1.0468515753746033e-01</stageThreshold>
      <weakClassifiers>
        <_>
          <internalNodes>
            0 -1 13 -249966337 -653180911 1090519058 1561530641
            -2147450629 -360578942 1208011002 -74719221</internalNodes>
          <leafValues>
            -9.8628258705139160e-01 9.0379744768142700e-01</leafValues></_>
        <_>
          <internalNodes>
            0 -1 2 -651046658 -250544125 1225359633 -720306175
            -1073708822 -1165361024 -2004825877 -653540861</internalNodes>
          <leafValues>
            -9.6371340751647949e-01 8.8159739971160889e-01</leafValues></_></weakClassifiers></_>
    <!-- stage 1 -->
    <_>
      <maxWeakCount>2</maxWeakCount>
      <stageThreshold>-1.8645299971103668e-01</stageThreshold>
      <weakClassifiers>
        <_>
          <internalNodes>
            0 -1 44 -6030386 -146436017 -788336421 -242384217 -573990753
            -97791095 -72626513 -6554965</internalNodes>
          <leafValues>
            -9.8047417402267456e-01 8.3783781528472900e-01</leafValues></_>
        <_>
          <internalNodes>
            0 -1 13 -605816353 -148909113 -170542882 -1108177 -611464706
            -107239143 -1330924289 -4457734</internalNodes>
          <leafValues>
            -9.6831279993057251e-01 7.9402118921279907e-01</leafValues></_></weakClassifiers></_>
    <!-- stage 2 -->
    <_>
      <maxWeakCount>3</maxWeakCount>
      <stageThreshold>-1.1787648200988770e+00</stageThreshold>
      <weakClassifiers>
        <_>
          <internalNodes>
            0 -1 9 -218708993 -203439905 672830479 -724049709 -963835233
            -1200422885 -525106513 -1361</internalNodes>
          <leafValues>
            -9.5573997497558594e-01 8.2044887542724609e-01</leafValues></_>
        <_>
          <internalNodes>
            0 -1 18 -212262737 -138080045 -784235907 -140967779
            -1551848721 -4159442 504085487 -2389841</internalNodes>
          <leafValues>
            -9.1673815250396729e-01 7.9822838306427002e-01</leafValues></_>
        <_>
          <internalNodes>
            0 -1 32 1229193214 1533903065 386990844 -2107041 -1392017185
            -207945541 -896553730 -1073769553</internalNodes>
          <leafValues>
            -9.5623308420181274e-01 6.9371324777603149e-01</leafValues></_></weakClassifiers></_>
    <!-- stage 3 -->
    <_>
      <maxWeakCount>2</maxWeakCount>
      <stageThreshold>-2.1515600383281708e-01</stageThreshold>
      <weakClassifiers>
        <_>
          <internalNodes>
            0 -1 7 -564208577 252045995 -1959591913 -16520693 -805172401
            -66878821 -74734609 -16705</internalNodes>
          <leafValues>
            -9.2915529012680054e-01 8.2051283121109009e-01</leafValues></_>
        <_>
          <internalNodes>
            0 -1 11 -589614113 -250130081 176702023 716079123
            -1014126149 209944639 -3167333 -1157628945</internalNodes>
          <leafValues>
            -9.4189161062240601e-01 7.1399933099746704e-01</leafValues></_></weakClassifiers></_>
    <!-- stage 4 -->
    <_>
      <maxWeakCount>3</maxWeakCount>
      <stageThreshold>-1.1339296102523804e+00</stageThreshold>
      <weakClassifiers>
        <_>
          <internalNodes>
            0 -1 34 -212077089 -773386183 -2119434221 -73448806
            -1333558341 -787873784 -108812149 -1120550</internalNodes>
          <leafValues>
            -8.9196312427520752e-01 8.6301368474960327e-01</leafValues></_>
        <_>
          <internalNodes>
            0 -1 40 -136840419 2069843999 -345968133 -11021837
            -773727745 -71385086 -1280707973 -282261</internalNodes>
          <leafValues>
            -9.1510158777236938e-01 6.9365453720092773e-01</leafValues></_>
        <_>
          <internalNodes>
            0 -1 43 -140510225 -1518091837 1879281863 -338341753
            -217075478 -1206220638 -83131493 -856687617</internalNodes>
          <leafValues>
            -9.3562108278274536e-01 7.3337852954864502e-01</leafValues></_></weakClassifiers></_>
    <!-- stage 5 -->
    <_>
      <maxWeakCount>3</maxWeakCount>
      <stageThreshold>-1.0839918851852417e+00</stageThreshold>
      <weakClassifiers>
        <_>
          <internalNodes>
            0 -1 28 -1749811713 -176301089 -887095939 -269484037
            -81669803 -68945710 -925767925 -286392359</internalNodes>
          <leafValues>
            -9.2189681529998779e-01 7.3464375734329224e-01</leafValues></_>
        <_>
          <internalNodes>
            0 -1 19 -1499484161 -143146145 -686293093 -40004947
            -1900090881 -55860657 -607172693 -1694770225</internalNodes>
          <leafValues>
            -8.6390537023544312e-01 7.2784161567687988e-01</leafValues></_>
        <_>
          <internalNodes>
            0 -1 23 1428141055 -5922820 -1592413217 -25275170
            -1413752389 -139263 -1175275077 -75283</internalNodes>
          <leafValues>
            -8.8993662595748901e-01 7.3719716072082520e-01</leafValues></_></weakClassifiers></_>
    <!-- stage 6 -->
    <_>
      <maxWeakCount>3</maxWeakCount>
      <stageThreshold>-1.0935921669006348e+00</stageThreshold>
      <weakClassifiers>
        <_>
          <internalNodes>
            0 -1 26 -673185793 -306709001 -540420193 -285216770
            -653314053 -2639459 -1079657490 -16842808</internalNodes>
          <leafValues>
            -9.3036210536956787e-01 7.5369459390640259e-01</leafValues></_>
        <_>
          <internalNodes>
            0 -1 51 -35784705 -83111973 -1626694825 -608187137
            -809503873 1550563451 -973097481 -135270401</internalNodes>
          <leafValues>
            -8.6932313442230225e-01 7.8924232721328735e-01</leafValues></_>
        <_>
          <internalNodes>
            0 -1 4 -295284993 -8943787 -2015373507 -36964971 -2066490401
            -54138718 1536419775 -168037959</internalNodes>
          <leafValues>
            -9.4592481851577759e-01 7.0609307289123535e-01</leafValues></_></weakClassifiers></_>
    <!-- stage 7 -->
    <_>
      <maxWeakCount>3</maxWeakCount>
      <stageThreshold>-1.0562988519668579e+00</stageThreshold>
      <weakClassifiers>
        <_>
          <internalNodes>
            0 -1 22 -147383329 -75512001 -311307777 -287326233
            -1234977873 -4222275 -121111877 -16908357</internalNodes>
          <leafValues>
            -9.1620111465454102e-01 7.2058820724487305e-01</leafValues></_>
        <_>
          <internalNodes>
            0 -1 36 -178782209 -277896737 -749373609 -69214217 -77609025
            -389061859 -74859527 -285409300</internalNodes>
          <leafValues>
            -8.7578189373016357e-01 7.5739371776580811e-01</leafValues></_>
        <_>
          <internalNodes>
            0 -1 16 -42487809 -197551 -680659115 -23937033 1660727551
            -25657104 2029041849 -541586951</internalNodes>
          <leafValues>
            -8.7017804384231567e-01 7.3568415641784668e-01</leafValues></_></weakClassifiers></_>
    <!-- stage 8 -->
    <_>
      <maxWeakCount>3</maxWeakCount>
      <stageThreshold>-1.0932358503341675e+00</stageThreshold>
      <weakClassifiers>
        <_>
          <internalNodes>
            0 -1 42 -709366985 -664713 -1514732165 -142636109 -9865721
            -206314743 -1390806213 -855771145</internalNodes>
          <leafValues>
            -9.3006992340087891e-01 7.4083131551742554e-01</leafValues></_>
        <_>
          <internalNodes>
            0 -1 3 -143132697 -82316341 -2124032725 -807678250
            -932709775 -301301757 -656940959 -9044156</internalNodes>
          <leafValues>
            -9.0323150157928467e-01 7.3058873414993286e-01</leafValues></_>
        <_>
          <internalNodes>
            0 -1 53 -207618561 -846345033 -1864773257 -810573393
            -543228092 -664043137 -7343628 -208671255</internalNodes>
          <leafValues>
            -8.9375466108322144e-01 7.4465614557266235e-01</leafValues></_></weakClassifiers></_>
    <!-- stage 9 -->
    <_>
      <maxWeakCount>3</maxWeakCount>
      <stageThreshold>-1.1754964590072632e+00</stageThreshold>
      <weakClassifiers>
        <_>
          <internalNodes>
            0 -1 38 -3233 -732830129 -1902929985 -235156357 -254950145
            -401358827 -677149453 -75643045</internalNodes>
          <leafValues>
            -8.8857144117355347e-01 6.1320751905441284e-01</leafValues></_>
        <_>
          <internalNodes>
            0 -1 0 -3014657 -8739 1539676099 -7873539 -754650189
            -73682558 1545048225 1908469812</internalNodes>
          <leafValues>
            -9.3115222454071045e-01 6.0219728946685791e-01</leafValues></_>
        <_>
          <internalNodes>
            0 -1 6 -237798601 -539529333 -515292789 -786957845 -79732891
            -2142762743 -473207179 -3179567</internalNodes>
          <leafValues>
            -9.0484941005706787e-01 6.4422720670700073e-01</leafValues></_></weakClassifiers></_>
    <!-- stage 10 -->
    <_>
      <maxWeakCount>3</maxWeakCount>
      <stageThreshold>-1.1456186771392822e+00</stageThreshold>
      <weakClassifiers>
        <_>
          <internalNodes>
            0 -1 27 705761365 309139763 1359082907 -1113629197 25757883
            -611741053 -31284005 -1077944133</internalNodes>
          <leafValues>
            -8.5236769914627075e-01 6.1576354503631592e-01</leafValues></_>
        <_>
          <internalNodes>
            0 -1 1 -782917665 -177130347 286323159 -74083937 -804574977
            -116378493 1762601819 2067020305</internalNodes>
          <leafValues>
            -9.0093100070953369e-01 5.9444534778594971e-01</leafValues></_>
        <_>
          <internalNodes>
            0 -1 20 -1367412838 -539822560 -788524779 -15652531
            -435949287 -249495535 -1555922653 -23354494</internalNodes>
          <leafValues>
            -8.2920110225677490e-01 6.0767996311187744e-01</leafValues></_></weakClassifiers></_>
    <!-- stage 11 -->
    <_>
      <maxWeakCount>3</maxWeakCount>
      <stageThreshold>-1.1498563289642334e+00</stageThreshold>
      <weakClassifiers>
        <_>
          <internalNodes>
            0 -1 52 -1356334593 -1946218487 -1064992545 -471119737
            -390207649 -635902925 -274819081 -137367809</internalNodes>
          <leafValues>
            -8.5935300588607788e-01 6.0290557146072388e-01</leafValues></_>
        <_>
          <internalNodes>
            0 -1 39 -180417 -166246347 -583929857 -1216175 -1245896709
            -628430593 -918426673 -5559633</internalNodes>
          <leafValues>
            -8.6279827356338501e-01 5.9689730405807495e-01</leafValues></_>
        <_>
          <internalNodes>
            0 -1 56 -1074791425 758642347 -401385681 1065736459
            858780635 969106007 1032533963 2011954127</internalNodes>
          <leafValues>
            -8.8740062713623047e-01 6.0646420717239380e-01</leafValues></_></weakClassifiers></_>
    <!-- stage 12 -->
    <_>
      <maxWeakCount>3</maxWeakCount>
      <stageThreshold>-1.0213403701782227e+00</stageThreshold>
      <weakClassifiers>
        <_>
          <internalNodes>
            0 -1 33 -244190881 -1154276021 -1180626625 1003985847
            1965275363 -640220777 -1124876790 -391119905</internalNodes>
          <leafValues>
            -8.5154062509536743e-01 6.0000002384185791e-01</leafValues></_>
        <_>
          <internalNodes>
            0 -1 54 -1082393601 -1453913645 -1723169973 -645807733
            869650171 -1917734446 531302905 -570692881</internalNodes>
          <leafValues>
            -7.8204655647277832e-01 7.1401792764663696e-01</leafValues></_>
        <_>
          <internalNodes>
            0 -1 37 -639893537 1050340286 -267923181 -1080585697
            -1642014313 -1299649901 -890742645 -1459621934</internalNodes>
          <leafValues>
            -8.3929383754730225e-01 6.6451030969619751e-01</leafValues></_></weakClassifiers></_>
    <!-- stage 13 -->
    <_>
      <maxWeakCount>3</maxWeakCount>
      <stageThreshold>-1.0963168144226074e+00</stageThreshold>
      <weakClassifiers>
        <_>
          <internalNodes>
            0 -1 29 -778831877 -245386589 269582609 -3733409 -804534993
            -251625189 -117325681 -66597</internalNodes>
          <leafValues>
            -8.0156660079956055e-01 7.0391058921813965e-01</leafValues></_>
        <_>
          <internalNodes>
            0 -1 50 -778572290 -915182913 1398788604 -1109488906
            -1147948039 -92102382 1939056116 -542197249</internalNodes>
          <leafValues>
            -9.2043834924697876e-01 5.0852203369140625e-01</leafValues></_>
        <_>
          <internalNodes>
            0 -1 5 -538971137 -741393261 -2130405113 -33562273
            -486052073 -1987477503 -80796831 -33562108</internalNodes>
          <leafValues>
            -7.8906750679016113e-01 6.2568813562393188e-01</leafValues></_></weakClassifiers></_>
    <!-- stage 14 -->
    <_>
      <maxWeakCount>3</maxWeakCount>
      <stageThreshold>-1.1002402305603027e+00</stageThreshold>
      <weakClassifiers>
        <_>
          <internalNodes>
            0 -1 41 -73168897 2072186806 -2142043255 -1084520382
            -1341593173 -526142958 -1225792601 -34603336</internalNodes>
          <leafValues>
            -7.9894179105758667e-01 6.5760868787765503e-01</leafValues></_>
        <_>
          <internalNodes>
            0 -1 10 -751442449 -74207171 -2129308289 -5917657 411085551
            2038970530 -1290743191 -1147114871</internalNodes>
          <leafValues>
            -8.0727076530456543e-01 6.0457485914230347e-01</leafValues></_>
        <_>
          <internalNodes>
            0 -1 48 -383959041 -1601611219 -2100438694 -124935985
            -68158652 624098174 -477387790 -69468481</internalNodes>
          <leafValues>
            -9.0587323904037476e-01 5.2502870559692383e-01</leafValues></_></weakClassifiers></_>
    <!-- stage 15 -->
    <_>
      <maxWeakCount>4</maxWeakCount>
      <stageThreshold>-2.1387684345245361e+00</stageThreshold>
      <weakClassifiers>
        <_>
          <internalNodes>
            0 -1 34 -1043606817 -1148984625 5989483 -540282761
            1747902871 -360479613 -2096119122 -67175780</internalNodes>
          <leafValues>
            -8.9197528362274170e-01 4.5378151535987854e-01</leafValues></_>
        <_>
          <internalNodes>
            0 -1 55 -1048617 -1072443249 -2129950139 -492337135
            -1849446013 1614845586 -355753289 1389355431</internalNodes>
          <leafValues>
            -8.9924609661102295e-01 4.8050910234451294e-01</leafValues></_>
        <_>
          <internalNodes>
            0 -1 8 -235884845 -209607915 -183961645 -1216100335
            -1936217089 -1826775022 2064754071 -71595246</internalNodes>
          <leafValues>
            -8.6304962635040283e-01 5.2100914716720581e-01</leafValues></_>
        <_>
          <internalNodes>
            0 -1 35 896876927 1606881859 -1323731097 -276717243
            288847250 -875494765 -1195901718 -320095797</internalNodes>
          <leafValues>
            -8.6855632066726685e-01 4.9401670694351196e-01</leafValues></_></weakClassifiers></_>
    <!-- stage 16 -->
    <_>
      <maxWeakCount>3</maxWeakCount>
      <stageThreshold>-1.1330212354660034e+00</stageThreshold>
      <weakClassifiers>
        <_>
          <internalNodes>
            0 -1 46 -209717397 -296041834 -1804328686 -153193528
            2023818123 -971997183 -146349637 -16780401</internalNodes>
          <leafValues>
            -8.1355929374694824e-01 5.1442307233810425e-01</leafValues></_>
        <_>
          <internalNodes>
            0 -1 25 -883735795 -136584252 -716605027 -577388395
            1636412351 -123043435 -285185113 -337207288</internalNodes>
          <leafValues>
            -7.9607200622558594e-01 5.8336478471755981e-01</leafValues></_>
        <_>
          <internalNodes>
            0 -1 49 -744891922 2031620177 -1877716960 -120286993
            -1331063989 -1735229014 -1075721561 -2123585</internalNodes>
          <leafValues>
            -9.7577267885208130e-01 4.7661003470420837e-01</leafValues></_></weakClassifiers></_>
    <!-- stage 17 -->
    <_>
      <maxWeakCount>5</maxWeakCount>
      <stageThreshold>-1.3518851995468140e+00</stageThreshold>
      <weakClassifiers>
        <_>
          <internalNodes>
            0 -1 24 -134302785 -773938933 4653459 -746946490 -786448225
            -658292701 -906549233 -67112353</internalNodes>
          <leafValues>
            -8.2978725433349609e-01 5.3221958875656128e-01</leafValues></_>
        <_>
          <internalNodes>
            0 -1 15 554961279 962176409 -1726916097 460300501 1368994559
            2073625729 -1459565569 2144051407</internalNodes>
          <leafValues>
            -8.0613386631011963e-01 5.6439673900604248e-01</leafValues></_>
        <_>
          <internalNodes>
            0 -1 45 -1122518041 -419122270 1358956744 -1407798088
            -545148917 -956071805 -71141233 -327287927</internalNodes>
          <leafValues>
            -8.4874123334884644e-01 5.3180938959121704e-01</leafValues></_>
        <_>
          <internalNodes>
            0 -1 57 -1277694977 -1528838698 1074053491 -2041843313
            -1857295989 -120717241 -1857166645 788511215</internalNodes>
          <leafValues>
            -8.5676497220993042e-01 5.3911834955215454e-01</leafValues></_>
        <_>
          <internalNodes>
            0 -1 47 -758000163 -787414525 1635823927 -1974349739
            -116247851 -89423709 -120561571 -600303344</internalNodes>
          <leafValues>
            -7.8689181804656982e-01 6.4094227552413940e-01</leafValues></_></weakClassifiers></_>
    <!-- stage 18 -->
    <_>
      <maxWeakCount>3</maxWeakCount>
      <stageThreshold>-1.0230898857116699e+00</stageThreshold>
      <weakClassifiers>
        <_>
          <internalNodes>
            0 -1 30 -752446977 -216879040 285282581 -70772318
            -1862012501 -1163884020 -1156433601 -33554958</internalNodes>
          <leafValues>
            -7.7248674631118774e-01 6.0326087474822998e-01</leafValues></_>
        <_>
          <internalNodes>
            0 -1 12 -1349433859 -322602557 -788441711 -610332656
            -1307264125 461389962 327745687 -137657853</internalNodes>
          <leafValues>
            -8.0232429504394531e-01 5.8464711904525757e-01</leafValues></_>
        <_>
          <internalNodes>
            0 -1 14 33832977 1004081369 419854727 889802809 1527392268
            -6795000 1400898477 -1088691733</internalNodes>
          <leafValues>
            -8.2402640581130981e-01 5.6859970092773438e-01</leafValues></_></weakClassifiers></_>
    <!-- stage 19 -->
    <_>
      <maxWeakCount>3</maxWeakCount>
      <stageThreshold>-9.9119091033935547e-01</stageThreshold>
      <weakClassifiers>
        <_>
          <internalNodes>
            0 -1 17 -712248865 -716418047 4231175 -1265594111 303042571
            872693760 -1006419958 -2156217</internalNodes>
          <leafValues>
            -7.4809157848358154e-01 6.6863906383514404e-01</leafValues></_>
        <_>
          <internalNodes>
            0 -1 31 1362172445 -947847163 957354257 -854780559
            -402653175 -1290731520 -1107289839 -325992413</internalNodes>
          <leafValues>
            -8.2849156856536865e-01 5.4867368936538696e-01</leafValues></_>
        <_>
          <internalNodes>
            0 -1 21 -431046249 -1023277785 1212153873 -582352382
            -1027538686 -745242560 -1574469588 -101342807</internalNodes>
          <leafValues>
            -7.9177296161651611e-01 5.8965861797332764e-01</leafValues></_></weakClassifiers></_></stages>
  <features>
    <_>
      <rect>
        0 0 3 2</rect></_>
    <_>
      <rect>
        0 0 6 2</rect></_>
    <_>
      <rect>
        0 1 6 4</rect></_>
    <_>
      <rect>
        0 2 1 4</rect></_>
    <_>
      <rect>
        0 3 4 3</rect></_>
    <_>
      <rect>
        0 4 1 2</rect></_>
    <_>
      <rect>
        0 5 1 5</rect></_>
    <_>
      <rect>
        1 1 4 5</rect></_>
    <_>
      <rect>
        2 1 4 3</rect></_>
    <_>
      <rect>
        2 1 4 6</rect></_>
    <_>
      <rect>
        2 3 4 1</rect></_>
    <_>
      <rect>
        2 4 4 5</rect></_>
    <_>
      <rect>
        2 5 2 1</rect></_>
    <_>
      <rect>
        2 7 6 4</rect></_>
    <_>
      <rect>
        2 17 3 1</rect></_>
    <_>
      <rect>
        2 17 6 1</rect></_>
    <_>
      <rect>
        3 0 4 3</rect></_>
    <_>
      <rect>
        3 2 2 6</rect></_>
    <_>
      <rect>
        3 2 4 2</rect></_>
    <_>
      <rect>
        3 3 2 2</rect></_>
    <_>
      <rect>
        3 4 2 2</rect></_>
    <_>
      <rect>
        3 5 1 2</rect></_>
    <_>
      <rect>
        3 8 4 2</rect></_>
    <_>
      <rect>
        3 9 3 1</rect></_>
    <_>
      <rect>
        4 2 1 5</rect></_>
    <_>
      <rect>
        4 2 3 1</rect></_>
    <_>
      <rect>
        4 9 3 2</rect></_>
    <_>
      <rect>
        4 17 2 1</rect></_>
    <_>
      <rect>
        5 7 3 3</rect></_>
    <_>
      <rect>
        5 8 1 2</rect></_>
    <_>
      <rect>
        5 8 2 1</rect></_>
    <_>
      <rect>
        5 9 3 2</rect></_>
    <_>
      <rect>
        5 10 5 3</rect></_>
    <_>
      <rect>
        6 6 3 3</rect></_>
    <_>
      <rect>
        6 8 1 2</rect></_>
    <_>
      <rect>
        6 8 3 2</rect></_>
    <_>
      <rect>
        6 10 2 2</rect></_>
    <_>
      <rect>
        6 11 2 3</rect></_>
    <_>
      <rect>
        7 0 4 4</rect></_>
    <_>
      <rect>
        7 2 3 2</rect></_>
    <_>
      <rect>
        7 2 4 3</rect></_>
    <_>
      <rect>
        7 7 1 2</rect></_>
    <_>
      <rect>
        7 7 2 2</rect></_>
    <_>
      <rect>
        7 8 2 2</rect></_>
    <_>
      <rect>
        8 2 3 5</rect></_>
    <_>
      <rect>
        9 10 1 2</rect></_>
    <_>
      <rect>
        9 11 1 2</rect></_>
    <_>
      <rect>
        10 0 2 1</rect></_>
    <_>
      <rect>
        10 7 3 3</rect></_>
    <_>
      <rect>
        10 11 2 1</rect></_>
    <_>
      <rect>
        10 12 2 2</rect></_>
    <_>
      <rect>
        12 8 2 2</rect></_>
    <_>
      <rect>
        12 9 2 2</rect></_>
    <_>
      <rect>
        12 10 2 2</rect></_>
    <_>
      <rect>
        12 14 2 2</rect></_>
    <_>
      <rect>
        14 2 2 5</rect></_>
    <_>
      <rect>
        14 11 2 3</rect></_>
    <_>
      <rect>
        17 8 1 4</rect></_></features></cascade>
</opencv_storage>
