<?xml version="1.0"?>
<opencv_storage>
<cascade>
  <stageType>BOOST</stageType>
  <featureType>LBP</featureType>
  <height>20</height>
  <width>20</width>
  <stageParams>
    <boostType>GAB</boostType>
    <minHitRate>9.9900001287460327e-01</minHitRate>
    <maxFalseAlarm>5.0000000000000000e-01</maxFalseAlarm>
    <weightTrimRate>9.4999999999999996e-01</weightTrimRate>
    <maxDepth>1</maxDepth>
    <maxWeakCount>100</maxWeakCount></stageParams>
  <featureParams>
    <maxCatCount>256</maxCatCount>
    <featSize>1</featSize></featureParams>
  <stageNum>18</stageNum>
  <stages>
    <!-- stage 0 -->
    <_>
      <maxWeakCount>2</maxWeakCount>
      <stageThreshold>-1.4144197106361389e-01</stageThreshold>
      <weakClassifiers>
        <_>
          <internalNodes>
            0 -1 14 -240001794 -611249971 -1835941217 1964756995
            -2004252177 -888569717 -1734095649 -5506117</internalNodes>
          <leafValues>
            -9.8977851867675781e-01 9.2024540901184082e-01</leafValues></_>
        <_>
          <internalNodes>
            0 -1 15 -678431762 -113176111 -250508899 -6868169 -810820097
            -1718680945 -760353793 -4461669</internalNodes>
          <leafValues>
            -9.8839348554611206e-01 8.4833657741546631e-01</leafValues></_></weakClassifiers></_>
    <!-- stage 1 -->
    <_>
      <maxWeakCount>3</maxWeakCount>
      <stageThreshold>-1.1315124034881592e+00</stageThreshold>
      <weakClassifiers>
        <_>
          <internalNodes>
            0 -1 52 -787457 -2100497 -245498415 -585 -1048705 -337661713
            -538968201 -1041</internalNodes>
          <leafValues>
            -9.4603711366653442e-01 8.7500000000000000e-01</leafValues></_>
        <_>
          <internalNodes>
            0 -1 23 -7602181 -269488673 -52977665 -824247841 -215242817
            -640812881 -10488833 -4101</internalNodes>
          <leafValues>
            -9.0258723497390747e-01 8.1095004081726074e-01</leafValues></_>
        <_>
          <internalNodes>
            0 -1 38 -541065217 -69340225 1406900176 -322561 -268699314
            -3345 -134218393 -261</internalNodes>
          <leafValues>
            -9.1101115942001343e-01 7.1711194515228271e-01</leafValues></_></weakClassifiers></_>
    <!-- stage 2 -->
    <_>
      <maxWeakCount>3</maxWeakCount>
      <stageThreshold>-1.2148802280426025e+00</stageThreshold>
      <weakClassifiers>
        <_>
          <internalNodes>
            0 -1 24 -169871873 -289328935 -565841477 -50595427
            -128730181 -37731693 -98846469 -2100737</internalNodes>
          <leafValues>
            -9.2850756645202637e-01 6.7468178272247314e-01</leafValues></_>
        <_>
          <internalNodes>
            0 -1 9 -578421794 2142441823 -205532934 2074079615
            -710035457 -257261413 -70263809 -1025</internalNodes>
          <leafValues>
            -9.6307164430618286e-01 5.5244594812393188e-01</leafValues></_>
        <_>
          <internalNodes>
            0 -1 42 -20697 -471891843 -705621505 -10631705 -90441729
            -122124279 -4195585 -13637125</internalNodes>
          <leafValues>
            -8.3711433410644531e-01 6.7669898271560669e-01</leafValues></_></weakClassifiers></_>
    <!-- stage 3 -->
    <_>
      <maxWeakCount>3</maxWeakCount>
      <stageThreshold>-1.0373375415802002e+00</stageThreshold>
      <weakClassifiers>
        <_>
          <internalNodes>
            0 -1 53 -207764993 -581730151 -778560041 -192033 -258295937
            -1148682087 -1428235273 -68449282</internalNodes>
          <leafValues>
            -9.2073732614517212e-01 5.8974361419677734e-01</leafValues></_>
        <_>
          <internalNodes>
            0 -1 60 -1278541007 -103579628 -778714885 -237141676
            -1610513900 -931004408 -75323221 -1072497</internalNodes>
          <leafValues>
            -8.4415364265441895e-01 6.5017342567443848e-01</leafValues></_>
        <_>
          <internalNodes>
            0 -1 29 -2102418689 -548187757 -1836908077 -113016493
            -1173648726 -30768606 -374918513 -268451669</internalNodes>
          <leafValues>
            -7.6677358150482178e-01 7.5143933296203613e-01</leafValues></_></weakClassifiers></_>
    <!-- stage 4 -->
    <_>
      <maxWeakCount>3</maxWeakCount>
      <stageThreshold>-1.0566947460174561e+00</stageThreshold>
      <weakClassifiers>
        <_>
          <internalNodes>
            0 -1 19 -562039841 -84174453 -673883361 -5518361 -670957677
            -169807216 -573055521 -537396429</internalNodes>
          <leafValues>
            -8.2703608274459839e-01 6.6614174842834473e-01</leafValues></_>
        <_>
          <internalNodes>
            0 -1 54 -715269377 -203615024 -79569441 -3157551 -80497841
            -1282799462 -6566985 -72635657</internalNodes>
          <leafValues>
            -9.1289293766021729e-01 6.1662858724594116e-01</leafValues></_>
        <_>
          <internalNodes>
            0 -1 44 937918463 531581855 -1319921925 -1147156642
            1888189423 1003540890 1000283064 -21830</internalNodes>
          <leafValues>
            -7.7467620372772217e-01 6.8323427438735962e-01</leafValues></_></weakClassifiers></_>
    <!-- stage 5 -->
    <_>
      <maxWeakCount>5</maxWeakCount>
      <stageThreshold>-1.1042717695236206e+00</stageThreshold>
      <weakClassifiers>
        <_>
          <internalNodes>
            0 -1 6 -572924929 1970787271 -202116098 -933903 -1675891217
            -1218903881 -6427653 -18945</internalNodes>
          <leafValues>
            -8.4110534191131592e-01 6.1676645278930664e-01</leafValues></_>
        <_>
          <internalNodes>
            0 -1 68 -1082130433 -1923088901 -213813889 788528527
            -507249739 948565635 -1210077201 -1073741825</internalNodes>
          <leafValues>
            -7.4140012264251709e-01 7.2434800863265991e-01</leafValues></_>
        <_>
          <internalNodes>
            0 -1 25 -638059521 -269495314 -1660814337 -16813065 -5803585
            -476327533 -617667921 -84216866</internalNodes>
          <leafValues>
            -8.4884887933731079e-01 6.4619290828704834e-01</leafValues></_>
        <_>
          <internalNodes>
            0 -1 27 -545796297 -134620833 -1190011393 -1075849345
            -88129730 -805927 -125576577 1082571839</internalNodes>
          <leafValues>
            -8.7254971265792847e-01 5.6396460533142090e-01</leafValues></_>
        <_>
          <internalNodes>
            0 -1 16 -32769 -98313 -36993 1069166507 2147450751 -32899
            -49281 -285278220</internalNodes>
          <leafValues>
            -6.9551795721054077e-01 7.6311796903610229e-01</leafValues></_></weakClassifiers></_>
    <!-- stage 6 -->
    <_>
      <maxWeakCount>3</maxWeakCount>
      <stageThreshold>-1.1713883876800537e+00</stageThreshold>
      <weakClassifiers>
        <_>
          <internalNodes>
            0 -1 0 -112984065 -740565777 -782526817 -11534465 -100143385
            -286346770 1513617969 -143165593</internalNodes>
          <leafValues>
            -8.0050718784332275e-01 5.9875583648681641e-01</leafValues></_>
        <_>
          <internalNodes>
            0 -1 49 -536888013 -656556741 -1062237971 -54423121
            -607527937 -2138387369 -363860225 -565452755</internalNodes>
          <leafValues>
            -8.9746409654617310e-01 5.2092063426971436e-01</leafValues></_>
        <_>
          <internalNodes>
            0 -1 8 -606610437 -274017286 -545285729 -488653989
            -1718222181 239851487 -1130161157 -201358443</internalNodes>
          <leafValues>
            -8.7268006801605225e-01 5.2665984630584717e-01</leafValues></_></weakClassifiers></_>
    <!-- stage 7 -->
    <_>
      <maxWeakCount>3</maxWeakCount>
      <stageThreshold>-9.9901962280273438e-01</stageThreshold>
      <weakClassifiers>
        <_>
          <internalNodes>
            0 -1 56 -1681926657 711455078 -1324623873 -1186742270
            -1769080321 -1148481360 936464889 -1073779973</internalNodes>
          <leafValues>
            -7.9618889093399048e-01 6.4458805322647095e-01</leafValues></_>
        <_>
          <internalNodes>
            0 -1 57 -859832333 -54032169 -897064737 -41975665 -934754121
            -928071677 -397621073 -297088894</internalNodes>
          <leafValues>
            -7.5896424055099487e-01 6.6877609491348267e-01</leafValues></_>
        <_>
          <internalNodes>
            0 -1 1 -544287238 1499591701 -586818049 -581713597
            -712978182 -1807712057 -1145314305 -8418993</internalNodes>
          <leafValues>
            -8.7160682678222656e-01 5.9484779834747314e-01</leafValues></_></weakClassifiers></_>
    <!-- stage 8 -->
    <_>
      <maxWeakCount>4</maxWeakCount>
      <stageThreshold>-8.2810020446777344e-01</stageThreshold>
      <weakClassifiers>
        <_>
          <internalNodes>
            0 -1 11 1075038719 -168192589 -1181352449 -174073859
            -285151233 -3023954 -97138217 1198687045</internalNodes>
          <leafValues>
            -8.8022816181182861e-01 4.7028422355651855e-01</leafValues></_>
        <_>
          <internalNodes>
            0 -1 12 1441658111 2145874759 -96477586 -416295350
            -1147963941 -808861499 -206184641 -149477</internalNodes>
          <leafValues>
            -8.6373281478881836e-01 5.1554036140441895e-01</leafValues></_>
        <_>
          <internalNodes>
            0 -1 45 -1210114565 770818549 -2053769573 242709947
            -1362238977 684704713 736758008 2130685947</internalNodes>
          <leafValues>
            -8.3650976419448853e-01 5.0868433713912964e-01</leafValues></_>
        <_>
          <internalNodes>
            0 -1 43 1909964799 1506738503 -1601672453 -1743201991
            -1431585954 -353727941 -336613259 -1366626561</internalNodes>
          <leafValues>
            -9.4333595037460327e-01 4.6282020211219788e-01</leafValues></_></weakClassifiers></_>
    <!-- stage 9 -->
    <_>
      <maxWeakCount>4</maxWeakCount>
      <stageThreshold>-7.3303908109664917e-01</stageThreshold>
      <weakClassifiers>
        <_>
          <internalNodes>
            0 -1 17 -301219841 -15485551 -117311213 -13372523 -285084765
            -75443710 -306066021 -975516243</internalNodes>
          <leafValues>
            -8.2113820314407349e-01 4.8261475563049316e-01</leafValues></_>
        <_>
          <internalNodes>
            0 -1 69 -68354124 -1536843751 -1056636649 -1494752537
            -202395169 -1599602045 -305155893 -1895829537</internalNodes>
          <leafValues>
            -8.3497059345245361e-01 4.6555757522583008e-01</leafValues></_>
        <_>
          <internalNodes>
            0 -1 55 -1155943425 281907337 391154141 -745570017
            -354698402 -1865906173 -69012489 -71311113</internalNodes>
          <leafValues>
            -8.3954691886901855e-01 5.0705182552337646e-01</leafValues></_>
        <_>
          <internalNodes>
            0 -1 26 8397971 -1816489702 2017998323 -2633636 -1711168589
            -75856968 -825648201 -2071950652</internalNodes>
          <leafValues>
            -8.4166449308395386e-01 5.5214643478393555e-01</leafValues></_></weakClassifiers></_>
    <!-- stage 10 -->
    <_>
      <maxWeakCount>5</maxWeakCount>
      <stageThreshold>-1.3377003669738770e+00</stageThreshold>
      <weakClassifiers>
        <_>
          <internalNodes>
            0 -1 13 295901567 298914131 496053951 521474497 2055237951
            1508515983 -1912042565 -38098546</internalNodes>
          <leafValues>
            -7.6279860734939575e-01 5.0764524936676025e-01</leafValues></_>
        <_>
          <internalNodes>
            0 -1 20 454401519 2110869689 -1189896214 -1759666991
            -1734180113 -74608416 -1969308689 -205993781</internalNodes>
          <leafValues>
            -8.9129090309143066e-01 4.0739730000495911e-01</leafValues></_>
        <_>
          <internalNodes>
            0 -1 21 -555819585 -1248357629 -284245861 -1076371069
            -7419201 -351780861 -551557109 -102978775</internalNodes>
          <leafValues>
            -7.0713704824447632e-01 5.8851218223571777e-01</leafValues></_>
        <_>
          <internalNodes>
            0 -1 63 -539017417 -582025121 -1445907745 -1290860401
            -1429427751 -2138537983 -116866341 -1172166645</internalNodes>
          <leafValues>
            -8.1702315807342529e-01 4.9940592050552368e-01</leafValues></_>
        <_>
          <internalNodes>
            0 -1 50 -1461382283 -108453869 -11489071 -6635311 -83842536
            -2138525568 -1157060463 -20215796</internalNodes>
          <leafValues>
            -7.2554379701614380e-01 5.6266665458679199e-01</leafValues></_></weakClassifiers></_>
    <!-- stage 11 -->
    <_>
      <maxWeakCount>5</maxWeakCount>
      <stageThreshold>-1.6134876012802124e+00</stageThreshold>
      <weakClassifiers>
        <_>
          <internalNodes>
            0 -1 30 -86004481 -29376733 1360564593 -3335269 -104941541
            -1283325951 -343676029 -1617956097</internalNodes>
          <leafValues>
            -7.4742269515991211e-01 4.6525681018829346e-01</leafValues></_>
        <_>
          <internalNodes>
            0 -1 37 -711470626 1088608796 -787234468 -68692875
            1347052029 -1027407805 -201655841 -1537</internalNodes>
          <leafValues>
            -8.5733240842819214e-01 4.1521435976028442e-01</leafValues></_>
        <_>
          <internalNodes>
            0 -1 4 -117440513 -644360075 822663167 -1076389665
            -120745993 2069244512 1208534519 607613031</internalNodes>
          <leafValues>
            -8.5451865196228027e-01 4.3033146858215332e-01</leafValues></_>
        <_>
          <internalNodes>
            0 -1 34 -1156058849 -409644750 -802078677 -422362170
            -394100079 -528343032 -633278317 -19340293</internalNodes>
          <leafValues>
            -7.7867770195007324e-01 4.8710238933563232e-01</leafValues></_>
        <_>
          <internalNodes>
            0 -1 22 -105776860 1881523301 -1071633953 -303461887
            -2002199361 1900251897 -379533109 1324345483</internalNodes>
          <leafValues>
            -9.2616641521453857e-01 3.6681830883026123e-01</leafValues></_></weakClassifiers></_>
    <!-- stage 12 -->
    <_>
      <maxWeakCount>5</maxWeakCount>
      <stageThreshold>-1.2060958147048950e+00</stageThreshold>
      <weakClassifiers>
        <_>
          <internalNodes>
            0 -1 30 -83906833 -32275625 1941259090 -251291065 -81332045
            -50036710 -343672913 -1111233797</internalNodes>
          <leafValues>
            -7.4848222732543945e-01 4.4725111126899719e-01</leafValues></_>
        <_>
          <internalNodes>
            0 -1 62 -103852835 1363436763 1632438735 -515640597
            -18169218 -1962179877 -70598921 -3</internalNodes>
          <leafValues>
            -7.3467969894409180e-01 5.1093620061874390e-01</leafValues></_>
        <_>
          <internalNodes>
            0 -1 2 2038953687 -539514477 1376967679 -208325745 428339187
            -125727773 -380502827 -193627273</internalNodes>
          <leafValues>
            -6.9958412647247314e-01 5.7538187503814697e-01</leafValues></_>
        <_>
          <internalNodes>
            0 -1 70 -355473521 -389703197 -474660662 -1429339938
            -73491921 -90668917 -1684420169 -18109698</internalNodes>
          <leafValues>
            -6.5151566267013550e-01 5.6852519512176514e-01</leafValues></_>
        <_>
          <internalNodes>
            0 -1 31 -285477074 -49196799 1896879026 -247381967
            -1004490325 -369049600 1882228912 -218099198</internalNodes>
          <leafValues>
            -8.3749085664749146e-01 4.6154776215553284e-01</leafValues></_></weakClassifiers></_>
    <!-- stage 13 -->
    <_>
      <maxWeakCount>5</maxWeakCount>
      <stageThreshold>-1.4393223524093628e+00</stageThreshold>
      <weakClassifiers>
        <_>
          <internalNodes>
            0 -1 18 357765563 -112492461 486740447 -2252521 -1987405142
            -1679847287 -634926147 -695408124</internalNodes>
          <leafValues>
            -7.4115616083145142e-01 4.4527736306190491e-01</leafValues></_>
        <_>
          <internalNodes>
            0 -1 64 -627836619 -40927077 -780069555 -573075301
            -372450716 -134176704 -1149056265 -71055306</internalNodes>
          <leafValues>
            -8.1206631660461426e-01 3.8907811045646667e-01</leafValues></_>
        <_>
          <internalNodes>
            0 -1 39 -1812622337 -1311702823 -1668155230 -723697153
            1249941723 -1608384064 -1691749673 -72367173</internalNodes>
          <leafValues>
            -8.0432462692260742e-01 3.7638211250305176e-01</leafValues></_>
        <_>
          <internalNodes>
            0 -1 5 889846783 2101374980 -2147413999 865933971 415759215
            1553799169 1846227119 2062908583</internalNodes>
          <leafValues>
            -7.1933758258819580e-01 5.0875687599182129e-01</leafValues></_>
        <_>
          <internalNodes>
            0 -1 40 -788139009 429392273 -1056730660 1058046942
            1367933695 1107857536 -925616068 -1617249618</internalNodes>
          <leafValues>
            -7.4428892135620117e-01 4.8073318600654602e-01</leafValues></_></weakClassifiers></_>
    <!-- stage 14 -->
    <_>
      <maxWeakCount>5</maxWeakCount>
      <stageThreshold>-1.2557628154754639e+00</stageThreshold>
      <weakClassifiers>
        <_>
          <internalNodes>
            0 -1 32 -25232709 -1630026853 -1191083621 -153382245
            1364443276 -1291843583 -68698097 -1114522685</internalNodes>
          <leafValues>
            -7.9861795902252197e-01 3.0381304025650024e-01</leafValues></_>
        <_>
          <internalNodes>
            0 -1 10 1462102879 -618547185 218166065 -117186529
            -679420965 -92219218 -368930057 25875841</internalNodes>
          <leafValues>
            -7.4326127767562866e-01 4.2243555188179016e-01</leafValues></_>
        <_>
          <internalNodes>
            0 -1 61 -786597635 -992931819 -1589608201 -756301605
            -1068983697 -628064094 -1448113417 -3168779</internalNodes>
          <leafValues>
            -7.0674651861190796e-01 4.8164272308349609e-01</leafValues></_>
        <_>
          <internalNodes>
            0 -1 59 319773389 -909436359 1082892427 -1819769685
            -492686673 -1417598294 -1165066223 -1330927173</internalNodes>
          <leafValues>
            -6.9089025259017944e-01 5.1106321811676025e-01</leafValues></_>
        <_>
          <internalNodes>
            0 -1 48 -1214106445 -536871041 -1 -8388807 -4356 -1073741826
            -524292 -1080017616</internalNodes>
          <leafValues>
            -5.8437466621398926e-01 6.0770916938781738e-01</leafValues></_></weakClassifiers></_>
    <!-- stage 15 -->
    <_>
      <maxWeakCount>5</maxWeakCount>
      <stageThreshold>-1.3642356395721436e+00</stageThreshold>
      <weakClassifiers>
        <_>
          <internalNodes>
            0 -1 47 512372223 -606514998 -1855712781 -1116628775
            981467427 -1064791992 -1743210753 -1073792082</internalNodes>
          <leafValues>
            -7.5373136997222900e-01 3.2625994086265564e-01</leafValues></_>
        <_>
          <internalNodes>
            0 -1 58 -1382025419 -527691249 -2138792481 -372729718
            -343231769 -1987571310 -1948728885 -775382817</internalNodes>
          <leafValues>
            -7.2675108909606934e-01 4.2884814739227295e-01</leafValues></_>
        <_>
          <internalNodes>
            0 -1 65 -995657993 1431132639 1090587020 -557130305
            -1819824699 -410025463 -917615761 1950512739</internalNodes>
          <leafValues>
            -7.8716111183166504e-01 3.7465554475784302e-01</leafValues></_>
        <_>
          <internalNodes>
            0 -1 51 -1547994305 -658882400 93528315 -789540410
            -2135199217 -2122268528 -896806805 -351752086</internalNodes>
          <leafValues>
            -5.7453590631484985e-01 6.0814678668975830e-01</leafValues></_>
        <_>
          <internalNodes>
            0 -1 7 -1210614825 1398243337 17386376 -1715666869 -66111119
            1084358786 -326206608 1528133697</internalNodes>
          <leafValues>
            -7.9273962974548340e-01 3.9795243740081787e-01</leafValues></_></weakClassifiers></_>
    <!-- stage 16 -->
    <_>
      <maxWeakCount>5</maxWeakCount>
      <stageThreshold>-1.5465837717056274e+00</stageThreshold>
      <weakClassifiers>
        <_>
          <internalNodes>
            0 -1 46 -1185850625 -1861140281 -717170279 -1185202019
            276826254 -1315207040 -2004710678 -1078318616</internalNodes>
          <leafValues>
            -7.5000000000000000e-01 3.8095238804817200e-01</leafValues></_>
        <_>
          <internalNodes>
            0 -1 67 -714608193 631091665 -904609663 228577570 -934677877
            566300672 -1328578163 663739323</internalNodes>
          <leafValues>
            -7.9523807764053345e-01 3.8173022866249084e-01</leafValues></_>
        <_>
          <internalNodes>
            0 -1 3 -785041962 -1793779702 1364250964 1968357460
            -2134265605 388202659 1124272815 -671891283</internalNodes>
          <leafValues>
            -8.5883176326751709e-01 3.8413041830062866e-01</leafValues></_>
        <_>
          <internalNodes>
            0 -1 24 286326929 -918482687 419463177 -233762543
            -1879047932 842039328 322967569 -81723319</internalNodes>
          <leafValues>
            -8.2059580087661743e-01 4.1337668895721436e-01</leafValues></_>
        <_>
          <internalNodes>
            0 -1 66 -192869745 -1467416054 134774785 -2084568442
            100885145 -1199406974 159492196 -301782461</internalNodes>
          <leafValues>
            -7.2438168525695801e-01 4.4410943984985352e-01</leafValues></_></weakClassifiers></_>
    <!-- stage 17 -->
    <_>
      <maxWeakCount>5</maxWeakCount>
      <stageThreshold>-1.4933755397796631e+00</stageThreshold>
      <weakClassifiers>
        <_>
          <internalNodes>
            0 -1 36 -637679137 285463571 -1878927907 -1145960174
            1073825950 822102240 -666812018 -1109330</internalNodes>
          <leafValues>
            -7.6615971326828003e-01 3.1524547934532166e-01</leafValues></_>
        <_>
          <internalNodes>
            0 -1 33 -1835986501 13 -2147151630 1124073501 278430671
            -1610054080 -1317008794 -1416068422</internalNodes>
          <leafValues>
            -7.7112925052642822e-01 3.8473954796791077e-01</leafValues></_>
        <_>
          <internalNodes>
            0 -1 35 -217976525 -904719933 -1610591983 -194932705
            1896218640 -679444446 -1862238007 -159194949</internalNodes>
          <leafValues>
            -7.2161316871643066e-01 4.4419312477111816e-01</leafValues></_>
        <_>
          <internalNodes>
            0 -1 28 1343246396 -252657663 -2143189799 -846969856
            -2133850887 2018017296 -2146400055 50909192</internalNodes>
          <leafValues>
            -8.0158638954162598e-01 4.2603805661201477e-01</leafValues></_>
        <_>
          <internalNodes>
            0 -1 41 352915637 -1244069887 1342826551 -1317011304
            -1743781834 -259817472 -494235637 -1682177826</internalNodes>
          <leafValues>
            -6.8009853363037109e-01 4.6478861570358276e-01</leafValues></_></weakClassifiers></_></stages>
  <features>
    <_>
      <rect>
        0 0 2 5</rect></_>
    <_>
      <rect>
        0 0 5 6</rect></_>
    <_>
      <rect>
        0 1 2 5</rect></_>
    <_>
      <rect>
        0 4 5 5</rect></_>
    <_>
      <rect>
        1 5 2 3</rect></_>
    <_>
      <rect>
        1 5 2 5</rect></_>
    <_>
      <rect>
        1 5 6 5</rect></_>
    <_>
      <rect>
        1 7 1 4</rect></_>
    <_>
      <rect>
        1 7 4 3</rect></_>
    <_>
      <rect>
        1 7 6 4</rect></_>
    <_>
      <rect>
        2 0 3 2</rect></_>
    <_>
      <rect>
        2 0 4 2</rect></_>
    <_>
      <rect>
        2 5 4 3</rect></_>
    <_>
      <rect>
        2 17 5 1</rect></_>
    <_>
      <rect>
        3 1 5 6</rect></_>
    <_>
      <rect>
        3 2 4 4</rect></_>
    <_>
      <rect>
        3 14 3 2</rect></_>
    <_>
      <rect>
        4 0 2 3</rect></_>
    <_>
      <rect>
        4 0 4 1</rect></_>
    <_>
      <rect>
        4 2 2 3</rect></_>
    <_>
      <rect>
        4 7 5 2</rect></_>
    <_>
      <rect>
        5 1 1 4</rect></_>
    <_>
      <rect>
        5 1 5 3</rect></_>
    <_>
      <rect>
        5 7 2 2</rect></_>
    <_>
      <rect>
        5 8 2 1</rect></_>
    <_>
      <rect>
        5 8 2 2</rect></_>
    <_>
      <rect>
        6 0 2 1</rect></_>
    <_>
      <rect>
        6 0 4 2</rect></_>
    <_>
      <rect>
        6 1 4 2</rect></_>
    <_>
      <rect>
        6 2 1 2</rect></_>
    <_>
      <rect>
        6 3 1 2</rect></_>
    <_>
      <rect>
        6 3 2 2</rect></_>
    <_>
      <rect>
        6 4 1 2</rect></_>
    <_>
      <rect>
        6 5 4 3</rect></_>
    <_>
      <rect>
        6 7 1 2</rect></_>
    <_>
      <rect>
        6 10 1 1</rect></_>
    <_>
      <rect>
        6 14 2 2</rect></_>
    <_>
      <rect>
        7 5 2 5</rect></_>
    <_>
      <rect>
        7 6 3 3</rect></_>
    <_>
      <rect>
        7 10 2 1</rect></_>
    <_>
      <rect>
        7 14 2 2</rect></_>
    <_>
      <rect>
        7 16 1 1</rect></_>
    <_>
      <rect>
        8 2 2 2</rect></_>
    <_>
      <rect>
        8 6 3 3</rect></_>
    <_>
      <rect>
        8 14 2 2</rect></_>
    <_>
      <rect>
        8 14 3 2</rect></_>
    <_>
      <rect>
        8 16 1 1</rect></_>
    <_>
      <rect>
        8 17 1 1</rect></_>
    <_>
      <rect>
        9 0 1 1</rect></_>
    <_>
      <rect>
        9 1 2 3</rect></_>
    <_>
      <rect>
        9 4 1 1</rect></_>
    <_>
      <rect>
        9 5 1 2</rect></_>
    <_>
      <rect>
        9 6 2 2</rect></_>
    <_>
      <rect>
        9 8 2 1</rect></_>
    <_>
      <rect>
        9 9 2 1</rect></_>
    <_>
      <rect>
        9 9 2 2</rect></_>
    <_>
      <rect>
        9 14 2 2</rect></_>
    <_>
      <rect>
        10 2 2 3</rect></_>
    <_>
      <rect>
        10 3 1 2</rect></_>
    <_>
      <rect>
        10 3 2 5</rect></_>
    <_>
      <rect>
        10 4 1 1</rect></_>
    <_>
      <rect>
        10 8 1 1</rect></_>
    <_>
      <rect>
        10 8 1 2</rect></_>
    <_>
      <rect>
        11 2 1 2</rect></_>
    <_>
      <rect>
        11 5 1 1</rect></_>
    <_>
      <rect>
        12 0 2 3</rect></_>
    <_>
      <rect>
        12 5 1 3</rect></_>
    <_>
      <rect>
        13 5 2 5</rect></_>
    <_>
      <rect>
        14 5 2 5</rect></_>
    <_>
      <rect>
        16 1 1 6</rect></_>
    <_>
      <rect>
        17 8 1 1</rect></_></features></cascade>
</opencv_storage>
