<?xml version="1.0"?>
<opencv_storage>
<cascade>
  <stageType>BOOST</stageType>
  <featureType>LBP</featureType>
  <height>20</height>
  <width>20</width>
  <stageParams>
    <boostType>GAB</boostType>
    <minHitRate>9.9000000953674316e-01</minHitRate>
    <maxFalseAlarm>5.0000000000000000e-01</maxFalseAlarm>
    <weightTrimRate>9.4999999999999996e-01</weightTrimRate>
    <maxDepth>1</maxDepth>
    <maxWeakCount>100</maxWeakCount></stageParams>
  <featureParams>
    <maxCatCount>256</maxCatCount>
    <featSize>1</featSize></featureParams>
  <stageNum>14</stageNum>
  <stages>
    <!-- stage 0 -->
    <_>
      <maxWeakCount>2</maxWeakCount>
      <stageThreshold>-1.4143064618110657e-01</stageThreshold>
      <weakClassifiers>
        <_>
          <internalNodes>
            0 -1 9 -1 -525345 -2106898 -133129 -53477377 -20316721
            -68157442 -65</internalNodes>
          <leafValues>
            -9.8915255069732666e-01 8.7428569793701172e-01</leafValues></_>
        <_>
          <internalNodes>
            0 -1 30 -10485761 -1 -663681 -10275 -335545517 -144065
            -72351945 -1</internalNodes>
          <leafValues>
            -9.5915448665618896e-01 8.4772187471389771e-01</leafValues></_></weakClassifiers></_>
    <!-- stage 1 -->
    <_>
      <maxWeakCount>2</maxWeakCount>
      <stageThreshold>-2.5675883889198303e-01</stageThreshold>
      <weakClassifiers>
        <_>
          <internalNodes>
            0 -1 3 -285217025 -4992513 -2893889 -2121761 -318780161
            -6845301 -855774209 -5381</internalNodes>
          <leafValues>
            -9.6321523189544678e-01 7.7819550037384033e-01</leafValues></_>
        <_>
          <internalNodes>
            0 -1 20 -573046785 -33564673 -486434307 -274088195
            -338701569 -17957 -18089009 -319946753</internalNodes>
          <leafValues>
            -9.6368008852005005e-01 7.0645642280578613e-01</leafValues></_></weakClassifiers></_>
    <!-- stage 2 -->
    <_>
      <maxWeakCount>3</maxWeakCount>
      <stageThreshold>-1.2602466344833374e+00</stageThreshold>
      <weakClassifiers>
        <_>
          <internalNodes>
            0 -1 7 -174850049 -242192367 -104466178 -173157101
            -1816083729 -882966379 -202383617 -71304193</internalNodes>
          <leafValues>
            -9.5003467798233032e-01 6.6010731458663940e-01</leafValues></_>
        <_>
          <internalNodes>
            0 -1 19 -236981377 2038372461 -859188225 2104738047
            -524119041 -1442930437 -289607169 -4461825</internalNodes>
          <leafValues>
            -9.0253776311874390e-01 7.5792729854583740e-01</leafValues></_>
        <_>
          <internalNodes>
            0 -1 26 767246139 -140518173 -513587777 -2135337 -74751813
            -607868748 -121930757 -1049857</internalNodes>
          <leafValues>
            -9.5783948898315430e-01 5.9232580661773682e-01</leafValues></_></weakClassifiers></_>
    <!-- stage 3 -->
    <_>
      <maxWeakCount>2</maxWeakCount>
      <stageThreshold>-3.3793225884437561e-01</stageThreshold>
      <weakClassifiers>
        <_>
          <internalNodes>
            0 -1 18 -319948801 -2152189 -217853313 -558633 -243295249
            395509763 -142638797 -17621</internalNodes>
          <leafValues>
            -9.3661969900131226e-01 5.6896549463272095e-01</leafValues></_>
        <_>
          <internalNodes>
            0 -1 0 -2099713 -552409069 -183375413 -34093587 -215815489
            -73356311 -383012449 2138566651</internalNodes>
          <leafValues>
            -9.0689778327941895e-01 6.1317545175552368e-01</leafValues></_></weakClassifiers></_>
    <!-- stage 4 -->
    <_>
      <maxWeakCount>3</maxWeakCount>
      <stageThreshold>-1.1739331483840942e+00</stageThreshold>
      <weakClassifiers>
        <_>
          <internalNodes>
            0 -1 5 -820514945 -11455019 -15616009 -70264869 1603333055
            -82447861 1469769723 -21</internalNodes>
          <leafValues>
            -9.1157895326614380e-01 5.1999998092651367e-01</leafValues></_>
        <_>
          <internalNodes>
            0 -1 22 -145493001 -168021558 -1055796262 -145833936
            -5574248 -74873984 -7697745 -1591276</internalNodes>
          <leafValues>
            -8.4648501873016357e-01 6.4572262763977051e-01</leafValues></_>
        <_>
          <internalNodes>
            0 -1 12 -547629057 -303106098 1462355807 -285212674
            -1995796261 -5527361 -679353894 -17105990</internalNodes>
          <leafValues>
            -9.7288143634796143e-01 5.8413082361221313e-01</leafValues></_></weakClassifiers></_>
    <!-- stage 5 -->
    <_>
      <maxWeakCount>2</maxWeakCount>
      <stageThreshold>-5.1112359762191772e-01</stageThreshold>
      <weakClassifiers>
        <_>
          <internalNodes>
            0 -1 2 -279449633 -8005731 -553385985 -15213295 655409151
            -8259126 398668731 -8258661</internalNodes>
          <leafValues>
            -9.2794120311737061e-01 4.0937501192092896e-01</leafValues></_>
        <_>
          <internalNodes>
            0 -1 15 867948543 -1290324641 -136186385 -143681041
            -1344593665 -82240229 -34227732 -50479105</internalNodes>
          <leafValues>
            -9.2049860954284668e-01 4.9042791128158569e-01</leafValues></_></weakClassifiers></_>
    <!-- stage 6 -->
    <_>
      <maxWeakCount>3</maxWeakCount>
      <stageThreshold>-1.2647417783737183e+00</stageThreshold>
      <weakClassifiers>
        <_>
          <internalNodes>
            0 -1 4 -278921217 -9437925 -81676801 -15466673 -946864657
            -341068983 -170655753 -806494743</internalNodes>
          <leafValues>
            -8.9058172702789307e-01 5.1438850164413452e-01</leafValues></_>
        <_>
          <internalNodes>
            0 -1 22 -201868289 -104680509 -1817612161 -42019764
            -204568386 -258817131 -89128962 -659116</internalNodes>
          <leafValues>
            -8.6929357051849365e-01 5.8211612701416016e-01</leafValues></_>
        <_>
          <internalNodes>
            0 -1 8 -8933713 -67767883 -244075041 -72224685 -1590579457
            -35108097 -172098561 -101471429</internalNodes>
          <leafValues>
            -9.0983670949935913e-01 5.9915614128112793e-01</leafValues></_></weakClassifiers></_>
    <!-- stage 7 -->
    <_>
      <maxWeakCount>3</maxWeakCount>
      <stageThreshold>-1.2214854955673218e+00</stageThreshold>
      <weakClassifiers>
        <_>
          <internalNodes>
            0 -1 34 -1281753089 -809512708 -1244080193 -39987715
            -1147407427 -876801571 -1096046083 -9473</internalNodes>
          <leafValues>
            -8.1644362211227417e-01 6.5197217464447021e-01</leafValues></_>
        <_>
          <internalNodes>
            0 -1 28 -104726545 -235732935 -1287856766 -36671338
            -73662769 -307592290 -1281362953 -5309441</internalNodes>
          <leafValues>
            -8.7669885158538818e-01 5.5691593885421753e-01</leafValues></_>
        <_>
          <internalNodes>
            0 -1 21 1531947863 -710775970 1474549015 -204742689
            -91227275 -217058401 -1225348673 -855785475</internalNodes>
          <leafValues>
            -8.9448195695877075e-01 4.7165694832801819e-01</leafValues></_></weakClassifiers></_>
    <!-- stage 8 -->
    <_>
      <maxWeakCount>3</maxWeakCount>
      <stageThreshold>-1.1855443716049194e+00</stageThreshold>
      <weakClassifiers>
        <_>
          <internalNodes>
            0 -1 33 -1954545729 -1428695625 -240296961 -1793 -19922945
            -1947479573 -1073800707 -536870917</internalNodes>
          <leafValues>
            -8.3849257230758667e-01 4.7859922051429749e-01</leafValues></_>
        <_>
          <internalNodes>
            0 -1 29 -352329897 -17897 -1718883585 -106194077 -1903515413
            -852901810 -926241605 -3151125</internalNodes>
          <leafValues>
            -8.7266492843627930e-01 5.1436865329742432e-01</leafValues></_>
        <_>
          <internalNodes>
            0 -1 25 -207621121 -1492191997 -246189891 -14034019
            -81796163 1756094861 -28070024 -119604532</internalNodes>
          <leafValues>
            -7.9147863388061523e-01 5.6293934583663940e-01</leafValues></_></weakClassifiers></_>
    <!-- stage 9 -->
    <_>
      <maxWeakCount>3</maxWeakCount>
      <stageThreshold>-1.1950969696044922e+00</stageThreshold>
      <weakClassifiers>
        <_>
          <internalNodes>
            0 -1 6 -15368193 -271216129 -551986721 -149037699 -551813121
            -351342405 -947718153 -1061121</internalNodes>
          <leafValues>
            -8.4289616346359253e-01 4.3656715750694275e-01</leafValues></_>
        <_>
          <internalNodes>
            0 -1 16 -11010633 -1210231821 1528249111 -1360033953
            -500481149 -348020729 -1467767866 -70662</internalNodes>
          <leafValues>
            -8.3369642496109009e-01 5.0306117534637451e-01</leafValues></_>
        <_>
          <internalNodes>
            0 -1 27 -214435881 -1549797457 -50237225 -329320194
            -748714065 -74344421 -553452881 -495452307</internalNodes>
          <leafValues>
            -8.5526198148727417e-01 5.0976121425628662e-01</leafValues></_></weakClassifiers></_>
    <!-- stage 10 -->
    <_>
      <maxWeakCount>3</maxWeakCount>
      <stageThreshold>-1.1748625040054321e+00</stageThreshold>
      <weakClassifiers>
        <_>
          <internalNodes>
            0 -1 10 970791423 465556351 189602783 -1075991666 429947903
            2079886057 -1144464705 -1328695</internalNodes>
          <leafValues>
            -8.2643526792526245e-01 4.7410359978675842e-01</leafValues></_>
        <_>
          <internalNodes>
            0 -1 23 -42528265 1610068279 -1146111106 -1076897417
            -1189899393 -1155575019 -1397753106 -319951953</internalNodes>
          <leafValues>
            -8.7387651205062866e-01 4.6851602196693420e-01</leafValues></_>
        <_>
          <internalNodes>
            0 -1 11 -1076627969 -20054 -1824402633 -616039525 -6824981
            -343359488 -1038185541 -1879060051</internalNodes>
          <leafValues>
            -8.1356400251388550e-01 5.2544921636581421e-01</leafValues></_></weakClassifiers></_>
    <!-- stage 11 -->
    <_>
      <maxWeakCount>3</maxWeakCount>
      <stageThreshold>-1.1880651712417603e+00</stageThreshold>
      <weakClassifiers>
        <_>
          <internalNodes>
            0 -1 1 -2106369 -606932573 38218751 -67643265 -617357313
            -647969073 -1343750153 -9994497</internalNodes>
          <leafValues>
            -8.2931864261627197e-01 3.7477147579193115e-01</leafValues></_>
        <_>
          <internalNodes>
            0 -1 32 -36177409 -272920267 -745073185 -269635267
            -1075053579 -977674025 795577751 -1006638689</internalNodes>
          <leafValues>
            -8.0102598667144775e-01 5.2830916643142700e-01</leafValues></_>
        <_>
          <internalNodes>
            0 -1 31 -1325301778 2044272641 839242190 1032918437
            -1146159281 -1152873797 -1144261641 -72352833</internalNodes>
          <leafValues>
            -8.8705569505691528e-01 4.5683372020721436e-01</leafValues></_></weakClassifiers></_>
    <!-- stage 12 -->
    <_>
      <maxWeakCount>3</maxWeakCount>
      <stageThreshold>-9.6646177768707275e-01</stageThreshold>
      <weakClassifiers>
        <_>
          <internalNodes>
            0 -1 13 500570623 934929629 -1894438945 -1617065650
            -92020225 1005199563 -99635457 -5289506</internalNodes>
          <leafValues>
            -8.0169600248336792e-01 4.9036401510238647e-01</leafValues></_>
        <_>
          <internalNodes>
            0 -1 14 1565596851 -1789844687 929601399 -1099887 557016891
            -472842229 -1244200133 -50654277</internalNodes>
          <leafValues>
            -7.2955030202865601e-01 5.6800442934036255e-01</leafValues></_>
        <_>
          <internalNodes>
            0 -1 24 -1215835137 -269500429 1929580691 -69231619
            -1209291080 -1058429960 -1293241668 -167872774</internalNodes>
          <leafValues>
            -7.2727555036544800e-01 6.1754256486892700e-01</leafValues></_></weakClassifiers></_>
    <!-- stage 13 -->
    <_>
      <maxWeakCount>2</maxWeakCount>
      <stageThreshold>-5.3959989547729492e-01</stageThreshold>
      <weakClassifiers>
        <_>
          <internalNodes>
            0 -1 35 -2099713 -1459633697 -1070165490 -368646205
            -144715457 -337542973 -225451287 -1124073473</internalNodes>
          <leafValues>
            -8.1329751014709473e-01 4.1291585564613342e-01</leafValues></_>
        <_>
          <internalNodes>
            0 -1 17 -704645283 830370143 -455245125 -1015176962
            -1043494658 -1601650525 -1164931329 -712146293</internalNodes>
          <leafValues>
            -9.5251572132110596e-01 3.5919696092605591e-01</leafValues></_></weakClassifiers></_></stages>
  <features>
    <_>
      <rect>
        0 1 3 6</rect></_>
    <_>
      <rect>
        0 2 2 5</rect></_>
    <_>
      <rect>
        0 2 4 2</rect></_>
    <_>
      <rect>
        2 0 4 4</rect></_>
    <_>
      <rect>
        2 1 2 3</rect></_>
    <_>
      <rect>
        2 2 3 2</rect></_>
    <_>
      <rect>
        2 4 2 1</rect></_>
    <_>
      <rect>
        2 5 6 5</rect></_>
    <_>
      <rect>
        3 1 4 3</rect></_>
    <_>
      <rect>
        3 7 5 2</rect></_>
    <_>
      <rect>
        3 17 5 1</rect></_>
    <_>
      <rect>
        4 0 1 3</rect></_>
    <_>
      <rect>
        4 9 3 2</rect></_>
    <_>
      <rect>
        4 17 5 1</rect></_>
    <_>
      <rect>
        5 6 3 3</rect></_>
    <_>
      <rect>
        6 7 3 2</rect></_>
    <_>
      <rect>
        6 8 1 2</rect></_>
    <_>
      <rect>
        7 2 4 3</rect></_>
    <_>
      <rect>
        7 3 2 4</rect></_>
    <_>
      <rect>
        7 3 4 2</rect></_>
    <_>
      <rect>
        7 6 2 3</rect></_>
    <_>
      <rect>
        7 7 2 3</rect></_>
    <_>
      <rect>
        7 8 1 1</rect></_>
    <_>
      <rect>
        8 7 2 2</rect></_>
    <_>
      <rect>
        8 10 1 1</rect></_>
    <_>
      <rect>
        8 11 1 1</rect></_>
    <_>
      <rect>
        9 4 1 1</rect></_>
    <_>
      <rect>
        9 9 1 1</rect></_>
    <_>
      <rect>
        10 11 2 1</rect></_>
    <_>
      <rect>
        11 2 2 4</rect></_>
    <_>
      <rect>
        11 7 2 1</rect></_>
    <_>
      <rect>
        11 10 2 1</rect></_>
    <_>
      <rect>
        11 12 3 2</rect></_>
    <_>
      <rect>
        11 14 2 2</rect></_>
    <_>
      <rect>
        11 15 2 1</rect></_>
    <_>
      <rect>
        17 1 1 6</rect></_></features></cascade>
</opencv_storage>
