<?xml version="1.0"?>
<opencv_storage>
<cascade>
  <stageType>BOOST</stageType>
  <featureType>LBP</featureType>
  <height>20</height>
  <width>20</width>
  <stageParams>
    <boostType>GAB</boostType>
    <minHitRate>9.9000000953674316e-01</minHitRate>
    <maxFalseAlarm>5.0000000000000000e-01</maxFalseAlarm>
    <weightTrimRate>9.4999999999999996e-01</weightTrimRate>
    <maxDepth>1</maxDepth>
    <maxWeakCount>100</maxWeakCount></stageParams>
  <featureParams>
    <maxCatCount>256</maxCatCount>
    <featSize>1</featSize></featureParams>
  <stageNum>14</stageNum>
  <stages>
    <!-- stage 0 -->
    <_>
      <maxWeakCount>2</maxWeakCount>
      <stageThreshold>-2.2145380079746246e-01</stageThreshold>
      <weakClassifiers>
        <_>
          <internalNodes>
            0 -1 5 -539886854 -648605677 -1290560545 -74097193
            -125056513 -1951725173 -1450443265 -1025</internalNodes>
          <leafValues>
            -9.8463112115859985e-01 8.7977099418640137e-01</leafValues></_>
        <_>
          <internalNodes>
            0 -1 19 -536870930 -105121921 -71853601 -541074945
            -807408657 -907029585 -319819777 -1</internalNodes>
          <leafValues>
            -9.8686623573303223e-01 7.6317733526229858e-01</leafValues></_></weakClassifiers></_>
    <!-- stage 1 -->
    <_>
      <maxWeakCount>3</maxWeakCount>
      <stageThreshold>-1.0940880775451660e+00</stageThreshold>
      <weakClassifiers>
        <_>
          <internalNodes>
            0 -1 30 -1 -3073 -69214223 -2097153 -3278209 -336413697
            -607126921 -1025</internalNodes>
          <leafValues>
            -9.4575232267379761e-01 8.1070744991302490e-01</leafValues></_>
        <_>
          <internalNodes>
            0 -1 14 -5505025 -269484033 -161483393 -832634881 -1197125
            -4613 -9237 -16777217</internalNodes>
          <leafValues>
            -9.0522515773773193e-01 7.2293961048126221e-01</leafValues></_>
        <_>
          <internalNodes>
            0 -1 41 -268435457 -1946159105 -136978945 788529151
            -1074790409 769653463 -17 -1073741825</internalNodes>
          <leafValues>
            -8.2381981611251831e-01 7.5688946247100830e-01</leafValues></_></weakClassifiers></_>
    <!-- stage 2 -->
    <_>
      <maxWeakCount>3</maxWeakCount>
      <stageThreshold>-1.1264103651046753e+00</stageThreshold>
      <weakClassifiers>
        <_>
          <internalNodes>
            0 -1 26 -134218753 -4203009 -171966465 -3155985 -1189
            -68440293 -138677961 -67108865</internalNodes>
          <leafValues>
            -9.2613011598587036e-01 5.7335579395294189e-01</leafValues></_>
        <_>
          <internalNodes>
            0 -1 9 -16777217 -23858283 -653816865 -7078037 -627048449
            -23860471 -53478501 -791685697</internalNodes>
          <leafValues>
            -8.4014618396759033e-01 6.5355354547500610e-01</leafValues></_>
        <_>
          <internalNodes>
            0 -1 22 -286263476 -136587265 -104860677 -2756389
            -1549141249 -476393028 -11010113 -17</internalNodes>
          <leafValues>
            -8.5505521297454834e-01 6.3986587524414063e-01</leafValues></_></weakClassifiers></_>
    <!-- stage 3 -->
    <_>
      <maxWeakCount>3</maxWeakCount>
      <stageThreshold>-1.1523623466491699e+00</stageThreshold>
      <weakClassifiers>
        <_>
          <internalNodes>
            0 -1 9 -16777473 -18613797 -139733057 -11537457 -88085557
            -91573621 -16777217 -789589517</internalNodes>
          <leafValues>
            -8.9336234331130981e-01 5.5249571800231934e-01</leafValues></_>
        <_>
          <internalNodes>
            0 -1 31 -107618817 -170016617 -170043917 -2126626
            -1178863493 -106190406 -1146225673 -69216065</internalNodes>
          <leafValues>
            -8.8937658071517944e-01 5.4650181531906128e-01</leafValues></_>
        <_>
          <internalNodes>
            0 -1 6 1474296831 -551816873 -738201126 -136841217 486795263
            -1206802389 -271712257 -8193</internalNodes>
          <leafValues>
            -8.0550187826156616e-01 6.3673990964889526e-01</leafValues></_></weakClassifiers></_>
    <!-- stage 4 -->
    <_>
      <maxWeakCount>2</maxWeakCount>
      <stageThreshold>-3.1392884254455566e-01</stageThreshold>
      <weakClassifiers>
        <_>
          <internalNodes>
            0 -1 27 -1073741825 536731639 -1122640897 -1075838977
            2141138943 -6372614 -1079044356 -1073762820</internalNodes>
          <leafValues>
            -8.5269707441329956e-01 6.0074627399444580e-01</leafValues></_>
        <_>
          <internalNodes>
            0 -1 32 1998061567 -572103713 -137117705 -6306403 -89129122
            -1159814405 -1049609 -2827</internalNodes>
          <leafValues>
            -8.9611160755157471e-01 5.3876823186874390e-01</leafValues></_></weakClassifiers></_>
    <!-- stage 5 -->
    <_>
      <maxWeakCount>3</maxWeakCount>
      <stageThreshold>-1.1240147352218628e+00</stageThreshold>
      <weakClassifiers>
        <_>
          <internalNodes>
            0 -1 3 -1 -168062497 -206486385 -28533 -68183041 1970768783
            1811906479 2013229039</internalNodes>
          <leafValues>
            -8.7152963876724243e-01 5.1676696538925171e-01</leafValues></_>
        <_>
          <internalNodes>
            0 -1 35 -1683112169 -606399365 -590556449 -788545313
            -86266634 -259462454 -376534305 -70267253</internalNodes>
          <leafValues>
            -8.1006443500518799e-01 5.7590961456298828e-01</leafValues></_>
        <_>
          <internalNodes>
            0 -1 40 -547356687 -17444401 -939015697 -1935671297
            -91357779 -1193962849 -7344385 149946335</internalNodes>
          <leafValues>
            -8.1357413530349731e-01 5.5757927894592285e-01</leafValues></_></weakClassifiers></_>
    <!-- stage 6 -->
    <_>
      <maxWeakCount>3</maxWeakCount>
      <stageThreshold>-1.2596640586853027e+00</stageThreshold>
      <weakClassifiers>
        <_>
          <internalNodes>
            0 -1 7 -578191873 -185959 827928762 1066910045 982043135
            2143977626 2111724543 2147213275</internalNodes>
          <leafValues>
            -9.3175244331359863e-01 4.8072382807731628e-01</leafValues></_>
        <_>
          <internalNodes>
            0 -1 28 -35676361 -253788129 -800991777 -1664313313
            -1966495265 -860979006 -389438241 -1171552201</internalNodes>
          <leafValues>
            -8.3889007568359375e-01 5.2265971899032593e-01</leafValues></_>
        <_>
          <internalNodes>
            0 -1 15 -117313025 -272428525 -603860777 -25881761
            -112160613 -82667134 -1694309441 -4480757</internalNodes>
          <leafValues>
            -8.9305156469345093e-01 5.1097846031188965e-01</leafValues></_></weakClassifiers></_>
    <!-- stage 7 -->
    <_>
      <maxWeakCount>3</maxWeakCount>
      <stageThreshold>-1.2061229944229126e+00</stageThreshold>
      <weakClassifiers>
        <_>
          <internalNodes>
            0 -1 21 -720275457 1037941023 1359049215 1069165338
            1124154847 2038431979 -358007877 -2146626</internalNodes>
          <leafValues>
            -8.6341977119445801e-01 5.6795680522918701e-01</leafValues></_>
        <_>
          <internalNodes>
            0 -1 17 -1513412165 -44983873 1091007487 -15346789
            -1296323585 -83648231 -3325953 -1907752892</internalNodes>
          <leafValues>
            -8.4202468395233154e-01 5.7330530881881714e-01</leafValues></_>
        <_>
          <internalNodes>
            0 -1 1 198961135 1970736633 -250480129 -577728075 1336474603
            -1900303649 -1148273713 2012939023</internalNodes>
          <leafValues>
            -8.4269869327545166e-01 4.9932149052619934e-01</leafValues></_></weakClassifiers></_>
    <!-- stage 8 -->
    <_>
      <maxWeakCount>3</maxWeakCount>
      <stageThreshold>-1.0753719806671143e+00</stageThreshold>
      <weakClassifiers>
        <_>
          <internalNodes>
            0 -1 11 -285736961 -11280457 2132081495 -263305 -273154081
            -1246233 -284176481 -2046833187</internalNodes>
          <leafValues>
            -8.4123599529266357e-01 5.1558327674865723e-01</leafValues></_>
        <_>
          <internalNodes>
            0 -1 34 -536873161 -536871969 -2230945 -7340737 -539099169
            -101871649 -570426657 -100413673</internalNodes>
          <leafValues>
            -7.7290463447570801e-01 6.3696944713592529e-01</leafValues></_>
        <_>
          <internalNodes>
            0 -1 16 1610579967 -269485105 -6954497 -16778281 -580914177
            -1838141 -1610878049 -83886083</internalNodes>
          <leafValues>
            -8.1805056333541870e-01 6.3240122795104980e-01</leafValues></_></weakClassifiers></_>
    <!-- stage 9 -->
    <_>
      <maxWeakCount>4</maxWeakCount>
      <stageThreshold>-7.2402209043502808e-01</stageThreshold>
      <weakClassifiers>
        <_>
          <internalNodes>
            0 -1 2 -5899265 -136449537 -1073226273 -33558305 -16517385
            -41690181 -380503049 -176720009</internalNodes>
          <leafValues>
            -8.1170213222503662e-01 4.6964284777641296e-01</leafValues></_>
        <_>
          <internalNodes>
            0 -1 18 -44600001 1432338749 1575475677 -586901237
            -771797825 2044386527 -108399105 1126890022</internalNodes>
          <leafValues>
            -8.6906945705413818e-01 3.9592063426971436e-01</leafValues></_>
        <_>
          <internalNodes>
            0 -1 8 1608376063 -1092249 -620799258 -294707474 -613149217
            1336760762 -79675941 -805320841</internalNodes>
          <leafValues>
            -8.5206443071365356e-01 4.1335508227348328e-01</leafValues></_>
        <_>
          <internalNodes>
            0 -1 33 -1754171393 89444688 285856255 -8241713 1760648703
            977570026 731782328 -37958</internalNodes>
          <leafValues>
            -7.2159570455551147e-01 5.4765182733535767e-01</leafValues></_></weakClassifiers></_>
    <!-- stage 10 -->
    <_>
      <maxWeakCount>4</maxWeakCount>
      <stageThreshold>-8.3466231822967529e-01</stageThreshold>
      <weakClassifiers>
        <_>
          <internalNodes>
            0 -1 0 1566043127 -2661893 -100991521 -68 -1013198849
            -72629509 -1129181317 2010382676</internalNodes>
          <leafValues>
            -8.8389515876770020e-01 2.9756796360015869e-01</leafValues></_>
        <_>
          <internalNodes>
            0 -1 20 -352343297 -123741349 -246297741 -37244231
            -1010654725 -103707871 -1352427320 -1344803955</internalNodes>
          <leafValues>
            -7.6657402515411377e-01 4.4506445527076721e-01</leafValues></_>
        <_>
          <internalNodes>
            0 -1 10 601622033 -1621372587 1570833407 -1080097622
            1138583344 2076041243 -777263681 -4510737</internalNodes>
          <leafValues>
            -7.4731284379959106e-01 5.0921440124511719e-01</leafValues></_>
        <_>
          <internalNodes>
            0 -1 36 -2625605 -106216229 -2141859713 -36749090
            -1074013570 -1191474456 -74453132 -67126143</internalNodes>
          <leafValues>
            -8.7487065792083740e-01 4.3370106816291809e-01</leafValues></_></weakClassifiers></_>
    <!-- stage 11 -->
    <_>
      <maxWeakCount>4</maxWeakCount>
      <stageThreshold>-1.7298680543899536e+00</stageThreshold>
      <weakClassifiers>
        <_>
          <internalNodes>
            0 -1 39 -136839169 -279711567 1337021853 -11298341
            1539306427 1203501243 -71565381 -134221381</internalNodes>
          <leafValues>
            -8.2005733251571655e-01 3.4342628717422485e-01</leafValues></_>
        <_>
          <internalNodes>
            0 -1 37 -18507 -70311345 -1299735921 -573594609 -1735421459
            -643137460 -930618146 -3176433</internalNodes>
          <leafValues>
            -6.4526420831680298e-01 6.1688965559005737e-01</leafValues></_>
        <_>
          <internalNodes>
            0 -1 12 -678037762 -685408873 -721562388 2107495903
            100951039 -1879044963 -262145 -6307905</internalNodes>
          <leafValues>
            -8.5707765817642212e-01 4.1826072335243225e-01</leafValues></_>
        <_>
          <internalNodes>
            0 -1 41 -33554561 -1344277249 -1081094786 805305341
            -68162630 820089235 -19932211 -1075839009</internalNodes>
          <leafValues>
            -6.8280726671218872e-01 4.7795099020004272e-01</leafValues></_></weakClassifiers></_>
    <!-- stage 12 -->
    <_>
      <maxWeakCount>4</maxWeakCount>
      <stageThreshold>-8.2226771116256714e-01</stageThreshold>
      <weakClassifiers>
        <_>
          <internalNodes>
            0 -1 42 -67109889 620656575 1565987211 721416367 -183706625
            646142117 -36994097 -1358954533</internalNodes>
          <leafValues>
            -8.1085813045501709e-01 3.0225330591201782e-01</leafValues></_>
        <_>
          <internalNodes>
            0 -1 29 -1075888129 -1109585463 -1853751337 -1114784545
            -1143458571 -89599862 -1115489285 -1109447827</internalNodes>
          <leafValues>
            -7.0981413125991821e-01 4.4946894049644470e-01</leafValues></_>
        <_>
          <internalNodes>
            0 -1 23 982513663 -1198794753 806335991 -1272257093
            -107217313 187632463 -1565805785 641247726</internalNodes>
          <leafValues>
            -8.6578899621963501e-01 3.7709453701972961e-01</leafValues></_>
        <_>
          <internalNodes>
            0 -1 4 2046271483 -1861949987 -2146828417 -910576165
            -87900167 -639875007 -553420037 1819634559</internalNodes>
          <leafValues>
            -7.5890213251113892e-01 4.5108211040496826e-01</leafValues></_></weakClassifiers></_>
    <!-- stage 13 -->
    <_>
      <maxWeakCount>4</maxWeakCount>
      <stageThreshold>-1.7191841602325439e+00</stageThreshold>
      <weakClassifiers>
        <_>
          <internalNodes>
            0 -1 38 -1660944897 -271610409 -2027976801 -537945089
            -1735860537 1189120262 -1181898325 -1069169</internalNodes>
          <leafValues>
            -6.8426060676574707e-01 4.8940914869308472e-01</leafValues></_>
        <_>
          <internalNodes>
            0 -1 13 -142740549 -203963906 -1520831019 -12363 -102376775
            -69496581 -67110721 1412364800</internalNodes>
          <leafValues>
            -7.4688655138015747e-01 4.0632638335227966e-01</leafValues></_>
        <_>
          <internalNodes>
            0 -1 25 -891427097 -70004229 -773875505 -304119585
            -360582412 -627457384 -124807066 -71784261</internalNodes>
          <leafValues>
            -7.0893841981887817e-01 5.0889283418655396e-01</leafValues></_>
        <_>
          <internalNodes>
            0 -1 24 -783165953 1496389719 -31598430 -186835493
            -1869040965 -1685487476 -1154810893 -19525</internalNodes>
          <leafValues>
            -7.9692983627319336e-01 3.9001512527465820e-01</leafValues></_></weakClassifiers></_></stages>
  <features>
    <_>
      <rect>
        0 0 5 2</rect></_>
    <_>
      <rect>
        0 0 5 3</rect></_>
    <_>
      <rect>
        0 1 2 5</rect></_>
    <_>
      <rect>
        0 2 3 6</rect></_>
    <_>
      <rect>
        1 2 2 6</rect></_>
    <_>
      <rect>
        1 2 6 6</rect></_>
    <_>
      <rect>
        1 6 6 4</rect></_>
    <_>
      <rect>
        1 14 6 2</rect></_>
    <_>
      <rect>
        2 5 4 3</rect></_>
    <_>
      <rect>
        3 0 2 4</rect></_>
    <_>
      <rect>
        3 17 4 1</rect></_>
    <_>
      <rect>
        4 0 2 3</rect></_>
    <_>
      <rect>
        4 6 5 4</rect></_>
    <_>
      <rect>
        5 0 4 2</rect></_>
    <_>
      <rect>
        5 7 2 2</rect></_>
    <_>
      <rect>
        5 8 2 1</rect></_>
    <_>
      <rect>
        5 8 2 2</rect></_>
    <_>
      <rect>
        6 0 2 2</rect></_>
    <_>
      <rect>
        6 1 4 2</rect></_>
    <_>
      <rect>
        6 2 3 5</rect></_>
    <_>
      <rect>
        6 3 1 2</rect></_>
    <_>
      <rect>
        6 14 2 2</rect></_>
    <_>
      <rect>
        7 3 2 2</rect></_>
    <_>
      <rect>
        7 4 4 4</rect></_>
    <_>
      <rect>
        7 10 2 1</rect></_>
    <_>
      <rect>
        8 5 2 1</rect></_>
    <_>
      <rect>
        8 6 3 3</rect></_>
    <_>
      <rect>
        8 14 2 2</rect></_>
    <_>
      <rect>
        9 0 2 3</rect></_>
    <_>
      <rect>
        9 3 1 1</rect></_>
    <_>
      <rect>
        9 6 2 2</rect></_>
    <_>
      <rect>
        9 8 2 1</rect></_>
    <_>
      <rect>
        9 8 2 2</rect></_>
    <_>
      <rect>
        9 14 2 2</rect></_>
    <_>
      <rect>
        10 0 2 3</rect></_>
    <_>
      <rect>
        10 3 1 2</rect></_>
    <_>
      <rect>
        10 8 1 1</rect></_>
    <_>
      <rect>
        11 3 1 2</rect></_>
    <_>
      <rect>
        11 4 2 2</rect></_>
    <_>
      <rect>
        11 11 3 2</rect></_>
    <_>
      <rect>
        14 0 2 6</rect></_>
    <_>
      <rect>
        14 5 2 5</rect></_>
    <_>
      <rect>
        16 3 1 5</rect></_></features></cascade>
</opencv_storage>
